{"learner":{"attributes":{"best_iteration":"39","best_score":"0.13804509317776736","scikit_learn":"{\"_estimator_type\": \"regressor\"}"},"feature_names":[],"feature_types":[],"gradient_booster":{"model":{"cats":{"enc":[],"feature_segments":[],"sorted_idx":[]},"gbtree_model_param":{"num_parallel_tree":"1","num_trees":"70"},"iteration_indptr":[0,1,2,3,4,5,6,7,8,9,10,11,12,13,14,15,16,17,18,19,20,21,22,23,24,25,26,27,28,29,30,31,32,33,34,35,36,37,38,39,40,41,42,43,44,45,46,47,48,49,50,51,52,53,54,55,56,57,58,59,60,61,62,63,64,65,66,67,68,69,70],"tree_info":[0,0,0,0,0,0,0,0,0,0,0,0,0,0,0,0,0,0,0,0,0,0,0,0,0,0,0,0,0,0,0,0,0,0,0,0,0,0,0,0,0,0,0,0,0,0,0,0,0,0,0,0,0,0,0,0,0,0,0,0,0,0,0,0,0,0,0,0,0,0],"trees":[{"base_weights":[3.258096E-4,4.662523E-2,-5.7085516E-4,-0E0,6.745784E-2,3.910343E-3,-6.0831592E-3,-1.9839876E-4,1.4475873E-3,1.528521E-3,-4.3239436E-4,5.761869E-5,6.2017504E-4,-7.0751E-4,-6.676808E-5],"categories":[],"categories_nodes":[],"categories_segments":[],"categories_sizes":[],"default_left":[0,0,0,0,0,0,0,0,0,0,0,0,0,0,0],"id":0,"left_children":[1,3,5,7,9,11,13,-1,-1,-1,-1,-1,-1,-1,-1],"loss_changes":[2.1639209E0,8.569939E-1,1.209077E0,4.3747666E-1,1.3665984E0,4.3570888E-1,1.6232159E0,0E0,0E0,0E0,0E0,0E0,0E0,0E0,0E0],"parents":[2147483647,0,0,1,1,2,2,3,3,4,4,5,5,6,6],"right_children":[2,4,6,8,10,12,14,-1,-1,-1,-1,-1,-1,-1,-1],"split_conditions":[-1.1372676E0,-6.7259985E-1,-1.7097492E-2,8.6995935E-1,-5.5696476E-1,1.0925956E0,-9.104204E-1,-1.9839876E-4,1.4475873E-3,1.528521E-3,-4.3239436E-4,5.761869E-5,6.2017504E-4,-7.0751E-4,-6.676808E-5],"split_indices":[0,37,35,35,37,21,14,0,0,0,0,0,0,0,0],"split_type":[0,0,0,0,0,0,0,0,0,0,0,0,0,0,0],"sum_hessian":[4.972E4,9.81E2,4.8739E4,3.29E2,6.52E2,2.667E4,2.2069E4,2.8E2,4.9E1,5.56E2,9.6E1,2.6234E4,4.36E2,1.299E3,2.077E4],"tree_param":{"num_deleted":"0","num_feature":"41","num_nodes":"15","size_leaf_vector":"1"}},{"base_weights":[-6.742407E-4,5.1594667E-2,-1.7511096E-3,-2.641053E-3,6.7823164E-2,2.8763327E-3,-7.013464E-3,-2.2648366E-3,4.571269E-4,-1.2188881E-3,1.3098877E-3,9.7927164E-5,-3.7725695E-5,-8.0829114E-4,-8.808917E-5],"categories":[],"categories_nodes":[],"categories_segments":[],"categories_sizes":[],"default_left":[0,0,0,0,0,0,0,0,0,0,0,0,0,0,0],"id":1,"left_children":[1,3,5,7,9,11,13,-1,-1,-1,-1,-1,-1,-1,-1],"loss_changes":[2.6918302E0,9.900861E-1,1.1964777E0,9.854119E-1,8.053663E-1,3.5950094E-1,1.674654E0,0E0,0E0,0E0,0E0,0E0,0E0,0E0,0E0],"parents":[2147483647,0,0,1,1,2,2,3,3,4,4,5,5,6,6],"right_children":[2,4,6,8,10,12,14,-1,-1,-1,-1,-1,-1,-1,-1],"split_conditions":[-1.1387339E0,-1.2187227E0,-3.8931638E-2,6.9479084E-1,-2.553225E0,6.5260965E-1,-1.0202887E0,-2.2648366E-3,4.571269E-4,-1.2188881E-3,1.3098877E-3,9.7927164E-5,-3.7725695E-5,-8.0829114E-4,-8.808917E-5],"split_indices":[2,11,35,34,22,24,15,0,0,0,0,0,0,0,0],"split_type":[0,0,0,0,0,0,0,0,0,0,0,0,0,0,0],"sum_hessian":[4.9705E4,9.54E2,4.8751E4,1.91E2,7.63E2,2.5725E4,2.3026E4,4.3E1,1.48E2,1.8E1,7.45E2,1.6979E4,8.746E3,1.046E3,2.198E4],"tree_param":{"num_deleted":"0","num_feature":"41","num_nodes":"15","size_leaf_vector":"1"}},{"base_weights":[5.5600377E-4,3.3198558E-2,-4.3781605E-5,-1.1608836E-2,6.0665514E-2,4.1756905E-3,-4.8882547E-3,3.078859E-4,-1.3310986E-3,1.2311226E-3,-0E0,1.3212895E-4,-4.2370564E-7,-7.585955E-4,-4.9292503E-5],"categories":[],"categories_nodes":[],"categories_segments":[],"categories_sizes":[],"default_left":[0,0,0,0,0,0,0,0,0,0,0,0,0,0,0],"id":2,"left_children":[1,3,5,7,9,11,13,-1,-1,-1,-1,-1,-1,-1,-1],"loss_changes":[1.0498933E0,1.3018377E0,1.0037832E0,7.886795E-1,4.0290165E-1,3.8406572E-1,1.7369976E0,0E0,0E0,0E0,0E0,0E0,0E0,0E0,0E0],"parents":[2147483647,0,0,1,1,2,2,3,3,4,4,5,5,6,6],"right_children":[2,4,6,8,10,12,14,-1,-1,-1,-1,-1,-1,-1,-1],"split_conditions":[-1.1362414E0,-6.7259985E-1,-3.8931638E-2,7.5982296E-1,-5.5696476E-1,3.272745E-1,-1.0202887E0,3.078859E-4,-1.3310986E-3,1.2311226E-3,-0E0,1.3212895E-4,-4.2370564E-7,-7.585955E-4,-4.9292503E-5],"split_indices":[1,37,35,36,37,26,15,0,0,0,0,0,0,0,0],"split_type":[0,0,0,0,0,0,0,0,0,0,0,0,0,0,0],"sum_hessian":[4.9969E4,9.57E2,4.9012E4,3.36E2,6.21E2,2.5959E4,2.3053E4,2.13E2,1.23E2,5.41E2,8E1,1.4677E4,1.1282E4,1.116E3,2.1937E4],"tree_param":{"num_deleted":"0","num_feature":"41","num_nodes":"15","size_leaf_vector":"1"}},{"base_weights":[7.100583E-5,4.117492E-2,-6.953317E-4,-2.5635004E-2,5.6661196E-2,-2.347723E-3,-4.6900928E-4,-1.4244744E-3,3.4112123E-5,5.0813577E-4,2.2337981E-3,-1.9162811E-5,6.170817E-4],"categories":[],"categories_nodes":[],"categories_segments":[],"categories_sizes":[],"default_left":[0,0,0,0,0,0,0,0,0,0,0,0,0],"id":3,"left_children":[1,3,5,7,9,-1,11,-1,-1,-1,-1,-1,-1],"loss_changes":[1.6551914E0,1.0764897E0,1.1838975E0,4.2088136E-1,1.21662E0,0E0,1.0168737E0,0E0,0E0,0E0,0E0,0E0,0E0],"parents":[2147483647,0,0,1,1,2,2,3,3,4,4,6,6],"right_children":[2,4,6,8,10,-1,12,-1,-1,-1,-1,-1,-1],"split_conditions":[-1.1372038E0,-1.3170084E0,-1.1529092E0,-1.4683576E0,-1.1427563E0,-2.347723E-3,2.2455523E0,-1.4244744E-3,3.4112123E-5,5.0813577E-4,2.2337981E-3,-1.9162811E-5,6.170817E-4],"split_indices":[3,39,16,20,11,0,23,0,0,0,0,0,0],"split_type":[0,0,0,0,0,0,0,0,0,0,0,0,0],"sum_hessian":[4.9762E4,9.53E2,4.8809E4,1.52E2,8.01E2,5.7E1,4.8752E4,7E1,8.2E1,6.08E2,1.93E2,4.7981E4,7.71E2],"tree_param":{"num_deleted":"0","num_feature":"41","num_nodes":"13","size_leaf_vector":"1"}},{"base_weights":[-3.9888974E-4,4.2884476E-2,-1.290177E-3,-1.5078869E-3,6.893845E-2,-5.9209514E-2,-8.175142E-4,-4.7905644E-4,1.0754466E-3,1.3420169E-3,-2.4371771E-5,3.859707E-4,-2.0264995E-3,-2.2617509E-5,5.022462E-4],"categories":[],"categories_nodes":[],"categories_segments":[],"categories_sizes":[],"default_left":[0,0,0,0,0,0,0,0,0,0,0,0,0,0,0],"id":4,"left_children":[1,3,5,7,9,11,13,-1,-1,-1,-1,-1,-1,-1,-1],"loss_changes":[1.8325328E0,1.2524642E0,1.2079923E0,4.8398694E-1,5.0756335E-1,1.8740441E0,6.2089396E-1,0E0,0E0,0E0,0E0,0E0,0E0,0E0,0E0],"parents":[2147483647,0,0,1,1,2,2,3,3,4,4,5,5,6,6],"right_children":[2,4,6,8,10,12,14,-1,-1,-1,-1,-1,-1,-1,-1],"split_conditions":[-1.1362414E0,-6.7259985E-1,-3.3784544E0,3.5379893E-1,-5.0065726E-1,-1.2072862E0,2.8185995E0,-4.7905644E-4,1.0754466E-3,1.3420169E-3,-2.4371771E-5,3.859707E-4,-2.0264995E-3,-2.2617509E-5,5.022462E-4],"split_indices":[1,37,21,38,37,25,28,0,0,0,0,0,0,0,0],"split_type":[0,0,0,0,0,0,0,0,0,0,0,0,0,0,0],"sum_hessian":[4.98E4,9.47E2,4.8853E4,3.23E2,6.24E2,3.49E2,4.8504E4,2.57E2,6.6E1,5.89E2,3.5E1,1.3E2,2.19E2,4.7817E4,6.87E2],"tree_param":{"num_deleted":"0","num_feature":"41","num_nodes":"15","size_leaf_vector":"1"}},{"base_weights":[9.580824E-4,4.3946378E-2,6.141708E-5,2.4090188E-2,1.1006047E-1,-5.26622E-2,5.338088E-4,1.29173E-4,1.7974393E-3,-2.4955213E-4,2.9939667E-3,1.1931856E-4,-1.7725667E-3,-0E0,7.26012E-4],"categories":[],"categories_nodes":[],"categories_segments":[],"categories_sizes":[],"default_left":[0,0,0,0,0,0,0,0,0,0,0,0,0,0,0],"id":5,"left_children":[1,3,5,7,9,11,13,-1,-1,-1,-1,-1,-1,-1,-1],"loss_changes":[1.8211918E0,9.547839E-1,1.1021894E0,7.8098774E-1,1.8431563E0,1.3446908E0,1.0589154E0,0E0,0E0,0E0,0E0,0E0,0E0,0E0,0E0],"parents":[2147483647,0,0,1,1,2,2,3,3,4,4,5,5,6,6],"right_children":[2,4,6,8,10,12,14,-1,-1,-1,-1,-1,-1,-1,-1],"split_conditions":[-1.1372038E0,7.496323E-1,-3.3784544E0,-1.1378962E0,-7.27395E-1,-1.0471679E0,2.0483902E0,1.29173E-4,1.7974393E-3,-2.4955213E-4,2.9939667E-3,1.1931856E-4,-1.7725667E-3,-0E0,7.26012E-4],"split_indices":[3,35,21,40,22,25,39,0,0,0,0,0,0,0,0],"split_type":[0,0,0,0,0,0,0,0,0,0,0,0,0,0,0],"sum_hessian":[4.9696E4,9.57E2,4.8739E4,7.71E2,1.86E2,3.83E2,4.8356E4,6.67E2,1.04E2,5.2E1,1.34E2,1.56E2,2.27E2,4.7742E4,6.14E2],"tree_param":{"num_deleted":"0","num_feature":"41","num_nodes":"15","size_leaf_vector":"1"}},{"base_weights":[8.1211707E-4,4.305298E-2,-0E0,3.8380201E-3,9.538632E-2,-5.818687E-4,4.2140283E-2,-3.2641503E-4,1.2214936E-3,-1.4262837E-5,2.7576443E-3,9.394986E-6,-2.216458E-4,2.5454082E-4,1.7090117E-3],"categories":[],"categories_nodes":[],"categories_segments":[],"categories_sizes":[],"default_left":[0,0,0,0,0,0,0,0,0,0,0,0,0,0,0],"id":6,"left_children":[1,3,5,7,9,11,13,-1,-1,-1,-1,-1,-1,-1,-1],"loss_changes":[1.7865738E0,1.7972426E0,1.1128745E0,1.0040932E0,2.7097583E0,6.756609E-1,6.907879E-1,0E0,0E0,0E0,0E0,0E0,0E0,0E0,0E0],"parents":[2147483647,0,0,1,1,2,2,3,3,4,4,5,5,6,6],"right_children":[2,4,6,8,10,12,14,-1,-1,-1,-1,-1,-1,-1,-1],"split_conditions":[-1.1372676E0,1.2868066E0,2.0483902E0,-1.1427301E0,-1.1302496E0,3.3204362E-1,1.7411671E0,-3.2641503E-4,1.2214936E-3,-1.4262837E-5,2.7576443E-3,9.394986E-6,-2.216458E-4,2.5454082E-4,1.7090117E-3],"split_indices":[0,34,39,30,39,11,34,0,0,0,0,0,0,0,0],"split_type":[0,0,0,0,0,0,0,0,0,0,0,0,0,0,0],"sum_hessian":[4.9632E4,9.72E2,4.866E4,5.85E2,3.87E2,4.8052E4,6.08E2,4.17E2,1.68E2,1.42E2,2.45E2,4.3825E4,4.227E3,4.4E2,1.68E2],"tree_param":{"num_deleted":"0","num_feature":"41","num_nodes":"15","size_leaf_vector":"1"}},{"base_weights":[-5.037293E-6,4.545157E-3,-5.3889337E-3,3.109355E-3,2.6545323E-2,3.5783198E-2,-6.796826E-3,-1.5452013E-3,5.9935297E-5,-2.3309526E-4,5.6579855E-4,-1.0427028E-3,1.0989333E-3,-7.712007E-4,-7.4322495E-5],"categories":[],"categories_nodes":[],"categories_segments":[],"categories_sizes":[],"default_left":[0,0,0,0,0,0,0,0,0,0,0,0,0,0,0],"id":7,"left_children":[1,3,5,7,9,11,13,-1,-1,-1,-1,-1,-1,-1,-1],"loss_changes":[1.2221006E0,7.812835E-1,1.2750183E0,5.463278E-1,4.015131E-1,1.8769202E0,2.016573E0,0E0,0E0,0E0,0E0,0E0,0E0,0E0,0E0],"parents":[2147483647,0,0,1,1,2,2,3,3,4,4,5,5,6,6],"right_children":[2,4,6,8,10,12,14,-1,-1,-1,-1,-1,-1,-1,-1],"split_conditions":[-1.7097492E-2,6.328793E-1,-1.1372676E0,-1.1534874E0,-1.1166507E0,-1.25862E0,-9.497592E-1,-1.5452013E-3,5.9935297E-5,-2.3309526E-4,5.6579855E-4,-1.0427028E-3,1.0989333E-3,-7.712007E-4,-7.4322495E-5],"split_indices":[35,34,0,11,20,39,2,0,0,0,0,0,0,0,0],"split_type":[0,0,0,0,0,0,0,0,0,0,0,0,0,0,0],"sum_hessian":[4.9793E4,2.677E4,2.3023E4,2.5232E4,1.538E3,7.03E2,2.232E4,5.4E1,2.5178E4,1.46E2,1.392E3,1.35E2,5.68E2,1.366E3,2.0954E4],"tree_param":{"num_deleted":"0","num_feature":"41","num_nodes":"15","size_leaf_vector":"1"}},{"base_weights":[-0E0,3.329277E-2,-6.4077595E-4,4.4000987E-2,-3.4442205E-2,3.7769875E-3,-5.819892E-3,4.8401547E-4,2.3872966E-3,-1.3507433E-3,4.4156404E-4,4.9900365E-5,5.5884576E-4,-7.369837E-4,-6.878978E-5],"categories":[],"categories_nodes":[],"categories_segments":[],"categories_sizes":[],"default_left":[0,0,0,0,0,0,0,0,0,0,0,0,0,0,0],"id":8,"left_children":[1,3,5,7,9,11,13,-1,-1,-1,-1,-1,-1,-1,-1],"loss_changes":[1.1212586E0,7.556362E-1,1.1206193E0,9.545016E-1,4.1978353E-1,6.048466E-1,1.454681E0,0E0,0E0,0E0,0E0,0E0,0E0,0E0,0E0],"parents":[2147483647,0,0,1,1,2,2,3,3,4,4,5,5,6,6],"right_children":[2,4,6,8,10,12,14,-1,-1,-1,-1,-1,-1,-1,-1],"split_conditions":[-1.1312393E0,1.9565881E0,-2.7360503E-2,1.3607434E0,4.406141E-1,9.484112E-1,-1.0202887E0,4.8401547E-4,2.3872966E-3,-1.3507433E-3,4.4156404E-4,4.9900365E-5,5.5884576E-4,-7.369837E-4,-6.878978E-5],"split_indices":[16,36,35,20,22,21,15,0,0,0,0,0,0,0,0],"split_type":[0,0,0,0,0,0,0,0,0,0,0,0,0,0,0],"sum_hessian":[4.9751E4,9.84E2,4.8767E4,8.8E2,1.04E2,2.6095E4,2.2672E4,7.78E2,1.02E2,8E1,2.4E1,2.5348E4,7.47E2,1.056E3,2.1616E4],"tree_param":{"num_deleted":"0","num_feature":"41","num_nodes":"15","size_leaf_vector":"1"}},{"base_weights":[-4.1173215E-4,3.4477215E-2,-1.1569584E-3,-1.3644113E-3,5.4826606E-2,2.8299075E-3,-6.0236305E-3,-1.9589586E-3,3.0515445E-4,1.1910226E-3,-8.872191E-4,1.0475971E-4,-4.6525463E-5,-8.4408454E-4,-6.495463E-5],"categories":[],"categories_nodes":[],"categories_segments":[],"categories_sizes":[],"default_left":[0,0,0,0,0,0,0,0,0,0,0,0,0,0,0],"id":9,"left_children":[1,3,5,7,9,11,13,-1,-1,-1,-1,-1,-1,-1,-1],"loss_changes":[1.2273718E0,8.3387065E-1,9.5729834E-1,9.026278E-1,9.997413E-1,4.6935046E-1,2.0629401E0,0E0,0E0,0E0,0E0,0E0,0E0,0E0,0E0],"parents":[2147483647,0,0,1,1,2,2,3,3,4,4,5,5,6,6],"right_children":[2,4,6,8,10,12,14,-1,-1,-1,-1,-1,-1,-1,-1],"split_conditions":[-1.1372038E0,7.276353E-1,-1.7097492E-2,-1.2187227E0,1.1310945E0,5.88927E-1,-1.002819E0,-1.9589586E-3,3.0515445E-4,1.1910226E-3,-8.872191E-4,1.0475971E-4,-4.6525463E-5,-8.4408454E-4,-6.495463E-5],"split_indices":[3,34,35,11,25,24,13,0,0,0,0,0,0,0,0],"split_type":[0,0,0,0,0,0,0,0,0,0,0,0,0,0,0],"sum_hessian":[4.9941E4,9.75E2,4.8966E4,3.18E2,6.57E2,2.6675E4,2.2291E4,5.6E1,2.62E2,6.05E2,5.2E1,1.7186E4,9.489E3,1.1E3,2.1191E4],"tree_param":{"num_deleted":"0","num_feature":"41","num_nodes":"15","size_leaf_vector":"1"}},{"base_weights":[1.7947274E-5,3.2772273E-2,-5.8501563E-4,-8.911847E-3,4.6803944E-2,3.6270453E-3,-5.540474E-3,-8.5976935E-4,9.185172E-4,-1.2546968E-4,9.599035E-4,3.417064E-4,4.0351573E-5,-6.7271496E-4,-5.4972617E-5],"categories":[],"categories_nodes":[],"categories_segments":[],"categories_sizes":[],"default_left":[0,0,0,0,0,0,0,0,0,0,0,0,0,0,0],"id":10,"left_children":[1,3,5,7,9,11,13,-1,-1,-1,-1,-1,-1,-1,-1],"loss_changes":[1.053707E0,6.50278E-1,1.0245578E0,5.418798E-1,4.3708324E-1,5.0285697E-1,1.7009358E0,0E0,0E0,0E0,0E0,0E0,0E0,0E0,0E0],"parents":[2147483647,0,0,1,1,2,2,3,3,4,4,5,5,6,6],"right_children":[2,4,6,8,10,12,14,-1,-1,-1,-1,-1,-1,-1,-1],"split_conditions":[-1.1362414E0,-1.2106396E0,-2.7360503E-2,2.5191429E0,-2.8270135E0,-6.987765E-1,-9.2046154E-1,-8.5976935E-4,9.185172E-4,-1.2546968E-4,9.599035E-4,3.417064E-4,4.0351573E-5,-6.7271496E-4,-5.4972617E-5],"split_indices":[1,14,35,34,28,22,32,0,0,0,0,0,0,0,0],"split_type":[0,0,0,0,0,0,0,0,0,0,0,0,0,0,0],"sum_hessian":[4.9826E4,9.56E2,4.887E4,2.03E2,7.53E2,2.6183E4,2.2687E4,1.45E2,5.8E1,6.3E1,6.9E2,1.875E3,2.4308E4,1.472E3,2.1215E4],"tree_param":{"num_deleted":"0","num_feature":"41","num_nodes":"15","size_leaf_vector":"1"}},{"base_weights":[5.711365E-6,3.569806E-2,-6.155237E-4,-0E0,5.991338E-2,3.9735413E-3,-6.0343477E-3,-1.3657373E-3,2.17579E-4,1.4092207E-3,-0E0,1.2515113E-4,-2.18485E-5,-7.063216E-4,-7.36364E-5],"categories":[],"categories_nodes":[],"categories_segments":[],"categories_sizes":[],"default_left":[0,0,0,0,0,0,0,0,0,0,0,0,0,0,0],"id":11,"left_children":[1,3,5,7,9,11,13,-1,-1,-1,-1,-1,-1,-1,-1],"loss_changes":[1.1775376E0,8.7096024E-1,1.2179552E0,4.4488198E-1,6.957321E-1,4.4749525E-1,1.3192899E0,0E0,0E0,0E0,0E0,0E0,0E0,0E0,0E0],"parents":[2147483647,0,0,1,1,2,2,3,3,4,4,5,5,6,6],"right_children":[2,4,6,8,10,12,14,-1,-1,-1,-1,-1,-1,-1,-1],"split_conditions":[-1.1362414E0,-1.1668977E0,-2.7360503E-2,-1.25862E0,-5.814519E-1,5.047301E-1,-1.0202887E0,-1.3657373E-3,2.17579E-4,1.4092207E-3,-0E0,1.2515113E-4,-2.18485E-5,-7.063216E-4,-7.36364E-5],"split_indices":[1,15,35,39,37,26,15,0,0,0,0,0,0,0,0],"split_type":[0,0,0,0,0,0,0,0,0,0,0,0,0,0,0],"sum_hessian":[4.9681E4,9E2,4.8781E4,3.44E2,5.56E2,2.6199E4,2.2582E4,5.6E1,2.88E2,4.11E2,1.45E2,1.6544E4,9.655E3,1.072E3,2.151E4],"tree_param":{"num_deleted":"0","num_feature":"41","num_nodes":"15","size_leaf_vector":"1"}},{"base_weights":[-1.5606657E-4,3.3462893E-2,-8.638107E-4,-1.4078975E-2,4.7697615E-2,3.6655387E-3,-6.446025E-3,-7.691674E-4,5.634757E-4,1.8987047E-3,3.8899475E-4,5.6592555E-4,5.2781666E-5,-5.9001904E-4,-7.788549E-5],"categories":[],"categories_nodes":[],"categories_segments":[],"categories_sizes":[],"default_left":[0,0,0,0,0,0,0,0,0,0,0,0,0,0,0],"id":12,"left_children":[1,3,5,7,9,11,13,-1,-1,-1,-1,-1,-1,-1,-1],"loss_changes":[1.1141288E0,7.308289E-1,1.2402756E0,3.0756953E-1,9.010134E-1,4.212696E-1,1.1181202E0,0E0,0E0,0E0,0E0,0E0,0E0,0E0,0E0],"parents":[2147483647,0,0,1,1,2,2,3,3,4,4,5,5,6,6],"right_children":[2,4,6,8,10,12,14,-1,-1,-1,-1,-1,-1,-1,-1],"split_conditions":[-1.1362414E0,-1.2187227E0,-1.2320897E-2,8.6995935E-1,-1.1698061E0,-1.0752547E0,-9.2046154E-1,-7.691674E-4,5.634757E-4,1.8987047E-3,3.8899475E-4,5.6592555E-4,5.2781666E-5,-5.9001904E-4,-7.788549E-5],"split_indices":[1,11,35,35,14,22,32,0,0,0,0,0,0,0,0],"split_type":[0,0,0,0,0,0,0,0,0,0,0,0,0,0,0],"sum_hessian":[4.9753E4,9.54E2,4.8799E4,1.85E2,7.69E2,2.6729E4,2.207E4,1.41E2,4.4E1,1.93E2,5.76E2,5.09E2,2.622E4,1.422E3,2.0648E4],"tree_param":{"num_deleted":"0","num_feature":"41","num_nodes":"15","size_leaf_vector":"1"}},{"base_weights":[-0E0,4.65435E-3,-5.427742E-3,3.0613812E-3,2.2408316E-2,2.276887E-2,-6.944421E-3,-1.7005745E-3,5.9515132E-5,1.4632517E-4,6.602661E-4,7.6672615E-5,1.7498097E-3,-9.9258E-4,-7.489987E-5],"categories":[],"categories_nodes":[],"categories_segments":[],"categories_sizes":[],"default_left":[0,0,0,0,0,0,0,0,0,0,0,0,0,0,0],"id":13,"left_children":[1,3,5,7,9,11,13,-1,-1,-1,-1,-1,-1,-1,-1],"loss_changes":[1.2540247E0,6.96509E-1,9.516613E-1,6.338072E-1,3.4451425E-1,1.3391445E0,2.7736726E0,0E0,0E0,0E0,0E0,0E0,0E0,0E0,0E0],"parents":[2147483647,0,0,1,1,2,2,3,3,4,4,5,5,6,6],"right_children":[2,4,6,8,10,12,14,-1,-1,-1,-1,-1,-1,-1,-1],"split_conditions":[-2.1938285E-2,5.1092786E-1,-5.8771086E-1,-1.1395928E0,-1.6307059E-1,7.6717395E-1,-9.2046154E-1,-1.7005745E-3,5.9515132E-5,1.4632517E-4,6.602661E-4,7.6672615E-5,1.7498097E-3,-9.9258E-4,-7.489987E-5],"split_indices":[35,34,37,15,35,35,32,0,0,0,0,0,0,0,0],"split_type":[0,0,0,0,0,0,0,0,0,0,0,0,0,0,0],"sum_hessian":[4.9585E4,2.658E4,2.3005E4,2.4513E4,2.067E3,1.095E3,2.191E4,5.2E1,2.4461E4,1.159E3,9.08E2,9.15E2,1.8E2,1.063E3,2.0847E4],"tree_param":{"num_deleted":"0","num_feature":"41","num_nodes":"15","size_leaf_vector":"1"}},{"base_weights":[-1.1906841E-4,3.230691E-2,-8.0501573E-4,-2.5267707E-2,5.0499037E-2,-1.3104518E-3,3.4933735E-2,-1.3219175E-3,5.8429065E-4,1.0264718E-3,-1.3919524E-3,4.3835033E-5,-1.0208817E-4,2.465397E-4,1.6858071E-3],"categories":[],"categories_nodes":[],"categories_segments":[],"categories_sizes":[],"default_left":[0,0,0,0,0,0,0,0,0,0,0,0,0,0,0],"id":14,"left_children":[1,3,5,7,9,11,13,-1,-1,-1,-1,-1,-1,-1,-1],"loss_changes":[1.0375856E0,1.0767174E0,8.083231E-1,7.322678E-1,8.090036E-1,8.373819E-1,5.434756E-1,0E0,0E0,0E0,0E0,0E0,0E0,0E0,0E0],"parents":[2147483647,0,0,1,1,2,2,3,3,4,4,5,5,6,6],"right_children":[2,4,6,8,10,12,14,-1,-1,-1,-1,-1,-1,-1,-1],"split_conditions":[-1.1362414E0,-1.2150834E0,2.0483902E0,2.1870825E-1,-4.900017E-1,-2.7360503E-2,6.188989E-1,-1.3219175E-3,5.8429065E-4,1.0264718E-3,-1.3919524E-3,4.3835033E-5,-1.0208817E-4,2.465397E-4,1.6858071E-3],"split_indices":[1,12,39,21,37,35,35,0,0,0,0,0,0,0,0],"split_type":[0,0,0,0,0,0,0,0,0,0,0,0,0,0,0],"sum_hessian":[4.9677E4,9.55E2,4.8722E4,2E2,7.55E2,4.8111E4,6.11E2,1.26E2,7.4E1,7.31E2,2.4E1,2.584E4,2.2271E4,4.91E2,1.2E2],"tree_param":{"num_deleted":"0","num_feature":"41","num_nodes":"15","size_leaf_vector":"1"}},{"base_weights":[6.8422355E-4,3.368118E-2,-2.258403E-5,-1.36507265E-2,4.6859268E-2,-5.3405493E-2,3.7635813E-4,-1.300911E-3,6.0032733E-4,1.1651103E-3,8.1574726E-5,-0E0,-1.9258449E-3,-4.7493546E-7,5.7975156E-4],"categories":[],"categories_nodes":[],"categories_segments":[],"categories_sizes":[],"default_left":[0,0,0,0,0,0,0,0,0,0,0,0,0,0,0],"id":15,"left_children":[1,3,5,7,9,11,13,-1,-1,-1,-1,-1,-1,-1,-1],"loss_changes":[1.2409114E0,7.7276003E-1,1.1577705E0,7.345007E-1,5.999787E-1,1.3249382E0,7.1338063E-1,0E0,0E0,0E0,0E0,0E0,0E0,0E0,0E0],"parents":[2147483647,0,0,1,1,2,2,3,3,4,4,5,5,6,6],"right_children":[2,4,6,8,10,12,14,-1,-1,-1,-1,-1,-1,-1,-1],"split_conditions":[-1.1325678E0,-1.2187227E0,-3.3784544E0,1.3178775E0,6.265021E-2,-1.0173717E0,2.0483902E0,-1.300911E-3,6.0032733E-4,1.1651103E-3,8.1574726E-5,-0E0,-1.9258449E-3,-4.7493546E-7,5.7975156E-4],"split_indices":[3,11,21,34,27,39,39,0,0,0,0,0,0,0,0],"split_type":[0,0,0,0,0,0,0,0,0,0,0,0,0,0,0],"sum_hessian":[5.009E4,1.105E3,4.8985E4,2.05E2,9E2,3.94E2,4.8591E4,1.08E2,9.7E1,5.75E2,3.25E2,1.99E2,1.95E2,4.7944E4,6.47E2],"tree_param":{"num_deleted":"0","num_feature":"41","num_nodes":"15","size_leaf_vector":"1"}},{"base_weights":[-0E0,3.913412E-2,-7.66854E-4,1.3935438E-2,9.5565006E-2,-1.3597036E-3,4.1432455E-2,-9.1115927E-4,5.327014E-4,8.0841576E-4,2.9811903E-3,4.536873E-5,-1.0816034E-4,1.7866687E-4,1.6804218E-3],"categories":[],"categories_nodes":[],"categories_segments":[],"categories_sizes":[],"default_left":[0,0,0,0,0,0,0,0,0,0,0,0,0,0,0],"id":16,"left_children":[1,3,5,7,9,11,13,-1,-1,-1,-1,-1,-1,-1,-1],"loss_changes":[1.5197344E0,1.1359262E0,1.1395576E0,7.421015E-1,4.649582E-1,9.288506E-1,8.330177E-1,0E0,0E0,0E0,0E0,0E0,0E0,0E0,0E0],"parents":[2147483647,0,0,1,1,2,2,3,3,4,4,5,5,6,6],"right_children":[2,4,6,8,10,12,14,-1,-1,-1,-1,-1,-1,-1,-1],"split_conditions":[-1.1362414E0,-1.1427563E0,2.0483902E0,-9.289471E-2,3.8744727E-1,-2.1938285E-2,1.5710819E0,-9.1115927E-4,5.327014E-4,8.0841576E-4,2.9811903E-3,4.536873E-5,-1.0816034E-4,1.7866687E-4,1.6804218E-3],"split_indices":[1,11,39,35,35,35,34,0,0,0,0,0,0,0,0],"split_type":[0,0,0,0,0,0,0,0,0,0,0,0,0,0,0],"sum_hessian":[4.9931E4,9.64E2,4.8967E4,7.01E2,2.63E2,4.8348E4,6.19E2,1.1E2,5.91E2,1.85E2,7.8E1,2.6323E4,2.2025E4,4.26E2,1.93E2],"tree_param":{"num_deleted":"0","num_feature":"41","num_nodes":"15","size_leaf_vector":"1"}},{"base_weights":[9.3541275E-6,9.156079E-3,-2.1108089E-3,1.9644437E-2,-3.9478885E-3,-2.5377981E-3,3.6669515E-2,-1.698951E-3,3.8439897E-4,-2.005069E-3,-9.319855E-6,-3.0963365E-5,-5.034075E-4,9.120035E-4,-2.055337E-4],"categories":[],"categories_nodes":[],"categories_segments":[],"categories_sizes":[],"default_left":[0,0,0,0,0,0,0,0,0,0,0,0,0,0,0],"id":17,"left_children":[1,3,5,7,9,11,13,-1,-1,-1,-1,-1,-1,-1,-1],"loss_changes":[9.778518E-1,1.3446708E0,5.915744E-1,1.3151274E0,1.3210762E0,7.349134E-1,3.785256E-1,0E0,0E0,0E0,0E0,0E0,0E0,0E0,0E0],"parents":[2147483647,0,0,1,1,2,2,3,3,4,4,5,5,6,6],"right_children":[2,4,6,8,10,12,14,-1,-1,-1,-1,-1,-1,-1,-1],"split_conditions":[-2.6090786E-1,2.2582185E-1,3.141744E0,-4.7345586E0,-1.1583627E0,1.6972158E0,6.6426285E-2,-1.698951E-3,3.8439897E-4,-2.005069E-3,-9.319855E-6,-3.0963365E-5,-5.034075E-4,9.120035E-4,-2.055337E-4],"split_indices":[37,33,28,28,38,21,16,0,0,0,0,0,0,0,0],"split_type":[0,0,0,0,0,0,0,0,0,0,0,0,0,0,0],"sum_hessian":[4.9623E4,9.523E3,4.01E4,5.378E3,4.145E3,3.9727E4,3.73E2,7.9E1,5.299E3,9.6E1,4.049E3,3.8685E4,1.042E3,3.16E2,5.7E1],"tree_param":{"num_deleted":"0","num_feature":"41","num_nodes":"15","size_leaf_vector":"1"}},{"base_weights":[1.2642881E-4,-3.8881495E-4,3.473898E-2,3.6925399E-3,-5.561958E-3,6.020223E-2,-2.143929E-2,1.3447076E-4,-2.0292313E-5,5.020887E-6,-1.8716876E-4,5.018628E-4,2.1090764E-3,-1.2436255E-3,-0E0],"categories":[],"categories_nodes":[],"categories_segments":[],"categories_sizes":[],"default_left":[0,0,0,0,0,0,0,0,0,0,0,0,0,0,0],"id":18,"left_children":[1,3,5,7,9,11,13,-1,-1,-1,-1,-1,-1,-1,-1],"loss_changes":[9.6182084E-1,1.0387048E0,1.2280012E0,5.399232E-1,6.780008E-1,7.3624706E-1,3.2209632E-1,0E0,0E0,0E0,0E0,0E0,0E0,0E0,0E0],"parents":[2147483647,0,0,1,1,2,2,3,3,4,4,5,5,6,6],"right_children":[2,4,6,8,10,12,14,-1,-1,-1,-1,-1,-1,-1,-1],"split_conditions":[2.8185995E0,-6.040333E-3,2.2948344E0,2.9156873E-1,-1.8141616E-2,1.5056847E0,-6.0014606E-1,1.3447076E-4,-2.0292313E-5,5.020887E-6,-1.8716876E-4,5.018628E-4,2.1090764E-3,-1.2436255E-3,-0E0],"split_indices":[28,35,35,26,37,35,0,0,0,0,0,0,0,0,0],"split_type":[0,0,0,0,0,0,0,0,0,0,0,0,0,0,0],"sum_hessian":[4.9769E4,4.8987E4,7.82E2,2.7152E4,2.1835E4,5.64E2,2.18E2,1.514E4,1.2012E4,1.0012E4,1.1823E4,4.03E2,1.61E2,7.5E1,1.43E2],"tree_param":{"num_deleted":"0","num_feature":"41","num_nodes":"15","size_leaf_vector":"1"}},{"base_weights":[-1.1087094E-4,2.9151754E-2,-8.4666465E-4,8.669027E-3,5.728144E-2,-1.3958806E-3,3.9386027E-2,-3.0943568E-4,1.0374828E-3,-1.3369424E-4,1.9085124E-3,4.794964E-5,-1.0975659E-4,1.9061653E-4,1.477061E-3],"categories":[],"categories_nodes":[],"categories_segments":[],"categories_sizes":[],"default_left":[0,0,0,0,0,0,0,0,0,0,0,0,0,0,0],"id":19,"left_children":[1,3,5,7,9,11,13,-1,-1,-1,-1,-1,-1,-1,-1],"loss_changes":[1.0093948E0,5.144685E-1,9.9177754E-1,1.0588241E0,1.6961917E0,9.747173E-1,5.574782E-1,0E0,0E0,0E0,0E0,0E0,0E0,0E0,0E0],"parents":[2147483647,0,0,1,1,2,2,3,3,4,4,5,5,6,6],"right_children":[2,4,6,8,10,12,14,-1,-1,-1,-1,-1,-1,-1,-1],"split_conditions":[-1.1325678E0,1.2868066E0,2.0483902E0,-1.1427563E0,-1.0478268E0,-2.7360503E-2,1.627661E0,-3.0943568E-4,1.0374828E-3,-1.3369424E-4,1.9085124E-3,4.794964E-5,-1.0975659E-4,1.9061653E-4,1.477061E-3],"split_indices":[3,34,39,11,39,35,34,0,0,0,0,0,0,0,0],"split_type":[0,0,0,0,0,0,0,0,0,0,0,0,0,0,0],"sum_hessian":[4.969E4,1.138E3,4.8552E4,7.1E2,4.28E2,4.796E4,5.92E2,4.43E2,2.67E2,1.75E2,2.53E2,2.5711E4,2.2249E4,3.99E2,1.93E2],"tree_param":{"num_deleted":"0","num_feature":"41","num_nodes":"15","size_leaf_vector":"1"}},{"base_weights":[-3.193145E-4,-8.7496603E-4,3.9483994E-2,2.2292053E-3,-4.6016895E-3,1.407806E-4,9.622778E-2,-8.731896E-4,5.3089065E-5,-9.087582E-5,1.3083927E-3,2.406686E-3,-0E0],"categories":[],"categories_nodes":[],"categories_segments":[],"categories_sizes":[],"default_left":[0,0,0,0,0,0,0,0,0,0,0,0,0],"id":20,"left_children":[1,3,5,7,9,-1,11,-1,-1,-1,-1,-1,-1],"loss_changes":[1.0154558E0,5.72467E-1,8.930728E-1,1.0082978E0,9.12256E-1,0E0,9.791962E-1,0E0,0E0,0E0,0E0,0E0,0E0],"parents":[2147483647,0,0,1,1,2,2,3,3,4,4,6,6],"right_children":[2,4,6,8,10,-1,12,-1,-1,-1,-1,-1,-1],"split_conditions":[2.0483902E0,-1.8141616E-2,2.362335E0,-2.553225E0,3.9560993E0,1.407806E-4,2.9897345E-2,-8.731896E-4,5.3089065E-5,-9.087582E-5,1.3083927E-3,2.406686E-3,-0E0],"split_indices":[39,37,28,22,34,0,37,0,0,0,0,0,0],"split_type":[0,0,0,0,0,0,0,0,0,0,0,0,0],"sum_hessian":[4.9647E4,4.9026E4,6.21E2,2.6434E4,2.2592E4,4.31E2,1.9E2,3.52E2,2.6082E4,2.2461E4,1.31E2,1.4E2,5E1],"tree_param":{"num_deleted":"0","num_feature":"41","num_nodes":"13","size_leaf_vector":"1"}},{"base_weights":[4.170798E-4,-2.0784255E-5,3.1847816E-2,1.639871E-3,-7.654133E-3,6.655488E-5,6.164766E-2,4.9286744E-5,-3.1371636E-4,-2.1412919E-4,1.3869812E-4,-0E0,1.3642275E-3],"categories":[],"categories_nodes":[],"categories_segments":[],"categories_sizes":[],"default_left":[0,0,0,0,0,0,0,0,0,0,0,0,0],"id":21,"left_children":[1,3,5,7,9,-1,11,-1,-1,-1,-1,-1,-1],"loss_changes":[7.536204E-1,6.346968E-1,4.8495883E-1,8.893199E-1,6.5189147E-1,0E0,3.2946897E-1,0E0,0E0,0E0,0E0,0E0,0E0],"parents":[2147483647,0,0,1,1,2,2,3,3,4,4,6,6],"right_children":[2,4,6,8,10,-1,12,-1,-1,-1,-1,-1,-1],"split_conditions":[2.2455523E0,5.540512E-1,2.362335E0,4.229665E-1,1.9256787E-1,6.655488E-5,7.481808E-1,4.9286744E-5,-3.1371636E-4,-2.1412919E-4,1.3869812E-4,-0E0,1.3642275E-3],"split_indices":[23,20,28,15,32,0,4,0,0,0,0,0,0],"split_type":[0,0,0,0,0,0,0,0,0,0,0,0,0],"sum_hessian":[4.9771E4,4.9029E4,7.42E2,4.0043E4,8.986E3,4.25E2,3.17E2,3.7884E4,2.159E3,7.053E3,1.933E3,6.8E1,2.49E2],"tree_param":{"num_deleted":"0","num_feature":"41","num_nodes":"13","size_leaf_vector":"1"}},{"base_weights":[-8.825153E-4,3.5622278E-3,-6.0024085E-3,1.8233861E-3,1.850808E-2,3.420144E-2,-7.4024503E-3,-2.273039E-3,3.9082843E-5,4.950377E-4,6.167249E-5,8.478585E-5,1.3377614E-3,-9.472436E-4,-8.893776E-5],"categories":[],"categories_nodes":[],"categories_segments":[],"categories_sizes":[],"default_left":[0,0,0,0,0,0,0,0,0,0,0,0,0,0,0],"id":22,"left_children":[1,3,5,7,9,11,13,-1,-1,-1,-1,-1,-1,-1,-1],"loss_changes":[1.1359715E0,6.413179E-1,1.2570267E0,1.009299E0,3.1408018E-1,7.3206496E-1,2.3195887E0,0E0,0E0,0E0,0E0,0E0,0E0,0E0,0E0],"parents":[2147483647,0,0,1,1,2,2,3,3,4,4,5,5,6,6],"right_children":[2,4,6,8,10,12,14,-1,-1,-1,-1,-1,-1,-1,-1],"split_conditions":[-2.7360503E-2,4.114475E-1,-1.1387339E0,-1.1395928E0,5.047301E-1,-2.1804614E-1,-1.0202887E0,-2.273039E-3,3.9082843E-5,4.950377E-4,6.167249E-5,8.478585E-5,1.3377614E-3,-9.472436E-4,-8.893776E-5],"split_indices":[35,34,2,15,26,38,15,0,0,0,0,0,0,0,0],"split_type":[0,0,0,0,0,0,0,0,0,0,0,0,0,0,0],"sum_hessian":[4.9669E4,2.6364E4,2.3305E4,2.3755E4,2.609E3,7.25E2,2.258E4,4.8E1,2.3707E4,1.487E3,1.122E3,4.64E2,2.61E2,1.015E3,2.1565E4],"tree_param":{"num_deleted":"0","num_feature":"41","num_nodes":"15","size_leaf_vector":"1"}},{"base_weights":[8.5810985E-4,3.436439E-2,1.5489405E-4,3.474827E-3,7.294373E-2,-5.363148E-2,6.228752E-4,-3.216573E-4,1.1478364E-3,-0E0,1.8601125E-3,-2.0076027E-3,1.5443785E-4,-1.4770088E-3,1.6026685E-5],"categories":[],"categories_nodes":[],"categories_segments":[],"categories_sizes":[],"default_left":[0,0,0,0,0,0,0,0,0,0,0,0,0,0,0],"id":23,"left_children":[1,3,5,7,9,11,13,-1,-1,-1,-1,-1,-1,-1,-1],"loss_changes":[1.1010956E0,9.801166E-1,1.1179358E0,8.9407367E-1,8.4360886E-1,1.6963949E0,1.0294669E0,0E0,0E0,0E0,0E0,0E0,0E0,0E0,0E0],"parents":[2147483647,0,0,1,1,2,2,3,3,4,4,5,5,6,6],"right_children":[2,4,6,8,10,12,14,-1,-1,-1,-1,-1,-1,-1,-1],"split_conditions":[-1.1362414E0,1.2868066E0,-3.3784544E0,-1.1427301E0,-1.2440656E0,2.4849226E0,-1.1378962E0,-3.216573E-4,1.1478364E-3,-0E0,1.8601125E-3,-2.0076027E-3,1.5443785E-4,-1.4770088E-3,1.6026685E-5],"split_indices":[1,34,21,30,23,4,40,0,0,0,0,0,0,0,0],"split_type":[0,0,0,0,0,0,0,0,0,0,0,0,0,0,0],"sum_hessian":[4.9878E4,9.53E2,4.8925E4,5.66E2,3.87E2,3.73E2,4.8552E4,3.98E2,1.68E2,1.35E2,2.52E2,2.02E2,1.71E2,1.32E2,4.842E4],"tree_param":{"num_deleted":"0","num_feature":"41","num_nodes":"15","size_leaf_vector":"1"}},{"base_weights":[-0E0,3.0388359E-2,-6.138157E-4,-3.7415456E-2,5.1203985E-2,-6.1827417E-2,-2.9726222E-4,-1.425676E-3,1.0908335E-4,1.1495074E-3,-1.3601046E-5,3.0068101E-4,-2.0847013E-3,5.323167E-5,-7.563609E-5],"categories":[],"categories_nodes":[],"categories_segments":[],"categories_sizes":[],"default_left":[0,0,0,0,0,0,0,0,0,0,0,0,0,0,0],"id":24,"left_children":[1,3,5,7,9,11,13,-1,-1,-1,-1,-1,-1,-1,-1],"loss_changes":[9.238906E-1,1.4318222E0,8.135732E-1,5.7330376E-1,7.2568345E-1,1.2186391E0,6.569429E-1,0E0,0E0,0E0,0E0,0E0,0E0,0E0,0E0],"parents":[2147483647,0,0,1,1,2,2,3,3,4,4,5,5,6,6],"right_children":[2,4,6,8,10,12,14,-1,-1,-1,-1,-1,-1,-1,-1],"split_conditions":[-1.1341543E0,4.7246328E-1,-4.1541796E0,-1.1395928E0,1.4864987E0,-1.2072862E0,-2.7360503E-2,-1.425676E-3,1.0908335E-4,1.1495074E-3,-1.3601046E-5,3.0068101E-4,-2.0847013E-3,5.323167E-5,-7.563609E-5],"split_indices":[15,34,21,15,4,25,35,0,0,0,0,0,0,0,0],"split_type":[0,0,0,0,0,0,0,0,0,0,0,0,0,0,0],"sum_hessian":[4.9858E4,9.71E2,4.8887E4,2.02E2,7.69E2,2.07E2,4.868E4,1.21E2,8.1E1,6.32E2,1.37E2,7.4E1,1.33E2,2.6315E4,2.2365E4],"tree_param":{"num_deleted":"0","num_feature":"41","num_nodes":"15","size_leaf_vector":"1"}},{"base_weights":[7.858575E-4,3.4819156E-2,5.034681E-5,9.993527E-3,8.888367E-2,-3.4208948E-4,3.4567837E-2,-8.540586E-4,5.859799E-4,1.9715626E-3,-0E0,9.0065016E-4,-9.703907E-6,8.968591E-4,-1.0638729E-4],"categories":[],"categories_nodes":[],"categories_segments":[],"categories_sizes":[],"default_left":[0,0,0,0,0,0,0,0,0,0,0,0,0,0,0],"id":25,"left_children":[1,3,5,7,9,11,13,-1,-1,-1,-1,-1,-1,-1,-1],"loss_changes":[1.1714679E0,1.1094928E0,7.350562E-1,9.73149E-1,3.9292216E-1,4.2089468E-1,5.138584E-1,0E0,0E0,0E0,0E0,0E0,0E0,0E0,0E0],"parents":[2147483647,0,0,1,1,2,2,3,3,4,4,5,5,6,6],"right_children":[2,4,6,8,10,12,14,-1,-1,-1,-1,-1,-1,-1,-1],"split_conditions":[-1.1362414E0,-1.1427563E0,2.0483902E0,4.6000978E-1,9.904029E-1,-1.1384401E0,6.6426285E-2,-8.540586E-4,5.859799E-4,1.9715626E-3,-0E0,9.0065016E-4,-9.703907E-6,8.968591E-4,-1.0638729E-4],"split_indices":[1,11,39,34,36,16,16,0,0,0,0,0,0,0,0],"split_type":[0,0,0,0,0,0,0,0,0,0,0,0,0,0,0],"sum_hessian":[4.9789E4,9.82E2,4.8807E4,7.08E2,2.74E2,4.8206E4,6.01E2,1.73E2,5.35E2,1.98E2,7.6E1,1.46E2,4.806E4,4.62E2,1.39E2],"tree_param":{"num_deleted":"0","num_feature":"41","num_nodes":"15","size_leaf_vector":"1"}},{"base_weights":[1.283582E-4,4.016322E-3,-4.1004014E-3,3.3401998E-3,8.790711E-2,-4.7363485E-3,7.125435E-2,-1.0301236E-3,7.338725E-5,1.9586126E-3,-0E0,-2.4664492E-4,-2.3103648E-5,2.2401253E-3,-4.3099668E-4],"categories":[],"categories_nodes":[],"categories_segments":[],"categories_sizes":[],"default_left":[0,0,0,0,0,0,0,0,0,0,0,0,0,0,0],"id":26,"left_children":[1,3,5,7,9,11,13,-1,-1,-1,-1,-1,-1,-1,-1],"loss_changes":[8.1385994E-1,1.2789358E0,9.8385406E-1,1.2571186E0,5.743711E-1,7.110598E-1,1.1690617E0,0E0,0E0,0E0,0E0,0E0,0E0,0E0,0E0],"parents":[2147483647,0,0,1,1,2,2,3,3,4,4,5,5,6,6],"right_children":[2,4,6,8,10,12,14,-1,-1,-1,-1,-1,-1,-1,-1],"split_conditions":[-2.8915478E-2,1.2970345E-1,3.9560993E0,-2.553225E0,2.346267E0,-1.907269E-1,1.5218982E-1,-1.0301236E-3,7.338725E-5,1.9586126E-3,-0E0,-2.4664492E-4,-2.3103648E-5,2.2401253E-3,-4.3099668E-4],"split_indices":[37,0,34,22,36,31,37,0,0,0,0,0,0,0,0],"split_type":[0,0,0,0,0,0,0,0,0,0,0,0,0,0,0],"sum_hessian":[4.9493E4,2.6051E4,2.3442E4,2.5878E4,1.73E2,2.3283E4,1.59E2,3.07E2,2.5571E4,1.49E2,2.4E1,6.052E3,1.7231E4,1.12E2,4.7E1],"tree_param":{"num_deleted":"0","num_feature":"41","num_nodes":"15","size_leaf_vector":"1"}},{"base_weights":[-4.6110118E-4,-1.1434713E-3,3.836467E-2,3.0168432E-3,-6.1051017E-3,6.170255E-2,-2.1231476E-2,3.6351248E-5,5.4576126E-4,-3.992773E-4,-6.341324E-5,2.6790833E-4,2.2301192E-3,4.820511E-4,-1.2120863E-3],"categories":[],"categories_nodes":[],"categories_segments":[],"categories_sizes":[],"default_left":[0,0,0,0,0,0,0,0,0,0,0,0,0,0,0],"id":27,"left_children":[1,3,5,7,9,11,13,-1,-1,-1,-1,-1,-1,-1,-1],"loss_changes":[1.237537E0,1.0167209E0,1.2185726E0,6.2624735E-1,8.77524E-1,1.5232005E0,5.939266E-1,0E0,0E0,0E0,0E0,0E0,0E0,0E0,0E0],"parents":[2147483647,0,0,1,1,2,2,3,3,4,4,5,5,6,6],"right_children":[2,4,6,8,10,12,14,-1,-1,-1,-1,-1,-1,-1,-1],"split_conditions":[2.8185995E0,-2.7360503E-2,2.2948344E0,9.484112E-1,-7.5056493E-1,3.3560395E0,4.32734E-1,3.6351248E-5,5.4576126E-4,-3.992773E-4,-6.341324E-5,2.6790833E-4,2.2301192E-3,4.820511E-4,-1.2120863E-3],"split_indices":[28,35,35,21,13,34,21,0,0,0,0,0,0,0,0],"split_type":[0,0,0,0,0,0,0,0,0,0,0,0,0,0,0],"sum_hessian":[4.971E4,4.8915E4,7.95E2,2.6372E4,2.2543E4,5.97E2,1.98E2,2.5604E4,7.68E2,2.794E3,1.9749E4,3.76E2,2.21E2,7.8E1,1.2E2],"tree_param":{"num_deleted":"0","num_feature":"41","num_nodes":"15","size_leaf_vector":"1"}},{"base_weights":[-1.8022962E-4,-6.168354E-4,4.8537835E-2,4.433203E-3,-3.7731614E-3,7.6681696E-2,-4.1555054E-4,-6.016401E-4,1.02068865E-4,9.283481E-4,-7.7699515E-5,-3.7307988E-4,1.6947632E-3],"categories":[],"categories_nodes":[],"categories_segments":[],"categories_sizes":[],"default_left":[0,0,0,0,0,0,0,0,0,0,0,0,0],"id":28,"left_children":[1,3,5,7,9,11,-1,-1,-1,-1,-1,-1,-1],"loss_changes":[9.5606995E-1,7.860817E-1,9.419841E-1,9.571656E-1,1.0575721E0,7.950984E-1,0E0,0E0,0E0,0E0,0E0,0E0,0E0],"parents":[2147483647,0,0,1,1,2,2,3,3,4,4,5,5],"right_children":[2,4,6,8,10,12,-1,-1,-1,-1,-1,-1,-1],"split_conditions":[3.6493492E0,-1.3312913E-1,-7.056969E-2,-1.7491668E0,-7.0063007E-1,-9.629599E-2,-4.1555054E-4,-6.016401E-4,1.02068865E-4,9.283481E-4,-7.7699515E-5,-3.7307988E-4,1.6947632E-3],"split_indices":[28,37,29,22,5,38,0,0,0,0,0,0,0],"split_type":[0,0,0,0,0,0,0,0,0,0,0,0,0],"sum_hessian":[4.9775E4,4.9386E4,3.89E2,1.8731E4,3.0655E4,3.01E2,8.8E1,5.9E2,1.8141E4,3.09E2,3.0346E4,3.3E1,2.68E2],"tree_param":{"num_deleted":"0","num_feature":"41","num_nodes":"13","size_leaf_vector":"1"}},{"base_weights":[-2.3158504E-4,3.3179924E-2,-1.0717078E-3,1.0563533E-2,6.621357E-2,3.8580655E-3,-6.942141E-3,3.9742832E-4,-1.9827003E-3,1.4022689E-3,-1.2406477E-4,-1.0504917E-3,7.424512E-5,2.1773772E-3,-1.286625E-4],"categories":[],"categories_nodes":[],"categories_segments":[],"categories_sizes":[],"default_left":[0,0,0,0,0,0,0,0,0,0,0,0,0,0,0],"id":29,"left_children":[1,3,5,7,9,11,13,-1,-1,-1,-1,-1,-1,-1,-1],"loss_changes":[1.3263285E0,6.9209874E-1,1.4120575E0,9.3695754E-1,6.0020983E-1,5.24261E-1,9.564191E-1,0E0,0E0,0E0,0E0,0E0,0E0,0E0,0E0],"parents":[2147483647,0,0,1,1,2,2,3,3,4,4,5,5,6,6],"right_children":[2,4,6,8,10,12,14,-1,-1,-1,-1,-1,-1,-1,-1],"split_conditions":[-1.1325678E0,-1.1427563E0,-2.7360503E-2,-1.1237447E0,2.7937288E0,-1.1297532E0,-6.7259985E-1,3.9742832E-4,-1.9827003E-3,1.4022689E-3,-1.2406477E-4,-1.0504917E-3,7.424512E-5,2.1773772E-3,-1.286625E-4],"split_indices":[3,11,35,15,34,15,37,0,0,0,0,0,0,0,0],"split_type":[0,0,0,0,0,0,0,0,0,0,0,0,0,0,0],"sum_hessian":[4.9692E4,1.147E3,4.8545E4,7.27E2,4.2E2,2.6189E4,2.2356E4,6.85E2,4.2E1,3.77E2,4.3E1,1.14E2,2.6075E4,4.4E1,2.2312E4],"tree_param":{"num_deleted":"0","num_feature":"41","num_nodes":"15","size_leaf_vector":"1"}},{"base_weights":[2.8045636E-4,3.6291547E-2,-3.8948297E-4,-0E0,5.711486E-2,1.7447144E-4,-3.0592479E-2,-7.911845E-4,3.4605968E-4,1.3275282E-3,-0E0,-1.6482627E-6,1.2484083E-3,8.424148E-4,-8.7829604E-4],"categories":[],"categories_nodes":[],"categories_segments":[],"categories_sizes":[],"default_left":[0,0,0,0,0,0,0,0,0,0,0,0,0,0,0],"id":30,"left_children":[1,3,5,7,9,11,13,-1,-1,-1,-1,-1,-1,-1,-1],"loss_changes":[1.2738302E0,7.897482E-1,8.9396423E-1,3.4169888E-1,6.866498E-1,1.0647908E0,1.5098288E0,0E0,0E0,0E0,0E0,0E0,0E0,0E0,0E0],"parents":[2147483647,0,0,1,1,2,2,3,3,4,4,5,5,6,6],"right_children":[2,4,6,8,10,12,14,-1,-1,-1,-1,-1,-1,-1,-1],"split_conditions":[-1.1387339E0,-6.7259985E-1,2.2948344E0,-5.8729136E-1,-5.814519E-1,2.8206496E0,-3.6111015E-1,-7.911845E-4,3.4605968E-4,1.3275282E-3,-0E0,-1.6482627E-6,1.2484083E-3,8.424148E-4,-8.7829604E-4],"split_indices":[2,37,35,21,37,22,37,0,0,0,0,0,0,0,0],"split_type":[0,0,0,0,0,0,0,0,0,0,0,0,0,0,0],"sum_hessian":[4.9582E4,9.55E2,4.8627E4,3.33E2,6.22E2,4.7675E4,9.52E2,1.14E2,2.19E2,4.68E2,1.54E2,4.7475E4,2E2,1.65E2,7.87E2],"tree_param":{"num_deleted":"0","num_feature":"41","num_nodes":"15","size_leaf_vector":"1"}},{"base_weights":[8.690194E-4,4.307004E-4,5.0076883E-2,3.5129322E-3,-3.7462062E-3,-3.6101998E-4,6.39645E-2,5.339553E-4,4.3157484E-5,-1.9166751E-4,8.5778165E-6,1.3405158E-3,-2.720964E-4],"categories":[],"categories_nodes":[],"categories_segments":[],"categories_sizes":[],"default_left":[0,0,0,0,0,0,0,0,0,0,0,0,0],"id":31,"left_children":[1,3,5,7,9,-1,11,-1,-1,-1,-1,-1,-1],"loss_changes":[9.6101534E-1,6.333106E-1,4.9324107E-1,7.3748094E-1,6.5145695E-1,0E0,5.0147986E-1,0E0,0E0,0E0,0E0,0E0,0E0],"parents":[2147483647,0,0,1,1,2,2,3,3,4,4,6,6],"right_children":[2,4,6,8,10,-1,12,-1,-1,-1,-1,-1,-1],"split_conditions":[3.6493492E0,2.6714183E-2,-1.4166774E-1,-1.9931113E0,-1.8462913E-1,-3.6101998E-4,5.731501E-2,5.339553E-4,4.3157484E-5,-1.9166751E-4,8.5778165E-6,1.3405158E-3,-2.720964E-4],"split_indices":[28,37,38,21,21,0,16,0,0,0,0,0,0],"split_type":[0,0,0,0,0,0,0,0,0,0,0,0,0],"sum_hessian":[4.9597E4,4.9212E4,3.85E2,2.8614E4,2.0598E4,3.7E1,3.48E2,9.82E2,2.7632E4,7.81E3,1.2788E4,3.24E2,2.4E1],"tree_param":{"num_deleted":"0","num_feature":"41","num_nodes":"13","size_leaf_vector":"1"}},{"base_weights":[-6.084105E-4,2.3219617E-2,-1.2142714E-3,3.2740317E-2,-5.244956E-2,2.250986E-3,-5.33893E-3,-1.418075E-4,9.4913435E-4,-2.0756507E-3,1.267768E-3,1.0909908E-4,-2.6430414E-5,-6.8427663E-4,-5.321564E-5],"categories":[],"categories_nodes":[],"categories_segments":[],"categories_sizes":[],"default_left":[0,0,0,0,0,0,0,0,0,0,0,0,0,0,0],"id":32,"left_children":[1,3,5,7,9,11,13,-1,-1,-1,-1,-1,-1,-1,-1],"loss_changes":[6.7143637E-1,7.999106E-1,7.019098E-1,1.0243846E0,1.0609074E0,4.0192658E-1,1.6532931E0,0E0,0E0,0E0,0E0,0E0,0E0,0E0,0E0],"parents":[2147483647,0,0,1,1,2,2,3,3,4,4,5,5,6,6],"right_children":[2,4,6,8,10,12,14,-1,-1,-1,-1,-1,-1,-1,-1],"split_conditions":[-1.1325678E0,-5.5696476E-1,-2.7360503E-2,-6.7259985E-1,1.6620312E0,7.3660165E-2,-9.2046154E-1,-1.418075E-4,9.4913435E-4,-2.0756507E-3,1.267768E-3,1.0909908E-4,-2.6430414E-5,-6.8427663E-4,-5.321564E-5],"split_indices":[3,37,35,37,35,25,32,0,0,0,0,0,0,0,0],"split_type":[0,0,0,0,0,0,0,0,0,0,0,0,0,0,0],"sum_hessian":[4.9763E4,1.137E3,4.8626E4,1.04E3,9.7E1,2.6144E4,2.2482E4,3.26E2,7.14E2,7.5E1,2.2E1,1.2974E4,1.317E4,1.364E3,2.1118E4],"tree_param":{"num_deleted":"0","num_feature":"41","num_nodes":"15","size_leaf_vector":"1"}},{"base_weights":[4.7199588E-4,2.37293E-2,-2.0721805E-5,8.861668E-3,7.952377E-2,8.95832E-2,-2.155062E-4,-2.687267E-3,3.1060053E-4,-0E0,2.0413075E-3,-3.277102E-4,2.6998643E-3,-3.5730985E-4,5.8742726E-6],"categories":[],"categories_nodes":[],"categories_segments":[],"categories_sizes":[],"default_left":[0,0,0,0,0,0,0,0,0,0,0,0,0,0,0],"id":33,"left_children":[1,3,5,7,9,11,13,-1,-1,-1,-1,-1,-1,-1,-1],"loss_changes":[6.21011E-1,7.3418677E-1,6.564817E-1,1.0715984E0,6.177764E-1,8.9018124E-1,5.837426E-1,0E0,0E0,0E0,0E0,0E0,0E0,0E0,0E0],"parents":[2147483647,0,0,1,1,2,2,3,3,4,4,5,5,6,6],"right_children":[2,4,6,8,10,12,14,-1,-1,-1,-1,-1,-1,-1,-1],"split_conditions":[-1.1325678E0,7.496323E-1,-1.1521432E0,-1.7391654E0,-1.5751843E0,-1.1219711E0,-1.0879791E0,-2.687267E-3,3.1060053E-4,-0E0,2.0413075E-3,-3.277102E-4,2.6998643E-3,-3.5730985E-4,5.8742726E-6],"split_indices":[3,35,15,21,28,3,15,0,0,0,0,0,0,0,0],"split_type":[0,0,0,0,0,0,0,0,0,0,0,0,0,0,0],"sum_hessian":[4.9729E4,1.113E3,4.8616E4,9.18E2,1.95E2,7.2E1,4.8544E4,2.7E1,8.91E2,6.4E1,1.31E2,1.7E1,5.5E1,1.384E3,4.716E4],"tree_param":{"num_deleted":"0","num_feature":"41","num_nodes":"15","size_leaf_vector":"1"}},{"base_weights":[-0E0,3.7827004E-2,-7.394289E-4,-0E0,6.670578E-2,-1.2441257E-3,3.492228E-2,-1.007145E-3,3.0327233E-4,1.5919168E-3,2.0734873E-4,5.0790086E-6,-1.5487151E-4,3.2442674E-4,1.8237337E-3],"categories":[],"categories_nodes":[],"categories_segments":[],"categories_sizes":[],"default_left":[0,0,0,0,0,0,0,0,0,0,0,0,0,0,0],"id":34,"left_children":[1,3,5,7,9,11,13,-1,-1,-1,-1,-1,-1,-1,-1],"loss_changes":[1.4482483E0,1.1971179E0,8.045866E-1,4.9013728E-1,5.5111337E-1,5.795713E-1,4.217971E-1,0E0,0E0,0E0,0E0,0E0,0E0,0E0,0E0],"parents":[2147483647,0,0,1,1,2,2,3,3,4,4,5,5,6,6],"right_children":[2,4,6,8,10,12,14,-1,-1,-1,-1,-1,-1,-1,-1],"split_conditions":[-1.1312393E0,-1.1691874E0,2.0483902E0,-6.1228037E-1,-5.8771086E-1,5.8747977E-1,2.2167482E0,-1.007145E-3,3.0327233E-4,1.5919168E-3,2.0734873E-4,5.0790086E-6,-1.5487151E-4,3.2442674E-4,1.8237337E-3],"split_indices":[16,16,39,23,37,20,22,0,0,0,0,0,0,0,0],"split_type":[0,0,0,0,0,0,0,0,0,0,0,0,0,0,0],"sum_hessian":[4.9683E4,9.84E2,4.8699E4,4.05E2,5.79E2,4.8088E4,6.11E2,1.11E2,2.94E2,3.7E2,2.09E2,3.9786E4,8.302E3,5.29E2,8.2E1],"tree_param":{"num_deleted":"0","num_feature":"41","num_nodes":"15","size_leaf_vector":"1"}},{"base_weights":[1.1894616E-3,3.7464563E-2,4.3162037E-4,-1.7451571E-2,5.3392723E-2,3.9986596E-3,-3.5953354E-3,-0E0,-1.8881718E-3,-0E0,1.2278379E-3,5.4754684E-5,4.0376288E-4,-1.1723872E-3,-5.1164952E-5],"categories":[],"categories_nodes":[],"categories_segments":[],"categories_sizes":[],"default_left":[0,0,0,0,0,0,0,0,0,0,0,0,0,0,0],"id":35,"left_children":[1,3,5,7,9,11,13,-1,-1,-1,-1,-1,-1,-1,-1],"loss_changes":[1.2855055E0,9.2555547E-1,7.0176107E-1,5.1765424E-1,8.1504726E-1,3.7711212E-1,8.1219923E-1,0E0,0E0,0E0,0E0,0E0,0E0,0E0,0E0],"parents":[2147483647,0,0,1,1,2,2,3,3,4,4,5,5,6,6],"right_children":[2,4,6,8,10,12,14,-1,-1,-1,-1,-1,-1,-1,-1],"split_conditions":[-1.1372038E0,-1.2106396E0,-2.7360503E-2,-1.2167946E0,-1.1302496E0,1.7110193E0,-1.1280285E0,-0E0,-1.8881718E-3,-0E0,1.2278379E-3,5.4754684E-5,4.0376288E-4,-1.1723872E-3,-5.1164952E-5],"split_indices":[3,14,35,15,39,39,9,0,0,0,0,0,0,0,0],"split_type":[0,0,0,0,0,0,0,0,0,0,0,0,0,0,0],"sum_hessian":[4.9725E4,9.5E2,4.8775E4,1.83E2,7.67E2,2.6148E4,2.2627E4,1.43E2,4E1,1.61E2,6.06E2,2.5125E4,1.023E3,1.94E2,2.2433E4],"tree_param":{"num_deleted":"0","num_feature":"41","num_nodes":"15","size_leaf_vector":"1"}},{"base_weights":[-1.1658959E-6,2.9002924E-3,-3.4711317E-3,9.006762E-3,-0E0,-5.170806E-3,1.4687172E-2,2.9370555E-4,-8.311237E-5,-7.084264E-5,1.281954E-4,-6.664136E-5,-9.2578883E-4,-4.6997025E-4,6.354192E-4],"categories":[],"categories_nodes":[],"categories_segments":[],"categories_sizes":[],"default_left":[0,0,0,0,0,0,0,0,0,0,0,0,0,0,0],"id":36,"left_children":[1,3,5,7,9,11,13,-1,-1,-1,-1,-1,-1,-1,-1],"loss_changes":[5.019594E-1,4.643338E-1,6.8967485E-1,9.351696E-1,5.449741E-1,1.2512211E0,1.7009144E0,0E0,0E0,0E0,0E0,0E0,0E0,0E0,0E0],"parents":[2147483647,0,0,1,1,2,2,3,3,4,4,5,5,6,6],"right_children":[2,4,6,8,10,12,14,-1,-1,-1,-1,-1,-1,-1,-1],"split_conditions":[-1.7097492E-2,-7.254212E-1,1.9868207E0,5.047301E-1,-2.2785607E-1,2.1019256E0,-1.0231684E0,2.9370555E-4,-8.311237E-5,-7.084264E-5,1.281954E-4,-6.664136E-5,-9.2578883E-4,-4.6997025E-4,6.354192E-4],"split_indices":[35,1,4,26,35,35,38,0,0,0,0,0,0,0,0],"split_type":[0,0,0,0,0,0,0,0,0,0,0,0,0,0,0],"sum_hessian":[4.9716E4,2.6739E4,2.2977E4,8.488E3,1.8251E4,2.1125E4,1.852E3,5.522E3,2.966E3,1.1666E4,6.585E3,2.0592E4,5.33E2,5.99E2,1.253E3],"tree_param":{"num_deleted":"0","num_feature":"41","num_nodes":"15","size_leaf_vector":"1"}},{"base_weights":[-3.7639658E-4,-8.323462E-4,4.8757587E-2,-1.2137397E-3,5.422718E-4,7.4849404E-2,-2.8723255E-2,4.005173E-4,-3.0120982E-5,-5.118381E-4,1.5821452E-3,3.4728425E-4,-1.6340679E-3],"categories":[],"categories_nodes":[],"categories_segments":[],"categories_sizes":[],"default_left":[0,0,0,0,0,0,0,0,0,0,0,0,0],"id":37,"left_children":[1,3,5,7,-1,9,11,-1,-1,-1,-1,-1,-1],"loss_changes":[1.0126096E0,5.35455E-1,9.5778435E-1,5.519948E-1,0E0,6.962861E-1,4.6003506E-1,0E0,0E0,0E0,0E0,0E0,0E0],"parents":[2147483647,0,0,1,1,2,2,3,3,5,5,6,6],"right_children":[2,4,6,8,-1,10,12,-1,-1,-1,-1,-1,-1],"split_conditions":[3.6493492E0,2.0483902E0,-8.331537E-2,-1.1372038E0,5.422718E-4,-1.7080702E-1,1.3256315E0,4.005173E-4,-3.0120982E-5,-5.118381E-4,1.5821452E-3,3.4728425E-4,-1.6340679E-3],"split_indices":[28,39,10,3,0,38,35,0,0,0,0,0,0],"split_type":[0,0,0,0,0,0,0,0,0,0,0,0,0],"sum_hessian":[4.9779E4,4.9374E4,4.05E2,4.8865E4,5.09E2,3.24E2,8.1E1,9.11E2,4.7954E4,2.3E1,3.01E2,3.1E1,5E1],"tree_param":{"num_deleted":"0","num_feature":"41","num_nodes":"13","size_leaf_vector":"1"}},{"base_weights":[4.6277908E-4,3.649179E-2,-2.2110653E-4,2.5442999E-2,2.7887973E-3,-7.598056E-4,3.8491257E-2,4.2811036E-5,1.3837833E-3,1.951444E-6,-3.1382372E-4,3.1871913E-4,1.7581813E-3],"categories":[],"categories_nodes":[],"categories_segments":[],"categories_sizes":[],"default_left":[0,0,0,0,0,0,0,0,0,0,0,0,0],"id":38,"left_children":[1,3,5,7,-1,9,11,-1,-1,-1,-1,-1,-1],"loss_changes":[1.3054262E0,9.025061E-1,9.374006E-1,9.7246516E-1,0E0,7.597957E-1,5.006183E-1,0E0,0E0,0E0,0E0,0E0,0E0],"parents":[2147483647,0,0,1,1,2,2,3,3,5,5,6,6],"right_children":[2,4,6,8,-1,10,12,-1,-1,-1,-1,-1,-1],"split_conditions":[-1.1362414E0,1.5825282E0,2.0483902E0,-1.1427301E0,2.7887973E-3,1.4388624E0,6.188989E-1,4.2811036E-5,1.3837833E-3,1.951444E-6,-3.1382372E-4,3.1871913E-4,1.7581813E-3],"split_indices":[1,35,39,30,0,35,35,0,0,0,0,0,0],"split_type":[0,0,0,0,0,0,0,0,0,0,0,0,0],"sum_hessian":[4.9799E4,9.77E2,4.8822E4,9.23E2,5.4E1,4.8216E4,6.06E2,6.81E2,2.42E2,4.5777E4,2.439E3,4.92E2,1.14E2],"tree_param":{"num_deleted":"0","num_feature":"41","num_nodes":"13","size_leaf_vector":"1"}},{"base_weights":[1.0644686E-3,2.4659507E-4,1.9881794E-2,9.883492E-4,-2.7685376E-2,7.703915E-2,9.005273E-3,-1.1210582E-3,2.162337E-5,1.0740706E-3,-6.7674735E-4,-0E0,2.0181611E-3,-2.0402784E-3,2.4416388E-4],"categories":[],"categories_nodes":[],"categories_segments":[],"categories_sizes":[],"default_left":[0,0,0,0,0,0,0,0,0,0,0,0,0,0,0],"id":39,"left_children":[1,3,5,7,9,11,13,-1,-1,-1,-1,-1,-1,-1,-1],"loss_changes":[7.2155356E-1,9.3213624E-1,1.026967E0,6.141251E-1,1.1081703E0,1.0273904E0,8.434387E-1,0E0,0E0,0E0,0E0,0E0,0E0,0E0,0E0],"parents":[2147483647,0,0,1,1,2,2,3,3,4,4,5,5,6,6],"right_children":[2,4,6,8,10,12,14,-1,-1,-1,-1,-1,-1,-1,-1],"split_conditions":[2.644583E0,1.5825282E0,-1.0930748E0,-1.2187227E0,-3.484981E-1,-1.4000235E0,-1.0857881E0,-1.1210582E-3,2.162337E-5,1.0740706E-3,-6.7674735E-4,-0E0,2.0181611E-3,-2.0402784E-3,2.4416388E-4],"split_indices":[34,35,11,11,37,39,11,0,0,0,0,0,0,0,0],"split_type":[0,0,0,0,0,0,0,0,0,0,0,0,0,0,0],"sum_hessian":[4.9693E4,4.7742E4,1.951E3,4.6591E4,1.151E3,2.71E2,1.68E3,1.34E2,4.6457E4,1E2,1.051E3,7.8E1,1.93E2,3.9E1,1.641E3],"tree_param":{"num_deleted":"0","num_feature":"41","num_nodes":"15","size_leaf_vector":"1"}},{"base_weights":[1.5189631E-4,7.5687952E-3,-1.6848397E-3,-1.0615037E-3,2.0821758E-2,-2.4205908E-2,-1.1399485E-3,2.9197615E-4,-2.726841E-4,4.8173676E-4,-4.4628856E-4,1.997368E-4,-7.3668006E-4,1.861677E-4,-4.1719984E-5],"categories":[],"categories_nodes":[],"categories_segments":[],"categories_sizes":[],"default_left":[0,0,0,0,0,0,0,0,0,0,0,0,0,0,0],"id":40,"left_children":[1,3,5,7,9,11,13,-1,-1,-1,-1,-1,-1,-1,-1],"loss_changes":[6.91719E-1,1.2009909E0,4.3260598E-1,1.5567058E0,1.2811106E0,6.084609E-1,5.519011E-1,0E0,0E0,0E0,0E0,0E0,0E0,0E0,0E0],"parents":[2147483647,0,0,1,1,2,2,3,3,4,4,5,5,6,6],"right_children":[2,4,6,8,10,12,14,-1,-1,-1,-1,-1,-1,-1,-1],"split_conditions":[-2.5472715E-1,-9.4966096E-1,-7.779355E-1,-2.593859E-1,-4.526592E-2,-2.1089041E-1,-7.1588796E-1,2.9197615E-4,-2.726841E-4,4.8173676E-4,-4.4628856E-4,1.997368E-4,-7.3668006E-4,1.861677E-4,-4.1719984E-5],"split_indices":[37,32,14,25,9,34,32,0,0,0,0,0,0,0,0],"split_type":[0,0,0,0,0,0,0,0,0,0,0,0,0,0,0],"sum_hessian":[4.9828E4,1.0117E4,3.9711E4,6.034E3,4.083E3,8.35E2,3.8876E4,2.648E3,3.386E3,3.611E3,4.72E2,2.4E2,5.95E2,3.541E3,3.5335E4],"tree_param":{"num_deleted":"0","num_feature":"41","num_nodes":"15","size_leaf_vector":"1"}},{"base_weights":[-0E0,1.9340444E-2,-9.0965105E-4,5.1396508E-2,-1.1057885E-3,-5.006592E-2,-4.4367395E-4,5.402177E-4,2.058504E-3,-1.9763428E-4,1.3223339E-3,-0E0,-1.8052646E-3,1.27127505E-5,-2.9444057E-4],"categories":[],"categories_nodes":[],"categories_segments":[],"categories_sizes":[],"default_left":[0,0,0,0,0,0,0,0,0,0,0,0,0,0,0],"id":41,"left_children":[1,3,5,7,9,11,13,-1,-1,-1,-1,-1,-1,-1,-1],"loss_changes":[8.4285164E-1,1.5163468E0,9.862565E-1,8.387847E-1,8.6873376E-1,1.2866784E0,9.433531E-1,0E0,0E0,0E0,0E0,0E0,0E0,0E0,0E0],"parents":[2147483647,0,0,1,1,2,2,3,3,4,4,5,5,6,6],"right_children":[2,4,6,8,10,12,14,-1,-1,-1,-1,-1,-1,-1,-1],"split_conditions":[-5.920163E-1,-3.0789575E-1,-1.1172879E0,-6.076647E-1,2.2086349E0,-1.1370541E0,1.2011591E0,5.402177E-4,2.058504E-3,-1.9763428E-4,1.3223339E-3,-0E0,-1.8052646E-3,1.27127505E-5,-2.9444057E-4],"split_indices":[37,23,6,37,28,6,22,0,0,0,0,0,0,0,0],"split_type":[0,0,0,0,0,0,0,0,0,0,0,0,0,0,0],"sum_hessian":[4.9942E4,2.138E3,4.7804E4,8.68E2,1.27E3,3.96E2,4.7408E4,6.98E2,1.7E2,1.153E3,1.17E2,1.89E2,2.07E2,4.4133E4,3.275E3],"tree_param":{"num_deleted":"0","num_feature":"41","num_nodes":"15","size_leaf_vector":"1"}},{"base_weights":[-5.193074E-4,3.0660732E-2,-1.1836317E-3,1.2387023E-2,8.959768E-2,-1.6657895E-3,3.0941715E-2,4.6228548E-4,-1.4107075E-3,-0E0,2.441544E-3,3.1394153E-5,-9.3260984E-5,2.3808787E-4,2.037729E-3],"categories":[],"categories_nodes":[],"categories_segments":[],"categories_sizes":[],"default_left":[0,0,0,0,0,0,0,0,0,0,0,0,0,0,0],"id":42,"left_children":[1,3,5,7,9,11,13,-1,-1,-1,-1,-1,-1,-1,-1],"loss_changes":[9.682953E-1,8.162114E-1,6.938429E-1,9.2138135E-1,1.1243597E0,6.181514E-1,6.7805785E-1,0E0,0E0,0E0,0E0,0E0,0E0,0E0,0E0],"parents":[2147483647,0,0,1,1,2,2,3,3,4,4,5,5,6,6],"right_children":[2,4,6,8,10,12,14,-1,-1,-1,-1,-1,-1,-1,-1],"split_conditions":[-1.1362414E0,7.496323E-1,2.0483902E0,5.615741E-1,-6.455433E-1,-7.00384E-2,9.1534555E-1,4.6228548E-4,-1.4107075E-3,-0E0,2.441544E-3,3.1394153E-5,-9.3260984E-5,2.3808787E-4,2.037729E-3],"split_indices":[1,35,39,35,22,35,35,0,0,0,0,0,0,0,0],"split_type":[0,0,0,0,0,0,0,0,0,0,0,0,0,0,0],"sum_hessian":[4.9784E4,9.62E2,4.8822E4,7.71E2,1.91E2,4.8175E4,6.47E2,6.96E2,7.5E1,6E1,1.31E2,2.4474E4,2.3701E4,5.68E2,7.9E1],"tree_param":{"num_deleted":"0","num_feature":"41","num_nodes":"15","size_leaf_vector":"1"}},{"base_weights":[8.190728E-5,-2.4917006E-4,4.6843477E-2,2.538199E-2,-7.773366E-4,7.381646E-2,-2.4156847E-4,8.9237095E-5,1.235753E-3,-4.89244E-4,-2.9792686E-6,1.8392821E-3,-4.623944E-5],"categories":[],"categories_nodes":[],"categories_segments":[],"categories_sizes":[],"default_left":[0,0,0,0,0,0,0,0,0,0,0,0,0],"id":43,"left_children":[1,3,5,7,9,11,-1,-1,-1,-1,-1,-1,-1],"loss_changes":[8.728373E-1,6.174026E-1,7.875203E-1,6.751484E-1,7.41169E-1,9.4150364E-1,0E0,0E0,0E0,0E0,0E0,0E0,0E0],"parents":[2147483647,0,0,1,1,2,2,3,3,4,4,5,5],"right_children":[2,4,6,8,10,12,-1,-1,-1,-1,-1,-1,-1],"split_conditions":[3.6493492E0,-1.1362414E0,2.8475094E0,-1.1427301E0,-1.1129464E0,-3.542836E-2,-2.4156847E-4,8.9237095E-5,1.235753E-3,-4.89244E-4,-2.9792686E-6,1.8392821E-3,-4.623944E-5],"split_indices":[28,1,35,30,10,1,0,0,0,0,0,0,0],"split_type":[0,0,0,0,0,0,0,0,0,0,0,0,0],"sum_hessian":[4.9883E4,4.9496E4,3.87E2,9.08E2,4.8588E4,2.91E2,9.6E1,6.67E2,2.41E2,9.75E2,4.7613E4,2.24E2,6.7E1],"tree_param":{"num_deleted":"0","num_feature":"41","num_nodes":"13","size_leaf_vector":"1"}},{"base_weights":[-1.3445766E-4,1.7053952E-2,-9.605371E-4,1.1277531E-2,1.1727637E-1,2.9045627E-3,-5.4290756E-3,6.948735E-4,-0E0,2.9611702E-3,-3.6321697E-4,-6.1678985E-4,6.357554E-5,-8.1811205E-4,-5.4359094E-5],"categories":[],"categories_nodes":[],"categories_segments":[],"categories_sizes":[],"default_left":[0,0,0,0,0,0,0,0,0,0,0,0,0,0,0],"id":44,"left_children":[1,3,5,7,9,11,13,-1,-1,-1,-1,-1,-1,-1,-1],"loss_changes":[6.7196107E-1,9.626036E-1,8.277099E-1,6.9819665E-1,1.044372E0,6.3446236E-1,2.0354674E0,0E0,0E0,0E0,0E0,0E0,0E0,0E0,0E0],"parents":[2147483647,0,0,1,1,2,2,3,3,4,4,5,5,6,6],"right_children":[2,4,6,8,10,12,14,-1,-1,-1,-1,-1,-1,-1,-1],"split_conditions":[-5.920163E-1,1.3256315E0,-2.7360503E-2,-8.2734853E-1,6.9396204E-1,-5.653866E-1,-8.927924E-1,6.948735E-4,-0E0,2.9611702E-3,-3.6321697E-4,-6.1678985E-4,6.357554E-5,-8.1811205E-4,-5.4359094E-5],"split_indices":[37,35,35,24,39,37,1,0,0,0,0,0,0,0,0],"split_type":[0,0,0,0,0,0,0,0,0,0,0,0,0,0,0],"sum_hessian":[4.9744E4,2.153E3,4.7591E4,2.066E3,8.7E1,2.5262E4,2.2329E4,6.01E2,1.465E3,7.3E1,1.4E1,4.09E2,2.4853E4,1.13E3,2.1199E4],"tree_param":{"num_deleted":"0","num_feature":"41","num_nodes":"15","size_leaf_vector":"1"}},{"base_weights":[1.0557544E-3,3.6872756E-2,3.3208274E-4,-1.8471889E-3,4.9703162E-2,-3.290692E-4,1.3386529E-2,4.795442E-4,-1.5041778E-3,9.6771884E-4,-1.6938114E-4,-1.1022089E-3,-1.4275167E-6,1.2286642E-4,9.376777E-4],"categories":[],"categories_nodes":[],"categories_segments":[],"categories_sizes":[],"default_left":[0,0,0,0,0,0,0,0,0,0,0,0,0,0,0],"id":45,"left_children":[1,3,5,7,9,11,13,-1,-1,-1,-1,-1,-1,-1,-1],"loss_changes":[1.2122412E0,5.6517994E-1,4.5059004E-1,6.3661844E-1,3.4845102E-1,5.842075E-1,5.098444E-1,0E0,0E0,0E0,0E0,0E0,0E0,0E0,0E0],"parents":[2147483647,0,0,1,1,2,2,3,3,4,4,5,5,6,6],"right_children":[2,4,6,8,10,12,14,-1,-1,-1,-1,-1,-1,-1,-1],"split_conditions":[-1.1362414E0,-1.2187227E0,1.5257869E0,-1.2167946E0,5.2513914E0,-1.135307E0,9.2452806E-1,4.795442E-4,-1.5041778E-3,9.6771884E-4,-1.6938114E-4,-1.1022089E-3,-1.4275167E-6,1.2286642E-4,9.376777E-4],"split_indices":[1,11,26,15,34,12,21,0,0,0,0,0,0,0,0],"split_type":[0,0,0,0,0,0,0,0,0,0,0,0,0,0,0],"sum_hessian":[4.9854E4,9.19E2,4.8935E4,1.89E2,7.3E2,4.6428E4,2.507E3,1.26E2,6.3E1,7.01E2,2.9E1,1.39E2,4.6289E4,2.22E3,2.87E2],"tree_param":{"num_deleted":"0","num_feature":"41","num_nodes":"15","size_leaf_vector":"1"}},{"base_weights":[7.261762E-4,2.5012236E-2,1.1115904E-4,1.6606573E-2,2.6783291E-3,9.8570876E-2,-0E0,5.187847E-4,-7.752052E-4,-0E0,3.418542E-3,-6.371598E-4,5.439885E-6],"categories":[],"categories_nodes":[],"categories_segments":[],"categories_sizes":[],"default_left":[0,0,0,0,0,0,0,0,0,0,0,0,0],"id":46,"left_children":[1,3,5,7,-1,9,11,-1,-1,-1,-1,-1,-1],"loss_changes":[6.8974215E-1,8.410145E-1,6.554828E-1,8.535126E-1,0E0,5.845121E-1,5.94996E-1,0E0,0E0,0E0,0E0,0E0,0E0],"parents":[2147483647,0,0,1,1,2,2,3,3,5,5,6,6],"right_children":[2,4,6,8,-1,10,12,-1,-1,-1,-1,-1,-1],"split_conditions":[-1.1325678E0,1.6620312E0,-6.7259985E-1,-5.814519E-1,2.6783291E-3,8.3675396E-1,-1.1235119E0,5.187847E-4,-7.752052E-4,-0E0,3.418542E-3,-6.371598E-4,5.439885E-6],"split_indices":[3,35,37,37,0,4,30,0,0,0,0,0,0],"split_type":[0,0,0,0,0,0,0,0,0,0,0,0,0],"sum_hessian":[4.9792E4,1.134E3,4.8658E4,1.09E3,4.4E1,5.8E1,4.86E4,9.31E2,1.59E2,3.5E1,2.3E1,4.36E2,4.8164E4],"tree_param":{"num_deleted":"0","num_feature":"41","num_nodes":"13","size_leaf_vector":"1"}},{"base_weights":[-3.5992835E-4,-8.2645763E-4,3.2986417E-2,2.5206972E-3,-4.495235E-3,1.8776987E-4,6.745348E-2,1.4490083E-4,-3.125964E-6,-3.0143754E-4,-4.2012132E-5,-0E0,1.9750185E-3],"categories":[],"categories_nodes":[],"categories_segments":[],"categories_sizes":[],"default_left":[0,0,0,0,0,0,0,0,0,0,0,0,0],"id":47,"left_children":[1,3,5,7,9,-1,11,-1,-1,-1,-1,-1,-1],"loss_changes":[7.0447E-1,6.073482E-1,3.024081E-1,4.1183454E-1,5.9022564E-1,0E0,5.7841086E-1,0E0,0E0,0E0,0E0,0E0,0E0],"parents":[2147483647,0,0,1,1,2,2,3,3,4,4,6,6],"right_children":[2,4,6,8,10,-1,12,-1,-1,-1,-1,-1,-1],"split_conditions":[2.0483902E0,-5.00595E-2,1.627661E0,-7.216634E-1,-7.5056493E-1,1.8776987E-4,1.3661724E0,1.4490083E-4,-3.125964E-6,-3.0143754E-4,-4.2012132E-5,-0E0,1.9750185E-3],"split_indices":[39,35,34,2,13,0,27,0,0,0,0,0,0],"split_type":[0,0,0,0,0,0,0,0,0,0,0,0,0],"sum_hessian":[4.9707E4,4.9094E4,6.13E2,2.5367E4,2.3727E4,4.18E2,1.95E2,8.345E3,1.7022E4,3.199E3,2.0528E4,8.6E1,1.09E2],"tree_param":{"num_deleted":"0","num_feature":"41","num_nodes":"13","size_leaf_vector":"1"}},{"base_weights":[-4.0457278E-4,-6.573564E-2,-1.0177825E-4,1.0024412E-3,-1.7238884E-3,2.6220707E-2,-6.704708E-4,-1.20216624E-4,7.1603566E-4,4.6176992E-5,-7.727708E-5],"categories":[],"categories_nodes":[],"categories_segments":[],"categories_sizes":[],"default_left":[0,0,0,0,0,0,0,0,0,0,0],"id":48,"left_children":[1,3,5,-1,-1,7,9,-1,-1,-1,-1],"loss_changes":[8.4159344E-1,9.3416035E-1,6.86517E-1,0E0,0E0,5.461385E-1,6.056114E-1,0E0,0E0,0E0,0E0],"parents":[2147483647,0,0,1,1,2,2,5,5,6,6],"right_children":[2,4,6,-1,-1,8,10,-1,-1,-1,-1],"split_conditions":[-4.1541796E0,-1.7047265E0,-1.1370541E0,1.0024412E-3,-1.7238884E-3,4.6000978E-1,-5.00595E-2,-1.20216624E-4,7.1603566E-4,4.6176992E-5,-7.727708E-5],"split_indices":[21,39,6,0,0,34,35,0,0,0,0],"split_type":[0,0,0,0,0,0,0,0,0,0,0],"sum_hessian":[4.9702E4,1.87E2,4.9515E4,2.4E1,1.63E2,9.58E2,4.8557E4,2.51E2,7.07E2,2.5475E4,2.3082E4],"tree_param":{"num_deleted":"0","num_feature":"41","num_nodes":"11","size_leaf_vector":"1"}},{"base_weights":[1.0477173E-3,4.919279E-3,-2.7925645E-3,-4.8469163E-2,5.755584E-3,-3.2953536E-3,5.887827E-2,6.443799E-4,-1.4049597E-3,7.680611E-5,7.2162785E-4,-3.908611E-5,-4.7665907E-4,2.685597E-3,-0E0],"categories":[],"categories_nodes":[],"categories_segments":[],"categories_sizes":[],"default_left":[0,0,0,0,0,0,0,0,0,0,0,0,0,0,0],"id":49,"left_children":[1,3,5,7,9,11,13,-1,-1,-1,-1,-1,-1,-1,-1],"loss_changes":[7.439334E-1,1.0287857E0,6.4768904E-1,1.0640787E0,1.0984757E0,5.597962E-1,7.097271E-1,0E0,0E0,0E0,0E0,0E0,0E0,0E0,0E0],"parents":[2147483647,0,0,1,1,2,2,3,3,4,4,5,5,6,6],"right_children":[2,4,6,8,10,12,14,-1,-1,-1,-1,-1,-1,-1,-1],"split_conditions":[-3.8515974E-2,-2.553225E0,3.9560993E0,5.2040464E-1,2.2897015E0,1.5956649E0,1.6786997E0,6.443799E-4,-1.4049597E-3,7.680611E-5,7.2162785E-4,-3.908611E-5,-4.7665907E-4,2.685597E-3,-0E0],"split_indices":[37,22,34,4,4,28,36,0,0,0,0,0,0,0,0],"split_type":[0,0,0,0,0,0,0,0,0,0,0,0,0,0,0],"sum_hessian":[4.971E4,2.5032E4,2.4678E4,3.38E2,2.4694E4,2.4522E4,1.56E2,7.3E1,2.65E2,2.3846E4,8.48E2,2.3576E4,9.46E2,4.5E1,1.11E2],"tree_param":{"num_deleted":"0","num_feature":"41","num_nodes":"15","size_leaf_vector":"1"}},{"base_weights":[-1.8670595E-4,3.2634217E-2,-8.6754287E-4,9.7111445E-3,8.271096E-2,-1.4365814E-3,2.0495959E-2,3.3636022E-4,-1.3104711E-3,-0E0,1.7082713E-3,-4.0235727E-7,-1.9746223E-4,1.9901372E-4,2.4004271E-3],"categories":[],"categories_nodes":[],"categories_segments":[],"categories_sizes":[],"default_left":[0,0,0,0,0,0,0,0,0,0,0,0,0,0,0],"id":50,"left_children":[1,3,5,7,9,11,13,-1,-1,-1,-1,-1,-1,-1,-1],"loss_changes":[1.0397286E0,8.7647307E-1,5.5059314E-1,4.4663358E-1,3.6013937E-1,6.365216E-1,9.0508306E-1,0E0,0E0,0E0,0E0,0E0,0E0,0E0,0E0],"parents":[2147483647,0,0,1,1,2,2,3,3,4,4,5,5,6,6],"right_children":[2,4,6,8,10,12,14,-1,-1,-1,-1,-1,-1,-1,-1],"split_conditions":[-1.1362414E0,-1.1427563E0,2.0668185E0,-1.1237447E0,-1.9656941E0,1.1166424E0,5.2513914E0,3.3636022E-4,-1.3104711E-3,-0E0,1.7082713E-3,-4.0235727E-7,-1.9746223E-4,1.9901372E-4,2.4004271E-3],"split_indices":[1,11,23,15,23,34,34,0,0,0,0,0,0,0,0],"split_type":[0,0,0,0,0,0,0,0,0,0,0,0,0,0,0],"sum_hessian":[4.9568E4,9.34E2,4.8634E4,6.78E2,2.56E2,4.7479E4,1.155E3,6.39E2,3.9E1,3.7E1,2.19E2,4.1717E4,5.762E3,1.098E3,5.7E1],"tree_param":{"num_deleted":"0","num_feature":"41","num_nodes":"15","size_leaf_vector":"1"}},{"base_weights":[-3.3280946E-4,2.8965116E-4,-2.7724652E-2,-1.5611954E-4,5.8177907E-2,3.163673E-3,-4.2943694E-2,4.186787E-5,-8.7286935E-5,-0E0,1.3024771E-3,-1.1412614E-3,3.1514873E-4],"categories":[],"categories_nodes":[],"categories_segments":[],"categories_sizes":[],"default_left":[0,0,0,0,0,0,0,0,0,0,0,0,0],"id":51,"left_children":[1,3,5,7,9,-1,11,-1,-1,-1,-1,-1,-1],"loss_changes":[9.059851E-1,1.3764395E0,3.522694E0,5.977291E-1,5.006193E-1,0E0,1.6287429E0,0E0,0E0,0E0,0E0,0E0,0E0],"parents":[2147483647,0,0,1,1,2,2,3,3,4,4,6,6],"right_children":[2,4,6,8,10,-1,12,-1,-1,-1,-1,-1,-1],"split_conditions":[2.1019256E0,3.141744E0,-1.0943083E0,5.2661383E-1,1.0856667E0,3.163673E-3,1.8819277E-1,4.186787E-5,-8.7286935E-5,-0E0,1.3024771E-3,-1.1412614E-3,3.1514873E-4],"split_indices":[35,28,2,24,20,0,12,0,0,0,0,0,0],"split_type":[0,0,0,0,0,0,0,0,0,0,0,0,0],"sum_hessian":[4.9658E4,4.8487E4,1.171E3,4.8089E4,3.98E2,6.3E1,1.108E3,3.1194E4,1.6895E4,6.8E1,3.3E2,8.37E2,2.71E2],"tree_param":{"num_deleted":"0","num_feature":"41","num_nodes":"13","size_leaf_vector":"1"}},{"base_weights":[-5.756991E-4,7.234091E-3,-2.5714475E-3,-1.0322494E-1,8.450016E-3,-1.9005546E-3,-2.2032302E-2,-0E0,-2.6264691E-3,9.550742E-5,6.8085553E-4,-3.9927596E-5,5.2186684E-4,-5.36215E-4,5.4186763E-4],"categories":[],"categories_nodes":[],"categories_segments":[],"categories_sizes":[],"default_left":[0,0,0,0,0,0,0,0,0,0,0,0,0,0,0],"id":52,"left_children":[1,3,5,7,9,11,13,-1,-1,-1,-1,-1,-1,-1,-1],"loss_changes":[7.6692617E-1,1.1375134E0,4.692884E-1,6.564895E-1,7.9999536E-1,4.08517E-1,5.6557816E-1,0E0,0E0,0E0,0E0,0E0,0E0,0E0,0E0],"parents":[2147483647,0,0,1,1,2,2,3,3,4,4,5,5,6,6],"right_children":[2,4,6,8,10,12,14,-1,-1,-1,-1,-1,-1,-1,-1],"split_conditions":[-2.5685307E-1,-4.7345586E0,1.6972158E0,-1.6374023E0,2.4076762E0,2.0483902E0,2.2897015E0,-0E0,-2.6264691E-3,9.550742E-5,6.8085553E-4,-3.9927596E-5,5.2186684E-4,-5.36215E-4,5.4186763E-4],"split_indices":[37,28,21,26,34,39,4,0,0,0,0,0,0,0,0],"split_type":[0,0,0,0,0,0,0,0,0,0,0,0,0,0,0],"sum_hessian":[4.9828E4,9.917E3,3.9911E4,8E1,9.837E3,3.8698E4,1.213E3,1.8E1,6.2E1,9.031E3,8.06E2,3.8315E4,3.83E2,1.082E3,1.31E2],"tree_param":{"num_deleted":"0","num_feature":"41","num_nodes":"15","size_leaf_vector":"1"}},{"base_weights":[-6.0315186E-4,-0E0,-2.5424728E-2,5.142314E-4,-2.831121E-2,1.5188684E-3,-5.202153E-2,5.619152E-4,-5.2363366E-6,1.4237552E-3,-9.181179E-4,-4.0018972E-4,5.2441226E-4,-1.0901367E-3,2.795832E-5],"categories":[],"categories_nodes":[],"categories_segments":[],"categories_sizes":[],"default_left":[0,0,0,0,0,0,0,0,0,0,0,0,0,0,0],"id":53,"left_children":[1,3,5,7,9,11,13,-1,-1,-1,-1,-1,-1,-1,-1],"loss_changes":[7.3722523E-1,7.1840274E-1,9.468522E-1,1.2967674E0,2.309305E0,4.0286824E-1,4.77301E-1,0E0,0E0,0E0,0E0,0E0,0E0,0E0,0E0],"parents":[2147483647,0,0,1,1,2,2,3,3,4,4,5,5,6,6],"right_children":[2,4,6,8,10,12,14,-1,-1,-1,-1,-1,-1,-1,-1],"split_conditions":[2.6595426E0,2.2948344E0,-5.5434275E-1,-1.7391654E0,-8.4247434E-1,-7.8495634E-1,3.0968337E0,5.619152E-4,-5.2363366E-6,1.4237552E-3,-9.181179E-4,-4.0018972E-4,5.2441226E-4,-1.0901367E-3,2.795832E-5],"split_indices":[36,35,8,21,13,40,4,0,0,0,0,0,0,0,0],"split_type":[0,0,0,0,0,0,0,0,0,0,0,0,0,0,0],"sum_hessian":[4.9823E4,4.8664E4,1.159E3,4.7793E4,8.71E2,5.4E2,6.19E2,1.257E3,4.6536E4,1.37E2,7.34E2,2.51E2,2.89E2,5.52E2,6.7E1],"tree_param":{"num_deleted":"0","num_feature":"41","num_nodes":"15","size_leaf_vector":"1"}},{"base_weights":[-8.7724737E-4,-1.7387337E-3,1.4247727E-2,1.4761003E-4,-8.759666E-3,1.3541873E-4,4.5147337E-2,8.418281E-5,-7.439128E-5,-4.0289346E-4,-6.4966065E-5,1.2200258E-3,-1.3207469E-5],"categories":[],"categories_nodes":[],"categories_segments":[],"categories_sizes":[],"default_left":[0,0,0,0,0,0,0,0,0,0,0,0,0],"id":54,"left_children":[1,3,5,7,9,-1,11,-1,-1,-1,-1,-1,-1],"loss_changes":[6.2111163E-1,6.4340556E-1,3.9497018E-1,7.590376E-1,6.782068E-1,0E0,5.811733E-1,0E0,0E0,0E0,0E0,0E0,0E0],"parents":[2147483647,0,0,1,1,2,2,3,3,4,4,6,6],"right_children":[2,4,6,8,10,-1,12,-1,-1,-1,-1,-1,-1],"split_conditions":[1.5257869E0,7.7508026E-1,1.1173123E0,-4.5008473E-2,-7.060535E-1,1.3541873E-4,2.6796298E-2,8.418281E-5,-7.439128E-5,-4.0289346E-4,-6.4966065E-5,1.2200258E-3,-1.3207469E-5],"split_indices":[26,33,20,37,3,0,15,0,0,0,0,0,0],"split_type":[0,0,0,0,0,0,0,0,0,0,0,0,0],"sum_hessian":[4.9707E4,4.7171E4,2.536E3,3.6947E4,1.0224E4,2.162E3,3.74E2,1.8172E4,1.8775E4,2.553E3,7.671E3,2.71E2,1.03E2],"tree_param":{"num_deleted":"0","num_feature":"41","num_nodes":"13","size_leaf_vector":"1"}},{"base_weights":[-0E0,2.6325624E-2,-6.659744E-4,-2.5906937E-2,3.880964E-2,-1.2653584E-3,1.8597905E-2,-2.1079783E-3,-0E0,6.27317E-5,1.0132231E-3,2.24086E-6,-1.9079291E-4,1.7639894E-4,1.2486217E-3],"categories":[],"categories_nodes":[],"categories_segments":[],"categories_sizes":[],"default_left":[0,0,0,0,0,0,0,0,0,0,0,0,0,0,0],"id":55,"left_children":[1,3,5,7,9,11,13,-1,-1,-1,-1,-1,-1,-1,-1],"loss_changes":[8.4458137E-1,8.117041E-1,5.247455E-1,6.555329E-1,5.34665E-1,6.58299E-1,4.292081E-1,0E0,0E0,0E0,0E0,0E0,0E0,0E0,0E0],"parents":[2147483647,0,0,1,1,2,2,3,3,4,4,5,5,6,6],"right_children":[2,4,6,8,10,12,14,-1,-1,-1,-1,-1,-1,-1,-1],"split_conditions":[-1.1309491E0,-1.2187227E0,1.7710667E0,7.276353E-1,-1.0506227E-1,1.1166424E0,1.2664967E0,-2.1079783E-3,-0E0,6.27317E-5,1.0132231E-3,2.24086E-6,-1.9079291E-4,1.7639894E-4,1.2486217E-3],"split_indices":[1,11,26,34,4,34,20,0,0,0,0,0,0,0,0],"split_type":[0,0,0,0,0,0,0,0,0,0,0,0,0,0,0],"sum_hessian":[4.9827E4,1.178E3,4.8649E4,1.92E2,9.86E2,4.7298E4,1.351E3,4.5E1,1.47E2,3.9E2,5.96E2,4.1135E4,6.163E3,1.208E3,1.43E2],"tree_param":{"num_deleted":"0","num_feature":"41","num_nodes":"15","size_leaf_vector":"1"}},{"base_weights":[-6.944645E-4,-1.0106422E-3,6.307556E-2,-3.3279986E-4,-2.90729E-2,1.4761898E-1,-0E0,-1.074693E-5,1.0419168E-3,4.042074E-3,-7.282755E-4,3.2948896E-3,-0E0],"categories":[],"categories_nodes":[],"categories_segments":[],"categories_sizes":[],"default_left":[0,0,0,0,0,0,0,0,0,0,0,0,0],"id":56,"left_children":[1,3,5,7,9,11,-1,-1,-1,-1,-1,-1,-1],"loss_changes":[8.640316E-1,8.734E-1,1.2004519E0,6.842896E-1,3.2247052E0,3.54625E-1,0E0,0E0,0E0,0E0,0E0,0E0,0E0],"parents":[2147483647,0,0,1,1,2,2,3,3,4,4,5,5],"right_children":[2,4,6,8,10,12,-1,-1,-1,-1,-1,-1,-1],"split_conditions":[6.8983045E0,2.1019256E0,-2.4318857E0,2.8206496E0,-1.1033092E0,-2.0202634E-1,-0E0,-1.074693E-5,1.0419168E-3,4.042074E-3,-7.282755E-4,3.2948896E-3,-0E0],"split_indices":[4,35,21,22,5,11,0,0,0,0,0,0,0],"split_type":[0,0,0,0,0,0,0,0,0,0,0,0,0],"sum_hessian":[4.944E4,4.9239E4,2.01E2,4.8162E4,1.077E3,8.4E1,1.17E2,4.7982E4,1.8E2,3.4E1,1.043E3,5.8E1,2.6E1],"tree_param":{"num_deleted":"0","num_feature":"41","num_nodes":"13","size_leaf_vector":"1"}},{"base_weights":[-0E0,1.656931E-2,-8.730012E-4,3.914104E-2,-2.0771546E-3,-3.6322683E-2,-3.839281E-4,5.048226E-4,2.1591466E-3,-1.9149715E-4,1.1239124E-3,-9.395983E-4,7.7726645E-4,-6.840623E-4,-3.8836365E-7],"categories":[],"categories_nodes":[],"categories_segments":[],"categories_sizes":[],"default_left":[0,0,0,0,0,0,0,0,0,0,0,0,0,0,0],"id":57,"left_children":[1,3,5,7,9,11,13,-1,-1,-1,-1,-1,-1,-1,-1],"loss_changes":[6.9014335E-1,1.0833274E0,7.407116E-1,6.191075E-1,6.3317627E-1,8.6030525E-1,5.697343E-1,0E0,0E0,0E0,0E0,0E0,0E0,0E0,0E0],"parents":[2147483647,0,0,1,1,2,2,3,3,4,4,5,5,6,6],"right_children":[2,4,6,8,10,12,14,-1,-1,-1,-1,-1,-1,-1,-1],"split_conditions":[-5.8771086E-1,-9.846764E-2,-5.653866E-1,7.1592194E-1,2.5191429E0,4.637166E-1,-3.3784544E0,5.048226E-4,2.1591466E-3,-1.9149715E-4,1.1239124E-3,-9.395983E-4,7.7726645E-4,-6.840623E-4,-3.8836365E-7],"split_indices":[37,33,37,35,34,35,21,0,0,0,0,0,0,0,0],"split_type":[0,0,0,0,0,0,0,0,0,0,0,0,0,0,0],"sum_hessian":[4.9652E4,2.373E3,4.7279E4,1.121E3,1.252E3,5.74E2,4.6705E4,1.033E3,8.8E1,1.14E3,1.12E2,4.97E2,7.7E1,3.68E2,4.6337E4],"tree_param":{"num_deleted":"0","num_feature":"41","num_nodes":"15","size_leaf_vector":"1"}},{"base_weights":[1.9458059E-4,2.3765158E-2,-2.3075126E-4,-3.8189437E-2,4.2901747E-2,-3.35498E-2,-0E0,-1.4059485E-3,4.7304266E-4,-6.604882E-4,9.2041556E-4,-1.2175434E-3,6.1641564E-4,2.9797605E-4,-8.956556E-6],"categories":[],"categories_nodes":[],"categories_segments":[],"categories_sizes":[],"default_left":[0,0,0,0,0,0,0,0,0,0,0,0,0,0,0],"id":58,"left_children":[1,3,5,7,9,11,13,-1,-1,-1,-1,-1,-1,-1,-1],"loss_changes":[5.4884875E-1,1.1764033E0,4.223431E-1,7.0562464E-1,6.5399134E-1,1.0320874E0,4.4480732E-1,0E0,0E0,0E0,0E0,0E0,0E0,0E0,0E0],"parents":[2147483647,0,0,1,1,2,2,3,3,4,4,5,5,6,6],"right_children":[2,4,6,8,10,12,14,-1,-1,-1,-1,-1,-1,-1,-1],"split_conditions":[-1.1362414E0,-1.2152734E0,-3.3784544E0,2.5191429E0,-3.08329E0,3.456829E0,-1.8053952E0,-1.4059485E-3,4.7304266E-4,-6.604882E-4,9.2041556E-4,-1.2175434E-3,6.1641564E-4,2.9797605E-4,-8.956556E-6],"split_indices":[1,13,21,34,28,4,20,0,0,0,0,0,0,0,0],"split_type":[0,0,0,0,0,0,0,0,0,0,0,0,0,0,0],"sum_hessian":[4.9678E4,9.61E2,4.8717E4,1.98E2,7.63E2,3.68E2,4.8349E4,1.39E2,5.9E1,5.5E1,7.08E2,2.62E2,1.06E2,1.483E3,4.6866E4],"tree_param":{"num_deleted":"0","num_feature":"41","num_nodes":"15","size_leaf_vector":"1"}},{"base_weights":[-7.838688E-4,6.9678864E-3,-2.6960827E-3,1.7317692E-2,-6.071827E-3,-1.2483507E-3,-3.0742776E-2,-1.1179369E-4,4.093294E-4,-1.758233E-4,1.0996526E-3,-4.2013413E-5,2.422289E-4,-3.7925153E-3,-4.2702892E-4],"categories":[],"categories_nodes":[],"categories_segments":[],"categories_sizes":[],"default_left":[0,0,0,0,0,0,0,0,0,0,0,0,0,0,0],"id":59,"left_children":[1,3,5,7,9,11,13,-1,-1,-1,-1,-1,-1,-1,-1],"loss_changes":[7.321413E-1,1.3307352E0,1.568594E0,8.27271E-1,1.0408117E0,6.4372027E-1,1.6803242E0,0E0,0E0,0E0,0E0,0E0,0E0,0E0,0E0],"parents":[2147483647,0,0,1,1,2,2,3,3,4,4,5,5,6,6],"right_children":[2,4,6,8,10,12,14,-1,-1,-1,-1,-1,-1,-1,-1],"split_conditions":[-2.5883812E-1,2.2582185E-1,1.4388624E0,-1.3170084E0,3.5925975E0,8.6995935E-1,-7.1544105E-1,-1.1179369E-4,4.093294E-4,-1.758233E-4,1.0996526E-3,-4.2013413E-5,2.422289E-4,-3.7925153E-3,-4.2702892E-4],"split_indices":[37,33,35,39,34,35,8,0,0,0,0,0,0,0,0],"split_type":[0,0,0,0,0,0,0,0,0,0,0,0,0,0,0],"sum_hessian":[4.9991E4,9.664E3,4.0327E4,5.478E3,4.186E3,3.843E4,1.897E3,1.044E3,4.434E3,3.995E3,1.91E2,3.5844E4,2.586E3,4.1E1,1.856E3],"tree_param":{"num_deleted":"0","num_feature":"41","num_nodes":"15","size_leaf_vector":"1"}},{"base_weights":[-3.9279886E-4,2.3394646E-2,-9.871202E-4,-0E0,6.179474E-2,-3.1885225E-2,-4.159063E-4,1.5724121E-4,-1.4798432E-3,-0E0,1.2558465E-3,-6.9353246E-4,1.6052074E-3,7.514318E-6,-3.8479362E-4],"categories":[],"categories_nodes":[],"categories_segments":[],"categories_sizes":[],"default_left":[0,0,0,0,0,0,0,0,0,0,0,0,0,0,0],"id":60,"left_children":[1,3,5,7,9,11,13,-1,-1,-1,-1,-1,-1,-1,-1],"loss_changes":[6.5632856E-1,1.0083463E0,7.8994477E-1,5.423723E-1,3.441993E-1,7.0227414E-1,9.196302E-1,0E0,0E0,0E0,0E0,0E0,0E0,0E0,0E0],"parents":[2147483647,0,0,1,1,2,2,3,3,4,4,5,5,6,6],"right_children":[2,4,6,8,10,12,14,-1,-1,-1,-1,-1,-1,-1,-1],"split_conditions":[-1.1325678E0,-1.1427563E0,-1.1129464E0,-1.1430826E0,-1.4683576E0,-4.72484E-1,1.6620312E0,1.5724121E-4,-1.4798432E-3,-0E0,1.2558465E-3,-6.9353246E-4,1.6052074E-3,7.514318E-6,-3.8479362E-4],"split_indices":[3,11,10,29,20,37,35,0,0,0,0,0,0,0,0],"split_type":[0,0,0,0,0,0,0,0,0,0,0,0,0,0,0],"sum_hessian":[4.9812E4,1.117E3,4.8695E4,7.01E2,4.16E2,8.06E2,4.7889E4,6.42E2,5.9E1,4.3E1,3.73E2,7.81E2,2.5E1,4.5996E4,1.893E3],"tree_param":{"num_deleted":"0","num_feature":"41","num_nodes":"15","size_leaf_vector":"1"}},{"base_weights":[4.94305E-4,3.175377E-3,-3.8103168E-3,6.8519413E-3,-1.2650044E-3,-2.317281E-2,-2.1795353E-3,3.066433E-4,3.335074E-5,-1.1082169E-4,1.9295538E-4,-1.3357552E-4,-1.1601555E-3,-2.5875517E-4,4.470589E-6],"categories":[],"categories_nodes":[],"categories_segments":[],"categories_sizes":[],"default_left":[0,0,0,0,0,0,0,0,0,0,0,0,0,0,0],"id":61,"left_children":[1,3,5,7,9,11,13,-1,-1,-1,-1,-1,-1,-1,-1],"loss_changes":[5.730808E-1,5.178449E-1,5.384294E-1,8.661232E-1,8.481358E-1,7.4488443E-1,5.6677437E-1,0E0,0E0,0E0,0E0,0E0,0E0,0E0,0E0],"parents":[2147483647,0,0,1,1,2,2,3,3,4,4,5,5,6,6],"right_children":[2,4,6,8,10,12,14,-1,-1,-1,-1,-1,-1,-1,-1],"split_conditions":[5.4248754E-2,2.0247023E-1,7.626672E-2,-2.6090786E-1,-5.321276E-1,-5.6010053E-2,-1.4587559E-1,3.066433E-4,3.335074E-5,-1.1082169E-4,1.9295538E-4,-1.3357552E-4,-1.1601555E-3,-2.5875517E-4,4.470589E-6],"split_indices":[37,26,37,37,13,8,9,0,0,0,0,0,0,0,0],"split_type":[0,0,0,0,0,0,0,0,0,0,0,0,0,0,0],"sum_hessian":[4.9755E4,3.0969E4,1.8786E4,1.7204E4,1.3765E4,1.347E3,1.7439E4,5.305E3,1.1899E4,9.874E3,3.891E3,1.035E3,3.12E2,2.959E3,1.448E4],"tree_param":{"num_deleted":"0","num_feature":"41","num_nodes":"15","size_leaf_vector":"1"}},{"base_weights":[-1.3069667E-5,2.6825815E-2,-6.060781E-4,-2.621501E-2,3.9589092E-2,-1.1058602E-3,3.3813827E-2,-2.0937484E-3,2.5803954E-4,-6.0628983E-4,8.897692E-4,-4.2803722E-4,-6.515221E-6,9.32233E-4,-0E0],"categories":[],"categories_nodes":[],"categories_segments":[],"categories_sizes":[],"default_left":[0,0,0,0,0,0,0,0,0,0,0,0,0,0,0],"id":62,"left_children":[1,3,5,7,9,11,13,-1,-1,-1,-1,-1,-1,-1,-1],"loss_changes":[7.320705E-1,7.1058995E-1,7.6513267E-1,8.757708E-1,7.4979377E-1,7.6741064E-1,4.4293934E-1,0E0,0E0,0E0,0E0,0E0,0E0,0E0,0E0],"parents":[2147483647,0,0,1,1,2,2,3,3,4,4,5,5,6,6],"right_children":[2,4,6,8,10,12,14,-1,-1,-1,-1,-1,-1,-1,-1],"split_conditions":[-1.1312393E0,-1.1704959E-1,2.0483902E0,-1.1395928E0,-1.3170084E0,-1.0938463E0,5.4248754E-2,-2.0937484E-3,2.5803954E-4,-6.0628983E-4,8.897692E-4,-4.2803722E-4,-6.515221E-6,9.32233E-4,-0E0],"split_indices":[16,35,39,15,39,16,37,0,0,0,0,0,0,0,0],"split_type":[0,0,0,0,0,0,0,0,0,0,0,0,0,0,0],"sum_hessian":[4.9524E4,9.83E2,4.8541E4,1.56E2,8.27E2,4.7917E4,6.24E2,5.8E1,9.8E1,8.1E1,7.46E2,1.361E3,4.6556E4,4.02E2,2.22E2],"tree_param":{"num_deleted":"0","num_feature":"41","num_nodes":"15","size_leaf_vector":"1"}},{"base_weights":[-5.690839E-4,-1.0942494E-3,3.0060401E-2,-1.8046173E-4,-2.3151988E-2,5.1953383E-2,-2.54475E-2,4.2377236E-5,-9.156495E-5,1.1343383E-3,-6.418428E-4,1.3835112E-3,-0E0,2.1492294E-4,-1.215187E-3],"categories":[],"categories_nodes":[],"categories_segments":[],"categories_sizes":[],"default_left":[0,0,0,0,0,0,0,0,0,0,0,0,0,0,0],"id":63,"left_children":[1,3,5,7,9,11,13,-1,-1,-1,-1,-1,-1,-1,-1],"loss_changes":[7.388487E-1,9.3795496E-1,1.0060198E0,6.2610406E-1,2.1692886E0,7.148143E-1,4.5718735E-1,0E0,0E0,0E0,0E0,0E0,0E0,0E0,0E0],"parents":[2147483647,0,0,1,1,2,2,3,3,4,4,5,5,6,6],"right_children":[2,4,6,8,10,12,14,-1,-1,-1,-1,-1,-1,-1,-1],"split_conditions":[2.8185995E0,1.5825282E0,2.2948344E0,5.5444664E-1,-3.6111015E-1,-3.1357918E-2,4.084561E-1,4.2377236E-5,-9.156495E-5,1.1343383E-3,-6.418428E-4,1.3835112E-3,-0E0,2.1492294E-4,-1.215187E-3],"split_indices":[28,35,35,25,37,37,36,0,0,0,0,0,0,0,0],"split_type":[0,0,0,0,0,0,0,0,0,0,0,0,0,0,0],"sum_hessian":[4.978E4,4.9019E4,7.61E2,4.7172E4,1.847E3,5.74E2,1.87E2,3.0857E4,1.6315E4,2.2E2,1.627E3,3.57E2,2.17E2,7.8E1,1.09E2],"tree_param":{"num_deleted":"0","num_feature":"41","num_nodes":"15","size_leaf_vector":"1"}},{"base_weights":[-2.5560957E-4,-4.3097608E-2,4.476569E-5,2.8349364E-3,-6.8013504E-2,3.441593E-2,-1.9506335E-4,-2.759104E-3,-2.2430328E-4,-0E0,1.3056225E-3,-1.2471271E-3,9.112013E-7],"categories":[],"categories_nodes":[],"categories_segments":[],"categories_sizes":[],"default_left":[0,0,0,0,0,0,0,0,0,0,0,0,0],"id":64,"left_children":[1,3,5,-1,7,9,11,-1,-1,-1,-1,-1,-1],"loss_changes":[7.3520094E-1,1.9337177E0,4.8209685E-1,0E0,1.446707E0,6.9099015E-1,1.0162096E0,0E0,0E0,0E0,0E0,0E0,0E0],"parents":[2147483647,0,0,1,1,2,2,4,4,5,5,6,6],"right_children":[2,4,6,-1,8,10,12,-1,-1,-1,-1,-1,-1],"split_conditions":[-3.3784544E0,-9.9813575E-1,-1.1698061E0,2.8349364E-3,-2.2833936E-1,-1.2187227E0,-1.1534874E0,-2.759104E-3,-2.2430328E-4,-0E0,1.3056225E-3,-1.2471271E-3,9.112013E-7],"split_indices":[21,5,14,0,37,11,11,0,0,0,0,0,0],"split_type":[0,0,0,0,0,0,0,0,0,0,0,0,0],"sum_hessian":[4.9918E4,3.88E2,4.953E4,2.7E1,3.61E2,3.96E2,4.9134E4,1.16E2,2.45E2,1.95E2,2.01E2,1.91E2,4.8943E4],"tree_param":{"num_deleted":"0","num_feature":"41","num_nodes":"13","size_leaf_vector":"1"}},{"base_weights":[-7.9703715E-4,-1.5637292E-2,1.6179862E-5,-4.9429655E-2,-1.0953339E-2,-8.223252E-4,2.4787052E-2,-0E0,-1.2101257E-3,3.3148087E-4,-2.614196E-4,1.2854922E-7,-5.1211327E-4,1.1494426E-3,-0E0],"categories":[],"categories_nodes":[],"categories_segments":[],"categories_sizes":[],"default_left":[0,0,0,0,0,0,0,0,0,0,0,0,0,0,0],"id":65,"left_children":[1,3,5,7,9,11,13,-1,-1,-1,-1,-1,-1,-1,-1],"loss_changes":[6.3366306E-1,2.9546404E-1,1.0281744E0,3.1170136E-1,2.8656387E-1,1.1338995E0,1.5317895E0,0E0,0E0,0E0,0E0,0E0,0E0,0E0,0E0],"parents":[2147483647,0,0,1,1,2,2,3,3,4,4,5,5,6,6],"right_children":[2,4,6,8,10,12,14,-1,-1,-1,-1,-1,-1,-1,-1],"split_conditions":[-1.5809952E0,-1.0295129E0,2.5191429E0,-1.5354121E0,-8.0103827E-1,1.4388624E0,-7.505129E-1,-0E0,-1.2101257E-3,3.3148087E-4,-2.614196E-4,1.2854922E-7,-5.1211327E-4,1.1494426E-3,-0E0],"split_indices":[39,16,34,27,13,35,16,0,0,0,0,0,0,0,0],"split_type":[0,0,0,0,0,0,0,0,0,0,0,0,0,0,0],"sum_hessian":[4.971E4,2.711E3,4.6999E4,2.63E2,2.448E3,4.5385E4,1.614E3,6.8E1,1.95E2,2.2E2,2.228E3,4.4034E4,1.351E3,5.77E2,1.037E3],"tree_param":{"num_deleted":"0","num_feature":"41","num_nodes":"15","size_leaf_vector":"1"}},{"base_weights":[-3.4219955E-4,-5.0854728E-2,-7.980032E-5,-0E0,-9.0311475E-2,-6.6545315E-4,1.6373007E-2,-2.1726151E-3,-0E0,1.2219408E-6,-1.6864981E-4,7.813792E-4,5.970398E-5],"categories":[],"categories_nodes":[],"categories_segments":[],"categories_sizes":[],"default_left":[0,0,0,0,0,0,0,0,0,0,0,0,0],"id":66,"left_children":[1,3,5,-1,7,9,11,-1,-1,-1,-1,-1,-1],"loss_changes":[5.518624E-1,6.0506356E-1,4.452337E-1,0E0,5.8655393E-1,3.3803248E-1,4.749552E-1,0E0,0E0,0E0,0E0,0E0,0E0],"parents":[2147483647,0,0,1,1,2,2,4,4,5,5,6,6],"right_children":[2,4,6,-1,8,10,12,-1,-1,-1,-1,-1,-1],"split_conditions":[-4.1541796E0,-1.2072862E0,1.9216163E0,-0E0,-1.8070433E-1,1.1060433E0,-7.345186E-1,-2.1726151E-3,-0E0,1.2219408E-6,-1.6864981E-4,7.813792E-4,5.970398E-5],"split_indices":[21,25,23,0,38,28,16,0,0,0,0,0,0],"split_type":[0,0,0,0,0,0,0,0,0,0,0,0,0],"sum_hessian":[4.9902E4,2.06E2,4.9696E4,7.3E1,1.33E2,4.8123E4,1.573E3,1.04E2,2.9E1,4.4264E4,3.859E3,4.35E2,1.138E3],"tree_param":{"num_deleted":"0","num_feature":"41","num_nodes":"13","size_leaf_vector":"1"}},{"base_weights":[-0E0,6.8630995E-3,-1.7691683E-3,-5.3462165E-4,1.9267092E-2,-7.6002383E-4,-4.3755744E-2,2.6945528E-4,-2.1192332E-4,8.107118E-4,1.5699986E-4,-2.3042645E-5,9.3293935E-4,-1.5120477E-3,1.557853E-4],"categories":[],"categories_nodes":[],"categories_segments":[],"categories_sizes":[],"default_left":[0,0,0,0,0,0,0,0,0,0,0,0,0,0,0],"id":67,"left_children":[1,3,5,7,9,11,13,-1,-1,-1,-1,-1,-1,-1,-1],"loss_changes":[6.006398E-1,9.6900463E-1,1.582298E0,1.1448803E0,9.604268E-1,1.0541428E0,2.1483312E0,0E0,0E0,0E0,0E0,0E0,0E0,0E0,0E0],"parents":[2147483647,0,0,1,1,2,2,3,3,4,4,5,5,6,6],"right_children":[2,4,6,8,10,12,14,-1,-1,-1,-1,-1,-1,-1,-1],"split_conditions":[-2.5472715E-1,-9.2046154E-1,1.9602138E0,-3.495541E-1,-3.263799E-1,2.8185995E0,1.182658E-1,2.6945528E-4,-2.1192332E-4,8.107118E-4,1.5699986E-4,-2.3042645E-5,9.3293935E-4,-1.5120477E-3,1.557853E-4],"split_indices":[37,32,35,24,37,28,16,0,0,0,0,0,0,0,0],"split_type":[0,0,0,0,0,0,0,0,0,0,0,0,0,0,0],"sum_hessian":[4.9714E4,1.011E4,3.9604E4,6.23E3,3.88E3,3.8734E4,8.7E2,2.542E3,3.688E3,1.003E3,2.877E3,3.8388E4,3.46E2,5E2,3.7E2],"tree_param":{"num_deleted":"0","num_feature":"41","num_nodes":"15","size_leaf_vector":"1"}},{"base_weights":[-2.1040367E-4,-5.8562314E-4,4.5467698E-4,1.8953973E-2,-1.0242856E-3,-0E0,1.3933148E-3,-6.909583E-6,-2.9696888E-4],"categories":[],"categories_nodes":[],"categories_segments":[],"categories_sizes":[],"default_left":[0,0,0,0,0,0,0,0,0],"id":68,"left_children":[1,3,-1,5,7,-1,-1,-1,-1],"loss_changes":[4.3470892E-1,3.8310167E-1,0E0,1.0922778E0,4.4643912E-1,0E0,0E0,0E0,0E0],"parents":[2147483647,0,0,1,1,3,3,4,4],"right_children":[2,4,-1,6,8,-1,-1,-1,-1],"split_conditions":[2.0483902E0,-1.1312393E0,4.5467698E-4,-1.1395928E0,1.5596064E0,-0E0,1.3933148E-3,-6.909583E-6,-2.9696888E-4],"split_indices":[39,16,0,15,22,0,0,0,0],"split_type":[0,0,0,0,0,0,0,0,0],"sum_hessian":[4.9781E4,4.9168E4,6.13E2,9.63E2,4.8205E4,7.45E2,2.18E2,4.6513E4,1.692E3],"tree_param":{"num_deleted":"0","num_feature":"41","num_nodes":"9","size_leaf_vector":"1"}},{"base_weights":[-2.3071936E-5,-4.204421E-2,2.7839848E-4,4.3480247E-2,-8.7596975E-2,-6.192771E-5,3.1120433E-2,1.704178E-3,-3.9062573E-4,-0E0,-1.9921167E-3,3.896946E-5,-9.068232E-5,7.7437377E-4,-1.4511411E-4],"categories":[],"categories_nodes":[],"categories_segments":[],"categories_sizes":[],"default_left":[0,0,0,0,0,0,0,0,0,0,0,0,0,0,0],"id":69,"left_children":[1,3,5,7,9,11,13,-1,-1,-1,-1,-1,-1,-1,-1],"loss_changes":[7.18875E-1,1.7072263E0,5.8377755E-1,6.449747E-1,8.7516713E-1,5.7629997E-1,3.944984E-1,0E0,0E0,0E0,0E0,0E0,0E0,0E0,0E0],"parents":[2147483647,0,0,1,1,2,2,3,3,4,4,5,5,6,6],"right_children":[2,4,6,8,10,12,14,-1,-1,-1,-1,-1,-1,-1,-1],"split_conditions":[-3.3784544E0,-1.0495763E0,2.0483902E0,-1.1484426E0,1.5319555E0,6.5260965E-1,1.1224029E-1,1.704178E-3,-3.9062573E-4,-0E0,-1.9921167E-3,3.896946E-5,-9.068232E-5,7.7437377E-4,-1.4511411E-4],"split_indices":[21,33,39,39,36,24,15,0,0,0,0,0,0,0,0],"split_type":[0,0,0,0,0,0,0,0,0,0,0,0,0,0,0],"sum_hessian":[4.9631E4,3.95E2,4.9236E4,1.21E2,2.74E2,4.8639E4,5.97E2,8.2E1,3.9E1,4.8E1,2.26E2,3.3326E4,1.5313E4,4.88E2,1.09E2],"tree_param":{"num_deleted":"0","num_feature":"41","num_nodes":"15","size_leaf_vector":"1"}}]},"name":"gbtree"},"learner_model_param":{"base_score":"[5.127507E-1]","boost_from_average":"1","num_class":"0","num_feature":"41","num_target":"1"},"objective":{"name":"reg:squarederror","reg_loss_param":{"scale_pos_weight":"1"}}},"version":[3,2,0]}