{"learner":{"attributes":{"best_iteration":"18","best_score":"0.1494279451664513","scikit_learn":"{\"_estimator_type\": \"regressor\"}"},"feature_names":[],"feature_types":[],"gradient_booster":{"model":{"cats":{"enc":[],"feature_segments":[],"sorted_idx":[]},"gbtree_model_param":{"num_parallel_tree":"1","num_trees":"49"},"iteration_indptr":[0,1,2,3,4,5,6,7,8,9,10,11,12,13,14,15,16,17,18,19,20,21,22,23,24,25,26,27,28,29,30,31,32,33,34,35,36,37,38,39,40,41,42,43,44,45,46,47,48,49],"tree_info":[0,0,0,0,0,0,0,0,0,0,0,0,0,0,0,0,0,0,0,0,0,0,0,0,0,0,0,0,0,0,0,0,0,0,0,0,0,0,0,0,0,0,0,0,0,0,0,0,0],"trees":[{"base_weights":[1.20340264E-4,-3.6119388E-3,3.1978083E-3,-6.280106E-5,-1.1095349E-2,1.4488462E-3,8.58418E-3,-0E0,-7.63343E-4,9.655578E-5,-2.4882243E-3,-9.727686E-4,5.4400734E-4],"categories":[],"categories_nodes":[],"categories_segments":[],"categories_sizes":[],"default_left":[0,0,0,0,0,0,0,0,0,0,0,0,0],"id":0,"left_children":[1,3,5,-1,7,9,11,-1,-1,-1,-1,-1,-1],"loss_changes":[1.7886541E0,1.229575E0,7.525323E-1,0E0,4.9601483E-1,5.065485E-1,4.8484433E-1,0E0,0E0,0E0,0E0,0E0,0E0],"parents":[2147483647,0,0,1,1,2,2,4,4,5,5,6,6],"right_children":[2,4,6,-1,8,10,12,-1,-1,-1,-1,-1,-1],"split_conditions":[-1.7267592E-1,2.594453E-1,3.1888552E-2,-6.280106E-5,-3.9072555E-1,2.4820435E0,-1.3166839E0,-0E0,-7.63343E-4,9.655578E-5,-2.4882243E-3,-9.727686E-4,5.4400734E-4],"split_indices":[33,34,35,0,36,34,38,0,0,0,0,0,0],"split_type":[0,0,0,0,0,0,0,0,0,0,0,0,0],"sum_hessian":[1.55937E5,6.9578E4,8.6359E4,5.2746E4,1.6832E4,6.6047E4,2.0312E4,2.674E3,1.4158E4,6.5815E4,2.32E2,5.4E2,1.9772E4],"tree_param":{"num_deleted":"0","num_feature":"41","num_nodes":"13","size_leaf_vector":"1"}},{"base_weights":[-6.8636E-5,-7.953982E-3,1.1756308E-3,-5.798396E-3,-3.6856562E-2,3.4709543E-4,8.345936E-3,-5.4332643E-4,-0E0,-0E0,-3.7264335E-3,1.494716E-4,-8.6410044E-5,5.418257E-4,-1.0351375E-3],"categories":[],"categories_nodes":[],"categories_segments":[],"categories_sizes":[],"default_left":[0,0,0,0,0,0,0,0,0,0,0,0,0,0,0],"id":1,"left_children":[1,3,5,7,9,11,13,-1,-1,-1,-1,-1,-1,-1,-1],"loss_changes":[1.580413E0,1.1133983E0,7.481396E-1,5.082053E-1,1.549791E0,5.2808833E-1,3.7411737E-1,0E0,0E0,0E0,0E0,0E0,0E0,0E0,0E0],"parents":[2147483647,0,0,1,1,2,2,3,3,4,4,5,5,6,6],"right_children":[2,4,6,8,10,12,14,-1,-1,-1,-1,-1,-1,-1,-1],"split_conditions":[-1.0275327E0,1.4188418E0,1.3069563E0,-5.294538E-1,8.8022316E-1,-5.3204E-1,2.3836613E0,-5.4332643E-4,-0E0,-0E0,-3.7264335E-3,1.494716E-4,-8.6410044E-5,5.418257E-4,-1.0351375E-3],"split_indices":[23,35,38,14,36,37,39,0,0,0,0,0,0,0,0],"split_type":[0,0,0,0,0,0,0,0,0,0,0,0,0,0,0],"sum_hessian":[1.5687E5,2.2043E4,1.34827E5,2.0713E4,1.33E3,1.21625E5,1.3202E4,1.3107E4,7.606E3,5.56E2,7.74E2,5.6159E4,6.5466E4,1.2847E4,3.55E2],"tree_param":{"num_deleted":"0","num_feature":"41","num_nodes":"15","size_leaf_vector":"1"}},{"base_weights":[-1.835621E-4,-1.1077293E-2,6.027906E-4,6.2304916E-4,-1.485958E-2,-1.5104364E-4,6.885869E-3,-2.8375518E-3,-6.765126E-4,-3.819782E-5,5.1797583E-4,4.4905546E-4,-1.1709961E-3],"categories":[],"categories_nodes":[],"categories_segments":[],"categories_sizes":[],"default_left":[0,0,0,0,0,0,0,0,0,0,0,0,0],"id":2,"left_children":[1,3,5,-1,7,9,11,-1,-1,-1,-1,-1,-1],"loss_changes":[1.408753E0,9.4998205E-1,7.3212266E-1,0E0,6.1982703E-1,5.772594E-1,3.9428502E-1,0E0,0E0,0E0,0E0,0E0,0E0],"parents":[2147483647,0,0,1,1,2,2,4,4,5,5,6,6],"right_children":[2,4,6,-1,8,10,12,-1,-1,-1,-1,-1,-1],"split_conditions":[-1.1466316E0,-4.7142154E-1,1.1945757E0,6.2304916E-4,-1.0408663E0,1.2706869E0,2.3836613E0,-2.8375518E-3,-6.765126E-4,-3.819782E-5,5.1797583E-4,4.4905546E-4,-1.1709961E-3],"split_indices":[28,36,38,0,15,28,39,0,0,0,0,0,0],"split_type":[0,0,0,0,0,0,0,0,0,0,0,0,0],"sum_hessian":[1.57011E5,1.1088E4,1.45923E5,1.386E3,9.702E3,1.2943E5,1.6493E4,5.8E2,9.122E3,1.23156E5,6.274E3,1.611E4,3.83E2],"tree_param":{"num_deleted":"0","num_feature":"41","num_nodes":"13","size_leaf_vector":"1"}},{"base_weights":[-6.7789486E-5,-7.550068E-3,1.0799096E-3,-4.870563E-2,-6.465483E-3,1.1244399E-2,6.014128E-4,-0E0,-4.4585746E-3,-4.3374262E-4,8.3340594E-4,3.559776E-5,4.3475907E-3,2.151631E-5,1.3184468E-3],"categories":[],"categories_nodes":[],"categories_segments":[],"categories_sizes":[],"default_left":[0,0,0,0,0,0,0,0,0,0,0,0,0,0,0],"id":3,"left_children":[1,3,5,7,9,11,13,-1,-1,-1,-1,-1,-1,-1,-1],"loss_changes":[1.3825085E0,6.233115E-1,5.84083E-1,8.9341784E-1,4.8778594E-1,3.3474028E0,5.066596E-1,0E0,0E0,0E0,0E0,0E0,0E0,0E0,0E0],"parents":[2147483647,0,0,1,1,2,2,3,3,4,4,5,5,6,6],"right_children":[2,4,6,8,10,12,14,-1,-1,-1,-1,-1,-1,-1,-1],"split_conditions":[-1.0451608E0,-3.392888E0,-1.8533906E0,-2.2122707E-2,2.9117103E0,-9.202943E-1,1.2266012E0,-0E0,-4.4585746E-3,-4.3374262E-4,8.3340594E-4,3.559776E-5,4.3475907E-3,2.151631E-5,1.3184468E-3],"split_indices":[23,21,37,4,36,3,15,0,0,0,0,0,0,0,0],"split_type":[0,0,0,0,0,0,0,0,0,0,0,0,0,0,0],"sum_hessian":[1.56404E5,2.1502E4,1.34902E5,4.04E2,2.1098E4,5.49E3,1.29412E5,1.07E2,2.97E2,2.0252E4,8.46E2,4.807E3,6.83E2,1.28427E5,9.85E2],"tree_param":{"num_deleted":"0","num_feature":"41","num_nodes":"15","size_leaf_vector":"1"}},{"base_weights":[-0E0,-6.3695544E-3,1.0695634E-3,-1.6483094E-3,-4.421675E-3,1.0964753E-2,3.7183032E-5,2.1829678E-6,-5.855941E-4,6.0634302E-5,4.134665E-3],"categories":[],"categories_nodes":[],"categories_segments":[],"categories_sizes":[],"default_left":[0,0,0,0,0,0,0,0,0,0,0],"id":4,"left_children":[1,3,5,-1,7,9,-1,-1,-1,-1,-1],"loss_changes":[1.0488024E0,7.719352E-1,4.7879902E-1,0E0,6.0487366E-1,2.4915426E0,0E0,0E0,0E0,0E0,0E0],"parents":[2147483647,0,0,1,1,2,2,4,4,5,5],"right_children":[2,4,6,-1,8,10,-1,-1,-1,-1,-1],"split_conditions":[-6.813092E-1,-1.0336211E0,-1.8533906E0,-1.6483094E-3,-1.692361E-1,-9.254145E-1,3.7183032E-5,2.1829678E-6,-5.855941E-4,6.0634302E-5,4.134665E-3],"split_indices":[28,15,37,0,37,32,0,0,0,0,0],"split_type":[0,0,0,0,0,0,0,0,0,0,0],"sum_hessian":[1.56337E5,2.2061E4,1.34276E5,1.492E3,2.0569E4,4.793E3,1.29483E5,1.1138E4,9.431E3,4.221E3,5.72E2],"tree_param":{"num_deleted":"0","num_feature":"41","num_nodes":"11","size_leaf_vector":"1"}},{"base_weights":[-0E0,-7.165951E-3,1.1732165E-3,-5.3839036E-3,-3.0571504E-2,2.7638209E-5,5.7711424E-3,1.2854408E-3,-3.6769724E-4,-0E0,-3.2657199E-3,-9.326995E-4,4.268295E-4],"categories":[],"categories_nodes":[],"categories_segments":[],"categories_sizes":[],"default_left":[0,0,0,0,0,0,0,0,0,0,0,0,0],"id":5,"left_children":[1,3,5,7,9,-1,11,-1,-1,-1,-1,-1,-1],"loss_changes":[1.318778E0,7.015368E-1,3.860169E-1,5.4487777E-1,1.1889268E0,0E0,5.838274E-1,0E0,0E0,0E0,0E0,0E0,0E0],"parents":[2147483647,0,0,1,1,2,2,3,3,4,4,6,6],"right_children":[2,4,6,8,10,-1,12,-1,-1,-1,-1,-1,-1],"split_conditions":[-1.0275327E0,1.4188418E0,5.8788335E-1,-2.3071709E0,9.468401E-1,2.7638209E-5,-1.0011832E0,1.2854408E-3,-3.6769724E-4,-0E0,-3.2657199E-3,-9.326995E-4,4.268295E-4],"split_indices":[23,35,20,20,36,0,32,0,0,0,0,0,0],"split_type":[0,0,0,0,0,0,0,0,0,0,0,0,0],"sum_hessian":[1.56599E5,2.2072E4,1.34527E5,2.0756E4,1.316E3,1.18225E5,1.6302E4,5.74E2,2.0182E4,5.9E2,7.26E2,9.4E2,1.5362E4],"tree_param":{"num_deleted":"0","num_feature":"41","num_nodes":"13","size_leaf_vector":"1"}},{"base_weights":[2.1345917E-5,-2.9584568E-3,2.6402858E-3,-4.3185748E-5,-1.0498217E-2,5.9210015E-3,-0E0,-1.6716012E-3,-4.0024047E-4,-1.3367673E-5,5.0965766E-4,-1.663127E-5,1.4945125E-3],"categories":[],"categories_nodes":[],"categories_segments":[],"categories_sizes":[],"default_left":[0,0,0,0,0,0,0,0,0,0,0,0,0],"id":6,"left_children":[1,3,5,-1,7,9,11,-1,-1,-1,-1,-1,-1],"loss_changes":[1.2182661E0,1.1248069E0,7.292622E-1,0E0,7.973013E-1,7.63479E-1,3.659817E-1,0E0,0E0,0E0,0E0,0E0,0E0],"parents":[2147483647,0,0,1,1,2,2,4,4,5,5,6,6],"right_children":[2,4,6,-1,8,10,12,-1,-1,-1,-1,-1,-1],"split_conditions":[-1.2315891E-1,3.464834E-1,-5.3204E-1,-4.3185748E-5,-9.8445666E-1,-1.0030129E0,3.16572E0,-1.6716012E-3,-4.0024047E-4,-1.3367673E-5,5.0965766E-4,-1.663127E-5,1.4945125E-3],"split_indices":[26,34,37,0,31,10,34,0,0,0,0,0,0],"split_type":[0,0,0,0,0,0,0,0,0,0,0,0,0],"sum_hessian":[1.5635E5,7.205E4,8.43E4,5.6423E4,1.5627E4,3.7561E4,4.6739E4,2.119E3,1.3508E4,1.1842E4,2.5719E4,4.6222E4,5.17E2],"tree_param":{"num_deleted":"0","num_feature":"41","num_nodes":"13","size_leaf_vector":"1"}},{"base_weights":[5.332708E-5,-3.4542277E-3,2.4380984E-3,-3.364493E-5,-1.3104254E-2,5.2969726E-3,5.2646334E-5,-1.7936475E-3,-5.410521E-4,-1.815671E-4,4.3396108E-4,-4.218268E-6,1.75191E-3],"categories":[],"categories_nodes":[],"categories_segments":[],"categories_sizes":[],"default_left":[0,0,0,0,0,0,0,0,0,0,0,0,0],"id":7,"left_children":[1,3,5,-1,7,9,11,-1,-1,-1,-1,-1,-1],"loss_changes":[1.303254E0,1.6371639E0,6.10007E-1,0E0,6.5658975E-1,8.6341786E-1,3.934427E-1,0E0,0E0,0E0,0E0,0E0,0E0],"parents":[2147483647,0,0,1,1,2,2,4,4,5,5,6,6],"right_children":[2,4,6,-1,8,10,12,-1,-1,-1,-1,-1,-1],"split_conditions":[-2.4562551E-1,4.2873737E-1,-5.3204E-1,-3.364493E-5,-9.8445666E-1,-1.0388181E0,3.510533E0,-1.7936475E-3,-5.410521E-4,-1.815671E-4,4.3396108E-4,-4.218268E-6,1.75191E-3],"split_indices":[23,34,37,0,31,1,34,0,0,0,0,0,0],"split_type":[0,0,0,0,0,0,0,0,0,0,0,0,0],"sum_hessian":[1.56535E5,6.2321E4,9.4214E4,4.856E4,1.3761E4,4.1693E4,5.2521E4,1.936E3,1.1825E4,8.498E3,3.3195E4,5.2113E4,4.08E2],"tree_param":{"num_deleted":"0","num_feature":"41","num_nodes":"13","size_leaf_vector":"1"}},{"base_weights":[4.5422483E-5,-4.7080405E-3,1.153864E-3,-8.937648E-3,-0E0,-3.589535E-6,5.6951432E-3,-1.3917038E-3,-3.446158E-4,3.3556084E-5,-3.4090944E-4,-3.6964628E-3,3.4947685E-4],"categories":[],"categories_nodes":[],"categories_segments":[],"categories_sizes":[],"default_left":[0,0,0,0,0,0,0,0,0,0,0,0,0],"id":8,"left_children":[1,3,5,7,-1,9,11,-1,-1,-1,-1,-1,-1],"loss_changes":[8.037855E-1,5.247387E-1,7.0777804E-1,4.6026778E-1,0E0,3.9457297E-1,5.461742E-1,0E0,0E0,0E0,0E0,0E0,0E0],"parents":[2147483647,0,0,1,1,2,2,3,3,5,5,6,6],"right_children":[2,4,6,8,-1,10,12,-1,-1,-1,-1,-1,-1],"split_conditions":[-9.801604E-1,-6.280722E-1,1.0297334E-1,-9.929115E-1,-0E0,-1.057643E-1,-1.1425362E0,-1.3917038E-3,-3.446158E-4,3.3556084E-5,-3.4090944E-4,-3.6964628E-3,3.4947685E-4],"split_indices":[33,38,35,31,0,35,31,0,0,0,0,0,0],"split_type":[0,0,0,0,0,0,0,0,0,0,0,0,0],"sum_hessian":[1.56646E5,2.8581E4,1.28065E5,1.4497E4,1.4084E4,1.0099E5,2.7075E4,1.909E3,1.2588E4,9.0968E4,1.0022E4,9E1,2.6985E4],"tree_param":{"num_deleted":"0","num_feature":"41","num_nodes":"13","size_leaf_vector":"1"}},{"base_weights":[-0E0,-8.6023414E-4,7.430125E-3,-6.5044723E-3,-4.1544667E-5,1.1172406E-2,-0E0,-2.863119E-4,-4.277626E-3,-8.1026065E-4,6.9926386E-6,3.5761355E-4,2.0686516E-3],"categories":[],"categories_nodes":[],"categories_segments":[],"categories_sizes":[],"default_left":[0,0,0,0,0,0,0,0,0,0,0,0,0],"id":9,"left_children":[1,3,5,7,9,11,-1,-1,-1,-1,-1,-1,-1],"loss_changes":[9.8379934E-1,6.1022204E-1,3.9482206E-1,1.2004378E0,3.7718713E-1,9.9636316E-1,0E0,0E0,0E0,0E0,0E0,0E0,0E0],"parents":[2147483647,0,0,1,1,2,2,3,3,4,4,5,5],"right_children":[2,4,6,8,10,12,-1,-1,-1,-1,-1,-1,-1],"split_conditions":[1.2156867E0,-1.1838409E0,1.1729791E0,2.9036417E0,-1.4705356E0,3.626955E-1,-0E0,-2.863119E-4,-4.277626E-3,-8.1026065E-4,6.9926386E-6,3.5761355E-4,2.0686516E-3],"split_indices":[38,23,39,35,22,34,0,0,0,0,0,0,0],"split_type":[0,0,0,0,0,0,0,0,0,0,0,0,0],"sum_hessian":[1.56599E5,1.40668E5,1.5931E4,1.6875E4,1.23793E5,1.0207E4,5.724E3,1.6617E4,2.58E2,1.834E3,1.21959E5,8.768E3,1.439E3],"tree_param":{"num_deleted":"0","num_feature":"41","num_nodes":"13","size_leaf_vector":"1"}},{"base_weights":[-7.993272E-5,-5.046337E-3,1.0157605E-3,-9.358393E-5,-1.3677791E-2,-0E0,5.063909E-3,-2.5764077E-3,-5.7382206E-4,4.5198494E-6,-2.0367948E-3,-3.5995687E-3,3.121247E-4],"categories":[],"categories_nodes":[],"categories_segments":[],"categories_sizes":[],"default_left":[0,0,0,0,0,0,0,0,0,0,0,0,0],"id":10,"left_children":[1,3,5,-1,7,9,11,-1,-1,-1,-1,-1,-1],"loss_changes":[8.782667E-1,7.67148E-1,5.5367005E-1,0E0,5.3927946E-1,4.9609306E-1,4.6016538E-1,0E0,0E0,0E0,0E0,0E0,0E0],"parents":[2147483647,0,0,1,1,2,2,4,4,5,5,6,6],"right_children":[2,4,6,-1,8,10,12,-1,-1,-1,-1,-1,-1],"split_conditions":[-8.521206E-1,3.15235E-1,1.0297334E-1,-9.358393E-5,-1.0177573E0,2.4820435E0,-1.1425362E0,-2.5764077E-3,-5.7382206E-4,4.5198494E-6,-2.0367948E-3,-3.5995687E-3,3.121247E-4],"split_indices":[38,34,35,0,31,34,31,0,0,0,0,0,0],"split_type":[0,0,0,0,0,0,0,0,0,0,0,0,0],"sum_hessian":[1.56886E5,2.9357E4,1.27529E5,2.1578E4,7.779E3,1.0081E5,2.6719E4,6.06E2,7.173E3,1.0043E5,3.8E2,8E1,2.6639E4],"tree_param":{"num_deleted":"0","num_feature":"41","num_nodes":"13","size_leaf_vector":"1"}},{"base_weights":[-0E0,-5.7420493E-3,9.2449615E-4,-1.4676406E-2,-3.2904434E-3,3.090932E-3,-4.1407624E-5,-1.619047E-3,-2.1890168E-4,3.3859868E-4,-3.67128E-4,8.245312E-6,4.450419E-4],"categories":[],"categories_nodes":[],"categories_segments":[],"categories_sizes":[],"default_left":[0,0,0,0,0,0,0,0,0,0,0,0,0],"id":11,"left_children":[1,3,5,7,9,11,-1,-1,-1,-1,-1,-1,-1],"loss_changes":[8.376741E-1,3.708009E-1,4.9593228E-1,4.3108094E-1,5.270261E-1,7.893835E-1,0E0,0E0,0E0,0E0,0E0,0E0,0E0],"parents":[2147483647,0,0,1,1,2,2,3,3,4,4,5,5],"right_children":[2,4,6,8,10,12,-1,-1,-1,-1,-1,-1,-1],"split_conditions":[-1.0275327E0,-9.44911E-1,-5.3204E-1,-3.2229E-1,-1.0862406E0,-1.9519824E-1,-4.1407624E-5,-1.619047E-3,-2.1890168E-4,3.3859868E-4,-3.67128E-4,8.245312E-6,4.450419E-4],"split_indices":[23,13,37,21,37,35,0,0,0,0,0,0,0],"split_type":[0,0,0,0,0,0,0,0,0,0,0,0,0],"sum_hessian":[1.56226E5,2.1921E4,1.34305E5,4.182E3,1.7739E4,5.9756E4,7.4549E4,1.582E3,2.6E3,4.051E3,1.3688E4,3.7708E4,2.2048E4],"tree_param":{"num_deleted":"0","num_feature":"41","num_nodes":"13","size_leaf_vector":"1"}},{"base_weights":[6.964976E-5,-8.910289E-4,3.0006267E-4,2.5363164E-3,-1.4061059E-3,2.0448135E-5,4.8650842E-4,-1.0429836E-3,-4.8543774E-5],"categories":[],"categories_nodes":[],"categories_segments":[],"categories_sizes":[],"default_left":[0,0,0,0,0,0,0,0,0],"id":12,"left_children":[1,-1,3,5,7,-1,-1,-1,-1],"loss_changes":[4.7621968E-1,0E0,5.974778E-1,8.472071E-1,6.886501E-1,0E0,0E0,0E0,0E0],"parents":[2147483647,0,0,2,2,3,3,4,4],"right_children":[2,-1,4,6,8,-1,-1,-1,-1],"split_conditions":[-1.1521641E0,-8.910289E-4,-5.3204E-1,9.061121E-2,-1.5493814E0,2.0448135E-5,4.8650842E-4,-1.0429836E-3,-4.8543774E-5],"split_indices":[2,0,37,35,28,0,0,0,0],"split_type":[0,0,0,0,0,0,0,0,0],"sum_hessian":[1.56657E5,1.87E3,1.54787E5,6.8529E4,8.6258E4,5.114E4,1.7389E4,2.352E3,8.3906E4],"tree_param":{"num_deleted":"0","num_feature":"41","num_nodes":"9","size_leaf_vector":"1"}},{"base_weights":[-8.627669E-5,-3.4447433E-3,1.8385989E-3,-2.5665835E-3,-2.9571107E-2,7.702257E-4,7.5251083E-3,6.847991E-4,-1.9634889E-4,-4.196984E-3,-6.971826E-6,6.034172E-5,-1.6567176E-3,2.1607612E-4,9.950799E-4],"categories":[],"categories_nodes":[],"categories_segments":[],"categories_sizes":[],"default_left":[0,0,0,0,0,0,0,0,0,0,0,0,0,0,0],"id":13,"left_children":[1,3,5,7,9,11,13,-1,-1,-1,-1,-1,-1,-1,-1],"loss_changes":[1.0190909E0,1.1357784E0,5.4550624E-1,6.889988E-1,1.7253273E0,5.6614274E-1,4.1413236E-1,0E0,0E0,0E0,0E0,0E0,0E0,0E0,0E0],"parents":[2147483647,0,0,1,1,2,2,3,3,4,4,5,5,6,6],"right_children":[2,4,6,8,10,12,14,-1,-1,-1,-1,-1,-1,-1,-1],"split_conditions":[-3.2868043E-1,1.7833865E0,1.259269E0,-1.9305617E0,-1.1373429E0,3.3971984E0,1.0297334E-1,6.847991E-4,-1.9634889E-4,-4.196984E-3,-6.971826E-6,6.034172E-5,-1.6567176E-3,2.1607612E-4,9.950799E-4],"split_indices":[38,35,38,37,25,28,35,0,0,0,0,0,0,0,0],"split_type":[0,0,0,0,0,0,0,0,0,0,0,0,0,0,0],"sum_hessian":[1.56123E5,5.803E4,9.8093E4,5.6372E4,1.658E3,8.3482E4,1.4611E4,2.861E3,5.3511E4,5.76E2,1.082E3,8.2875E4,6.07E2,1.111E4,3.501E3],"tree_param":{"num_deleted":"0","num_feature":"41","num_nodes":"15","size_leaf_vector":"1"}},{"base_weights":[-4.8896007E-4,-2.6237492E-3,1.3207536E-3,-2.5314595E-5,-9.307738E-3,-2.3494111E-3,2.5648384E-3,-4.2266093E-4,-1.996191E-3,-9.5005316E-4,-2.0909756E-5,9.861896E-5,7.2611985E-4],"categories":[],"categories_nodes":[],"categories_segments":[],"categories_sizes":[],"default_left":[0,0,0,0,0,0,0,0,0,0,0,0,0],"id":14,"left_children":[1,3,5,-1,7,9,11,-1,-1,-1,-1,-1,-1],"loss_changes":[6.131294E-1,1.0089649E0,3.8140875E-1,0E0,5.715883E-1,4.6205223E-1,4.4735762E-1,0E0,0E0,0E0,0E0,0E0,0E0],"parents":[2147483647,0,0,1,1,2,2,4,4,5,5,6,6],"right_children":[2,4,6,-1,8,10,12,-1,-1,-1,-1,-1,-1],"split_conditions":[-9.698155E-2,2.7323005E-1,-7.608065E-1,-2.5314595E-5,2.5670998E0,-1.4839723E0,1.0661081E0,-4.2266093E-4,-1.996191E-3,-9.5005316E-4,-2.0909756E-5,9.861896E-5,7.2611985E-4],"split_indices":[26,34,36,0,35,37,35,0,0,0,0,0,0],"split_type":[0,0,0,0,0,0,0,0,0,0,0,0,0],"sum_hessian":[1.56646E5,7.3409E4,8.3237E4,5.6062E4,1.7347E4,1.9834E4,6.3403E4,1.6414E4,9.33E2,2.022E3,1.7812E4,5.9232E4,4.171E3],"tree_param":{"num_deleted":"0","num_feature":"41","num_nodes":"13","size_leaf_vector":"1"}},{"base_weights":[1.9107154E-5,-2.4214261E-3,1.9821133E-3,3.2975284E-5,-5.7161706E-3,1.6741877E-3,1.1854678E-3,1.9403031E-3,-1.5112718E-5,-6.905176E-4,-1.5902476E-4,2.4370835E-4,-8.679513E-6],"categories":[],"categories_nodes":[],"categories_segments":[],"categories_sizes":[],"default_left":[0,0,0,0,0,0,0,0,0,0,0,0,0],"id":15,"left_children":[1,3,5,7,9,11,-1,-1,-1,-1,-1,-1,-1],"loss_changes":[7.4753815E-1,5.8789074E-1,3.7653542E-1,5.9757096E-1,4.7844332E-1,4.4299006E-1,0E0,0E0,0E0,0E0,0E0,0E0,0E0],"parents":[2147483647,0,0,1,1,2,2,3,3,4,4,5,5],"right_children":[2,4,6,8,10,12,-1,-1,-1,-1,-1,-1,-1],"split_conditions":[-1.6842538E-1,-6.96178E-2,1.2100716E0,-1.1581508E0,-1.0900946E0,-5.3204E-1,1.1854678E-3,1.9403031E-3,-1.5112718E-5,-6.905176E-4,-1.5902476E-4,2.4370835E-4,-8.679513E-6],"split_indices":[38,36,15,20,24,37,0,0,0,0,0,0,0],"split_type":[0,0,0,0,0,0,0,0,0,0,0,0,0],"sum_hessian":[1.56587E5,6.8422E4,8.8165E4,3.8156E4,3.0266E4,8.7074E4,1.091E3,5.04E2,3.7652E4,8.742E3,2.1524E4,3.7096E4,4.9978E4],"tree_param":{"num_deleted":"0","num_feature":"41","num_nodes":"13","size_leaf_vector":"1"}},{"base_weights":[-7.267013E-6,-7.1501033E-4,7.0262887E-3,-6.7634364E-3,-9.090446E-5,5.1892623E-3,5.276878E-2,-9.345079E-5,-1.3802313E-3,4.5763855E-4,-2.7512395E-5,4.8758756E-4,-7.162777E-4,-0E0,6.9904528E-3],"categories":[],"categories_nodes":[],"categories_segments":[],"categories_sizes":[],"default_left":[0,0,0,0,0,0,0,0,0,0,0,0,0,0,0],"id":16,"left_children":[1,3,5,7,9,11,13,-1,-1,-1,-1,-1,-1,-1,-1],"loss_changes":[7.417752E-1,4.9879846E-1,7.8456706E-1,9.644772E-1,3.7486792E-1,7.76091E-1,1.0408286E0,0E0,0E0,0E0,0E0,0E0,0E0,0E0,0E0],"parents":[2147483647,0,0,1,1,2,2,3,3,4,4,5,5,6,6],"right_children":[2,4,6,8,10,12,14,-1,-1,-1,-1,-1,-1,-1,-1],"split_conditions":[1.3069563E0,-1.4341104E0,2.1156535E0,6.60261E-1,-1.9305617E0,1.3746017E-1,3.8949603E-1,-9.345079E-5,-1.3802313E-3,4.5763855E-4,-2.7512395E-5,4.8758756E-4,-7.162777E-4,-0E0,6.9904528E-3],"split_indices":[38,27,35,36,37,2,4,0,0,0,0,0,0,0,0],"split_type":[0,0,0,0,0,0,0,0,0,0,0,0,0,0,0],"sum_hessian":[1.56714E5,1.43175E5,1.3539E4,1.2477E4,1.30698E5,1.3148E4,3.91E2,9.937E3,2.54E3,5.31E3,1.25388E5,1.1323E4,1.825E3,2.54E2,1.37E2],"tree_param":{"num_deleted":"0","num_feature":"41","num_nodes":"15","size_leaf_vector":"1"}},{"base_weights":[-1.23666505E-5,-2.0142277E-3,1.7050569E-3,4.8591835E-7,-8.6673675E-3,4.6454105E-3,-4.911182E-4,-1.5372547E-3,-2.9433082E-4,2.8702482E-3,2.3173887E-4,1.4049756E-4,-2.898963E-4],"categories":[],"categories_nodes":[],"categories_segments":[],"categories_sizes":[],"default_left":[0,0,0,0,0,0,0,0,0,0,0,0,0],"id":17,"left_children":[1,3,5,-1,7,9,11,-1,-1,-1,-1,-1,-1],"loss_changes":[5.386834E-1,1.0449435E0,5.5739325E-1,0E0,9.5019865E-1,5.991625E-1,6.475907E-1,0E0,0E0,0E0,0E0,0E0,0E0],"parents":[2147483647,0,0,1,1,2,2,4,4,5,5,6,6],"right_children":[2,4,6,-1,8,10,12,-1,-1,-1,-1,-1,-1],"split_conditions":[-6.806729E-2,2.7323005E-1,-5.3204E-1,4.8591835E-7,-9.8445666E-1,-1.0437986E0,-5.013829E-1,-1.5372547E-3,-2.9433082E-4,2.8702482E-3,2.3173887E-4,1.4049756E-4,-2.898963E-4],"split_indices":[23,34,37,0,31,21,11,0,0,0,0,0,0],"split_type":[0,0,0,0,0,0,0,0,0,0,0,0,0],"sum_hessian":[1.56129E5,7.3729E4,8.24E4,5.5841E4,1.7888E4,3.6413E4,4.5987E4,2.553E3,1.5335E4,3.01E2,3.6112E4,2.7201E4,1.8786E4],"tree_param":{"num_deleted":"0","num_feature":"41","num_nodes":"13","size_leaf_vector":"1"}},{"base_weights":[-1.6565746E-4,-4.713331E-3,5.367176E-4,-5.0686092E-5,-1.0214876E-2,6.957661E-4,-1.3335276E-3,-3.9860007E-4,-2.4916877E-3,4.126109E-6,3.1515493E-4],"categories":[],"categories_nodes":[],"categories_segments":[],"categories_sizes":[],"default_left":[0,0,0,0,0,0,0,0,0,0,0],"id":18,"left_children":[1,3,5,-1,7,9,-1,-1,-1,-1,-1],"loss_changes":[5.253373E-1,3.9670688E-1,3.7570244E-1,0E0,5.91072E-1,3.7119284E-1,0E0,0E0,0E0,0E0,0E0],"parents":[2147483647,0,0,1,1,2,2,4,4,5,5],"right_children":[2,4,6,-1,8,10,-1,-1,-1,-1,-1],"split_conditions":[-1.0275327E0,2.156065E-1,2.3836613E0,-5.0686092E-5,1.7833865E0,1.259269E0,-1.3335276E-3,-3.9860007E-4,-2.4916877E-3,4.126109E-6,3.1515493E-4],"split_indices":[23,4,39,0,35,38,0,0,0,0,0],"split_type":[0,0,0,0,0,0,0,0,0,0,0],"sum_hessian":[1.5651E5,2.2094E4,1.34416E5,1.3696E4,8.398E3,1.33788E5,6.28E2,7.843E3,5.55E2,1.19711E5,1.4077E4],"tree_param":{"num_deleted":"0","num_feature":"41","num_nodes":"11","size_leaf_vector":"1"}},{"base_weights":[-0E0,-1.8675938E-4,1.346715E-3,9.603675E-3,-5.907274E-4,-0E0,4.34997E-3,-3.4662968E-4,-5.2984924E-6],"categories":[],"categories_nodes":[],"categories_segments":[],"categories_sizes":[],"default_left":[0,0,0,0,0,0,0,0,0],"id":19,"left_children":[1,3,-1,5,7,-1,-1,-1,-1],"loss_changes":[6.8267107E-1,5.582282E-1,0E0,3.7274177E0,3.7282348E-1,0E0,0E0,0E0,0E0],"parents":[2147483647,0,0,1,1,3,3,4,4],"right_children":[2,4,-1,6,8,-1,-1,-1,-1],"split_conditions":[1.2232698E0,-1.9938295E0,1.346715E-3,-9.25183E-1,-7.9827994E-1,-0E0,4.34997E-3,-3.4662968E-4,-5.2984924E-6],"split_indices":[16,37,0,10,22,0,0,0,0],"split_type":[0,0,0,0,0,0,0,0,0],"sum_hessian":[1.56188E5,1.54992E5,1.196E3,5.542E3,1.4945E5,4.826E3,7.16E2,1.1327E4,1.38123E5],"tree_param":{"num_deleted":"0","num_feature":"41","num_nodes":"9","size_leaf_vector":"1"}},{"base_weights":[-0E0,-2.1563703E-3,8.48582E-5,-1.4189764E-5,-7.6699355E-3,-5.2918337E-4,8.061209E-4],"categories":[],"categories_nodes":[],"categories_segments":[],"categories_sizes":[],"default_left":[0,0,0,0,0,0,0],"id":20,"left_children":[1,3,-1,-1,5,-1,-1],"loss_changes":[5.0594455E-1,6.3039374E-1,0E0,0E0,5.460116E-1,0E0,0E0],"parents":[2147483647,0,0,1,1,4,4],"right_children":[2,4,-1,-1,6,-1,-1],"split_conditions":[-2.7175435E-1,2.594453E-1,8.48582E-5,-1.4189764E-5,2.9117103E0,-5.2918337E-4,8.061209E-4],"split_indices":[26,34,0,0,36,0,0],"split_type":[0,0,0,0,0,0,0],"sum_hessian":[1.56333E5,6.4566E4,9.1767E4,4.8802E4,1.5764E4,1.4909E4,8.55E2],"tree_param":{"num_deleted":"0","num_feature":"41","num_nodes":"7","size_leaf_vector":"1"}},{"base_weights":[1.5944388E-4,1.0109178E-2,-1.623684E-4,1.1580323E-3,6.406639E-2,-2.5199926E-3,1.5749299E-3,-5.171205E-3,2.5746427E-4,-1.09071E-3,6.193931E-3,-4.4688986E-5,-4.7891008E-4,6.950239E-5,1.3272719E-3],"categories":[],"categories_nodes":[],"categories_segments":[],"categories_sizes":[],"default_left":[0,0,0,0,0,0,0,0,0,0,0,0,0,0,0],"id":21,"left_children":[1,3,5,7,9,11,13,-1,-1,-1,-1,-1,-1,-1,-1],"loss_changes":[5.6122714E-1,2.2554882E0,6.238224E-1,9.786586E-1,3.1341608E0,6.163524E-1,5.004554E-1,0E0,0E0,0E0,0E0,0E0,0E0,0E0,0E0],"parents":[2147483647,0,0,1,1,2,2,3,3,4,4,5,5,6,6],"right_children":[2,4,6,8,10,12,14,-1,-1,-1,-1,-1,-1,-1,-1],"split_conditions":[-1.9938295E0,-9.25183E-1,-1.6842538E-1,-1.0560182E0,-7.700747E-1,3.15235E-1,1.2097975E0,-5.171205E-3,2.5746427E-4,-1.09071E-3,6.193931E-3,-4.4688986E-5,-4.7891008E-4,6.950239E-5,1.3272719E-3],"split_indices":[37,10,38,14,22,34,14,0,0,0,0,0,0,0,0],"split_type":[0,0,0,0,0,0,0,0,0,0,0,0,0,0,0],"sum_hessian":[1.56382E5,5.488E3,1.50894E5,4.807E3,6.81E2,6.5502E4,8.5392E4,1.03E2,4.704E3,1.93E2,4.88E2,5.1494E4,1.4008E4,8.4328E4,1.064E3],"tree_param":{"num_deleted":"0","num_feature":"41","num_nodes":"15","size_leaf_vector":"1"}},{"base_weights":[8.538151E-5,2.04157E-3,-1.4337418E-3,-1.7987975E-4,8.701234E-3,-2.01857E-2,-6.955181E-4,1.1132097E-5,-3.5293489E-3,2.7451044E-4,1.5153614E-3,-0E0,-2.081113E-3,-5.1071816E-5,2.8235256E-3],"categories":[],"categories_nodes":[],"categories_segments":[],"categories_sizes":[],"default_left":[0,0,0,0,0,0,0,0,0,0,0,0,0,0,0],"id":22,"left_children":[1,3,5,7,9,11,13,-1,-1,-1,-1,-1,-1,-1,-1],"loss_changes":[4.695273E-1,1.0914128E0,1.0702113E0,1.5926368E0,1.0781006E0,9.0181136E-1,5.698986E-1,0E0,0E0,0E0,0E0,0E0,0E0,0E0,0E0],"parents":[2147483647,0,0,1,1,2,2,3,3,4,4,5,5,6,6],"right_children":[2,4,6,8,10,12,14,-1,-1,-1,-1,-1,-1,-1,-1],"split_conditions":[-5.3204E-1,6.560518E-2,-1.4068577E0,2.4820435E0,1.5201192E0,3.950737E-1,4.2638845E0,1.1132097E-5,-3.5293489E-3,2.7451044E-4,1.5153614E-3,-0E0,-2.081113E-3,-5.1071816E-5,2.8235256E-3],"split_indices":[37,35,28,34,36,35,28,0,0,0,0,0,0,0,0],"split_type":[0,0,0,0,0,0,0,0,0,0,0,0,0,0,0],"sum_hessian":[1.56749E5,7.0267E4,8.6482E4,5.2009E4,1.8258E4,2.96E3,8.3522E4,5.1602E4,4.07E2,1.5322E4,2.936E3,1.399E3,1.561E3,8.3307E4,2.15E2],"tree_param":{"num_deleted":"0","num_feature":"41","num_nodes":"15","size_leaf_vector":"1"}},{"base_weights":[-3.892737E-4,-3.800385E-3,3.070532E-5,-6.447639E-5,-1.0391392E-2,-1.9105847E-3,-3.7039095E-4],"categories":[],"categories_nodes":[],"categories_segments":[],"categories_sizes":[],"default_left":[0,0,0,0,0,0,0],"id":23,"left_children":[1,3,-1,-1,5,-1,-1],"loss_changes":[5.1684743E-1,5.4338676E-1,0E0,0E0,5.999266E-1,0E0,0E0],"parents":[2147483647,0,0,1,1,4,4],"right_children":[2,4,-1,-1,6,-1,-1],"split_conditions":[-8.544686E-1,2.1887572E-1,3.070532E-5,-6.447639E-5,-9.901478E-1,-1.9105847E-3,-3.7039095E-4],"split_indices":[33,34,0,0,31,0,0],"split_type":[0,0,0,0,0,0,0],"sum_hessian":[1.56502E5,3.4954E4,1.21548E5,2.5556E4,9.398E3,1.106E3,8.292E3],"tree_param":{"num_deleted":"0","num_feature":"41","num_nodes":"7","size_leaf_vector":"1"}},{"base_weights":[-1.5062521E-5,-3.300675E-5,2.5117613E-4],"categories":[],"categories_nodes":[],"categories_segments":[],"categories_sizes":[],"default_left":[0,0,0],"id":24,"left_children":[1,-1,-1],"loss_changes":[3.7150237E-1,0E0,0E0],"parents":[2147483647,0,0],"right_children":[2,-1,-1],"split_conditions":[1.1945757E0,-3.300675E-5,2.5117613E-4],"split_indices":[38,0,0],"split_type":[0,0,0],"sum_hessian":[1.56552E5,1.40055E5,1.6497E4],"tree_param":{"num_deleted":"0","num_feature":"41","num_nodes":"3","size_leaf_vector":"1"}},{"base_weights":[-5.2384724E-4,-1.5674479E-4,-1.2192165E-2,-2.1250595E-3,1.3128066E-3,-3.0580109E-2,7.1784975E-3,1.4290943E-5,-2.8125863E-4,1.673568E-5,7.5166044E-4,-2.5907992E-3,-0E0,2.6843497E-3,-0E0],"categories":[],"categories_nodes":[],"categories_segments":[],"categories_sizes":[],"default_left":[0,0,0,0,0,0,0,0,0,0,0,0,0,0,0],"id":25,"left_children":[1,3,5,7,9,11,13,-1,-1,-1,-1,-1,-1,-1,-1],"loss_changes":[5.958866E-1,4.457019E-1,1.6649737E0,4.7988415E-1,9.5677745E-1,1.3021324E0,8.1308305E-1,0E0,0E0,0E0,0E0,0E0,0E0,0E0,0E0],"parents":[2147483647,0,0,1,1,2,2,3,3,4,4,5,5,6,6],"right_children":[2,4,6,8,10,12,14,-1,-1,-1,-1,-1,-1,-1,-1],"split_conditions":[1.7833865E0,-1.6842538E-1,8.982849E-1,-1.5572411E-1,6.269938E-1,1.2208633E0,9.963255E-1,1.4290943E-5,-2.8125863E-4,1.673568E-5,7.5166044E-4,-2.5907992E-3,-0E0,2.6843497E-3,-0E0],"split_indices":[35,38,32,36,35,21,31,0,0,0,0,0,0,0,0],"split_type":[0,0,0,0,0,0,0,0,0,0,0,0,0,0,0],"sum_hessian":[1.56641E5,1.52372E5,4.269E3,6.6901E4,8.5471E4,2.35E3,1.919E3,3.5237E4,3.1664E4,7.9236E4,6.235E3,1.673E3,6.77E2,4.03E2,1.516E3],"tree_param":{"num_deleted":"0","num_feature":"41","num_nodes":"15","size_leaf_vector":"1"}},{"base_weights":[1.3812089E-4,-3.301335E-2,3.078693E-4,-0E0,-9.172339E-2,7.826103E-5,9.116988E-4,-6.5642884E-3,-0E0,-3.832723E-6,9.3475607E-4],"categories":[],"categories_nodes":[],"categories_segments":[],"categories_sizes":[],"default_left":[0,0,0,0,0,0,0,0,0,0,0],"id":26,"left_children":[1,3,5,-1,7,9,-1,-1,-1,-1,-1],"loss_changes":[6.828187E-1,6.3872904E-1,4.6704674E-1,0E0,5.9054327E-1,4.6910492E-1,0E0,0E0,0E0,0E0,0E0],"parents":[2147483647,0,0,1,1,2,2,4,4,5,5],"right_children":[2,4,6,-1,8,10,-1,-1,-1,-1,-1],"split_conditions":[-3.392888E0,9.762088E-1,4.254997E0,-0E0,-2.130306E-1,1.2100716E0,9.116988E-4,-6.5642884E-3,-0E0,-3.832723E-6,9.3475607E-4],"split_indices":[21,4,4,0,39,15,0,0,0,0,0],"split_type":[0,0,0,0,0,0,0,0,0,0,0],"sum_hessian":[1.56667E5,6.12E2,1.56055E5,4.6E2,1.52E2,1.542E5,1.855E3,1.38E2,1.4E1,1.52478E5,1.722E3],"tree_param":{"num_deleted":"0","num_feature":"41","num_nodes":"11","size_leaf_vector":"1"}},{"base_weights":[-1.245832E-4,-3.059883E-4,1.0068165E-3,-3.1013414E-3,2.8367685E-5,-8.0361485E-4,-8.002113E-5],"categories":[],"categories_nodes":[],"categories_segments":[],"categories_sizes":[],"default_left":[0,0,0,0,0,0,0],"id":27,"left_children":[1,3,-1,5,-1,-1,-1],"loss_changes":[4.0168846E-1,3.658477E-1,0E0,5.8734655E-1,0E0,0E0,0E0],"parents":[2147483647,0,0,1,1,3,3],"right_children":[2,4,-1,6,-1,-1,-1],"split_conditions":[1.2232698E0,-6.989018E-1,1.0068165E-3,-1.0177573E0,2.8367685E-5,-8.0361485E-4,-8.002113E-5],"split_indices":[16,38,0,31,0,0,0],"split_type":[0,0,0,0,0,0,0],"sum_hessian":[1.56492E5,1.55261E5,1.231E3,3.645E4,1.18811E5,4.344E3,3.2106E4],"tree_param":{"num_deleted":"0","num_feature":"41","num_nodes":"7","size_leaf_vector":"1"}},{"base_weights":[-4.4719225E-5,-8.946196E-3,3.898743E-4,-1.5951147E-2,5.0774176E-4,-9.992655E-4,5.661833E-4,1.0585223E-3,-1.2055169E-3,1.086654E-3,-3.0546836E-4,1.448062E-4,-5.063379E-5],"categories":[],"categories_nodes":[],"categories_segments":[],"categories_sizes":[],"default_left":[0,0,0,0,0,0,0,0,0,0,0,0,0],"id":28,"left_children":[1,3,5,7,9,-1,11,-1,-1,-1,-1,-1,-1],"loss_changes":[6.5839165E-1,6.202649E-1,3.69012E-1,9.2587674E-1,4.162125E-1,0E0,4.3877506E-1,0E0,0E0,0E0,0E0,0E0,0E0],"parents":[2147483647,0,0,1,1,2,2,3,3,4,4,6,6],"right_children":[2,4,6,8,10,-1,12,-1,-1,-1,-1,-1,-1],"split_conditions":[-1.4068577E0,-6.4043903E-1,-1.15428E0,-2.8820324E0,-1.2010894E0,-9.992655E-4,-5.3204E-1,1.0585223E-3,-1.2055169E-3,1.086654E-3,-3.0546836E-4,1.448062E-4,-5.063379E-5],"split_indices":[28,38,32,23,37,0,37,0,0,0,0,0,0],"split_type":[0,0,0,0,0,0,0,0,0,0,0,0,0],"sum_hessian":[1.56736E5,7.944E3,1.48792E5,4.931E3,3.013E3,1.104E3,1.47688E5,5.03E2,4.428E3,9.69E2,2.044E3,6.4275E4,8.3413E4],"tree_param":{"num_deleted":"0","num_feature":"41","num_nodes":"13","size_leaf_vector":"1"}},{"base_weights":[4.8700493E-4,2.5140664E-3,-1.0957498E-3,2.0882116E-4,9.332611E-3,-1.0870473E-2,-5.2337575E-4,3.811538E-5,-2.1699276E-3,-3.8007281E-3,5.833371E-4,-2.334071E-3,-2.2495067E-4,-4.8180227E-5,1.1737837E-3],"categories":[],"categories_nodes":[],"categories_segments":[],"categories_sizes":[],"default_left":[0,0,0,0,0,0,0,0,0,0,0,0,0,0,0],"id":29,"left_children":[1,3,5,7,9,11,13,-1,-1,-1,-1,-1,-1,-1,-1],"loss_changes":[5.1024455E-1,1.0459846E0,4.1248083E-1,7.2015506E-1,9.088098E-1,5.983612E-1,4.4764215E-1,0E0,0E0,0E0,0E0,0E0,0E0,0E0,0E0],"parents":[2147483647,0,0,1,1,2,2,3,3,4,4,5,5,6,6],"right_children":[2,4,6,8,10,12,14,-1,-1,-1,-1,-1,-1,-1,-1],"split_conditions":[-5.3204E-1,1.0297334E-1,-1.0554513E0,2.4820435E0,-1.1451349E0,5.10953E-1,1.2320175E0,3.811538E-5,-2.1699276E-3,-3.8007281E-3,5.833371E-4,-2.334071E-3,-2.2495067E-4,-4.8180227E-5,1.1737837E-3],"split_indices":[37,35,22,34,6,37,30,0,0,0,0,0,0,0,0],"split_type":[0,0,0,0,0,0,0,0,0,0,0,0,0,0,0],"sum_hessian":[1.56342E5,7.0233E4,8.6109E4,5.3157E4,1.7076E4,4.172E3,8.1937E4,5.2684E4,4.73E2,1.3E2,1.6946E4,6.07E2,3.565E3,8.0981E4,9.56E2],"tree_param":{"num_deleted":"0","num_feature":"41","num_nodes":"15","size_leaf_vector":"1"}},{"base_weights":[-1.8586285E-4,-4.0581758E-4,8.4609E-4,7.522993E-5,-6.5311086E-3,-1.0062083E-6,1.6786387E-3,-7.634184E-4,-5.9860944E-5],"categories":[],"categories_nodes":[],"categories_segments":[],"categories_sizes":[],"default_left":[0,0,0,0,0,0,0,0,0],"id":30,"left_children":[1,3,-1,5,7,-1,-1,-1,-1],"loss_changes":[4.3131262E-1,4.9438444E-1,0E0,5.708363E-1,3.7381083E-1,0E0,0E0,0E0,0E0],"parents":[2147483647,0,0,1,1,3,3,4,4],"right_children":[2,4,-1,6,8,-1,-1,-1,-1],"split_conditions":[1.2100716E0,2.1533076E-1,8.4609E-4,2.0107916E-1,8.982849E-1,-1.0062083E-6,1.6786387E-3,-7.634184E-4,-5.9860944E-5],"split_indices":[15,15,0,1,32,0,0,0,0],"split_type":[0,0,0,0,0,0,0,0,0],"sum_hessian":[1.56299E5,1.54457E5,1.842E3,1.42293E5,1.2164E4,1.41645E5,6.48E2,4.873E3,7.291E3],"tree_param":{"num_deleted":"0","num_feature":"41","num_nodes":"9","size_leaf_vector":"1"}},{"base_weights":[2.4941238E-4,-2.0707585E-6,8.284342E-3,-1.1874199E-2,1.1222245E-2,-3.9815893E-3,-0E0,2.0581125E-3,3.3879981E-4],"categories":[],"categories_nodes":[],"categories_segments":[],"categories_sizes":[],"default_left":[0,0,0,0,0,0,0,0,0],"id":31,"left_children":[1,-1,3,5,7,-1,-1,-1,-1],"loss_changes":[4.0977314E-1,0E0,3.583645E-1,5.474656E-1,4.7864264E-1,0E0,0E0,0E0,0E0],"parents":[2147483647,0,0,2,2,3,3,4,4],"right_children":[2,-1,4,6,8,-1,-1,-1,-1],"split_conditions":[1.2208633E0,-2.0707585E-6,-1.5600075E0,2.045299E-3,-1.1261061E0,-3.9815893E-3,-0E0,2.0581125E-3,3.3879981E-4],"split_indices":[21,0,37,28,37,0,0,0,0],"split_type":[0,0,0,0,0,0,0,0,0],"sum_hessian":[1.56519E5,1.50413E5,6.106E3,5.12E2,5.594E3,1.22E2,3.9E2,7.63E2,4.831E3],"tree_param":{"num_deleted":"0","num_feature":"41","num_nodes":"9","size_leaf_vector":"1"}},{"base_weights":[-1.8774366E-4,-8.342048E-3,1.3497467E-4,-1.8231233E-4,-3.3358157E-2,-0E0,2.5367511E-2,-6.4362364E-4,-6.6405158E-3,4.9072555E-3,-0E0],"categories":[],"categories_nodes":[],"categories_segments":[],"categories_sizes":[],"default_left":[0,0,0,0,0,0,0,0,0,0,0],"id":32,"left_children":[1,3,5,-1,7,-1,9,-1,-1,-1,-1],"loss_changes":[4.608043E-1,6.3137364E-1,3.9475885E-1,0E0,9.296808E-1,0E0,6.570145E-1,0E0,0E0,0E0,0E0],"parents":[2147483647,0,0,1,1,2,2,4,4,6,6],"right_children":[2,4,6,-1,8,-1,10,-1,-1,-1,-1],"split_conditions":[-1.6075443E0,9.468401E-1,5.9429455E0,-1.8231233E-4,1.0136226E0,-0E0,1.0186962E0,-6.4362364E-4,-6.6405158E-3,4.9072555E-3,-0E0],"split_indices":[24,36,34,0,35,0,36,0,0,0,0],"split_type":[0,0,0,0,0,0,0,0,0,0,0],"sum_hessian":[1.56139E5,6.658E3,1.49481E5,5.731E3,9.27E2,1.48867E5,6.14E2,7.95E2,1.32E2,1.37E2,4.77E2],"tree_param":{"num_deleted":"0","num_feature":"41","num_nodes":"11","size_leaf_vector":"1"}},{"base_weights":[2.7912096E-5],"categories":[],"categories_nodes":[],"categories_segments":[],"categories_sizes":[],"default_left":[0],"id":33,"left_children":[-1],"loss_changes":[0E0],"parents":[2147483647],"right_children":[-1],"split_conditions":[1.5820535E-6],"split_indices":[0],"split_type":[0],"sum_hessian":[1.56517E5],"tree_param":{"num_deleted":"0","num_feature":"41","num_nodes":"1","size_leaf_vector":"1"}},{"base_weights":[-0E0,-2.0591669E-4,1.7795164E-2,-6.819861E-3,2.3249512E-4,-0E0,3.1081058E-2,-0E0,-9.5755525E-4,3.3454482E-5,-5.314784E-4,3.0753836E-3,-0E0],"categories":[],"categories_nodes":[],"categories_segments":[],"categories_sizes":[],"default_left":[0,0,0,0,0,0,0,0,0,0,0,0,0],"id":34,"left_children":[1,3,5,7,9,-1,11,-1,-1,-1,-1,-1,-1],"loss_changes":[5.8121467E-1,4.8897803E-1,3.5339552E-1,7.3486674E-1,4.4276848E-1,0E0,4.399761E-1,0E0,0E0,0E0,0E0,0E0,0E0],"parents":[2147483647,0,0,1,1,2,2,3,3,4,4,6,6],"right_children":[2,4,6,8,10,-1,12,-1,-1,-1,-1,-1,-1],"split_conditions":[4.254997E0,-1.1466316E0,-1.6861018E-2,3.7379023E-1,2.2557075E0,-0E0,-6.7349845E-1,-0E0,-9.5755525E-4,3.3454482E-5,-5.314784E-4,3.0753836E-3,-0E0],"split_indices":[4,28,21,4,36,0,37,0,0,0,0,0,0],"split_type":[0,0,0,0,0,0,0,0,0,0,0,0,0],"sum_hessian":[1.56626E5,1.54815E5,1.811E3,1.0483E4,1.44332E5,8.54E2,9.57E2,6.203E3,4.28E3,1.39765E5,4.567E3,4.61E2,4.96E2],"tree_param":{"num_deleted":"0","num_feature":"41","num_nodes":"13","size_leaf_vector":"1"}},{"base_weights":[2.3812917E-4,7.3461575E-5,3.2118868E-2,-1.9478183E-2,1.35515875E-5,6.471627E-2,-0E0,1.0110418E-3,-2.1354568E-3,-0E0,6.5895333E-3],"categories":[],"categories_nodes":[],"categories_segments":[],"categories_sizes":[],"default_left":[0,0,0,0,0,0,0,0,0,0,0],"id":35,"left_children":[1,3,5,7,-1,9,-1,-1,-1,-1,-1],"loss_changes":[6.230144E-1,3.861248E-1,5.863954E-1,7.999023E-1,0E0,1.4409033E0,0E0,0E0,0E0,0E0,0E0],"parents":[2147483647,0,0,1,1,2,2,3,3,5,5],"right_children":[2,4,6,8,-1,10,-1,-1,-1,-1,-1],"split_conditions":[5.9429455E0,-2.6852407E0,-1.1165447E0,1.4188418E0,1.35515875E-5,-1.0131444E0,-0E0,1.0110418E-3,-2.1354568E-3,-0E0,6.5895333E-3],"split_indices":[34,20,37,35,0,15,0,0,0,0,0],"split_type":[0,0,0,0,0,0,0,0,0,0,0],"sum_hessian":[1.55961E5,1.55353E5,6.08E2,9.93E2,1.5436E5,2.87E2,3.21E2,2.16E2,7.77E2,9.4E1,1.93E2],"tree_param":{"num_deleted":"0","num_feature":"41","num_nodes":"11","size_leaf_vector":"1"}},{"base_weights":[-6.982589E-6,-5.806906E-4,4.9064425E-3,-2.9587522E-4,-1.1067361E-2,3.5704037E-3,3.8353E-2,-6.401052E-5,1.6504087E-4,-1.8015866E-3,4.7469678E-4,3.3249625E-4,-1.1778414E-3,-0E0,7.495143E-3],"categories":[],"categories_nodes":[],"categories_segments":[],"categories_sizes":[],"default_left":[0,0,0,0,0,0,0,0,0,0,0,0,0,0,0],"id":36,"left_children":[1,3,5,7,9,11,13,-1,-1,-1,-1,-1,-1,-1,-1],"loss_changes":[4.1479498E-1,3.5270664E-1,4.2615658E-1,3.5827786E-1,1.4200952E0,7.397125E-1,1.4187089E0,0E0,0E0,0E0,0E0,0E0,0E0,0E0,0E0],"parents":[2147483647,0,0,1,1,2,2,3,3,4,4,5,5,6,6],"right_children":[2,4,6,8,10,12,14,-1,-1,-1,-1,-1,-1,-1,-1],"split_conditions":[1.2371585E0,1.929261E0,2.1156535E0,1.0297334E-1,1.3830534E-1,1.5634818E0,6.40519E-1,-6.401052E-5,1.6504087E-4,-1.8015866E-3,4.7469678E-4,3.3249625E-4,-1.1778414E-3,-0E0,7.495143E-3],"split_indices":[38,35,35,35,22,22,4,0,0,0,0,0,0,0,0],"split_type":[0,0,0,0,0,0,0,0,0,0,0,0,0,0,0],"sum_hessian":[1.56473E5,1.41224E5,1.5249E4,1.38058E5,3.166E3,1.4842E4,4.07E2,1.11091E5,2.6967E4,1.683E3,1.483E3,1.3794E4,1.048E3,2.95E2,1.12E2],"tree_param":{"num_deleted":"0","num_feature":"41","num_nodes":"15","size_leaf_vector":"1"}},{"base_weights":[-9.4404415E-5,-2.543793E-4,3.0148812E-2,-4.421794E-3,2.1215605E-5,6.6105366E-2,-0E0,-9.94474E-4,-1.3017435E-4,-8.3105906E-4,6.950932E-3],"categories":[],"categories_nodes":[],"categories_segments":[],"categories_sizes":[],"default_left":[0,0,0,0,0,0,0,0,0,0,0],"id":37,"left_children":[1,3,5,7,-1,9,-1,-1,-1,-1,-1],"loss_changes":[5.755864E-1,4.331098E-1,7.7763456E-1,4.845613E-1,0E0,2.0679355E0,0E0,0E0,0E0,0E0,0E0],"parents":[2147483647,0,0,1,1,2,2,3,3,5,5],"right_children":[2,4,6,8,-1,10,-1,-1,-1,-1,-1],"split_conditions":[5.9429455E0,-1.0275327E0,-1.1065929E0,-1.4172075E0,2.1215605E-5,-1.0200524E0,-0E0,-9.94474E-4,-1.3017435E-4,-8.3105906E-4,6.950932E-3],"split_indices":[34,23,37,21,0,15,0,0,0,0,0],"split_type":[0,0,0,0,0,0,0,0,0,0,0],"sum_hessian":[1.5653E5,1.5591E5,6.2E2,2.1702E4,1.34208E5,3.04E2,3.16E2,2.622E3,1.908E4,8.2E1,2.22E2],"tree_param":{"num_deleted":"0","num_feature":"41","num_nodes":"11","size_leaf_vector":"1"}},{"base_weights":[-0E0],"categories":[],"categories_nodes":[],"categories_segments":[],"categories_sizes":[],"default_left":[0],"id":38,"left_children":[-1],"loss_changes":[0E0],"parents":[2147483647],"right_children":[-1],"split_conditions":[-0E0],"split_indices":[0],"split_type":[0],"sum_hessian":[1.56793E5],"tree_param":{"num_deleted":"0","num_feature":"41","num_nodes":"1","size_leaf_vector":"1"}},{"base_weights":[1.0525169E-5,8.199361E-3,-3.1885103E-4,-0E0,6.0749568E-2,-9.076896E-3,6.396795E-5,4.4293938E-5,-8.156355E-3,5.4482976E-3,-0E0,3.4948438E-4,-8.54833E-4,2.3409142E-5,-7.220596E-4],"categories":[],"categories_nodes":[],"categories_segments":[],"categories_sizes":[],"default_left":[0,0,0,0,0,0,0,0,0,0,0,0,0,0,0],"id":39,"left_children":[1,3,5,7,9,11,13,-1,-1,-1,-1,-1,-1,-1,-1],"loss_changes":[4.7026926E-1,3.112479E0,5.571134E-1,1.1150647E0,1.8163118E0,6.897541E-1,5.6358975E-1,0E0,0E0,0E0,0E0,0E0,0E0,0E0,0E0],"parents":[2147483647,0,0,1,1,2,2,3,3,4,4,5,5,6,6],"right_children":[2,4,6,8,10,12,14,-1,-1,-1,-1,-1,-1,-1,-1],"split_conditions":[-1.8533906E0,-9.203458E-1,-1.4068577E0,-9.1190606E-1,-6.6221845E-1,-2.248228E0,2.5176368E0,4.4293938E-5,-8.156355E-3,5.4482976E-3,-0E0,3.4948438E-4,-8.54833E-4,2.3409142E-5,-7.220596E-4],"split_indices":[37,7,28,14,15,23,36,0,0,0,0,0,0,0,0],"split_type":[0,0,0,0,0,0,0,0,0,0,0,0,0,0,0],"sum_hessian":[1.56581E5,6.765E3,1.49816E5,5.802E3,9.63E2,6.936E3,1.4288E5,5.752E3,5E1,5.79E2,3.84E2,1.674E3,5.262E3,1.39554E5,3.326E3],"tree_param":{"num_deleted":"0","num_feature":"41","num_nodes":"15","size_leaf_vector":"1"}},{"base_weights":[1.3885077E-4,8.27258E-3,-1.8505249E-4,1.1477393E-4,6.618375E-2,-3.304677E-3,6.7913404E-4,2.9678582E-4,-3.1685233E-3,6.9727083E-3,-0E0,-1.6554419E-4,-3.3343213E-3,1.557147E-4,-4.0157258E-5],"categories":[],"categories_nodes":[],"categories_segments":[],"categories_sizes":[],"default_left":[0,0,0,0,0,0,0,0,0,0,0,0,0,0,0],"id":40,"left_children":[1,3,5,7,9,11,13,-1,-1,-1,-1,-1,-1,-1,-1],"loss_changes":[4.614295E-1,2.767623E0,4.197428E-1,1.408191E0,2.0347936E0,3.4912017E-1,3.446051E-1,0E0,0E0,0E0,0E0,0E0,0E0,0E0,0E0],"parents":[2147483647,0,0,1,1,2,2,3,3,4,4,5,5,6,6],"right_children":[2,4,6,8,10,12,14,-1,-1,-1,-1,-1,-1,-1,-1],"split_conditions":[-1.8533906E0,-8.933728E-1,-7.110093E-1,7.9173666E-1,-6.6221845E-1,3.5007367E0,-5.3204E-1,2.9678582E-4,-3.1685233E-3,6.9727083E-3,-0E0,-1.6554419E-4,-3.3343213E-3,1.557147E-4,-4.0157258E-5],"split_indices":[37,11,38,35,15,35,37,0,0,0,0,0,0,0,0],"split_type":[0,0,0,0,0,0,0,0,0,0,0,0,0,0,0],"sum_hessian":[1.56474E5,6.708E3,1.49766E5,5.975E3,7.33E2,3.4012E4,1.15754E5,5.577E3,3.98E2,3.44E2,3.89E2,3.3891E4,1.21E2,4.8238E4,6.7516E4],"tree_param":{"num_deleted":"0","num_feature":"41","num_nodes":"15","size_leaf_vector":"1"}},{"base_weights":[-8.935945E-5],"categories":[],"categories_nodes":[],"categories_segments":[],"categories_sizes":[],"default_left":[0],"id":41,"left_children":[-1],"loss_changes":[0E0],"parents":[2147483647],"right_children":[-1],"split_conditions":[-5.0648805E-6],"split_indices":[0],"split_type":[0],"sum_hessian":[1.56532E5],"tree_param":{"num_deleted":"0","num_feature":"41","num_nodes":"1","size_leaf_vector":"1"}},{"base_weights":[1.2820002E-4],"categories":[],"categories_nodes":[],"categories_segments":[],"categories_sizes":[],"default_left":[0],"id":42,"left_children":[-1],"loss_changes":[0E0],"parents":[2147483647],"right_children":[-1],"split_conditions":[7.2663584E-6],"split_indices":[0],"split_type":[0],"sum_hessian":[1.56849E5],"tree_param":{"num_deleted":"0","num_feature":"41","num_nodes":"1","size_leaf_vector":"1"}},{"base_weights":[2.8509923E-5],"categories":[],"categories_nodes":[],"categories_segments":[],"categories_sizes":[],"default_left":[0],"id":43,"left_children":[-1],"loss_changes":[0E0],"parents":[2147483647],"right_children":[-1],"split_conditions":[1.6159383E-6],"split_indices":[0],"split_type":[0],"sum_hessian":[1.56588E5],"tree_param":{"num_deleted":"0","num_feature":"41","num_nodes":"1","size_leaf_vector":"1"}},{"base_weights":[8.8759836E-5,-2.9330356E-6,1.5540798E-2,-0E0,3.2778177E-2,-0E0,2.2178036E-3],"categories":[],"categories_nodes":[],"categories_segments":[],"categories_sizes":[],"default_left":[0,0,0,0,0,0,0],"id":44,"left_children":[1,-1,3,-1,5,-1,-1],"loss_changes":[4.3407428E-1,0E0,4.4255266E-1,0E0,3.4230548E-1,0E0,0E0],"parents":[2147483647,0,0,2,2,4,4],"right_children":[2,-1,4,-1,6,-1,-1],"split_conditions":[1.2100716E0,-2.9330356E-6,-3.5439345E-1,-0E0,1.1076185E0,-0E0,2.2178036E-3],"split_indices":[15,0,4,0,2,0,0],"split_type":[0,0,0,0,0,0,0],"sum_hessian":[1.56546E5,1.54749E5,1.797E3,9.84E2,8.13E2,2E1,7.93E2],"tree_param":{"num_deleted":"0","num_feature":"41","num_nodes":"7","size_leaf_vector":"1"}},{"base_weights":[-2.0627155E-4,-4.452265E-5,4.7580763E-3,9.513594E-3,-2.406476E-3,9.6941E-5,1.3880709E-3,1.8216444E-4,-8.1569137E-4],"categories":[],"categories_nodes":[],"categories_segments":[],"categories_sizes":[],"default_left":[0,0,0,0,0,0,0,0,0],"id":45,"left_children":[1,-1,3,5,7,-1,-1,-1,-1],"loss_changes":[4.2598084E-1,0E0,5.6321466E-1,9.7207475E-1,4.4404298E-1,0E0,0E0,0E0,0E0],"parents":[2147483647,0,0,2,2,3,3,4,4],"right_children":[2,-1,4,6,8,-1,-1,-1,-1],"split_conditions":[1.2371585E0,-4.452265E-5,1.1729791E0,-1.2359454E-1,-1.4372212E-1,9.6941E-5,1.3880709E-3,1.8216444E-4,-8.1569137E-4],"split_indices":[38,0,39,34,31,0,0,0,0],"split_type":[0,0,0,0,0,0,0,0,0],"sum_hessian":[1.56531E5,1.41275E5,1.5256E4,9.679E3,5.577E3,6.633E3,3.046E3,3.453E3,2.124E3],"tree_param":{"num_deleted":"0","num_feature":"41","num_nodes":"9","size_leaf_vector":"1"}},{"base_weights":[-0E0,-1.0924017E-4,9.415132E-4,-1.1365401E-4,6.400799E-5],"categories":[],"categories_nodes":[],"categories_segments":[],"categories_sizes":[],"default_left":[0,0,0,0,0],"id":46,"left_children":[1,3,-1,-1,-1],"loss_changes":[3.4253955E-1,3.7088624E-1,0E0,0E0,0E0],"parents":[2147483647,0,0,1,1],"right_children":[2,4,-1,-1,-1],"split_conditions":[1.2232698E0,-2.9471186E-1,9.415132E-4,-1.1365401E-4,6.400799E-5],"split_indices":[16,26,0,0,0],"split_type":[0,0,0,0,0],"sum_hessian":[1.56901E5,1.5567E5,1.231E3,6.3449E4,9.2221E4],"tree_param":{"num_deleted":"0","num_feature":"41","num_nodes":"5","size_leaf_vector":"1"}},{"base_weights":[-0E0,-4.595897E-3,2.980663E-5,-4.912622E-4,1.9536602E-4,5.081042E-3,-9.428842E-5],"categories":[],"categories_nodes":[],"categories_segments":[],"categories_sizes":[],"default_left":[0,0,0,0,0,0,0],"id":47,"left_children":[1,3,-1,-1,5,-1,-1],"loss_changes":[3.885543E-1,3.7463233E-1,0E0,0E0,1.687269E0,0E0,0E0],"parents":[2147483647,0,0,1,1,4,4],"right_children":[2,4,-1,-1,6,-1,-1],"split_conditions":[-1.2053547E0,-5.5465263E-1,2.980663E-5,-4.912622E-4,-1.4056268E0,5.081042E-3,-9.428842E-5],"split_indices":[23,3,0,0,37,0,0],"split_type":[0,0,0,0,0,0,0],"sum_hessian":[1.56467E5,1.656E4,1.39907E5,9.637E3,6.923E3,2.04E2,6.719E3],"tree_param":{"num_deleted":"0","num_feature":"41","num_nodes":"7","size_leaf_vector":"1"}},{"base_weights":[-0E0,-1.4219222E-4,2.5843494E-2,-3.990339E-7,-3.022273E-2,4.124283E-2,-0E0,-4.749334E-3,-0E0,-0E0,3.5222133E-3],"categories":[],"categories_nodes":[],"categories_segments":[],"categories_sizes":[],"default_left":[0,0,0,0,0,0,0,0,0,0,0],"id":48,"left_children":[1,3,5,-1,7,9,-1,-1,-1,-1,-1],"loss_changes":[4.2169958E-1,4.4961616E-1,4.279861E-1,0E0,1.2511172E0,6.1578846E-1,0E0,0E0,0E0,0E0,0E0],"parents":[2147483647,0,0,1,1,2,2,4,4,5,5],"right_children":[2,4,6,-1,8,10,-1,-1,-1,-1,-1],"split_conditions":[5.9429455E0,3.5007367E0,-1.366823E-1,-3.990339E-7,2.465008E-2,-1.0131444E0,-0E0,-4.749334E-3,-0E0,-0E0,3.5222133E-3],"split_indices":[34,35,3,0,38,15,0,0,0,0,0],"split_type":[0,0,0,0,0,0,0,0,0,0,0],"sum_hessian":[1.56428E5,1.55805E5,6.23E2,1.55313E5,4.92E2,4.94E2,1.29E2,2.39E2,2.53E2,1.19E2,3.75E2],"tree_param":{"num_deleted":"0","num_feature":"41","num_nodes":"11","size_leaf_vector":"1"}}]},"name":"gbtree"},"learner_model_param":{"base_score":"[4.9561745E-1]","boost_from_average":"1","num_class":"0","num_feature":"41","num_target":"1"},"objective":{"name":"reg:squarederror","reg_loss_param":{"scale_pos_weight":"1"}}},"version":[3,2,0]}