{"learner":{"attributes":{"best_iteration":"2","best_score":"0.13477262656459527","scikit_learn":"{\"_estimator_type\": \"regressor\"}"},"feature_names":[],"feature_types":[],"gradient_booster":{"model":{"cats":{"enc":[],"feature_segments":[],"sorted_idx":[]},"gbtree_model_param":{"num_parallel_tree":"1","num_trees":"33"},"iteration_indptr":[0,1,2,3,4,5,6,7,8,9,10,11,12,13,14,15,16,17,18,19,20,21,22,23,24,25,26,27,28,29,30,31,32,33],"tree_info":[0,0,0,0,0,0,0,0,0,0,0,0,0,0,0,0,0,0,0,0,0,0,0,0,0,0,0,0,0,0,0,0,0],"trees":[{"base_weights":[2.2319754E-4,-3.991959E-3,4.4987313E-3,-1.5042943E-3,-1.1486665E-2,2.0633948E-3,1.2330603E-2,-1.487209E-4,8.0026995E-4,-1.5780245E-3,-2.681643E-4,1.4415011E-4,-3.475264E-3,1.3229158E-3,4.061752E-4],"categories":[],"categories_nodes":[],"categories_segments":[],"categories_sizes":[],"default_left":[0,0,0,0,0,0,0,0,0,0,0,0,0,0,0],"id":0,"left_children":[1,3,5,7,9,11,13,-1,-1,-1,-1,-1,-1,-1,-1],"loss_changes":[1.8788041E0,8.847371E-1,9.1154706E-1,6.1984235E-1,1.1573554E0,8.7657726E-1,4.8667645E-1,0E0,0E0,0E0,0E0,0E0,0E0,0E0,0E0],"parents":[2147483647,0,0,1,1,2,2,3,3,4,4,5,5,6,6],"right_children":[2,4,6,8,10,12,14,-1,-1,-1,-1,-1,-1,-1,-1],"split_conditions":[-2.412639E-2,3.8537338E-1,-3.7352353E-2,2.1023719E-1,-9.444749E-1,2.2924974E0,-1.208074E0,-1.487209E-4,8.0026995E-4,-1.5780245E-3,-2.681643E-4,1.4415011E-4,-3.475264E-3,1.3229158E-3,4.061752E-4],"split_indices":[23,34,35,35,14,34,37,0,0,0,0,0,0,0,0],"split_type":[0,0,0,0,0,0,0,0,0,0,0,0,0,0,0],"sum_hessian":[1.04072E5,5.169E4,5.2382E4,3.9421E4,1.2269E4,4.0553E4,1.1829E4,3.7151E4,2.27E3,3.32E3,8.949E3,4.0347E4,2.06E2,3.397E3,8.432E3],"tree_param":{"num_deleted":"0","num_feature":"41","num_nodes":"15","size_leaf_vector":"1"}},{"base_weights":[-2.184912E-4,-4.5284205E-3,3.4627707E-3,-6.9037004E-4,-1.2363402E-2,4.301611E-4,8.816058E-3,-9.308292E-5,7.3472643E-4,-1.8205509E-3,-4.2996794E-4,7.012529E-5,-1.515855E-3,6.423277E-4,-9.894709E-5],"categories":[],"categories_nodes":[],"categories_segments":[],"categories_sizes":[],"default_left":[0,0,0,0,0,0,0,0,0,0,0,0,0,0,0],"id":1,"left_children":[1,3,5,7,9,11,13,-1,-1,-1,-1,-1,-1,-1,-1],"loss_changes":[1.666209E0,1.3925924E0,8.4735054E-1,3.6506593E-1,1.2276154E0,6.4024234E-1,5.7406473E-1,0E0,0E0,0E0,0E0,0E0,0E0,0E0,0E0],"parents":[2147483647,0,0,1,1,2,2,3,3,4,4,5,5,6,6],"right_children":[2,4,6,8,10,12,14,-1,-1,-1,-1,-1,-1,-1,-1],"split_conditions":[-8.8288546E-2,1.3528381E-1,-2.8010818E-1,1.2781794E-1,-9.90191E-1,2.3453064E0,-6.207905E-1,-9.308292E-5,7.3472643E-4,-1.8205509E-3,-4.2996794E-4,7.012529E-5,-1.515855E-3,6.423277E-4,-9.894709E-5],"split_indices":[23,34,35,35,31,36,37,0,0,0,0,0,0,0,0],"split_type":[0,0,0,0,0,0,0,0,0,0,0,0,0,0,0],"sum_hessian":[1.04602E5,4.8947E4,5.5655E4,3.3377E4,1.557E4,3.6256E4,1.9399E4,3.1621E4,1.756E3,2.78E3,1.279E4,3.5431E4,8.25E2,1.6131E4,3.268E3],"tree_param":{"num_deleted":"0","num_feature":"41","num_nodes":"15","size_leaf_vector":"1"}},{"base_weights":[-4.0276488E-4,-3.9634304E-3,2.7758223E-3,-8.947572E-5,-1.0063233E-2,1.77731E-3,1.5293561E-2,-1.0741126E-3,-9.643992E-5,1.4573646E-4,-8.996209E-4,4.036251E-4,2.4588464E-3],"categories":[],"categories_nodes":[],"categories_segments":[],"categories_sizes":[],"default_left":[0,0,0,0,0,0,0,0,0,0,0,0,0],"id":2,"left_children":[1,3,5,-1,7,9,11,-1,-1,-1,-1,-1,-1],"loss_changes":[1.1916409E0,6.6028917E-1,5.759219E-1,0E0,8.7082136E-1,6.3144124E-1,5.107213E-1,0E0,0E0,0E0,0E0,0E0,0E0],"parents":[2147483647,0,0,1,1,2,2,4,4,5,5,6,6],"right_children":[2,4,6,-1,8,10,12,-1,-1,-1,-1,-1,-1],"split_conditions":[-6.971423E-2,2.697625E-1,6.423548E-1,-8.947572E-5,7.9003066E-2,2.3453064E0,1.7360016E0,-1.0741126E-3,-9.643992E-5,1.4573646E-4,-8.996209E-4,4.036251E-4,2.4588464E-3],"split_indices":[26,34,35,0,35,36,36,0,0,0,0,0,0],"split_type":[0,0,0,0,0,0,0,0,0,0,0,0,0],"sum_hessian":[1.04643E5,5.0257E4,5.4386E4,3.6851E4,1.3406E4,5.0822E4,3.564E3,6.144E3,7.262E3,4.8967E4,1.855E3,2.932E3,6.32E2],"tree_param":{"num_deleted":"0","num_feature":"41","num_nodes":"13","size_leaf_vector":"1"}},{"base_weights":[-0E0,-5.2539734E-3,1.8407525E-3,6.7489647E-4,-1.0036584E-2,4.6890285E-2,1.5411681E-3,3.3339912E-3,-0E0,-1.9872547E-4,-9.232092E-4,-0E0,3.266095E-3,1.9643134E-5,5.6583114E-4],"categories":[],"categories_nodes":[],"categories_segments":[],"categories_sizes":[],"default_left":[0,0,0,0,0,0,0,0,0,0,0,0,0,0,0],"id":3,"left_children":[1,3,5,7,9,11,13,-1,-1,-1,-1,-1,-1,-1,-1],"loss_changes":[1.0064607E0,8.216307E-1,7.489617E-1,7.237096E-1,5.1200926E-1,3.4617698E-1,7.133036E-1,0E0,0E0,0E0,0E0,0E0,0E0,0E0,0E0],"parents":[2147483647,0,0,1,1,2,2,3,3,4,4,5,5,6,6],"right_children":[2,4,6,8,10,12,14,-1,-1,-1,-1,-1,-1,-1,-1],"split_conditions":[-6.428366E-1,-3.1278482E-1,-2.1019137E0,-9.432848E-1,-1.0733039E0,-9.763208E-1,1.1854917E0,3.3339912E-3,-0E0,-1.9872547E-4,-9.232092E-4,-0E0,3.266095E-3,1.9643134E-5,5.6583114E-4],"split_indices":[38,36,21,20,37,31,38,0,0,0,0,0,0,0,0],"split_type":[0,0,0,0,0,0,0,0,0,0,0,0,0,0,0],"sum_hessian":[1.04295E5,2.6964E4,7.7331E4,1.1473E4,1.5491E4,3.73E2,7.6958E4,2.07E2,1.1266E4,8.055E3,7.436E3,2.3E1,3.5E2,6.8052E4,8.906E3],"tree_param":{"num_deleted":"0","num_feature":"41","num_nodes":"15","size_leaf_vector":"1"}},{"base_weights":[-3.6353566E-4,-7.407333E-3,1.3161096E-3,-1.6827809E-2,-2.4332495E-4,2.630663E-4,5.3253927E-4,-2.9474972E-3,-5.27314E-4,-9.909803E-4,4.0022944E-5],"categories":[],"categories_nodes":[],"categories_segments":[],"categories_sizes":[],"default_left":[0,0,0,0,0,0,0,0,0,0,0],"id":4,"left_children":[1,3,5,7,-1,9,-1,-1,-1,-1,-1],"loss_changes":[1.2735602E0,4.8216057E-1,6.533364E-1,8.6586726E-1,0E0,4.8549125E-1,0E0,0E0,0E0,0E0,0E0],"parents":[2147483647,0,0,1,1,2,2,3,3,5,5],"right_children":[2,4,6,8,-1,10,-1,-1,-1,-1,-1],"split_conditions":[-8.16745E-1,-1.0568208E0,1.1854917E0,-9.88176E-1,-2.4332495E-4,-1.1520332E0,5.3253927E-4,-2.9474972E-3,-5.27314E-4,-9.909803E-4,4.0022944E-5],"split_indices":[38,28,38,31,0,10,0,0,0,0,0],"split_type":[0,0,0,0,0,0,0,0,0,0,0],"sum_hessian":[1.04508E5,2.0817E4,8.3691E4,4.683E3,1.6134E4,7.471E4,8.981E3,6.79E2,4.004E3,1.482E3,7.3228E4],"tree_param":{"num_deleted":"0","num_feature":"41","num_nodes":"11","size_leaf_vector":"1"}},{"base_weights":[2.5213832E-5,-3.5715254E-3,3.6850625E-3,-8.644299E-4,-1.136996E-2,1.5933426E-4,8.065507E-3,-1.047814E-4,7.459543E-4,-1.9650601E-3,-3.5767516E-4,5.0610764E-5,-1.6569685E-3,3.2493868E-4,1.1732935E-3],"categories":[],"categories_nodes":[],"categories_segments":[],"categories_sizes":[],"default_left":[0,0,0,0,0,0,0,0,0,0,0,0,0,0,0],"id":5,"left_children":[1,3,5,7,9,11,13,-1,-1,-1,-1,-1,-1,-1,-1],"loss_changes":[1.3733082E0,1.0181279E0,7.6114166E-1,4.6965596E-1,1.2538235E0,4.718959E-1,5.0646317E-1,0E0,0E0,0E0,0E0,0E0,0E0,0E0,0E0],"parents":[2147483647,0,0,1,1,2,2,3,3,4,4,5,5,6,6],"right_children":[2,4,6,8,10,12,14,-1,-1,-1,-1,-1,-1,-1,-1],"split_conditions":[-2.412639E-2,3.5486677E-1,-3.9417714E-1,2.1023719E-1,-9.939553E-1,2.433662E0,1.2092079E0,-1.047814E-4,7.459543E-4,-1.9650601E-3,-3.5767516E-4,5.0610764E-5,-1.6569685E-3,3.2493868E-4,1.1732935E-3],"split_indices":[23,34,35,35,31,36,38,0,0,0,0,0,0,0,0],"split_type":[0,0,0,0,0,0,0,0,0,0,0,0,0,0,0],"sum_hessian":[1.04267E5,5.1749E4,5.2518E4,3.8996E4,1.2753E4,2.9869E4,2.2649E4,3.6847E4,2.149E3,2.057E3,1.0696E4,2.9347E4,5.22E2,1.953E4,3.119E3],"tree_param":{"num_deleted":"0","num_feature":"41","num_nodes":"15","size_leaf_vector":"1"}},{"base_weights":[-0E0,-3.6666212E-3,2.6280722E-3,-4.8371803E-5,-1.0239316E-2,1.3810643E-2,9.754082E-5,-9.770673E-4,1.3033104E-4,3.4405352E-4,1.878119E-3],"categories":[],"categories_nodes":[],"categories_segments":[],"categories_sizes":[],"default_left":[0,0,0,0,0,0,0,0,0,0,0],"id":6,"left_children":[1,3,5,-1,7,9,-1,-1,-1,-1,-1],"loss_changes":[1.0113294E0,7.532406E-1,5.1440793E-1,0E0,1.2016343E0,3.5930765E-1,0E0,0E0,0E0,0E0,0E0],"parents":[2147483647,0,0,1,1,2,2,4,4,5,5],"right_children":[2,4,6,-1,8,10,-1,-1,-1,-1,-1],"split_conditions":[-1.904621E-1,2.697625E-1,-3.092042E-1,-4.8371803E-5,-5.3210056E-1,7.416375E-1,9.754082E-5,-9.770673E-4,1.3033104E-4,3.4405352E-4,1.878119E-3],"split_indices":[23,34,21,0,30,34,0,0,0,0,0],"split_type":[0,0,0,0,0,0,0,0,0,0,0],"sum_hessian":[1.04406E5,4.4383E4,6.0023E4,3.1731E4,1.2652E4,3.997E3,5.6026E4,8.43E3,4.222E3,3.082E3,9.15E2],"tree_param":{"num_deleted":"0","num_feature":"41","num_nodes":"11","size_leaf_vector":"1"}},{"base_weights":[1.1452704E-4,-3.1317156E-3,3.0423535E-3,-2.904577E-5,-8.337186E-3,2.6464888E-3,4.013491E-2,-5.9680286E-4,1.7565478E-3,1.8926655E-4,-8.046246E-4,5.205265E-3,-0E0],"categories":[],"categories_nodes":[],"categories_segments":[],"categories_sizes":[],"default_left":[0,0,0,0,0,0,0,0,0,0,0,0,0],"id":7,"left_children":[1,3,5,-1,7,9,11,-1,-1,-1,-1,-1,-1],"loss_changes":[9.935955E-1,6.0903716E-1,5.6147295E-1,0E0,1.2128094E0,5.823437E-1,6.2245077E-1,0E0,0E0,0E0,0E0,0E0,0E0],"parents":[2147483647,0,0,1,1,2,2,4,4,5,5,6,6],"right_children":[2,4,6,-1,8,10,12,-1,-1,-1,-1,-1,-1],"split_conditions":[-9.703188E-2,1.2435988E-1,2.7519467E0,-2.904577E-5,3.0102549E0,2.3453064E0,-4.289903E-1,-5.9680286E-4,1.7565478E-3,1.8926655E-4,-8.046246E-4,5.205265E-3,-0E0],"split_indices":[23,34,20,0,36,36,0,0,0,0,0,0,0],"split_type":[0,0,0,0,0,0,0,0,0,0,0,0,0],"sum_hessian":[1.0459E5,4.8613E4,5.5977E4,3.312E4,1.5493E4,5.5552E4,4.25E2,1.4824E4,6.69E2,5.3707E4,1.845E3,1.52E2,2.73E2],"tree_param":{"num_deleted":"0","num_feature":"41","num_nodes":"13","size_leaf_vector":"1"}},{"base_weights":[-0E0,-5.1461332E-3,1.8101393E-3,5.0233555E-4,-6.550513E-3,7.215831E-4,1.7375035E-2,-6.6144415E-4,-1.3086801E-4,-4.7987077E-4,7.8677804E-5,1.3318298E-3,-5.8832056E-6],"categories":[],"categories_nodes":[],"categories_segments":[],"categories_sizes":[],"default_left":[0,0,0,0,0,0,0,0,0,0,0,0,0],"id":8,"left_children":[1,3,5,-1,7,9,11,-1,-1,-1,-1,-1,-1],"loss_changes":[9.777024E-1,5.247943E-1,1.1963205E0,0E0,4.6385062E-1,4.0058604E-1,6.425024E-1,0E0,0E0,0E0,0E0,0E0,0E0],"parents":[2147483647,0,0,1,1,2,2,4,4,5,5,6,6],"right_children":[2,4,6,-1,8,10,12,-1,-1,-1,-1,-1,-1],"split_conditions":[-6.316992E-1,-1.0867182E0,6.423548E-1,5.0233555E-4,-8.5523176E-1,-5.227494E-1,1.634416E0,-6.6144415E-4,-1.3086801E-4,-4.7987077E-4,7.8677804E-5,1.3318298E-3,-5.8832056E-6],"split_indices":[38,36,35,0,33,20,22,0,0,0,0,0,0],"split_type":[0,0,0,0,0,0,0,0,0,0,0,0,0],"sum_hessian":[1.04476E5,2.7375E4,7.7101E4,2.098E3,2.5277E4,7.243E4,4.671E3,1.0801E4,1.4476E4,4.279E3,6.8151E4,3.716E3,9.55E2],"tree_param":{"num_deleted":"0","num_feature":"41","num_nodes":"13","size_leaf_vector":"1"}},{"base_weights":[-5.24116E-5,-8.434807E-3,9.049255E-4,-1.0944826E-2,2.4268918E-2,1.0300513E-2,2.4332729E-4,-9.089999E-4,-0E0,2.9115647E-3,-0E0,-0E0,3.7719216E-3,-9.228006E-6,6.6639844E-4],"categories":[],"categories_nodes":[],"categories_segments":[],"categories_sizes":[],"default_left":[0,0,0,0,0,0,0,0,0,0,0,0,0,0,0],"id":9,"left_children":[1,3,5,7,9,11,13,-1,-1,-1,-1,-1,-1,-1,-1],"loss_changes":[8.847059E-1,8.530145E-1,5.150615E-1,6.359155E-1,5.465375E-1,3.2077236E0,4.8039588E-1,0E0,0E0,0E0,0E0,0E0,0E0,0E0,0E0],"parents":[2147483647,0,0,1,1,2,2,3,3,4,4,5,5,6,6],"right_children":[2,4,6,8,10,12,14,-1,-1,-1,-1,-1,-1,-1,-1],"split_conditions":[-1.1964968E0,3.0102549E0,-1.8831068E0,-5.525335E-1,-1.4128517E0,-9.249279E-1,8.933038E-1,-9.089999E-4,-0E0,2.9115647E-3,-0E0,-0E0,3.7719216E-3,-9.228006E-6,6.6639844E-4],"split_indices":[23,36,37,3,28,29,35,0,0,0,0,0,0,0,0],"split_type":[0,0,0,0,0,0,0,0,0,0,0,0,0,0,0],"sum_hessian":[1.04534E5,1.1363E4,9.3171E4,1.0728E4,6.35E2,5.521E3,8.765E4,7.467E3,3.261E3,3.46E2,2.89E2,4.668E3,8.53E2,8.4157E4,3.493E3],"tree_param":{"num_deleted":"0","num_feature":"41","num_nodes":"15","size_leaf_vector":"1"}},{"base_weights":[-1.9203029E-4,-1.2196548E-3,1.0049988E-2,-3.7867043E-3,1.3484438E-3,-0E0,8.0702896E-4,-5.0223924E-5,-5.34365E-4,1.6215629E-3,4.645292E-5],"categories":[],"categories_nodes":[],"categories_segments":[],"categories_sizes":[],"default_left":[0,0,0,0,0,0,0,0,0,0,0],"id":10,"left_children":[1,3,5,7,9,-1,-1,-1,-1,-1,-1],"loss_changes":[1.0466682E0,6.4477634E-1,3.4645963E-1,7.385554E-1,4.9262178E-1,0E0,0E0,0E0,0E0,0E0,0E0],"parents":[2147483647,0,0,1,1,2,2,3,3,4,4],"right_children":[2,4,6,8,10,-1,-1,-1,-1,-1,-1],"split_conditions":[1.1854917E0,-5.0746903E-2,-8.704053E-1,1.2435988E-1,-7.3247343E-1,-0E0,8.0702896E-4,-5.0223924E-5,-5.34365E-4,1.6215629E-3,4.645292E-5],"split_indices":[38,23,30,34,21,0,0,0,0,0,0],"split_type":[0,0,0,0,0,0,0,0,0,0,0],"sum_hessian":[1.0454E5,9.555E4,8.99E3,4.8968E4,4.6582E4,2.804E3,6.186E3,3.3054E4,1.5914E4,6.64E2,4.5918E4],"tree_param":{"num_deleted":"0","num_feature":"41","num_nodes":"11","size_leaf_vector":"1"}},{"base_weights":[-2.5373383E-4,-3.026423E-3,2.2603914E-3,-4.5598727E-3,3.954492E-3,-2.709328E-6,6.3324533E-3,-1.8159892E-4,-1.2619621E-3,1.4492029E-3,3.4774625E-5,1.627134E-3,2.5047746E-4],"categories":[],"categories_nodes":[],"categories_segments":[],"categories_sizes":[],"default_left":[0,0,0,0,0,0,0,0,0,0,0,0,0],"id":11,"left_children":[1,3,5,7,9,-1,11,-1,-1,-1,-1,-1,-1],"loss_changes":[7.3056626E-1,5.461712E-1,5.4072607E-1,8.5940766E-1,4.4829923E-1,0E0,6.6691667E-1,0E0,0E0,0E0,0E0,0E0,0E0],"parents":[2147483647,0,0,1,1,2,2,3,3,4,4,6,6],"right_children":[2,4,6,8,10,-1,12,-1,-1,-1,-1,-1,-1],"split_conditions":[-5.0746903E-2,-1.6146544E-1,-3.2581383E-1,-3.0521935E-1,-1.3575418E-1,-2.709328E-6,-2.104325E0,-1.8159892E-4,-1.2619621E-3,1.4492029E-3,3.4774625E-5,1.627134E-3,2.5047746E-4],"split_indices":[23,13,35,18,16,0,37,0,0,0,0,0,0],"split_type":[0,0,0,0,0,0,0,0,0,0,0,0,0],"sum_hessian":[1.04127E5,5.0667E4,5.346E4,4.2257E4,8.41E3,3.3169E4,2.0291E4,3.9574E4,2.683E3,8.79E2,7.531E3,1.344E3,1.8947E4],"tree_param":{"num_deleted":"0","num_feature":"41","num_nodes":"13","size_leaf_vector":"1"}},{"base_weights":[-0E0,-1.7059684E-3,4.0799156E-3,-1.7900007E-2,-8.7836577E-4,2.569827E-2,2.1235263E-3,1.8734728E-3,-1.3181911E-3,-3.7785726E-6,-7.1643817E-4,4.187695E-5,2.8555398E-3,-3.1092586E-5,4.3884254E-4],"categories":[],"categories_nodes":[],"categories_segments":[],"categories_sizes":[],"default_left":[0,0,0,0,0,0,0,0,0,0,0,0,0,0,0],"id":12,"left_children":[1,3,5,7,9,11,13,-1,-1,-1,-1,-1,-1,-1,-1],"loss_changes":[7.245255E-1,8.7426233E-1,1.1261175E0,8.245146E-1,5.9609777E-1,1.0958797E0,4.6942595E-1,0E0,0E0,0E0,0E0,0E0,0E0,0E0,0E0],"parents":[2147483647,0,0,1,1,2,2,3,3,4,4,5,5,6,6],"right_children":[2,4,6,8,10,12,14,-1,-1,-1,-1,-1,-1,-1,-1],"split_conditions":[-5.5087334E-1,-7.8410214E-1,-1.2959503E0,-2.6326768E0,1.9922876E0,-5.159927E-1,-9.8159295E-1,1.8734728E-3,-1.3181911E-3,-3.7785726E-6,-7.1643817E-4,4.187695E-5,2.8555398E-3,-3.1092586E-5,4.3884254E-4],"split_indices":[5,22,37,37,36,12,37,0,0,0,0,0,0,0,0],"split_type":[0,0,0,0,0,0,0,0,0,0,0,0,0,0,0],"sum_hessian":[1.0438E5,7.3753E4,3.0627E4,3.225E3,7.0528E4,2.28E3,2.8347E4,1.97E2,3.028E3,6.6462E4,4.066E3,1.258E3,1.022E3,1.848E4,9.867E3],"tree_param":{"num_deleted":"0","num_feature":"41","num_nodes":"15","size_leaf_vector":"1"}},{"base_weights":[3.4265566E-5,-3.8496284E-3,2.619449E-3,-0E0,-8.4717795E-3,1.5072712E-3,1.9676087E-2,5.453162E-3,-4.1842835E-5,-5.4024917E-4,6.893505E-4,1.1092645E-4,-1.1634243E-3,3.433882E-4,2.3773722E-3],"categories":[],"categories_nodes":[],"categories_segments":[],"categories_sizes":[],"default_left":[0,0,0,0,0,0,0,0,0,0,0,0,0,0,0],"id":13,"left_children":[1,3,5,7,9,11,13,-1,-1,-1,-1,-1,-1,-1,-1],"loss_changes":[1.0364625E0,7.737919E-1,1.0730743E0,2.100517E0,4.0356946E-1,4.8011774E-1,7.81754E-1,0E0,0E0,0E0,0E0,0E0,0E0,0E0,0E0],"parents":[2147483647,0,0,1,1,2,2,3,3,4,4,5,5,6,6],"right_children":[2,4,6,8,10,12,14,-1,-1,-1,-1,-1,-1,-1,-1],"split_conditions":[-3.1136212E-1,-1.1448802E-1,6.733521E-1,-1.1716992E0,1.2459177E0,2.4229064E0,1.0855517E0,5.453162E-3,-4.1842835E-5,-5.4024917E-4,6.893505E-4,1.1092645E-4,-1.1634243E-3,3.433882E-4,2.3773722E-3],"split_indices":[38,36,35,20,28,34,36,0,0,0,0,0,0,0,0],"split_type":[0,0,0,0,0,0,0,0,0,0,0,0,0,0,0],"sum_hessian":[1.03965E5,4.0606E4,6.3359E4,2.1443E4,1.9163E4,5.9819E4,3.54E3,2.22E2,2.1221E4,1.8509E4,6.54E2,5.8896E4,9.23E2,2.369E3,1.171E3],"tree_param":{"num_deleted":"0","num_feature":"41","num_nodes":"15","size_leaf_vector":"1"}},{"base_weights":[-0E0,-2.7633754E-3,2.7043284E-3,-3.277415E-3,2.0897554E-2,1.2761718E-5,3.5137503E-4,-3.0726915E-5,-5.069742E-4,3.5577787E-3,-0E0],"categories":[],"categories_nodes":[],"categories_segments":[],"categories_sizes":[],"default_left":[0,0,0,0,0,0,0,0,0,0,0],"id":14,"left_children":[1,3,5,7,9,-1,-1,-1,-1,-1,-1],"loss_changes":[7.7929044E-1,5.084159E-1,4.2651263E-1,7.137741E-1,8.048384E-1,0E0,0E0,0E0,0E0,0E0,0E0],"parents":[2147483647,0,0,1,1,2,2,3,3,4,4],"right_children":[2,4,6,8,10,-1,-1,-1,-1,-1,-1],"split_conditions":[-5.0746903E-2,3.0102549E0,-3.4769994E-1,1.1334414E-1,-1.7989396E0,1.2761718E-5,3.5137503E-4,-3.0726915E-5,-5.069742E-4,3.5577787E-3,-0E0],"split_indices":[23,36,35,34,28,0,0,0,0,0,0],"split_type":[0,0,0,0,0,0,0,0,0,0,0],"sum_hessian":[1.04316E5,5.0586E4,5.373E4,4.9765E4,8.21E2,3.2453E4,2.1277E4,3.4291E4,1.5474E4,2.92E2,5.29E2],"tree_param":{"num_deleted":"0","num_feature":"41","num_nodes":"11","size_leaf_vector":"1"}},{"base_weights":[-3.8814114E-4,-4.6800496E-3,1.014704E-3,-8.073836E-5,-1.1125203E-2,2.5679555E-2,5.489139E-4,-7.566817E-4,1.0884787E-3,-0E0,2.4067722E-3,1.334787E-3,1.9707684E-6],"categories":[],"categories_nodes":[],"categories_segments":[],"categories_sizes":[],"default_left":[0,0,0,0,0,0,0,0,0,0,0,0,0],"id":15,"left_children":[1,3,5,-1,7,9,11,-1,-1,-1,-1,-1,-1],"loss_changes":[6.513589E-1,4.8608917E-1,7.3286307E-1,0E0,5.3006005E-1,6.2863874E-1,7.610475E-1,0E0,0E0,0E0,0E0,0E0,0E0],"parents":[2147483647,0,0,1,1,2,2,4,4,5,5,6,6],"right_children":[2,4,6,-1,8,10,12,-1,-1,-1,-1,-1,-1],"split_conditions":[-6.428366E-1,2.697625E-1,-1.2408799E0,-8.073836E-5,3.0102549E0,-5.5388206E-1,-1.2570043E0,-7.566817E-4,1.0884787E-3,-0E0,2.4067722E-3,1.334787E-3,1.9707684E-6],"split_indices":[38,34,22,0,36,15,21,0,0,0,0,0,0],"split_type":[0,0,0,0,0,0,0,0,0,0,0,0,0],"sum_hessian":[1.04475E5,2.6802E4,7.7673E4,1.8437E4,8.365E3,1.194E3,7.6479E4,7.982E3,3.83E2,4.11E2,7.83E2,1.41E3,7.5069E4],"tree_param":{"num_deleted":"0","num_feature":"41","num_nodes":"13","size_leaf_vector":"1"}},{"base_weights":[-5.5216344E-5,-9.3378936E-4,7.773292E-3,-1.7675023E-3,6.5542394E-3,-6.50596E-2,8.947799E-3,-1.9871612E-5,-2.9163924E-4,-3.314614E-4,6.518407E-4,-0E0,-7.7106743E-3,1.9841777E-4,1.2576412E-3],"categories":[],"categories_nodes":[],"categories_segments":[],"categories_sizes":[],"default_left":[0,0,0,0,0,0,0,0,0,0,0,0,0,0,0],"id":16,"left_children":[1,3,5,7,9,11,13,-1,-1,-1,-1,-1,-1,-1,-1],"loss_changes":[6.777424E-1,5.623273E-1,5.0394434E-1,3.7805665E-1,5.720254E-1,6.0327524E-1,5.4914457E-1,0E0,0E0,0E0,0E0,0E0,0E0,0E0,0E0],"parents":[2147483647,0,0,1,1,2,2,3,3,4,4,5,5,6,6],"right_children":[2,4,6,8,10,12,14,-1,-1,-1,-1,-1,-1,-1,-1],"split_conditions":[1.1432852E0,-3.7936624E-2,-2.659394E0,4.4152954E-1,-1.7866282E-1,7.9691243E-1,-1.24518014E-1,-1.9871612E-5,-2.9163924E-4,-3.314614E-4,6.518407E-4,-0E0,-7.7106743E-3,1.9841777E-4,1.2576412E-3],"split_indices":[38,15,37,36,35,34,35,0,0,0,0,0,0,0,0],"split_type":[0,0,0,0,0,0,0,0,0,0,0,0,0,0,0],"sum_hessian":[1.04578E5,9.4727E4,9.851E3,8.597E4,8.757E3,7.1E1,9.78E3,6.1836E4,2.4134E4,2.146E3,6.611E3,2.5E1,4.6E1,7.258E3,2.522E3],"tree_param":{"num_deleted":"0","num_feature":"41","num_nodes":"15","size_leaf_vector":"1"}},{"base_weights":[-0E0,-2.133299E-3,1.9659887E-3,-2.503573E-3,6.0755804E-2,2.7540834E-3,-7.2998335E-3,-2.074476E-5,-4.4086706E-4,-0E0,5.0211623E-3,1.2587744E-4,1.2495093E-3,-2.0455185E-3,-7.201778E-5],"categories":[],"categories_nodes":[],"categories_segments":[],"categories_sizes":[],"default_left":[0,0,0,0,0,0,0,0,0,0,0,0,0,0,0],"id":17,"left_children":[1,3,5,7,9,11,13,-1,-1,-1,-1,-1,-1,-1,-1],"loss_changes":[4.367026E-1,8.0266666E-1,3.7054005E-1,5.081885E-1,4.0110666E-1,3.7535915E-1,4.0963203E-1,0E0,0E0,0E0,0E0,0E0,0E0,0E0,0E0],"parents":[2147483647,0,0,1,1,2,2,3,3,4,4,5,5,6,6],"right_children":[2,4,6,8,10,12,14,-1,-1,-1,-1,-1,-1,-1,-1],"split_conditions":[-6.967663E-2,6.350385E0,1.8191286E0,2.697625E-1,-1.9820011E0,2.2547183E0,-1.5924748E0,-2.074476E-5,-4.4086706E-4,-0E0,5.0211623E-3,1.2587744E-4,1.2495093E-3,-2.0455185E-3,-7.201778E-5],"split_indices":[23,34,23,34,38,28,37,0,0,0,0,0,0,0,0],"split_type":[0,0,0,0,0,0,0,0,0,0,0,0,0,0,0],"sum_hessian":[1.04167E5,4.9653E4,5.4514E4,4.9462E4,1.91E2,5.0848E4,3.666E3,3.6021E4,1.3441E4,5.2E1,1.39E2,4.9791E4,1.057E3,4.57E2,3.209E3],"tree_param":{"num_deleted":"0","num_feature":"41","num_nodes":"15","size_leaf_vector":"1"}},{"base_weights":[2.7981307E-4,-5.205743E-4,8.622036E-3,-4.8261406E-3,6.0729455E-4,-2.88427E-3,9.707598E-3,-1.327106E-4,-1.3094449E-3,-3.5541873E-6,5.829356E-4,3.8058392E-3,3.7901665E-4],"categories":[],"categories_nodes":[],"categories_segments":[],"categories_sizes":[],"default_left":[0,0,0,0,0,0,0,0,0,0,0,0,0],"id":18,"left_children":[1,3,5,7,9,-1,11,-1,-1,-1,-1,-1,-1],"loss_changes":[7.454211E-1,4.8442423E-1,3.84036E-1,7.864597E-1,5.403093E-1,0E0,1.2359421E0,0E0,0E0,0E0,0E0,0E0,0E0],"parents":[2147483647,0,0,1,1,2,2,3,3,4,4,6,6],"right_children":[2,4,6,8,10,-1,12,-1,-1,-1,-1,-1,-1],"split_conditions":[1.1432852E0,-8.16745E-1,-2.659394E0,6.423548E-1,5.564752E-1,-2.88427E-3,-1.7852148E0,-1.327106E-4,-1.3094449E-3,-3.5541873E-6,5.829356E-4,3.8058392E-3,3.7901665E-4],"split_indices":[38,38,37,35,35,0,37,0,0,0,0,0,0],"split_type":[0,0,0,0,0,0,0,0,0,0,0,0,0],"sum_hessian":[1.04256E5,9.4467E4,9.789E3,2.0726E4,7.3741E4,7.2E1,9.717E3,1.8542E4,2.184E3,6.8382E4,5.359E3,3.81E2,9.336E3],"tree_param":{"num_deleted":"0","num_feature":"41","num_nodes":"13","size_leaf_vector":"1"}},{"base_weights":[-2.6582097E-4,-7.839965E-4,1.2147166E-2,-9.842942E-4,3.962263E-2,1.2729381E-4,5.0389156E-2,3.7967248E-4,-8.9802284E-5,5.531301E-3,-0E0,3.4200598E-3,-0E0],"categories":[],"categories_nodes":[],"categories_segments":[],"categories_sizes":[],"default_left":[0,0,0,0,0,0,0,0,0,0,0,0,0],"id":19,"left_children":[1,3,5,7,9,-1,11,-1,-1,-1,-1,-1,-1],"loss_changes":[6.0199976E-1,5.7957435E-1,1.0845667E0,4.3126538E-1,7.3833734E-1,0E0,5.1219165E-1,0E0,0E0,0E0,0E0,0E0,0E0],"parents":[2147483647,0,0,1,1,2,2,3,3,4,4,6,6],"right_children":[2,4,6,8,10,-1,12,-1,-1,-1,-1,-1,-1],"split_conditions":[5.9131093E-2,2.7519467E0,5.831599E-1,-1.8831068E0,-5.154806E-1,1.2729381E-4,2.7079113E0,3.7967248E-4,-8.9802284E-5,5.531301E-3,-0E0,3.4200598E-3,-0E0],"split_indices":[6,20,35,37,40,0,21,0,0,0,0,0,0],"split_type":[0,0,0,0,0,0,0,0,0,0,0,0,0],"sum_hessian":[1.04326E5,1.00619E5,3.707E3,1.00276E5,3.43E2,3.074E3,6.33E2,6.528E3,9.3748E4,1.31E2,2.12E2,5.81E2,5.2E1],"tree_param":{"num_deleted":"0","num_feature":"41","num_nodes":"13","size_leaf_vector":"1"}},{"base_weights":[2.64133E-6,-1.4712102E-3,3.7722157E-3,9.432018E-3,-2.4721464E-3,2.2620773E-2,2.0012823E-3,-0E0,3.8767722E-3,-9.685574E-6,-4.6334913E-4,1.6432462E-4,2.6134537E-3,2.377973E-5,9.318759E-4],"categories":[],"categories_nodes":[],"categories_segments":[],"categories_sizes":[],"default_left":[0,0,0,0,0,0,0,0,0,0,0,0,0,0,0],"id":20,"left_children":[1,3,5,7,9,11,13,-1,-1,-1,-1,-1,-1,-1,-1],"loss_changes":[5.9331816E-1,7.632283E-1,8.6718047E-1,3.0893593E0,8.4311914E-1,7.7697134E-1,5.404341E-1,0E0,0E0,0E0,0E0,0E0,0E0,0E0,0E0],"parents":[2147483647,0,0,1,1,2,2,3,3,4,4,5,5,6,6],"right_children":[2,4,6,8,10,12,14,-1,-1,-1,-1,-1,-1,-1,-1],"split_conditions":[-5.5087334E-1,-1.9717883E0,-1.2709578E0,-9.219318E-1,4.6324912E-2,-5.067038E-1,1.5319377E0,-0E0,3.8767722E-3,-9.685574E-6,-4.6334913E-4,1.6432462E-4,2.6134537E-3,2.377973E-5,9.318759E-4],"split_indices":[5,37,37,19,34,14,36,0,0,0,0,0,0,0,0],"split_type":[0,0,0,0,0,0,0,0,0,0,0,0,0,0,0],"sum_hessian":[1.04267E5,7.3801E4,3.0466E4,5.692E3,6.8109E4,2.318E3,2.8148E4,4.927E3,7.65E2,4.9289E4,1.882E4,1.403E3,9.15E2,2.5752E4,2.396E3],"tree_param":{"num_deleted":"0","num_feature":"41","num_nodes":"15","size_leaf_vector":"1"}},{"base_weights":[2.881834E-4,1.0819505E-2,-3.5078355E-4,-0E0,6.7513004E-2,-1.087911E-3,3.8848753E-4,1.678927E-4,-2.8465842E-3,-0E0,5.2499515E-3,6.639198E-4,-8.665729E-5],"categories":[],"categories_nodes":[],"categories_segments":[],"categories_sizes":[],"default_left":[0,0,0,0,0,0,0,0,0,0,0,0,0],"id":21,"left_children":[1,3,5,7,9,11,-1,-1,-1,-1,-1,-1,-1],"loss_changes":[7.644635E-1,3.891158E0,4.8354614E-1,7.486096E-1,2.2255983E0,4.4253632E-1,0E0,0E0,0E0,0E0,0E0,0E0,0E0],"parents":[2147483647,0,0,1,1,2,2,3,3,4,4,5,5],"right_children":[2,4,6,8,10,12,-1,-1,-1,-1,-1,-1,-1],"split_conditions":[-1.8831068E0,-9.218837E-1,1.2092079E0,8.423751E-1,-7.5398684E-1,-1.3222532E0,3.8848753E-4,1.678927E-4,-2.8465842E-3,-0E0,5.2499515E-3,6.639198E-4,-8.665729E-5],"split_indices":[37,10,38,35,22,22,0,0,0,0,0,0,0],"split_type":[0,0,0,0,0,0,0,0,0,0,0,0,0],"sum_hessian":[1.04139E5,6.498E3,9.7641E4,5.481E3,1.017E3,8.9347E4,8.294E3,5.206E3,2.75E2,2.19E2,7.98E2,2.513E3,8.6834E4],"tree_param":{"num_deleted":"0","num_feature":"41","num_nodes":"13","size_leaf_vector":"1"}},{"base_weights":[5.042927E-4,-5.9474993E-4,6.6281487E-3,-1.0499875E-4,-2.2820573E-2,1.6170811E-4,1.1438917E-3,-7.672179E-4,1.683128E-5,-1.7595157E-3,-0E0],"categories":[],"categories_nodes":[],"categories_segments":[],"categories_sizes":[],"default_left":[0,0,0,0,0,0,0,0,0,0,0],"id":22,"left_children":[1,3,5,7,9,-1,-1,-1,-1,-1,-1],"loss_changes":[7.3974764E-1,8.154948E-1,7.1607745E-1,5.453675E-1,4.7916073E-1,0E0,0E0,0E0,0E0,0E0,0E0],"parents":[2147483647,0,0,1,1,2,2,3,3,4,4],"right_children":[2,4,6,8,10,-1,-1,-1,-1,-1,-1],"split_conditions":[-1.6146544E-1,-1.7945898E-1,7.911324E-1,-1.7391485E0,-1.1131749E0,1.6170811E-4,1.1438917E-3,-7.672179E-4,1.683128E-5,-1.7595157E-3,-0E0],"split_indices":[13,15,36,38,37,0,0,0,0,0,0],"split_type":[0,0,0,0,0,0,0,0,0,0,0],"sum_hessian":[1.04455E5,8.7722E4,1.6733E4,8.6102E4,1.62E3,1.3442E4,3.291E3,2.938E3,8.3164E4,1.371E3,2.49E2],"tree_param":{"num_deleted":"0","num_feature":"41","num_nodes":"11","size_leaf_vector":"1"}},{"base_weights":[-5.235047E-4,-7.5261258E-3,3.4522382E-4,-9.453383E-3,2.6316535E-2,-1.4626636E-4,1.0159478E-2,-7.9413183E-4,-0E0,-0E0,2.5568872E-3,8.793954E-6,-6.550049E-4,-1.3473177E-4,1.1988985E-3],"categories":[],"categories_nodes":[],"categories_segments":[],"categories_sizes":[],"default_left":[0,0,0,0,0,0,0,0,0,0,0,0,0,0,0],"id":23,"left_children":[1,3,5,7,9,11,13,-1,-1,-1,-1,-1,-1,-1,-1],"loss_changes":[6.790439E-1,7.0060503E-1,5.0537616E-1,5.418683E-1,3.7376472E-1,3.691122E-1,8.0128497E-1,0E0,0E0,0E0,0E0,0E0,0E0,0E0,0E0],"parents":[2147483647,0,0,1,1,2,2,3,3,4,4,5,5,6,6],"right_children":[2,4,6,8,10,12,14,-1,-1,-1,-1,-1,-1,-1,-1],"split_conditions":[-1.1521881E0,3.2017047E0,1.96902E-2,-5.5449575E-1,1.1057717E0,1.9581423E0,-3.7352353E-2,-7.9413183E-4,-0E0,-0E0,2.5568872E-3,8.793954E-6,-6.550049E-4,-1.3473177E-4,1.1988985E-3],"split_indices":[23,36,15,3,34,23,35,0,0,0,0,0,0,0,0],"split_type":[0,0,0,0,0,0,0,0,0,0,0,0,0,0,0],"sum_hessian":[1.0444E5,1.2296E4,9.2144E4,1.1806E4,4.9E2,8.7163E4,4.981E3,8.133E3,3.673E3,1.42E2,3.48E2,8.4404E4,2.759E3,2.07E3,2.911E3],"tree_param":{"num_deleted":"0","num_feature":"41","num_nodes":"15","size_leaf_vector":"1"}},{"base_weights":[2.2603021E-4,-4.969437E-3,1.1219702E-3,-1.303754E-4,-2.0342428E-2,9.778098E-4,6.070399E-4,-3.999949E-3,-4.889622E-4,-9.902173E-4,6.650865E-5],"categories":[],"categories_nodes":[],"categories_segments":[],"categories_sizes":[],"default_left":[0,0,0,0,0,0,0,0,0,0,0],"id":24,"left_children":[1,3,5,-1,7,-1,9,-1,-1,-1,-1],"loss_changes":[4.6195036E-1,4.5048028E-1,6.3827914E-1,0E0,5.6581753E-1,0E0,7.970077E-1,0E0,0E0,0E0,0E0],"parents":[2147483647,0,0,1,1,2,2,4,4,6,6],"right_children":[2,4,6,-1,8,-1,10,-1,-1,-1,-1],"split_conditions":[-1.0467737E0,6.1141473E-1,-1.1851203E0,-1.303754E-4,-8.5457855E-1,9.778098E-4,-7.9671246E-1,-3.999949E-3,-4.889622E-4,-9.902173E-4,6.650865E-5],"split_indices":[38,35,21,0,0,0,21,0,0,0,0],"split_type":[0,0,0,0,0,0,0,0,0,0,0],"sum_hessian":[1.04259E5,1.4334E4,8.9925E4,1.2554E4,1.78E3,2.413E3,8.7512E4,2.35E2,1.545E3,2.329E3,8.5183E4],"tree_param":{"num_deleted":"0","num_feature":"41","num_nodes":"11","size_leaf_vector":"1"}},{"base_weights":[-3.2353602E-4,-4.9479436E-3,1.0469297E-3,-2.7022744E-4,-9.414396E-3,2.069398E-5,9.800569E-3,2.6650624E-3,-8.021649E-5,-4.202853E-4,-2.2840924E-3,-7.3487645E-5,1.0090992E-3],"categories":[],"categories_nodes":[],"categories_segments":[],"categories_sizes":[],"default_left":[0,0,0,0,0,0,0,0,0,0,0,0,0],"id":25,"left_children":[1,3,5,7,9,-1,11,-1,-1,-1,-1,-1,-1],"loss_changes":[6.853632E-1,4.6092933E-1,4.1278398E-1,4.1721347E-1,4.5360506E-1,0E0,5.535332E-1,0E0,0E0,0E0,0E0,0E0,0E0],"parents":[2147483647,0,0,1,1,2,2,3,3,4,4,6,6],"right_children":[2,4,6,8,10,-1,12,-1,-1,-1,-1,-1,-1],"split_conditions":[-6.9827485E-1,-1.0534594E-1,6.1141473E-1,-1.1716992E0,1.4629186E0,2.069398E-5,-9.915179E-2,2.6650624E-3,-8.021649E-5,-4.202853E-4,-2.2840924E-3,-7.3487645E-5,1.0090992E-3],"split_indices":[38,36,35,20,35,0,38,0,0,0,0,0,0],"split_type":[0,0,0,0,0,0,0,0,0,0,0,0,0],"sum_hessian":[1.04393E5,2.4877E4,7.9516E4,1.2818E4,1.2059E4,7.4418E4,5.098E3,1.74E2,1.2644E4,1.1515E4,5.44E2,1.819E3,3.279E3],"tree_param":{"num_deleted":"0","num_feature":"41","num_nodes":"13","size_leaf_vector":"1"}},{"base_weights":[4.998048E-4,-2.4678508E-2,8.5887214E-4,-1.6644929E-4,-6.3698985E-2,1.0400694E-2,1.5872497E-4,-5.688783E-3,-0E0,2.063129E-5,3.119461E-3,-1.4047835E-4,1.1991726E-4],"categories":[],"categories_nodes":[],"categories_segments":[],"categories_sizes":[],"default_left":[0,0,0,0,0,0,0,0,0,0,0,0,0],"id":26,"left_children":[1,3,5,-1,7,9,11,-1,-1,-1,-1,-1,-1],"loss_changes":[7.969993E-1,6.3481337E-1,6.235335E-1,0E0,5.969579E-1,2.5498004E0,4.9586743E-1,0E0,0E0,0E0,0E0,0E0,0E0],"parents":[2147483647,0,0,1,1,2,2,4,4,5,5,6,6],"right_children":[2,4,6,-1,8,10,12,-1,-1,-1,-1,-1,-1],"split_conditions":[-1.1543024E0,1.6700691E0,-1.8831068E0,-1.6644929E-4,-1.5830612E0,-9.249279E-1,-2.4679132E-1,-5.688783E-3,-0E0,2.063129E-5,3.119461E-3,-1.4047835E-4,1.1991726E-4],"split_indices":[32,4,37,0,37,29,38,0,0,0,0,0,0],"split_type":[0,0,0,0,0,0,0,0,0,0,0,0,0],"sum_hessian":[1.04165E5,1.223E3,1.02942E5,8.88E2,3.35E2,6.44E3,9.6502E4,1.92E2,1.43E2,5.372E3,1.068E3,3.9783E4,5.6719E4],"tree_param":{"num_deleted":"0","num_feature":"41","num_nodes":"13","size_leaf_vector":"1"}},{"base_weights":[2.2726278E-4,-0E0,2.5148232E-2,2.0466035E-2,-1.5980002E-4,1.283766E-1,-0E0,1.9416676E-3,-0E0,9.01023E-5,-1.5103148E-4,-0E0,8.857882E-3,-3.5830797E-3,9.8516335E-5],"categories":[],"categories_nodes":[],"categories_segments":[],"categories_sizes":[],"default_left":[0,0,0,0,0,0,0,0,0,0,0,0,0,0,0],"id":27,"left_children":[1,3,5,7,9,11,13,-1,-1,-1,-1,-1,-1,-1,-1],"loss_changes":[5.129935E-1,4.0291762E-1,2.9042523E0,4.3018374E-1,4.5681617E-1,7.458503E-1,4.3984234E-1,0E0,0E0,0E0,0E0,0E0,0E0,0E0,0E0],"parents":[2147483647,0,0,1,1,2,2,3,3,4,4,5,5,6,6],"right_children":[2,4,6,8,10,12,14,-1,-1,-1,-1,-1,-1,-1,-1],"split_conditions":[5.001131E0,-2.1019137E0,8.54204E-1,1.1512575E0,-2.4629585E-2,-1.5387045E0,-1.0253488E0,1.9416676E-3,-0E0,9.01023E-5,-1.5103148E-4,-0E0,8.857882E-3,-3.5830797E-3,9.8516335E-5],"split_indices":[34,21,36,22,36,38,13,0,0,0,0,0,0,0,0],"split_type":[0,0,0,0,0,0,0,0,0,0,0,0,0,0,0],"sum_hessian":[1.04514E5,1.03698E5,8.16E2,9.52E2,1.02746E5,2.04E2,6.12E2,7.04E2,2.48E2,5.9066E4,4.368E4,3.7E1,1.67E2,1.06E2,5.06E2],"tree_param":{"num_deleted":"0","num_feature":"41","num_nodes":"15","size_leaf_vector":"1"}},{"base_weights":[-1.4772515E-4,-4.0083416E-3,9.5816195E-4,-0E0,-1.5906367E-2,1.7817805E-2,-0E0,-1.0948032E-3,2.7743186E-4,3.3733205E-4,3.7306626E-3,1.4328922E-3,-2.1712789E-5],"categories":[],"categories_nodes":[],"categories_segments":[],"categories_sizes":[],"default_left":[0,0,0,0,0,0,0,0,0,0,0,0,0],"id":28,"left_children":[1,3,5,-1,7,9,11,-1,-1,-1,-1,-1,-1],"loss_changes":[4.6486205E-1,1.1711373E0,1.2937794E0,0E0,5.266211E-1,2.0152557E0,7.322878E-1,0E0,0E0,0E0,0E0,0E0,0E0],"parents":[2147483647,0,0,1,1,2,2,4,4,5,5,6,6],"right_children":[2,4,6,-1,8,10,12,-1,-1,-1,-1,-1,-1],"split_conditions":[-9.9143136E-1,-4.9514127E-1,-1.8831068E0,-0E0,3.5677943E-1,-8.946364E-1,-9.830371E-1,-1.0948032E-3,2.7743186E-4,3.3733205E-4,3.7306626E-3,1.4328922E-3,-2.1712789E-5],"split_indices":[30,35,37,0,35,11,9,0,0,0,0,0,0],"split_type":[0,0,0,0,0,0,0,0,0,0,0,0,0],"sum_hessian":[1.04531E5,2.4498E4,8.0033E4,1.8317E4,6.181E3,4.303E3,7.573E4,5.562E3,6.19E2,3.555E3,7.48E2,1.125E3,7.4605E4],"tree_param":{"num_deleted":"0","num_feature":"41","num_nodes":"13","size_leaf_vector":"1"}},{"base_weights":[2.5080817E-4,-7.648899E-4,4.858501E-3,-2.7124657E-5,-3.8264528E-2,-3.9313706E-3,5.5231526E-3,-3.25202E-3,-0E0,1.8054481E-3,1.8914255E-4],"categories":[],"categories_nodes":[],"categories_segments":[],"categories_sizes":[],"default_left":[0,0,0,0,0,0,0,0,0,0,0],"id":29,"left_children":[1,3,5,-1,7,-1,9,-1,-1,-1,-1],"loss_changes":[5.124406E-1,6.692881E-1,5.9479177E-1,0E0,4.056201E-1,0E0,9.256676E-1,0E0,0E0,0E0,0E0],"parents":[2147483647,0,0,1,1,2,2,4,4,6,6],"right_children":[2,4,6,-1,8,-1,10,-1,-1,-1,-1],"split_conditions":[7.9003066E-2,2.5822368E0,-1.1427046E0,-2.7124657E-5,-9.453849E-1,-3.9313706E-3,-9.7327733E-1,-3.25202E-3,-0E0,1.8054481E-3,1.8914255E-4],"split_indices":[35,34,31,0,37,0,14,0,0,0,0],"split_type":[0,0,0,0,0,0,0,0,0,0,0],"sum_hessian":[1.0417E5,8.4276E4,1.9894E4,8.3802E4,4.74E2,9.2E1,1.9802E4,3.32E2,1.42E2,1.301E3,1.8501E4],"tree_param":{"num_deleted":"0","num_feature":"41","num_nodes":"11","size_leaf_vector":"1"}},{"base_weights":[1.7302843E-4,-1.2401187E-5,1.2784114E-2,1.8323846E-4,4.871362E-2,-0E0,3.6911159E-3],"categories":[],"categories_nodes":[],"categories_segments":[],"categories_sizes":[],"default_left":[0,0,0,0,0,0,0],"id":30,"left_children":[1,-1,3,-1,5,-1,-1],"loss_changes":[5.9131163E-1,0E0,9.216078E-1,0E0,7.5782967E-1,0E0,0E0],"parents":[2147483647,0,0,2,2,4,4],"right_children":[2,-1,4,-1,6,-1,-1],"split_conditions":[5.9142236E-2,-1.2401187E-5,5.831599E-1,1.8323846E-4,-1.908893E0,-0E0,3.6911159E-3],"split_indices":[5,0,35,0,28,0,0],"split_type":[0,0,0,0,0,0,0],"sum_hessian":[1.04199E5,1.00595E5,3.604E3,2.984E3,6.2E2,9.6E1,5.24E2],"tree_param":{"num_deleted":"0","num_feature":"41","num_nodes":"7","size_leaf_vector":"1"}},{"base_weights":[5.577056E-5,-1.9503846E-3,2.0444212E-3,-2.426875E-3,1.9695064E-2,-1.5126757E-4,1.9577565E-4,-3.1047388E-5,-5.132887E-4,3.1019996E-3,-0E0],"categories":[],"categories_nodes":[],"categories_segments":[],"categories_sizes":[],"default_left":[0,0,0,0,0,0,0,0,0,0,0],"id":31,"left_children":[1,3,5,7,9,-1,-1,-1,-1,-1,-1],"loss_changes":[4.1652283E-1,4.1478324E-1,3.6278927E-1,5.5909777E-1,8.437195E-1,0E0,0E0,0E0,0E0,0E0,0E0],"parents":[2147483647,0,0,1,1,2,2,3,3,4,4],"right_children":[2,4,6,8,10,-1,-1,-1,-1,-1,-1],"split_conditions":[-5.0746903E-2,3.0102549E0,-1.0030649E0,4.8212132E-1,-1.300152E0,-1.5126757E-4,1.9577565E-4,-3.1047388E-5,-5.132887E-4,3.1019996E-3,-0E0],"split_indices":[23,36,19,34,28,0,0,0,0,0,0],"split_type":[0,0,0,0,0,0,0,0,0,0,0],"sum_hessian":[1.04253E5,5.0376E4,5.3877E4,4.9569E4,8.07E2,1.141E4,4.2467E4,3.9339E4,1.023E4,3.83E2,4.24E2],"tree_param":{"num_deleted":"0","num_feature":"41","num_nodes":"11","size_leaf_vector":"1"}},{"base_weights":[-0E0,-4.638247E-3,1.1040653E-3,-1.3616483E-4,-1.8162135E-2,1.687561E-2,6.333547E-4,-1.3624285E-3,1.5648017E-3,6.0444893E-3,4.8789917E-4,-7.386214E-4,6.056447E-5],"categories":[],"categories_nodes":[],"categories_segments":[],"categories_sizes":[],"default_left":[0,0,0,0,0,0,0,0,0,0,0,0,0],"id":32,"left_children":[1,3,5,-1,7,9,11,-1,-1,-1,-1,-1,-1],"loss_changes":[5.4013914E-1,4.9055263E-1,5.1500183E-1,0E0,6.5370965E-1,8.185055E-1,4.1297242E-1,0E0,0E0,0E0,0E0,0E0,0E0],"parents":[2147483647,0,0,1,1,2,2,4,4,5,5,6,6],"right_children":[2,4,6,-1,8,10,12,-1,-1,-1,-1,-1,-1],"split_conditions":[-8.2939184E-1,5.564752E-1,-1.1851203E0,-1.3616483E-4,8.017843E-2,-2.104325E0,-7.9671246E-1,-1.3624285E-3,1.5648017E-3,6.0444893E-3,4.8789917E-4,-7.386214E-4,6.056447E-5],"split_indices":[38,35,21,0,40,37,21,0,0,0,0,0,0],"split_type":[0,0,0,0,0,0,0,0,0,0,0,0,0],"sum_hessian":[1.04074E5,2.036E4,8.3714E4,1.7861E4,2.499E3,2.048E3,8.1666E4,2.334E3,1.65E2,1.07E2,1.941E3,2.086E3,7.958E4],"tree_param":{"num_deleted":"0","num_feature":"41","num_nodes":"13","size_leaf_vector":"1"}}]},"name":"gbtree"},"learner_model_param":{"base_score":"[4.9669537E-1]","boost_from_average":"1","num_class":"0","num_feature":"41","num_target":"1"},"objective":{"name":"reg:squarederror","reg_loss_param":{"scale_pos_weight":"1"}}},"version":[3,2,0]}