{"learner":{"attributes":{"best_iteration":"90","best_score":"0.1403186074726131","scikit_learn":"{\"_estimator_type\": \"regressor\"}"},"feature_names":[],"feature_types":[],"gradient_booster":{"model":{"cats":{"enc":[],"feature_segments":[],"sorted_idx":[]},"gbtree_model_param":{"num_parallel_tree":"1","num_trees":"121"},"iteration_indptr":[0,1,2,3,4,5,6,7,8,9,10,11,12,13,14,15,16,17,18,19,20,21,22,23,24,25,26,27,28,29,30,31,32,33,34,35,36,37,38,39,40,41,42,43,44,45,46,47,48,49,50,51,52,53,54,55,56,57,58,59,60,61,62,63,64,65,66,67,68,69,70,71,72,73,74,75,76,77,78,79,80,81,82,83,84,85,86,87,88,89,90,91,92,93,94,95,96,97,98,99,100,101,102,103,104,105,106,107,108,109,110,111,112,113,114,115,116,117,118,119,120,121],"tree_info":[0,0,0,0,0,0,0,0,0,0,0,0,0,0,0,0,0,0,0,0,0,0,0,0,0,0,0,0,0,0,0,0,0,0,0,0,0,0,0,0,0,0,0,0,0,0,0,0,0,0,0,0,0,0,0,0,0,0,0,0,0,0,0,0,0,0,0,0,0,0,0,0,0,0,0,0,0,0,0,0,0,0,0,0,0,0,0,0,0,0,0,0,0,0,0,0,0,0,0,0,0,0,0,0,0,0,0,0,0,0,0,0,0,0,0,0,0,0,0,0,0],"trees":[{"base_weights":[-2.8312725E-5,-7.2745614E-2,5.424088E-4,-5.66172E-2,-3.4569657E-1,1.5021901E-1,3.0324399E-4,-9.721841E-4,3.8382069E-3,-6.368825E-3,-2.284425E-3,1.2959362E-3,4.186583E-3,-4.366272E-6,4.4277654E-4],"categories":[],"categories_nodes":[],"categories_segments":[],"categories_sizes":[],"default_left":[0,0,0,0,0,0,0,0,0,0,0,0,0,0,0],"id":0,"left_children":[1,3,5,7,9,11,13,-1,-1,-1,-1,-1,-1,-1,-1],"loss_changes":[9.045908E0,7.4380608E0,7.7277975E0,5.101106E0,1.5506802E0,2.8548431E0,3.9044688E0,0E0,0E0,0E0,0E0,0E0,0E0,0E0,0E0],"parents":[2147483647,0,0,1,1,2,2,3,3,4,4,5,5,6,6],"right_children":[2,4,6,8,10,12,14,-1,-1,-1,-1,-1,-1,-1,-1],"split_conditions":[-1.5776796E0,-1.5217057E0,-1.5737442E0,2.2715929E0,-1.5475278E0,-9.3212284E-2,1.9559809E0,-9.721841E-4,3.8382069E-3,-6.368825E-3,-2.284425E-3,1.2959362E-3,4.186583E-3,-4.366272E-6,4.4277654E-4],"split_indices":[32,16,16,21,9,35,37,0,0,0,0,0,0,0,0],"split_type":[0,0,0,0,0,0,0,0,0,0,0,0,0,0,0],"sum_hessian":[2.17851E5,1.697E3,2.16154E5,1.603E3,9.4E1,3.44E2,2.1581E5,1.555E3,4.8E1,6.3E1,3.1E1,2.38E2,1.06E2,2.11564E5,4.246E3],"tree_param":{"num_deleted":"0","num_feature":"41","num_nodes":"15","size_leaf_vector":"1"}},{"base_weights":[-7.326156E-5,-5.933059E-2,3.9545534E-4,-6.5962677E-3,-4.714324E-2,1.7603523E-1,2.681637E-4,-8.8136643E-4,3.2046535E-3,4.2119254E-3,-2.0076917E-3,-5.753265E-6,4.033763E-4],"categories":[],"categories_nodes":[],"categories_segments":[],"categories_sizes":[],"default_left":[0,0,0,0,0,0,0,0,0,0,0,0,0],"id":1,"left_children":[1,3,5,-1,7,9,11,-1,-1,-1,-1,-1,-1],"loss_changes":[6.0640388E0,8.153833E0,4.8281527E0,0E0,5.8558617E0,5.539719E0,3.921063E0,0E0,0E0,0E0,0E0,0E0,0E0],"parents":[2147483647,0,0,1,1,2,2,4,4,5,5,6,6],"right_children":[2,4,6,-1,8,10,12,-1,-1,-1,-1,-1,-1],"split_conditions":[-1.570822E0,-2.7474523E-1,-1.5885141E0,-6.5962677E-3,2.3681679E0,9.157849E-1,1.9469421E0,-8.8136643E-4,3.2046535E-3,4.2119254E-3,-2.0076917E-3,-5.753265E-6,4.033763E-4],"split_indices":[2,37,15,0,36,35,37,0,0,0,0,0,0],"split_type":[0,0,0,0,0,0,0,0,0,0,0,0,0],"sum_hessian":[2.18187E5,1.713E3,2.16474E5,5.1E1,1.662E3,1.56E2,2.16318E5,1.584E3,7.8E1,1.15E2,4.1E1,2.11204E5,5.114E3],"tree_param":{"num_deleted":"0","num_feature":"41","num_nodes":"13","size_leaf_vector":"1"}},{"base_weights":[1.3679148E-4,-7.061605E-2,6.9419976E-4,-5.337663E-2,-3.3416283E-1,2.2904198E-1,5.246633E-4,-9.219487E-4,3.5105606E-3,-6.0625216E-3,-1.7445444E-3,1.6598421E-3,4.767918E-3,-9.461805E-7,4.354614E-4],"categories":[],"categories_nodes":[],"categories_segments":[],"categories_sizes":[],"default_left":[0,0,0,0,0,0,0,0,0,0,0,0,0,0,0],"id":2,"left_children":[1,3,5,7,9,11,13,-1,-1,-1,-1,-1,-1,-1,-1],"loss_changes":[8.604464E0,7.715624E0,8.369591E0,4.5909047E0,1.7619057E0,1.7606192E0,3.740081E0,0E0,0E0,0E0,0E0,0E0,0E0,0E0,0E0],"parents":[2147483647,0,0,1,1,2,2,3,3,4,4,5,5,6,6],"right_children":[2,4,6,8,10,12,14,-1,-1,-1,-1,-1,-1,-1,-1],"split_conditions":[-1.5776796E0,-1.543956E0,-1.5885141E0,2.2715929E0,-1.4917701E0,-1.5696855E0,1.9559809E0,-9.219487E-4,3.5105606E-3,-6.0625216E-3,-1.7445444E-3,1.6598421E-3,4.767918E-3,-9.461805E-7,4.354614E-4],"split_indices":[32,14,15,21,31,19,37,0,0,0,0,0,0,0,0],"split_type":[0,0,0,0,0,0,0,0,0,0,0,0,0,0,0],"sum_hessian":[2.18292E5,1.705E3,2.16587E5,1.601E3,1.04E2,1.6E2,2.16427E5,1.55E3,5.1E1,7.5E1,2.9E1,7.4E1,8.6E1,2.12157E5,4.27E3],"tree_param":{"num_deleted":"0","num_feature":"41","num_nodes":"15","size_leaf_vector":"1"}},{"base_weights":[1.09087356E-4,-5.630113E-2,5.5172376E-4,-6.776933E-3,-4.6541337E-2,1.677032E-1,3.7223048E-4,-5.693594E-4,-6.161688E-3,1.999808E-3,7.0045246E-3,-3.1767029E-6,4.3222474E-4],"categories":[],"categories_nodes":[],"categories_segments":[],"categories_sizes":[],"default_left":[0,0,0,0,0,0,0,0,0,0,0,0,0],"id":3,"left_children":[1,3,5,-1,7,9,11,-1,-1,-1,-1,-1,-1],"loss_changes":[5.4341097E0,6.702511E0,6.4719853E0,0E0,4.6527796E0,2.1523852E0,3.7234912E0,0E0,0E0,0E0,0E0,0E0,0E0],"parents":[2147483647,0,0,1,1,2,2,4,4,5,5,6,6],"right_children":[2,4,6,-1,8,10,12,-1,-1,-1,-1,-1,-1],"split_conditions":[-1.5696855E0,-2.7474523E-1,-1.5737442E0,-6.776933E-3,8.555598E-2,-1.5255142E0,1.9559809E0,-5.693594E-4,-6.161688E-3,1.999808E-3,7.0045246E-3,-3.1767029E-6,4.3222474E-4],"split_indices":[19,37,16,0,37,11,37,0,0,0,0,0,0],"split_type":[0,0,0,0,0,0,0,0,0,0,0,0,0],"sum_hessian":[2.17779E5,1.694E3,2.16085E5,3.9E1,1.655E3,2.31E2,2.15854E5,1.623E3,3.2E1,2.11E2,2E1,2.11583E5,4.271E3],"tree_param":{"num_deleted":"0","num_feature":"41","num_nodes":"13","size_leaf_vector":"1"}},{"base_weights":[-7.090558E-5,-6.958151E-2,4.8179075E-4,-5.4053456E-2,-3.2744294E-1,2.2333314E-1,3.0781174E-4,-9.236311E-4,3.3109514E-3,-6.0797217E-3,-1.5057105E-3,5.2060666E-3,2.1839212E-3,-3.8111361E-6,4.1873739E-4],"categories":[],"categories_nodes":[],"categories_segments":[],"categories_sizes":[],"default_left":[0,0,0,0,0,0,0,0,0,0,0,0,0,0,0],"id":4,"left_children":[1,3,5,7,9,11,13,-1,-1,-1,-1,-1,-1,-1,-1],"loss_changes":[8.378544E0,6.8564043E0,8.369463E0,4.192518E0,1.8923721E0,1.6002378E0,3.4892712E0,0E0,0E0,0E0,0E0,0E0,0E0,0E0,0E0],"parents":[2147483647,0,0,1,1,2,2,3,3,4,4,5,5,6,6],"right_children":[2,4,6,8,10,12,14,-1,-1,-1,-1,-1,-1,-1,-1],"split_conditions":[-1.5776796E0,-1.5217057E0,-1.5885141E0,2.2715929E0,-1.4917701E0,-6.125685E-1,1.9559809E0,-9.236311E-4,3.3109514E-3,-6.0797217E-3,-1.5057105E-3,5.2060666E-3,2.1839212E-3,-3.8111361E-6,4.1873739E-4],"split_indices":[32,16,15,21,31,22,37,0,0,0,0,0,0,0,0],"split_type":[0,0,0,0,0,0,0,0,0,0,0,0,0,0,0],"sum_hessian":[2.17968E5,1.72E3,2.16248E5,1.623E3,9.7E1,1.68E2,2.1608E5,1.572E3,5.1E1,6.9E1,2.8E1,5.9E1,1.09E2,2.11831E5,4.249E3],"tree_param":{"num_deleted":"0","num_feature":"41","num_nodes":"15","size_leaf_vector":"1"}},{"base_weights":[-6.504002E-5,-7.1527205E-2,5.0322566E-4,-5.615645E-2,-3.298851E-1,1.439527E-1,2.7235298E-4,-9.6639927E-4,3.5698556E-3,-6.0325437E-3,-1.930591E-3,1.2984704E-3,4.091143E-3,-6.1604273E-6,2.7804612E-4],"categories":[],"categories_nodes":[],"categories_segments":[],"categories_sizes":[],"default_left":[0,0,0,0,0,0,0,0,0,0,0,0,0,0,0],"id":5,"left_children":[1,3,5,7,9,11,13,-1,-1,-1,-1,-1,-1,-1,-1],"loss_changes":[8.865917E0,6.807069E0,7.160074E0,4.9011106E0,1.5293579E0,2.5700383E0,2.8181102E0,0E0,0E0,0E0,0E0,0E0,0E0,0E0,0E0],"parents":[2147483647,0,0,1,1,2,2,3,3,4,4,5,5,6,6],"right_children":[2,4,6,8,10,12,14,-1,-1,-1,-1,-1,-1,-1,-1],"split_conditions":[-1.5776796E0,-1.5217057E0,-1.5737442E0,2.2715929E0,-1.4917701E0,-7.410517E-2,1.5275524E0,-9.6639927E-4,3.5698556E-3,-6.0325437E-3,-1.930591E-3,1.2984704E-3,4.091143E-3,-6.1604273E-6,2.7804612E-4],"split_indices":[32,16,16,21,31,35,10,0,0,0,0,0,0,0,0],"split_type":[0,0,0,0,0,0,0,0,0,0,0,0,0,0,0],"sum_hessian":[2.18205E5,1.722E3,2.16483E5,1.626E3,9.6E1,3.47E2,2.16136E5,1.574E3,5.2E1,6.7E1,2.9E1,2.48E2,9.9E1,2.08424E5,7.712E3],"tree_param":{"num_deleted":"0","num_feature":"41","num_nodes":"15","size_leaf_vector":"1"}},{"base_weights":[-7.496094E-5,-6.895737E-2,4.7765372E-4,-5.255423E-2,-3.2970545E-1,1.3417517E-1,2.6092643E-4,-6.595954E-3,-6.781686E-4,-5.9207184E-3,-1.5014239E-3,1.384594E-3,4.296808E-3,-4.6182035E-6,4.225889E-4],"categories":[],"categories_nodes":[],"categories_segments":[],"categories_sizes":[],"default_left":[0,0,0,0,0,0,0,0,0,0,0,0,0,0,0],"id":6,"left_children":[1,3,5,7,9,11,13,-1,-1,-1,-1,-1,-1,-1,-1],"loss_changes":[8.300113E0,7.3903255E0,6.2555294E0,3.9399185E0,1.7111216E0,2.1642528E0,3.575595E0,0E0,0E0,0E0,0E0,0E0,0E0,0E0,0E0],"parents":[2147483647,0,0,1,1,2,2,3,3,4,4,5,5,6,6],"right_children":[2,4,6,8,10,12,14,-1,-1,-1,-1,-1,-1,-1,-1],"split_conditions":[-1.5776796E0,-1.5217057E0,-1.5737442E0,-2.8152627E-1,-1.4917701E0,-1.5728359E0,1.9559809E0,-6.595954E-3,-6.781686E-4,-5.9207184E-3,-1.5014239E-3,1.384594E-3,4.296808E-3,-4.6182035E-6,4.225889E-4],"split_indices":[32,16,16,37,31,13,37,0,0,0,0,0,0,0,0],"split_type":[0,0,0,0,0,0,0,0,0,0,0,0,0,0,0],"sum_hessian":[2.17929E5,1.735E3,2.16194E5,1.633E3,1.02E2,3.49E2,2.15845E5,2.4E1,1.609E3,7.6E1,2.6E1,2.81E2,6.8E1,2.11585E5,4.26E3],"tree_param":{"num_deleted":"0","num_feature":"41","num_nodes":"15","size_leaf_vector":"1"}},{"base_weights":[1.408784E-4,-6.7272626E-2,6.6617853E-4,-5.0800852E-2,-3.1862417E-1,1.3101098E-1,4.5341044E-4,-8.9156104E-4,3.2318106E-3,-5.88726E-3,-1.5770117E-3,1.1761138E-3,3.6257019E-3,-2.5749925E-6,3.8546495E-4],"categories":[],"categories_nodes":[],"categories_segments":[],"categories_sizes":[],"default_left":[0,0,0,0,0,0,0,0,0,0,0,0,0,0,0],"id":7,"left_children":[1,3,5,7,9,11,13,-1,-1,-1,-1,-1,-1,-1,-1],"loss_changes":[7.723733E0,6.9512124E0,5.9968176E0,4.417617E0,1.791358E0,2.0563912E0,3.5346208E0,0E0,0E0,0E0,0E0,0E0,0E0,0E0,0E0],"parents":[2147483647,0,0,1,1,2,2,3,3,4,4,5,5,6,6],"right_children":[2,4,6,8,10,12,14,-1,-1,-1,-1,-1,-1,-1,-1],"split_conditions":[-1.5776796E0,-1.5217057E0,-1.5737442E0,2.0776825E0,-1.4917701E0,-9.3212284E-2,1.9469421E0,-8.9156104E-4,3.2318106E-3,-5.88726E-3,-1.5770117E-3,1.1761138E-3,3.6257019E-3,-2.5749925E-6,3.8546495E-4],"split_indices":[32,16,16,21,31,35,37,0,0,0,0,0,0,0,0],"split_type":[0,0,0,0,0,0,0,0,0,0,0,0,0,0,0],"sum_hessian":[2.18232E5,1.686E3,2.16546E5,1.583E3,1.03E2,3.52E2,2.16194E5,1.526E3,5.7E1,7.3E1,3E1,2.47E2,1.05E2,2.11069E5,5.125E3],"tree_param":{"num_deleted":"0","num_feature":"41","num_nodes":"15","size_leaf_vector":"1"}},{"base_weights":[6.010105E-6,-6.4843446E-2,5.120512E-4,-4.9617592E-2,-3.0482355E-1,2.107449E-1,3.4809648E-4,-8.5677335E-4,4.086743E-3,-5.6768446E-3,-8.9090137E-4,5.073176E-3,2.082509E-3,-4.5226348E-6,2.6442722E-4],"categories":[],"categories_nodes":[],"categories_segments":[],"categories_sizes":[],"default_left":[0,0,0,0,0,0,0,0,0,0,0,0,0,0,0],"id":8,"left_children":[1,3,5,7,9,11,13,-1,-1,-1,-1,-1,-1,-1,-1],"loss_changes":[7.1559076E0,6.139829E0,7.448472E0,4.736245E0,2.016776E0,1.5161805E0,2.5291243E0,0E0,0E0,0E0,0E0,0E0,0E0,0E0,0E0],"parents":[2147483647,0,0,1,1,2,2,3,3,4,4,5,5,6,6],"right_children":[2,4,6,8,10,12,14,-1,-1,-1,-1,-1,-1,-1,-1],"split_conditions":[-1.5776796E0,1.8809034E0,-1.5885141E0,2.2715929E0,-1.5475278E0,-6.125685E-1,1.5268934E0,-8.5677335E-4,4.086743E-3,-5.6768446E-3,-8.9090137E-4,5.073176E-3,2.082509E-3,-4.5226348E-6,2.6442722E-4],"split_indices":[32,35,15,21,9,22,30,0,0,0,0,0,0,0,0],"split_type":[0,0,0,0,0,0,0,0,0,0,0,0,0,0,0],"sum_hessian":[2.18187E5,1.688E3,2.16499E5,1.588E3,1E2,1.68E2,2.16331E5,1.546E3,4.2E1,7.4E1,2.6E1,5.5E1,1.13E2,2.08602E5,7.729E3],"tree_param":{"num_deleted":"0","num_feature":"41","num_nodes":"15","size_leaf_vector":"1"}},{"base_weights":[6.550289E-5,-5.2428544E-2,4.7820367E-4,-4.1537315E-2,-3.745562E-1,2.1019207E-1,3.5931068E-4,-4.936785E-4,-6.018952E-3,-6.3116085E-3,-2.8273305E-3,6.310701E-3,1.9788183E-3,-3.2084188E-6,3.5311503E-4],"categories":[],"categories_nodes":[],"categories_segments":[],"categories_sizes":[],"default_left":[0,0,0,0,0,0,0,0,0,0,0,0,0,0,0],"id":9,"left_children":[1,3,5,7,9,11,13,-1,-1,-1,-1,-1,-1,-1,-1],"loss_changes":[4.7253036E0,5.9354734E0,5.3859434E0,4.679534E0,5.0412846E-1,1.9682975E0,2.987887E0,0E0,0E0,0E0,0E0,0E0,0E0,0E0,0E0],"parents":[2147483647,0,0,1,1,2,2,3,3,4,4,5,5,6,6],"right_children":[2,4,6,8,10,12,14,-1,-1,-1,-1,-1,-1,-1,-1],"split_conditions":[-1.5696855E0,1.8809034E0,-1.5616627E0,8.555598E-2,1.306039E0,-4.840192E-1,1.9469421E0,-4.936785E-4,-6.018952E-3,-6.3116085E-3,-2.8273305E-3,6.310701E-3,1.9788183E-3,-3.2084188E-6,3.5311503E-4],"split_indices":[19,35,31,37,23,34,37,0,0,0,0,0,0,0,0],"split_type":[0,0,0,0,0,0,0,0,0,0,0,0,0,0,0],"sum_hessian":[2.18272E5,1.701E3,2.16571E5,1.646E3,5.5E1,1.22E2,2.16449E5,1.613E3,3.3E1,4.1E1,1.4E1,3E1,9.2E1,2.11311E5,5.138E3],"tree_param":{"num_deleted":"0","num_feature":"41","num_nodes":"15","size_leaf_vector":"1"}},{"base_weights":[1.2233281E-4,-6.61814E-2,6.4094807E-4,-5.0512623E-2,-3.0833986E-1,1.3344991E-1,4.2077518E-4,-8.7240775E-4,3.2848825E-3,-5.2559543E-3,-8.9296617E-4,1.214907E-3,3.760974E-3,-2.265859E-5,1.04401035E-4],"categories":[],"categories_nodes":[],"categories_segments":[],"categories_sizes":[],"default_left":[0,0,0,0,0,0,0,0,0,0,0,0,0,0,0],"id":10,"left_children":[1,3,5,7,9,11,13,-1,-1,-1,-1,-1,-1,-1,-1],"loss_changes":[7.4894686E0,6.3840437E0,6.3142033E0,4.0378547E0,1.2707052E0,2.1980553E0,2.8664243E0,0E0,0E0,0E0,0E0,0E0,0E0,0E0,0E0],"parents":[2147483647,0,0,1,1,2,2,3,3,4,4,5,5,6,6],"right_children":[2,4,6,8,10,12,14,-1,-1,-1,-1,-1,-1,-1,-1],"split_conditions":[-1.5776796E0,-1.543956E0,-1.5737442E0,2.2715929E0,-1.472305E0,-1.0287635E-1,3.1536463E-1,-8.7240775E-4,3.2848825E-3,-5.2559543E-3,-8.9296617E-4,1.214907E-3,3.760974E-3,-2.265859E-5,1.04401035E-4],"split_indices":[32,14,16,21,31,35,35,0,0,0,0,0,0,0,0],"split_type":[0,0,0,0,0,0,0,0,0,0,0,0,0,0,0],"sum_hessian":[2.1793E5,1.69E3,2.1624E5,1.588E3,1.02E2,3.57E2,2.15883E5,1.537E3,5.1E1,8.4E1,1.8E1,2.55E2,1.02E2,1.66939E5,4.8944E4],"tree_param":{"num_deleted":"0","num_feature":"41","num_nodes":"15","size_leaf_vector":"1"}},{"base_weights":[4.422117E-5,-6.27197E-2,5.36375E-4,-4.7543455E-2,-3.1053793E-1,2.0110758E-1,3.824342E-4,-8.227914E-4,3.4074245E-3,-5.66916E-3,-1.7988016E-3,3.359785E-3,-1.2141019E-3,-3.078596E-6,3.624677E-4],"categories":[],"categories_nodes":[],"categories_segments":[],"categories_sizes":[],"default_left":[0,0,0,0,0,0,0,0,0,0,0,0,0,0,0],"id":11,"left_children":[1,3,5,7,9,11,13,-1,-1,-1,-1,-1,-1,-1,-1],"loss_changes":[6.7231565E0,6.3392773E0,6.658715E0,3.94488E0,1.3659143E0,1.3811941E0,3.1330326E0,0E0,0E0,0E0,0E0,0E0,0E0,0E0,0E0],"parents":[2147483647,0,0,1,1,2,2,3,3,4,4,5,5,6,6],"right_children":[2,4,6,8,10,12,14,-1,-1,-1,-1,-1,-1,-1,-1],"split_conditions":[-1.5776796E0,-1.5217057E0,-1.5885141E0,2.2715929E0,-1.4917701E0,9.157849E-1,1.9469421E0,-8.227914E-4,3.4074245E-3,-5.66916E-3,-1.7988016E-3,3.359785E-3,-1.2141019E-3,-3.078596E-6,3.624677E-4],"split_indices":[32,16,15,21,31,35,37,0,0,0,0,0,0,0,0],"split_type":[0,0,0,0,0,0,0,0,0,0,0,0,0,0,0],"sum_hessian":[2.17784E5,1.693E3,2.16091E5,1.596E3,9.7E1,1.65E2,2.15926E5,1.548E3,4.8E1,6.8E1,2.9E1,1.5E2,1.5E1,2.10807E5,5.119E3],"tree_param":{"num_deleted":"0","num_feature":"41","num_nodes":"15","size_leaf_vector":"1"}},{"base_weights":[-6.5253566E-6,-6.1107207E-2,4.7571046E-4,-5.9970776E-3,-5.0651234E-2,1.3533418E-1,2.58611E-4,-9.4164215E-4,2.2368904E-3,1.1559803E-3,3.923896E-3,-4.5248007E-6,3.4749546E-4],"categories":[],"categories_nodes":[],"categories_segments":[],"categories_sizes":[],"default_left":[0,0,0,0,0,0,0,0,0,0,0,0,0],"id":12,"left_children":[1,3,5,-1,7,9,11,-1,-1,-1,-1,-1,-1],"loss_changes":[6.432012E0,6.2105823E0,6.3281403E0,0E0,4.683859E0,2.5715442E0,2.8938785E0,0E0,0E0,0E0,0E0,0E0,0E0],"parents":[2147483647,0,0,1,1,2,2,4,4,5,5,6,6],"right_children":[2,4,6,-1,8,10,12,-1,-1,-1,-1,-1,-1],"split_conditions":[-1.5776796E0,-2.7474523E-1,-1.5737442E0,-5.9970776E-3,2.205837E0,-7.410517E-2,1.9469421E0,-9.4164215E-4,2.2368904E-3,1.1559803E-3,3.923896E-3,-4.5248007E-6,3.4749546E-4],"split_indices":[32,37,16,0,36,35,37,0,0,0,0,0,0],"split_type":[0,0,0,0,0,0,0,0,0,0,0,0,0],"sum_hessian":[2.18157E5,1.709E3,2.16448E5,4.9E1,1.66E3,3.47E2,2.16101E5,1.555E3,1.05E2,2.45E2,1.02E2,2.11003E5,5.098E3],"tree_param":{"num_deleted":"0","num_feature":"41","num_nodes":"13","size_leaf_vector":"1"}},{"base_weights":[5.1484447E-5,-6.4308494E-2,5.5850495E-4,-4.89755E-2,-3.0291253E-1,1.9948459E-1,4.0767514E-4,-8.390297E-4,3.244954E-3,-5.4711476E-3,-1.7122978E-3,3.4334527E-3,-7.5904944E-4,-2.542158E-6,3.5587177E-4],"categories":[],"categories_nodes":[],"categories_segments":[],"categories_sizes":[],"default_left":[0,0,0,0,0,0,0,0,0,0,0,0,0,0,0],"id":13,"left_children":[1,3,5,7,9,11,13,-1,-1,-1,-1,-1,-1,-1,-1],"loss_changes":[7.103092E0,6.1954603E0,6.470662E0,3.677573E0,1.3151836E0,1.4829435E0,3.0125487E0,0E0,0E0,0E0,0E0,0E0,0E0,0E0,0E0],"parents":[2147483647,0,0,1,1,2,2,3,3,4,4,5,5,6,6],"right_children":[2,4,6,8,10,12,14,-1,-1,-1,-1,-1,-1,-1,-1],"split_conditions":[-1.5776796E0,-1.5217057E0,-1.5885141E0,2.2715929E0,-1.4917701E0,8.02883E-1,1.9469421E0,-8.390297E-4,3.244954E-3,-5.4711476E-3,-1.7122978E-3,3.4334527E-3,-7.5904944E-4,-2.542158E-6,3.5587177E-4],"split_indices":[32,16,15,21,31,35,37,0,0,0,0,0,0,0,0],"split_type":[0,0,0,0,0,0,0,0,0,0,0,0,0,0,0],"sum_hessian":[2.17802E5,1.701E3,2.16101E5,1.599E3,1.02E2,1.63E2,2.15938E5,1.551E3,4.8E1,7.3E1,2.9E1,1.43E2,2E1,2.10818E5,5.12E3],"tree_param":{"num_deleted":"0","num_feature":"41","num_nodes":"15","size_leaf_vector":"1"}},{"base_weights":[1.1073961E-4,-6.415983E-2,6.18208E-4,-4.9704783E-2,-2.9980955E-1,1.8824504E-1,4.709806E-4,-8.4875297E-4,3.1500985E-3,-5.4340097E-3,-1.525046E-3,4.571167E-3,1.7993922E-3,-6.8325494E-7,3.8403235E-4],"categories":[],"categories_nodes":[],"categories_segments":[],"categories_sizes":[],"default_left":[0,0,0,0,0,0,0,0,0,0,0,0,0,0,0],"id":14,"left_children":[1,3,5,7,9,11,13,-1,-1,-1,-1,-1,-1,-1,-1],"loss_changes":[7.112649E0,5.7903705E0,5.9679823E0,3.5973566E0,1.3443317E0,1.3305387E0,2.895182E0,0E0,0E0,0E0,0E0,0E0,0E0,0E0,0E0],"parents":[2147483647,0,0,1,1,2,2,3,3,4,4,5,5,6,6],"right_children":[2,4,6,8,10,12,14,-1,-1,-1,-1,-1,-1,-1,-1],"split_conditions":[-1.5776796E0,-1.5217057E0,-1.5885141E0,2.2715929E0,-1.4917701E0,-6.125685E-1,1.9559809E0,-8.4875297E-4,3.1500985E-3,-5.4340097E-3,-1.525046E-3,4.571167E-3,1.7993922E-3,-6.8325494E-7,3.8403235E-4],"split_indices":[32,16,15,21,31,22,37,0,0,0,0,0,0,0,0],"split_type":[0,0,0,0,0,0,0,0,0,0,0,0,0,0,0],"sum_hessian":[2.18205E5,1.708E3,2.16497E5,1.61E3,9.8E1,1.69E2,2.16328E5,1.561E3,4.9E1,7.1E1,2.7E1,5.7E1,1.12E2,2.12075E5,4.253E3],"tree_param":{"num_deleted":"0","num_feature":"41","num_nodes":"15","size_leaf_vector":"1"}},{"base_weights":[7.653433E-5,-4.6325557E-2,4.425795E-4,-5.87325E-3,-3.720824E-2,1.3973288E-1,2.6937528E-4,-4.407416E-4,-5.8389255E-3,1.4385084E-3,5.9572277E-3,-4.4436442E-6,3.4995924E-4],"categories":[],"categories_nodes":[],"categories_segments":[],"categories_sizes":[],"default_left":[0,0,0,0,0,0,0,0,0,0,0,0,0],"id":15,"left_children":[1,3,5,-1,7,9,11,-1,-1,-1,-1,-1,-1],"loss_changes":[3.7031505E0,5.502714E0,5.213783E0,0E0,4.2054033E0,2.9178338E0,2.941647E0,0E0,0E0,0E0,0E0,0E0,0E0],"parents":[2147483647,0,0,1,1,2,2,4,4,5,5,6,6],"right_children":[2,4,6,-1,8,10,12,-1,-1,-1,-1,-1,-1],"split_conditions":[-1.5696855E0,-2.7474523E-1,-1.5740056E0,-5.87325E-3,8.555598E-2,-1.5255142E0,1.9469421E0,-4.407416E-4,-5.8389255E-3,1.4385084E-3,5.9572277E-3,-4.4436442E-6,3.4995924E-4],"split_indices":[19,37,15,0,37,11,37,0,0,0,0,0,0],"split_type":[0,0,0,0,0,0,0,0,0,0,0,0,0],"sum_hessian":[2.18199E5,1.706E3,2.16493E5,4.2E1,1.664E3,2.68E2,2.16225E5,1.633E3,3.1E1,2.33E2,3.5E1,2.11112E5,5.113E3],"tree_param":{"num_deleted":"0","num_feature":"41","num_nodes":"13","size_leaf_vector":"1"}},{"base_weights":[-3.950968E-5,-4.882568E-2,3.472041E-4,-5.71711E-3,-3.7771992E-2,1.567479E-1,2.3376344E-4,-7.3812186E-4,2.8064633E-3,3.8226186E-3,-2.1301594E-3,-4.0342848E-6,3.766299E-4],"categories":[],"categories_nodes":[],"categories_segments":[],"categories_sizes":[],"default_left":[0,0,0,0,0,0,0,0,0,0,0,0,0],"id":16,"left_children":[1,3,5,-1,7,9,11,-1,-1,-1,-1,-1,-1],"loss_changes":[4.1175385E0,6.4685807E0,3.8283584E0,0E0,4.884902E0,4.9959745E0,2.820748E0,0E0,0E0,0E0,0E0,0E0,0E0],"parents":[2147483647,0,0,1,1,2,2,4,4,5,5,6,6],"right_children":[2,4,6,-1,8,10,12,-1,-1,-1,-1,-1,-1],"split_conditions":[-1.570822E0,-2.7474523E-1,-1.5885141E0,-5.71711E-3,2.205837E0,9.157849E-1,1.9559809E0,-7.3812186E-4,2.8064633E-3,3.8226186E-3,-2.1301594E-3,-4.0342848E-6,3.766299E-4],"split_indices":[2,37,15,0,36,35,37,0,0,0,0,0,0],"split_type":[0,0,0,0,0,0,0,0,0,0,0,0,0],"sum_hessian":[2.18078E5,1.716E3,2.16362E5,5.3E1,1.663E3,1.56E2,2.16206E5,1.576E3,8.7E1,1.16E2,4E1,2.11974E5,4.232E3],"tree_param":{"num_deleted":"0","num_feature":"41","num_nodes":"13","size_leaf_vector":"1"}},{"base_weights":[1.2932287E-4,-4.5324434E-2,4.8756102E-4,-5.5360086E-3,-3.4896065E-2,1.156961E-1,3.447473E-4,-6.539268E-4,3.2883948E-3,2.1116189E-3,-2.7108048E-3,-2.139669E-6,3.628221E-4],"categories":[],"categories_nodes":[],"categories_segments":[],"categories_sizes":[],"default_left":[0,0,0,0,0,0,0,0,0,0,0,0,0],"id":17,"left_children":[1,3,5,-1,7,9,11,-1,-1,-1,-1,-1,-1],"loss_changes":[3.5491502E0,5.901207E0,3.553489E0,0E0,4.246688E0,2.339359E0,2.604251E0,0E0,0E0,0E0,0E0,0E0,0E0],"parents":[2147483647,0,0,1,1,2,2,4,4,5,5,6,6],"right_children":[2,4,6,-1,8,10,12,-1,-1,-1,-1,-1,-1],"split_conditions":[-1.5687834E0,-2.6788843E-1,-1.5737442E0,-5.5360086E-3,1.7949119E0,4.5586514E0,1.9559809E0,-6.539268E-4,3.2883948E-3,2.1116189E-3,-2.7108048E-3,-2.139669E-6,3.628221E-4],"split_indices":[9,37,16,0,21,34,37,0,0,0,0,0,0],"split_type":[0,0,0,0,0,0,0,0,0,0,0,0,0],"sum_hessian":[2.18144E5,1.704E3,2.1644E5,5.1E1,1.653E3,2.67E2,2.16173E5,1.593E3,6E1,2.44E2,2.3E1,2.11922E5,4.251E3],"tree_param":{"num_deleted":"0","num_feature":"41","num_nodes":"13","size_leaf_vector":"1"}},{"base_weights":[-1.9857709E-5,-5.7658967E-2,4.3841646E-4,-5.7673263E-3,-4.7843486E-2,1.9072391E-1,2.9685974E-4,-5.4433075E-4,-3.737324E-3,4.4526407E-3,1.8637608E-3,-2.80564E-6,3.5708983E-4],"categories":[],"categories_nodes":[],"categories_segments":[],"categories_sizes":[],"default_left":[0,0,0,0,0,0,0,0,0,0,0,0,0],"id":18,"left_children":[1,3,5,-1,7,9,11,-1,-1,-1,-1,-1,-1],"loss_changes":[5.7610292E0,5.660009E0,5.811968E0,0E0,3.6530445E0,1.1117668E0,2.554599E0,0E0,0E0,0E0,0E0,0E0,0E0],"parents":[2147483647,0,0,1,1,2,2,4,4,5,5,6,6],"right_children":[2,4,6,-1,8,10,12,-1,-1,-1,-1,-1,-1],"split_conditions":[-1.5776796E0,-2.8152627E-1,-1.5885141E0,-5.7673263E-3,-1.543956E0,-6.125685E-1,1.9559809E0,-5.4433075E-4,-3.737324E-3,4.4526407E-3,1.8637608E-3,-2.80564E-6,3.5708983E-4],"split_indices":[32,37,15,0,14,22,37,0,0,0,0,0,0],"split_type":[0,0,0,0,0,0,0,0,0,0,0,0,0],"sum_hessian":[2.17957E5,1.72E3,2.16237E5,4.8E1,1.672E3,1.6E2,2.16077E5,1.592E3,8E1,5.6E1,1.04E2,2.11788E5,4.289E3],"tree_param":{"num_deleted":"0","num_feature":"41","num_nodes":"13","size_leaf_vector":"1"}},{"base_weights":[-1.374744E-4,-6.0368948E-2,3.3709555E-4,-5.6978576E-3,-5.06762E-2,1.8230936E-1,2.0167364E-4,-8.8232005E-4,2.9503114E-3,3.1570802E-3,-9.5359434E-4,-4.8231527E-6,3.2597475E-4],"categories":[],"categories_nodes":[],"categories_segments":[],"categories_sizes":[],"default_left":[0,0,0,0,0,0,0,0,0,0,0,0,0],"id":19,"left_children":[1,3,5,-1,7,9,11,-1,-1,-1,-1,-1,-1],"loss_changes":[6.231963E0,5.4128623E0,5.3152423E0,0E0,4.079552E0,1.3629475E0,2.54419E0,0E0,0E0,0E0,0E0,0E0,0E0],"parents":[2147483647,0,0,1,1,2,2,4,4,5,5,6,6],"right_children":[2,4,6,-1,8,10,12,-1,-1,-1,-1,-1,-1],"split_conditions":[-1.5776796E0,-2.7474523E-1,-1.5885141E0,-5.6978576E-3,2.6897795E0,1.9214412E0,1.9469421E0,-8.8232005E-4,2.9503114E-3,3.1570802E-3,-9.5359434E-4,-4.8231527E-6,3.2597475E-4],"split_indices":[32,37,15,0,36,34,37,0,0,0,0,0,0],"split_type":[0,0,0,0,0,0,0,0,0,0,0,0,0],"sum_hessian":[2.17883E5,1.704E3,2.16179E5,4.8E1,1.656E3,1.6E2,2.16019E5,1.595E3,6.1E1,1.41E2,1.9E1,2.10944E5,5.075E3],"tree_param":{"num_deleted":"0","num_feature":"41","num_nodes":"13","size_leaf_vector":"1"}},{"base_weights":[6.1101714E-6,-4.502543E-2,3.615515E-4,-5.379407E-3,-3.473187E-2,9.2726E-2,2.2170393E-4,-6.962914E-4,2.7208764E-3,7.894252E-4,4.215588E-3,-6.6210973E-6,2.7080765E-4],"categories":[],"categories_nodes":[],"categories_segments":[],"categories_sizes":[],"default_left":[0,0,0,0,0,0,0,0,0,0,0,0,0],"id":20,"left_children":[1,3,5,-1,7,9,11,-1,-1,-1,-1,-1,-1],"loss_changes":[3.4876335E0,5.6491194E0,2.7887206E0,0E0,4.734089E0,2.4442801E0,2.6745229E0,0E0,0E0,0E0,0E0,0E0,0E0],"parents":[2147483647,0,0,1,1,2,2,4,4,5,5,6,6],"right_children":[2,4,6,-1,8,10,12,-1,-1,-1,-1,-1,-1],"split_conditions":[-1.570822E0,-2.7474523E-1,-1.5737442E0,-5.379407E-3,2.205837E0,-1.5728359E0,1.5268934E0,-6.962914E-4,2.7208764E-3,7.894252E-4,4.215588E-3,-6.6210973E-6,2.7080765E-4],"split_indices":[2,37,16,0,36,13,30,0,0,0,0,0,0],"split_type":[0,0,0,0,0,0,0,0,0,0,0,0,0],"sum_hessian":[2.18078E5,1.706E3,2.16372E5,5.2E1,1.654E3,3.26E2,2.16046E5,1.563E3,9.1E1,2.73E2,5.3E1,2.08366E5,7.68E3],"tree_param":{"num_deleted":"0","num_feature":"41","num_nodes":"13","size_leaf_vector":"1"}},{"base_weights":[3.8689694E-5,-5.5667408E-2,4.8328226E-4,-4.1789114E-2,-2.7947816E-1,1.7987248E-1,3.4655252E-4,-4.8529948E-4,-4.5696637E-3,-4.987685E-3,-1.6766764E-3,3.1231733E-3,-7.0806954E-4,-2.1939902E-6,3.650526E-4],"categories":[],"categories_nodes":[],"categories_segments":[],"categories_sizes":[],"default_left":[0,0,0,0,0,0,0,0,0,0,0,0,0,0,0],"id":21,"left_children":[1,3,5,7,9,11,13,-1,-1,-1,-1,-1,-1,-1,-1],"loss_changes":[5.3969603E0,5.333424E0,5.294308E0,3.7419071E0,9.813838E-1,1.2929482E0,2.6497223E0,0E0,0E0,0E0,0E0,0E0,0E0,0E0,0E0],"parents":[2147483647,0,0,1,1,2,2,3,3,4,4,5,5,6,6],"right_children":[2,4,6,8,10,12,14,-1,-1,-1,-1,-1,-1,-1,-1],"split_conditions":[-1.5776796E0,-1.543956E0,-1.5885141E0,8.555598E-2,-1.4917701E0,8.02883E-1,1.9559809E0,-4.8529948E-4,-4.5696637E-3,-4.987685E-3,-1.6766764E-3,3.1231733E-3,-7.0806954E-4,-2.1939902E-6,3.650526E-4],"split_indices":[32,14,15,37,31,35,37,0,0,0,0,0,0,0,0],"split_type":[0,0,0,0,0,0,0,0,0,0,0,0,0,0,0],"sum_hessian":[2.1806E5,1.725E3,2.16335E5,1.625E3,1E2,1.64E2,2.16171E5,1.576E3,4.9E1,7.2E1,2.8E1,1.43E2,2.1E1,2.11899E5,4.272E3],"tree_param":{"num_deleted":"0","num_feature":"41","num_nodes":"15","size_leaf_vector":"1"}},{"base_weights":[-3.6702088E-5,-3.790381E-2,4.0431524E-4,-2.8042194E-2,-3.205841E-1,-1.5890149E-3,6.4934473E-3,-4.9868214E-4,4.716723E-3,-6.7992264E-4,-5.391817E-3,3.6604882E-3,-2.3805082E-5,6.680621E-4,6.217036E-5],"categories":[],"categories_nodes":[],"categories_segments":[],"categories_sizes":[],"default_left":[0,0,0,0,0,0,0,0,0,0,0,0,0,0,0],"id":22,"left_children":[1,3,5,7,9,11,13,-1,-1,-1,-1,-1,-1,-1,-1],"loss_changes":[3.6430514E0,6.9743876E0,2.6158268E0,5.1954203E0,1.0921783E0,1.6807332E0,4.661538E0,0E0,0E0,0E0,0E0,0E0,0E0,0E0,0E0],"parents":[2147483647,0,0,1,1,2,2,3,3,4,4,5,5,6,6],"right_children":[2,4,6,8,10,12,14,-1,-1,-1,-1,-1,-1,-1,-1],"split_conditions":[-1.5492954E0,1.8809034E0,2.4610382E-1,1.7949119E0,-1.3738124E0,-1.5740056E0,-1.1830257E0,-4.9868214E-4,4.716723E-3,-6.7992264E-4,-5.391817E-3,3.6604882E-3,-2.3805082E-5,6.680621E-4,6.217036E-5],"split_indices":[2,35,35,21,39,15,2,0,0,0,0,0,0,0,0],"split_type":[0,0,0,0,0,0,0,0,0,0,0,0,0,0,0],"sum_hessian":[2.17997E5,2.511E3,2.15486E5,2.427E3,8.4E1,1.62334E5,5.3152E4,2.386E3,4.1E1,1.3E1,7.1E1,2.6E1,1.62308E5,2.861E3,5.0291E4],"tree_param":{"num_deleted":"0","num_feature":"41","num_nodes":"15","size_leaf_vector":"1"}},{"base_weights":[-7.202669E-5,-5.6722995E-2,3.7459796E-4,-4.1744888E-2,-2.6854172E-1,1.8440431E-1,2.3439577E-4,-2.1249983E-3,-3.541769E-4,-4.8331297E-3,-1.475365E-3,3.1904615E-3,-8.3897857E-4,-2.4245273E-5,8.8529196E-5],"categories":[],"categories_nodes":[],"categories_segments":[],"categories_sizes":[],"default_left":[0,0,0,0,0,0,0,0,0,0,0,0,0,0,0],"id":23,"left_children":[1,3,5,7,9,11,13,-1,-1,-1,-1,-1,-1,-1,-1],"loss_changes":[5.5227804E0,5.392022E0,5.5717773E0,2.883215E0,1.1345625E0,1.3721128E0,2.389115E0,0E0,0E0,0E0,0E0,0E0,0E0,0E0,0E0],"parents":[2147483647,0,0,1,1,2,2,3,3,4,4,5,5,6,6],"right_children":[2,4,6,8,10,12,14,-1,-1,-1,-1,-1,-1,-1,-1],"split_conditions":[-1.5776796E0,-1.543956E0,-1.5885141E0,-7.980856E-1,-1.4917701E0,8.02883E-1,2.4610382E-1,-2.1249983E-3,-3.541769E-4,-4.8331297E-3,-1.475365E-3,3.1904615E-3,-8.3897857E-4,-2.4245273E-5,8.8529196E-5],"split_indices":[32,14,15,36,31,35,35,0,0,0,0,0,0,0,0],"split_type":[0,0,0,0,0,0,0,0,0,0,0,0,0,0,0],"sum_hessian":[2.18129E5,1.707E3,2.16422E5,1.595E3,1.12E2,1.64E2,2.16258E5,2.29E2,1.366E3,8.1E1,3.1E1,1.44E2,2E1,1.63194E5,5.3064E4],"tree_param":{"num_deleted":"0","num_feature":"41","num_nodes":"15","size_leaf_vector":"1"}},{"base_weights":[-1.8657423E-5,-4.4099126E-2,3.2805512E-4,-3.4429558E-2,-4.746271E-3,2.0734853E-1,2.0674815E-4,-6.176269E-4,3.2802138E-3,5.568953E-3,2.0193884E-3,1.7828995E-3,1.4291713E-6],"categories":[],"categories_nodes":[],"categories_segments":[],"categories_sizes":[],"default_left":[0,0,0,0,0,0,0,0,0,0,0,0,0],"id":24,"left_children":[1,3,5,7,-1,9,11,-1,-1,-1,-1,-1,-1],"loss_changes":[3.33586E0,4.59988E0,5.4201365E0,3.3520641E0,0E0,1.463799E0,2.861784E0,0E0,0E0,0E0,0E0,0E0,0E0],"parents":[2147483647,0,0,1,1,2,2,3,3,5,5,6,6],"right_children":[2,4,6,8,-1,10,12,-1,-1,-1,-1,-1,-1],"split_conditions":[-1.5696855E0,1.8809034E0,-1.5616627E0,2.0776825E0,-4.746271E-3,-4.7974896E-1,-1.5740056E0,-6.176269E-4,3.2802138E-3,5.568953E-3,2.0193884E-3,1.7828995E-3,1.4291713E-6],"split_indices":[19,35,31,21,0,34,15,0,0,0,0,0,0],"split_type":[0,0,0,0,0,0,0,0,0,0,0,0,0],"sum_hessian":[2.18079E5,1.703E3,2.16376E5,1.647E3,5.6E1,1.26E2,2.1625E5,1.599E3,4.8E1,3.5E1,9.1E1,1.92E2,2.16058E5],"tree_param":{"num_deleted":"0","num_feature":"41","num_nodes":"13","size_leaf_vector":"1"}},{"base_weights":[-9.495332E-5,-5.5981345E-2,3.4323847E-4,-4.349793E-2,-2.672212E-1,1.8782951E-1,2.065059E-4,-7.426565E-4,2.7377817E-3,-4.633693E-3,-4.997684E-4,1.1683806E-3,3.863393E-3,-6.5265494E-6,2.6162178E-4],"categories":[],"categories_nodes":[],"categories_segments":[],"categories_sizes":[],"default_left":[0,0,0,0,0,0,0,0,0,0,0,0,0,0,0],"id":25,"left_children":[1,3,5,7,9,11,13,-1,-1,-1,-1,-1,-1,-1,-1],"loss_changes":[5.3461556E0,4.4535327E0,5.5366282E0,2.7255325E0,1.0753961E0,1.2716713E0,2.5049572E0,0E0,0E0,0E0,0E0,0E0,0E0,0E0,0E0],"parents":[2147483647,0,0,1,1,2,2,3,3,4,4,5,5,6,6],"right_children":[2,4,6,8,10,12,14,-1,-1,-1,-1,-1,-1,-1,-1],"split_conditions":[-1.5776796E0,-1.5217057E0,-1.5885141E0,2.2715929E0,-1.472305E0,-1.5683297E0,1.5268934E0,-7.426565E-4,2.7377817E-3,-4.633693E-3,-4.997684E-4,1.1683806E-3,3.863393E-3,-6.5265494E-6,2.6162178E-4],"split_indices":[32,16,15,21,31,30,30,0,0,0,0,0,0,0,0],"split_type":[0,0,0,0,0,0,0,0,0,0,0,0,0,0,0],"sum_hessian":[2.18158E5,1.698E3,2.1646E5,1.604E3,9.4E1,1.57E2,2.16303E5,1.555E3,4.9E1,7.7E1,1.7E1,6.6E1,9.1E1,2.08603E5,7.7E3],"tree_param":{"num_deleted":"0","num_feature":"41","num_nodes":"15","size_leaf_vector":"1"}},{"base_weights":[1.7041397E-4,-5.4873873E-2,6.012777E-4,-5.370781E-3,-4.6391252E-2,1.7873096E-1,4.6057513E-4,-8.2205376E-4,2.931E-3,1.1202132E-3,3.6592102E-3,-1.9412308E-5,9.6113356E-5],"categories":[],"categories_nodes":[],"categories_segments":[],"categories_sizes":[],"default_left":[0,0,0,0,0,0,0,0,0,0,0,0,0],"id":26,"left_children":[1,3,5,-1,7,9,11,-1,-1,-1,-1,-1,-1],"loss_changes":[5.167933E0,4.4590006E0,5.4108853E0,0E0,4.0331554E0,1.2203836E0,2.369825E0,0E0,0E0,0E0,0E0,0E0,0E0],"parents":[2147483647,0,0,1,1,2,2,4,4,5,5,6,6],"right_children":[2,4,6,-1,8,10,12,-1,-1,-1,-1,-1,-1],"split_conditions":[-1.5776796E0,-2.8152627E-1,-1.5885141E0,-5.370781E-3,2.6897795E0,-1.5683297E0,3.1536463E-1,-8.2205376E-4,2.931E-3,1.1202132E-3,3.6592102E-3,-1.9412308E-5,9.6113356E-5],"split_indices":[32,37,15,0,36,30,35,0,0,0,0,0,0],"split_type":[0,0,0,0,0,0,0,0,0,0,0,0,0],"sum_hessian":[2.18054E5,1.692E3,2.16362E5,4.4E1,1.648E3,1.7E2,2.16192E5,1.585E3,6.3E1,7.1E1,9.9E1,1.67272E5,4.892E4],"tree_param":{"num_deleted":"0","num_feature":"41","num_nodes":"13","size_leaf_vector":"1"}},{"base_weights":[-1.6841707E-4,-5.35676E-2,2.4772808E-4,-3.9967127E-2,-2.588834E-1,1.7425717E-1,1.1825354E-4,-4.6198236E-4,-4.332642E-3,-4.4173766E-3,-0E0,3.0108604E-3,-8.598622E-4,-7.942423E-6,2.6258628E-4],"categories":[],"categories_nodes":[],"categories_segments":[],"categories_sizes":[],"default_left":[0,0,0,0,0,0,0,0,0,0,0,0,0,0,0],"id":27,"left_children":[1,3,5,7,9,11,13,-1,-1,-1,-1,-1,-1,-1,-1],"loss_changes":[4.846181E0,4.6852403E0,4.8602552E0,3.3573802E0,1.1864867E0,1.209785E0,2.5578067E0,0E0,0E0,0E0,0E0,0E0,0E0,0E0,0E0],"parents":[2147483647,0,0,1,1,2,2,3,3,4,4,5,5,6,6],"right_children":[2,4,6,8,10,12,14,-1,-1,-1,-1,-1,-1,-1,-1],"split_conditions":[-1.5776796E0,-1.543956E0,-1.5885141E0,8.555598E-2,-1.472305E0,8.02883E-1,1.5268934E0,-4.6198236E-4,-4.332642E-3,-4.4173766E-3,-0E0,3.0108604E-3,-8.598622E-4,-7.942423E-6,2.6258628E-4],"split_indices":[32,14,15,37,31,35,30,0,0,0,0,0,0,0,0],"split_type":[0,0,0,0,0,0,0,0,0,0,0,0,0,0,0],"sum_hessian":[2.17923E5,1.686E3,2.16237E5,1.582E3,1.04E2,1.6E2,2.16077E5,1.533E3,4.9E1,8.9E1,1.5E1,1.41E2,1.9E1,2.08351E5,7.726E3],"tree_param":{"num_deleted":"0","num_feature":"41","num_nodes":"15","size_leaf_vector":"1"}},{"base_weights":[-6.719796E-5,-5.2602E-2,3.4454666E-4,-5.215584E-3,-4.2837016E-2,1.143764E-1,2.1305007E-4,-8.0601015E-4,1.9771107E-3,1.965142E-3,-1.4533905E-3,-6.1825153E-6,2.567628E-4],"categories":[],"categories_nodes":[],"categories_segments":[],"categories_sizes":[],"default_left":[0,0,0,0,0,0,0,0,0,0,0,0,0],"id":28,"left_children":[1,3,5,-1,7,9,11,-1,-1,-1,-1,-1,-1],"loss_changes":[4.7157865E0,5.010686E0,3.2336416E0,0E0,3.6207156E0,1.0820186E0,2.3886437E0,0E0,0E0,0E0,0E0,0E0,0E0],"parents":[2147483647,0,0,1,1,2,2,4,4,5,5,6,6],"right_children":[2,4,6,-1,8,10,12,-1,-1,-1,-1,-1,-1],"split_conditions":[-1.5776796E0,-2.7474523E-1,-1.5716318E0,-5.215584E-3,2.205837E0,9.92382E-2,1.5268934E0,-8.0601015E-4,1.9771107E-3,1.965142E-3,-1.4533905E-3,-6.1825153E-6,2.567628E-4],"split_indices":[32,37,14,0,36,37,30,0,0,0,0,0,0],"split_type":[0,0,0,0,0,0,0,0,0,0,0,0,0],"sum_hessian":[2.17851E5,1.695E3,2.16156E5,5.2E1,1.643E3,2.48E2,2.15908E5,1.537E3,1.06E2,2.27E2,2.1E1,2.08274E5,7.634E3],"tree_param":{"num_deleted":"0","num_feature":"41","num_nodes":"13","size_leaf_vector":"1"}},{"base_weights":[-3.716395E-5,-5.3063136E-2,3.783381E-4,-3.9594E-2,-2.6865086E-1,1.6757508E-1,2.4855742E-4,-4.576232E-4,-4.2531844E-3,-4.662011E-3,-1.8760106E-3,4.3398887E-3,1.4448331E-3,-3.0981475E-6,3.3853555E-4],"categories":[],"categories_nodes":[],"categories_segments":[],"categories_sizes":[],"default_left":[0,0,0,0,0,0,0,0,0,0,0,0,0,0,0],"id":29,"left_children":[1,3,5,7,9,11,13,-1,-1,-1,-1,-1,-1,-1,-1],"loss_changes":[4.807199E0,4.9013867E0,4.683094E0,3.292537E0,6.599107E-1,1.4515905E0,2.2861664E0,0E0,0E0,0E0,0E0,0E0,0E0,0E0,0E0],"parents":[2147483647,0,0,1,1,2,2,3,3,4,4,5,5,6,6],"right_children":[2,4,6,8,10,12,14,-1,-1,-1,-1,-1,-1,-1,-1],"split_conditions":[-1.5776796E0,-1.5217057E0,-1.5885141E0,8.555598E-2,-1.4917701E0,-6.125685E-1,1.9559809E0,-4.576232E-4,-4.2531844E-3,-4.662011E-3,-1.8760106E-3,4.3398887E-3,1.4448331E-3,-3.0981475E-6,3.3853555E-4],"split_indices":[32,16,15,37,31,22,37,0,0,0,0,0,0,0,0],"split_type":[0,0,0,0,0,0,0,0,0,0,0,0,0,0,0],"sum_hessian":[2.18029E5,1.696E3,2.16333E5,1.597E3,9.9E1,1.67E2,2.16166E5,1.547E3,5E1,7.2E1,2.7E1,5.7E1,1.1E2,2.11907E5,4.259E3],"tree_param":{"num_deleted":"0","num_feature":"41","num_nodes":"15","size_leaf_vector":"1"}},{"base_weights":[-4.8262333E-5,-5.1611703E-2,3.5892622E-4,-3.9392523E-2,-2.5749224E-1,1.6089614E-1,2.3502864E-4,-7.5825606E-4,1.9135113E-3,-4.7484837E-3,-4.0875887E-4,4.119176E-3,1.4277536E-3,-3.3751808E-6,3.4159934E-4],"categories":[],"categories_nodes":[],"categories_segments":[],"categories_sizes":[],"default_left":[0,0,0,0,0,0,0,0,0,0,0,0,0,0,0],"id":30,"left_children":[1,3,5,7,9,11,13,-1,-1,-1,-1,-1,-1,-1,-1],"loss_changes":[4.580791E0,4.2766843E0,4.2916517E0,3.4486468E0,1.4560661E0,1.2370172E0,2.33538E0,0E0,0E0,0E0,0E0,0E0,0E0,0E0,0E0],"parents":[2147483647,0,0,1,1,2,2,3,3,4,4,5,5,6,6],"right_children":[2,4,6,8,10,12,14,-1,-1,-1,-1,-1,-1,-1,-1],"split_conditions":[-1.5776796E0,1.8809034E0,-1.5885141E0,2.1393268E0,-1.5475278E0,-6.125685E-1,1.9559809E0,-7.5825606E-4,1.9135113E-3,-4.7484837E-3,-4.0875887E-4,4.119176E-3,1.4277536E-3,-3.3751808E-6,3.4159934E-4],"split_indices":[32,35,15,36,9,22,37,0,0,0,0,0,0,0,0],"split_type":[0,0,0,0,0,0,0,0,0,0,0,0,0,0,0],"sum_hessian":[2.18012E5,1.709E3,2.16303E5,1.614E3,9.5E1,1.66E2,2.16137E5,1.504E3,1.1E2,7.3E1,2.2E1,5.6E1,1.1E2,2.1187E5,4.267E3],"tree_param":{"num_deleted":"0","num_feature":"41","num_nodes":"15","size_leaf_vector":"1"}},{"base_weights":[-7.0929724E-5,-3.3002198E-2,3.267199E-4,-2.0767163E-2,-2.1182139E-1,-2.6071232E-4,1.6165296E-2,1.8528138E-3,-4.5941802E-4,1.9387216E-3,-3.4949274E-3,-2.0920013E-6,-1.868276E-3,2.6886354E-4,-1.6522259E-3],"categories":[],"categories_nodes":[],"categories_segments":[],"categories_sizes":[],"default_left":[0,0,0,0,0,0,0,0,0,0,0,0,0,0,0],"id":31,"left_children":[1,3,5,7,9,11,13,-1,-1,-1,-1,-1,-1,-1,-1],"loss_changes":[2.8584728E0,5.6809435E0,2.0062363E0,3.8477795E0,1.5994773E0,3.107693E0,2.2381158E0,0E0,0E0,0E0,0E0,0E0,0E0,0E0,0E0],"parents":[2147483647,0,0,1,1,2,2,3,3,4,4,5,5,6,6],"right_children":[2,4,6,8,10,12,14,-1,-1,-1,-1,-1,-1,-1,-1],"split_conditions":[-1.5492954E0,-1.5217057E0,1.5268934E0,-4.264064E-1,9.809099E-2,1.5511159E0,3.6639252E0,1.8528138E-3,-4.5941802E-4,1.9387216E-3,-3.4949274E-3,-2.0920013E-6,-1.868276E-3,2.6886354E-4,-1.6522259E-3],"split_indices":[2,16,30,34,34,14,21,0,0,0,0,0,0,0,0],"split_type":[0,0,0,0,0,0,0,0,0,0,0,0,0,0,0],"sum_hessian":[2.1812E5,2.604E3,2.15516E5,2.438E3,1.66E2,2.07805E5,7.711E3,1.64E2,2.274E3,1.2E1,1.54E2,2.07615E5,1.9E2,7.58E3,1.31E2],"tree_param":{"num_deleted":"0","num_feature":"41","num_nodes":"15","size_leaf_vector":"1"}},{"base_weights":[-1.3012782E-4,-5.126258E-2,2.7412965E-4,-5.023239E-3,-4.230784E-2,1.5735334E-1,1.5552541E-4,-7.9771853E-4,2.0268727E-3,2.9209717E-3,-2.1077115E-4,-5.2142937E-6,3.1167504E-4],"categories":[],"categories_nodes":[],"categories_segments":[],"categories_sizes":[],"default_left":[0,0,0,0,0,0,0,0,0,0,0,0,0],"id":32,"left_children":[1,3,5,-1,7,9,11,-1,-1,-1,-1,-1,-1],"loss_changes":[4.4993167E0,4.4452233E0,4.009927E0,0E0,3.6987534E0,1.2048907E0,2.344066E0,0E0,0E0,0E0,0E0,0E0,0E0],"parents":[2147483647,0,0,1,1,2,2,4,4,5,5,6,6],"right_children":[2,4,6,-1,8,10,12,-1,-1,-1,-1,-1,-1],"split_conditions":[-1.5776796E0,-2.8152627E-1,-1.5885141E0,-5.023239E-3,2.205837E0,6.789758E-1,1.9469421E0,-7.9771853E-4,2.0268727E-3,2.9209717E-3,-2.1077115E-4,-5.2142937E-6,3.1167504E-4],"split_indices":[32,37,15,0,36,39,37,0,0,0,0,0,0],"split_type":[0,0,0,0,0,0,0,0,0,0,0,0,0],"sum_hessian":[2.17503E5,1.707E3,2.15796E5,5E1,1.657E3,1.62E2,2.15634E5,1.552E3,1.05E2,1.3E2,3.2E1,2.10538E5,5.096E3],"tree_param":{"num_deleted":"0","num_feature":"41","num_nodes":"13","size_leaf_vector":"1"}},{"base_weights":[8.293241E-5,-4.6297755E-2,4.4678585E-4,-3.423464E-2,-2.4569863E-1,9.827608E-2,2.8329837E-4,-3.7915033E-4,-4.1896277E-3,-4.5741457E-3,-7.189964E-4,1.0814967E-3,5.6792726E-3,-4.881614E-6,2.4949483E-4],"categories":[],"categories_nodes":[],"categories_segments":[],"categories_sizes":[],"default_left":[0,0,0,0,0,0,0,0,0,0,0,0,0,0,0],"id":33,"left_children":[1,3,5,7,9,11,13,-1,-1,-1,-1,-1,-1,-1,-1],"loss_changes":[3.677895E0,4.0586796E0,3.4549077E0,3.31958E0,1.2499523E0,2.4936976E0,2.243747E0,0E0,0E0,0E0,0E0,0E0,0E0,0E0,0E0],"parents":[2147483647,0,0,1,1,2,2,3,3,4,4,5,5,6,6],"right_children":[2,4,6,8,10,12,14,-1,-1,-1,-1,-1,-1,-1,-1],"split_conditions":[-1.5776796E0,1.8809034E0,-1.5740056E0,8.555598E-2,-1.5475278E0,-1.5255142E0,1.5268934E0,-3.7915033E-4,-4.1896277E-3,-4.5741457E-3,-7.189964E-4,1.0814967E-3,5.6792726E-3,-4.881614E-6,2.4949483E-4],"split_indices":[32,35,15,37,9,11,30,0,0,0,0,0,0,0,0],"split_type":[0,0,0,0,0,0,0,0,0,0,0,0,0,0,0],"sum_hessian":[2.18118E5,1.696E3,2.16422E5,1.6E3,9.6E1,3.6E2,2.16062E5,1.55E3,5E1,7.1E1,2.5E1,3.33E2,2.7E1,2.08399E5,7.663E3],"tree_param":{"num_deleted":"0","num_feature":"41","num_nodes":"15","size_leaf_vector":"1"}},{"base_weights":[-9.0293815E-6,-4.5779012E-2,3.52442E-4,-3.316821E-2,-2.4113521E-1,1.0126058E-1,1.8856835E-4,-3.6679622E-4,-4.1693407E-3,-4.3532015E-3,-9.901874E-4,9.63113E-4,3.5834794E-3,-2.8383669E-5,7.414418E-5],"categories":[],"categories_nodes":[],"categories_segments":[],"categories_sizes":[],"default_left":[0,0,0,0,0,0,0,0,0,0,0,0,0,0,0],"id":34,"left_children":[1,3,5,7,9,11,13,-1,-1,-1,-1,-1,-1,-1,-1],"loss_changes":[3.6134791E0,4.1949034E0,3.5736449E0,3.242833E0,9.8967123E-1,1.7561178E0,2.2543533E0,0E0,0E0,0E0,0E0,0E0,0E0,0E0,0E0],"parents":[2147483647,0,0,1,1,2,2,3,3,4,4,5,5,6,6],"right_children":[2,4,6,8,10,12,14,-1,-1,-1,-1,-1,-1,-1,-1],"split_conditions":[-1.5776796E0,-1.543956E0,-1.5737442E0,8.555598E-2,-1.4917701E0,-1.5728359E0,6.6071296E-1,-3.6679622E-4,-4.1693407E-3,-4.3532015E-3,-9.901874E-4,9.63113E-4,3.5834794E-3,-2.8383669E-5,7.414418E-5],"split_indices":[32,14,16,37,31,13,37,0,0,0,0,0,0,0,0],"split_type":[0,0,0,0,0,0,0,0,0,0,0,0,0,0,0],"sum_hessian":[2.18227E5,1.711E3,2.16516E5,1.608E3,1.03E2,3.5E2,2.16166E5,1.559E3,4.9E1,7.7E1,2.6E1,2.82E2,6.8E1,1.50509E5,6.5657E4],"tree_param":{"num_deleted":"0","num_feature":"41","num_nodes":"15","size_leaf_vector":"1"}},{"base_weights":[-1.5846078E-4,-4.464669E-2,1.9149283E-4,-3.1917315E-2,-2.4290748E-1,1.0325348E-1,1.0144089E-5,-3.5165544E-4,-4.0364363E-3,-4.378807E-3,-1.3879263E-3,6.4875936E-4,3.2373187E-3,-6.598726E-6,3.3168518E-4],"categories":[],"categories_nodes":[],"categories_segments":[],"categories_sizes":[],"default_left":[0,0,0,0,0,0,0,0,0,0,0,0,0,0,0],"id":35,"left_children":[1,3,5,7,9,11,13,-1,-1,-1,-1,-1,-1,-1,-1],"loss_changes":[3.397883E0,4.277696E0,4.036932E0,3.0445657E0,8.2560015E-1,2.6223788E0,2.2677758E0,0E0,0E0,0E0,0E0,0E0,0E0,0E0,0E0],"parents":[2147483647,0,0,1,1,2,2,3,3,4,4,5,5,6,6],"right_children":[2,4,6,8,10,12,14,-1,-1,-1,-1,-1,-1,-1,-1],"split_conditions":[-1.5776796E0,-1.543956E0,-1.5740056E0,8.555598E-2,-1.4917701E0,-1.406686E-1,1.9559809E0,-3.5165544E-4,-4.0364363E-3,-4.378807E-3,-1.3879263E-3,6.4875936E-4,3.2373187E-3,-6.598726E-6,3.3168518E-4],"split_indices":[32,14,15,37,31,35,37,0,0,0,0,0,0,0,0],"split_type":[0,0,0,0,0,0,0,0,0,0,0,0,0,0,0],"sum_hessian":[2.1806E5,1.703E3,2.16357E5,1.601E3,1.02E2,3.79E2,2.15978E5,1.552E3,4.9E1,7.3E1,2.9E1,2.54E2,1.25E2,2.11668E5,4.31E3],"tree_param":{"num_deleted":"0","num_feature":"41","num_nodes":"15","size_leaf_vector":"1"}},{"base_weights":[-1.1129358E-5,-5.0284084E-2,3.8877493E-4,-4.840416E-3,-4.19309E-2,1.4690521E-1,2.7977093E-4,-8.006586E-4,2.2430893E-3,2.6113912E-3,-1.2501773E-3,-2.5590518E-6,3.3513602E-4],"categories":[],"categories_nodes":[],"categories_segments":[],"categories_sizes":[],"default_left":[0,0,0,0,0,0,0,0,0,0,0,0,0],"id":36,"left_children":[1,3,5,-1,7,9,11,-1,-1,-1,-1,-1,-1],"loss_changes":[4.3877335E0,4.01622E0,3.4457407E0,0E0,4.220864E0,1.2039826E0,2.232228E0,0E0,0E0,0E0,0E0,0E0,0E0],"parents":[2147483647,0,0,1,1,2,2,4,4,5,5,6,6],"right_children":[2,4,6,-1,8,10,12,-1,-1,-1,-1,-1,-1],"split_conditions":[-1.5776796E0,-2.8152627E-1,-1.5885141E0,-4.840416E-3,2.205837E0,8.02883E-1,1.9559809E0,-8.006586E-4,2.2430893E-3,2.6113912E-3,-1.2501773E-3,-2.5590518E-6,3.3513602E-4],"split_indices":[32,37,15,0,36,35,37,0,0,0,0,0,0],"split_type":[0,0,0,0,0,0,0,0,0,0,0,0,0],"sum_hessian":[2.18083E5,1.722E3,2.16361E5,4.9E1,1.673E3,1.6E2,2.16201E5,1.57E3,1.03E2,1.41E2,1.9E1,2.11945E5,4.256E3],"tree_param":{"num_deleted":"0","num_feature":"41","num_nodes":"13","size_leaf_vector":"1"}},{"base_weights":[-8.1019694E-5,-4.651195E-2,2.8244645E-4,-4.536869E-3,-3.720415E-2,1.5806517E-1,1.6364294E-4,-4.2969087E-4,-4.0971925E-3,2.7639903E-3,-1.0622235E-3,-2.1101621E-5,8.2880535E-5],"categories":[],"categories_nodes":[],"categories_segments":[],"categories_sizes":[],"default_left":[0,0,0,0,0,0,0,0,0,0,0,0,0],"id":37,"left_children":[1,3,5,-1,7,9,11,-1,-1,-1,-1,-1,-1],"loss_changes":[3.6835856E0,4.1420274E0,4.0459166E0,0E0,3.0766182E0,1.1843376E0,1.9182792E0,0E0,0E0,0E0,0E0,0E0,0E0],"parents":[2147483647,0,0,1,1,2,2,4,4,5,5,6,6],"right_children":[2,4,6,-1,8,10,12,-1,-1,-1,-1,-1,-1],"split_conditions":[-1.5776796E0,-2.6788843E-1,-1.5885141E0,-4.536869E-3,8.555598E-2,8.02883E-1,3.1536463E-1,-4.2969087E-4,-4.0971925E-3,2.7639903E-3,-1.0622235E-3,-2.1101621E-5,8.2880535E-5],"split_indices":[32,37,15,0,37,35,35,0,0,0,0,0,0],"split_type":[0,0,0,0,0,0,0,0,0,0,0,0,0],"sum_hessian":[2.18091E5,1.695E3,2.16396E5,5.7E1,1.638E3,1.62E2,2.16234E5,1.588E3,5E1,1.43E2,1.9E1,1.67375E5,4.8859E4],"tree_param":{"num_deleted":"0","num_feature":"41","num_nodes":"13","size_leaf_vector":"1"}},{"base_weights":[6.363085E-5,-3.7401646E-2,3.583627E-4,-2.8777273E-2,-4.130904E-3,1.9483805E-1,2.4618322E-4,-3.2496653E-4,-5.4356726E-3,6.3026133E-3,2.0262199E-3,-7.998726E-4,6.430283E-6],"categories":[],"categories_nodes":[],"categories_segments":[],"categories_sizes":[],"default_left":[0,0,0,0,0,0,0,0,0,0,0,0,0],"id":38,"left_children":[1,3,5,7,-1,9,11,-1,-1,-1,-1,-1,-1],"loss_changes":[2.4055595E0,3.5768552E0,4.7076087E0,3.6513348E0,0E0,1.5901976E0,2.3079054E0,0E0,0E0,0E0,0E0,0E0,0E0],"parents":[2147483647,0,0,1,1,2,2,3,3,5,5,6,6],"right_children":[2,4,6,8,-1,10,12,-1,-1,-1,-1,-1,-1],"split_conditions":[-1.5696855E0,1.8809034E0,-1.5616627E0,8.555598E-2,-4.130904E-3,-8.2678616E-2,-1.5492954E0,-3.2496653E-4,-5.4356726E-3,6.3026133E-3,2.0262199E-3,-7.998726E-4,6.430283E-6],"split_indices":[19,35,31,37,0,37,2,0,0,0,0,0,0],"split_type":[0,0,0,0,0,0,0,0,0,0,0,0,0],"sum_hessian":[2.18072E5,1.7E3,2.16372E5,1.643E3,5.7E1,1.24E2,2.16248E5,1.613E3,3E1,2.3E1,1.01E2,7.59E2,2.15489E5],"tree_param":{"num_deleted":"0","num_feature":"41","num_nodes":"13","size_leaf_vector":"1"}},{"base_weights":[-8.27082E-6,-3.0730108E-2,3.5862759E-4,-2.271655E-2,-2.7829012E-1,-7.1419134E-5,2.1966308E-2,-4.2542414E-4,4.2910357E-3,-3.6431712E-4,-4.6958695E-3,-5.0224137E-4,2.7597423E-6,2.6445175E-4,1.8198763E-3],"categories":[],"categories_nodes":[],"categories_segments":[],"categories_sizes":[],"default_left":[0,0,0,0,0,0,0,0,0,0,0,0,0,0,0],"id":39,"left_children":[1,3,5,7,9,11,13,-1,-1,-1,-1,-1,-1,-1,-1],"loss_changes":[2.4578347E0,5.0828075E0,2.0020857E0,5.05531E0,8.5659456E-1,1.8895297E0,1.6532915E0,0E0,0E0,0E0,0E0,0E0,0E0,0E0,0E0],"parents":[2147483647,0,0,1,1,2,2,3,3,4,4,5,5,6,6],"right_children":[2,4,6,8,10,12,14,-1,-1,-1,-1,-1,-1,-1,-1],"split_conditions":[-1.5492954E0,1.8809034E0,1.9559809E0,1.7949119E0,-1.3738124E0,-3.2683504E0,2.0780993E0,-4.2542414E-4,4.2910357E-3,-3.6431712E-4,-4.6958695E-3,-5.0224137E-4,2.7597423E-6,2.6445175E-4,1.8198763E-3],"split_indices":[2,35,37,21,39,21,36,0,0,0,0,0,0,0,0],"split_type":[0,0,0,0,0,0,0,0,0,0,0,0,0,0,0],"sum_hessian":[2.17873E5,2.573E3,2.153E5,2.493E3,8E1,2.11096E5,4.204E3,2.444E3,4.9E1,1.2E1,6.8E1,1.591E3,2.09505E5,4.053E3,1.51E2],"tree_param":{"num_deleted":"0","num_feature":"41","num_nodes":"15","size_leaf_vector":"1"}},{"base_weights":[-7.862512E-5,-4.3549463E-2,2.6588733E-4,-3.1568244E-2,-2.3976812E-1,1.4744562E-1,1.5504073E-4,-2.020432E-3,-2.0259614E-4,-4.2980216E-3,-1.4412852E-3,2.6103186E-3,-1.0362805E-3,-4.104994E-6,3.1798033E-4],"categories":[],"categories_nodes":[],"categories_segments":[],"categories_sizes":[],"default_left":[0,0,0,0,0,0,0,0,0,0,0,0,0,0,0],"id":40,"left_children":[1,3,5,7,9,11,13,-1,-1,-1,-1,-1,-1,-1,-1],"loss_changes":[3.2691891E0,4.01422E0,3.520415E0,3.0475793E0,7.204647E-1,1.1237772E0,2.0409052E0,0E0,0E0,0E0,0E0,0E0,0E0,0E0,0E0],"parents":[2147483647,0,0,1,1,2,2,3,3,4,4,5,5,6,6],"right_children":[2,4,6,8,10,12,14,-1,-1,-1,-1,-1,-1,-1,-1],"split_conditions":[-1.5776796E0,-1.5217057E0,-1.5885141E0,-7.980856E-1,-1.4917701E0,8.02883E-1,1.9559809E0,-2.020432E-3,-2.0259614E-4,-4.2980216E-3,-1.4412852E-3,2.6103186E-3,-1.0362805E-3,-4.104994E-6,3.1798033E-4],"split_indices":[32,16,15,36,31,35,37,0,0,0,0,0,0,0,0],"split_type":[0,0,0,0,0,0,0,0,0,0,0,0,0,0,0],"sum_hessian":[2.181E5,1.716E3,2.16384E5,1.618E3,9.8E1,1.62E2,2.16222E5,2.29E2,1.389E3,7E1,2.8E1,1.42E2,2E1,2.11944E5,4.278E3],"tree_param":{"num_deleted":"0","num_feature":"41","num_nodes":"15","size_leaf_vector":"1"}},{"base_weights":[-4.734346E-5,-4.688811E-2,3.2064345E-4,-3.4710683E-2,-2.2711304E-1,9.143248E-2,1.7611205E-4,-3.91769E-4,-3.9425557E-3,-4.010196E-3,-1.2945302E-3,6.0478406E-4,2.9000752E-3,-2.2121065E-5,8.688046E-5],"categories":[],"categories_nodes":[],"categories_segments":[],"categories_sizes":[],"default_left":[0,0,0,0,0,0,0,0,0,0,0,0,0,0,0],"id":41,"left_children":[1,3,5,7,9,11,13,-1,-1,-1,-1,-1,-1,-1,-1],"loss_changes":[3.7666907E0,3.7179832E0,2.8468273E0,2.9369357E0,6.73398E-1,1.8164587E0,2.1126852E0,0E0,0E0,0E0,0E0,0E0,0E0,0E0,0E0],"parents":[2147483647,0,0,1,1,2,2,3,3,4,4,5,5,6,6],"right_children":[2,4,6,8,10,12,14,-1,-1,-1,-1,-1,-1,-1,-1],"split_conditions":[-1.5776796E0,-1.543956E0,-1.5737442E0,8.555598E-2,-1.4917701E0,-1.6839197E-1,3.1536463E-1,-3.91769E-4,-3.9425557E-3,-4.010196E-3,-1.2945302E-3,6.0478406E-4,2.9000752E-3,-2.2121065E-5,8.688046E-5],"split_indices":[32,14,16,37,31,35,35,0,0,0,0,0,0,0,0],"split_type":[0,0,0,0,0,0,0,0,0,0,0,0,0,0,0],"sum_hessian":[2.18347E5,1.703E3,2.16644E5,1.596E3,1.07E2,3.42E2,2.16302E5,1.545E3,5.1E1,7.9E1,2.8E1,2.34E2,1.08E2,1.67294E5,4.9008E4],"tree_param":{"num_deleted":"0","num_feature":"41","num_nodes":"15","size_leaf_vector":"1"}},{"base_weights":[-3.0002459E-5,-4.172591E-2,2.980111E-4,-4.5717657E-3,-3.3582542E-2,1.503492E-1,1.830296E-4,-6.834574E-4,2.182225E-3,2.6397621E-3,-9.6969673E-4,-2.299403E-5,8.16346E-5],"categories":[],"categories_nodes":[],"categories_segments":[],"categories_sizes":[],"default_left":[0,0,0,0,0,0,0,0,0,0,0,0,0],"id":42,"left_children":[1,3,5,-1,7,9,11,-1,-1,-1,-1,-1,-1],"loss_changes":[2.9882205E0,3.7420697E0,3.7267635E0,0E0,4.0068607E0,1.1040907E0,2.0578208E0,0E0,0E0,0E0,0E0,0E0,0E0],"parents":[2147483647,0,0,1,1,2,2,4,4,5,5,6,6],"right_children":[2,4,6,-1,8,10,12,-1,-1,-1,-1,-1,-1],"split_conditions":[-1.5776796E0,-2.8152627E-1,-1.5885141E0,-4.5717657E-3,2.205837E0,8.02883E-1,2.4610382E-1,-6.834574E-4,2.182225E-3,2.6397621E-3,-9.6969673E-4,-2.299403E-5,8.16346E-5],"split_indices":[32,37,15,0,36,35,35,0,0,0,0,0,0],"split_type":[0,0,0,0,0,0,0,0,0,0,0,0,0],"sum_hessian":[2.18287E5,1.705E3,2.16582E5,4.9E1,1.656E3,1.65E2,2.16417E5,1.545E3,1.11E2,1.45E2,2E1,1.63319E5,5.3098E4],"tree_param":{"num_deleted":"0","num_feature":"41","num_nodes":"13","size_leaf_vector":"1"}},{"base_weights":[-1.1778751E-5,-4.135513E-2,3.1396377E-4,-3.1002771E-2,-2.2145805E-1,9.382775E-2,1.4949644E-4,-1.8356255E-3,-2.2415815E-4,-4.1137342E-3,-8.086388E-4,9.6933637E-4,5.22494E-3,-5.9150957E-6,2.2270254E-4],"categories":[],"categories_nodes":[],"categories_segments":[],"categories_sizes":[],"default_left":[0,0,0,0,0,0,0,0,0,0,0,0,0,0,0],"id":43,"left_children":[1,3,5,7,9,11,13,-1,-1,-1,-1,-1,-1,-1,-1],"loss_changes":[2.9413784E0,3.1640255E0,3.3235538E0,2.3845537E0,8.967948E-1,2.7109869E0,1.8114362E0,0E0,0E0,0E0,0E0,0E0,0E0,0E0,0E0],"parents":[2147483647,0,0,1,1,2,2,3,3,4,4,5,5,6,6],"right_children":[2,4,6,8,10,12,14,-1,-1,-1,-1,-1,-1,-1,-1],"split_conditions":[-1.5776796E0,-1.5217057E0,-1.5740056E0,-7.980856E-1,-1.4917701E0,-1.5255142E0,1.5268934E0,-1.8356255E-3,-2.2415815E-4,-4.1137342E-3,-8.086388E-4,9.6933637E-4,5.22494E-3,-5.9150957E-6,2.2270254E-4],"split_indices":[32,16,15,36,31,11,30,0,0,0,0,0,0,0,0],"split_type":[0,0,0,0,0,0,0,0,0,0,0,0,0,0,0],"sum_hessian":[2.18207E5,1.707E3,2.165E5,1.615E3,9.2E1,3.79E2,2.16121E5,2.28E2,1.387E3,6.7E1,2.5E1,3.44E2,3.5E1,2.08462E5,7.659E3],"tree_param":{"num_deleted":"0","num_feature":"41","num_nodes":"15","size_leaf_vector":"1"}},{"base_weights":[8.1778635E-5,-3.898618E-2,3.9241463E-4,-4.5089433E-3,-3.144707E-2,9.8338366E-2,2.2356793E-4,-6.3778815E-4,2.2156248E-3,1.0956674E-3,5.655345E-3,-3.6690242E-6,2.9002858E-4],"categories":[],"categories_nodes":[],"categories_segments":[],"categories_sizes":[],"default_left":[0,0,0,0,0,0,0,0,0,0,0,0,0],"id":44,"left_children":[1,3,5,-1,7,9,11,-1,-1,-1,-1,-1,-1],"loss_changes":[2.6421432E0,3.4674485E0,3.5690517E0,0E0,3.7421448E0,2.4582534E0,2.0143454E0,0E0,0E0,0E0,0E0,0E0,0E0],"parents":[2147483647,0,0,1,1,2,2,4,4,5,5,6,6],"right_children":[2,4,6,-1,8,10,12,-1,-1,-1,-1,-1,-1],"split_conditions":[-1.5776796E0,-2.8152627E-1,-1.5740056E0,-4.5089433E-3,2.205837E0,-1.5016878E0,1.9469421E0,-6.3778815E-4,2.2156248E-3,1.0956674E-3,5.655345E-3,-3.6690242E-6,2.9002858E-4],"split_indices":[32,37,15,0,36,19,37,0,0,0,0,0,0],"split_type":[0,0,0,0,0,0,0,0,0,0,0,0,0],"sum_hessian":[2.17922E5,1.717E3,2.16205E5,4.6E1,1.671E3,3.71E2,2.15834E5,1.567E3,1.04E2,3.44E2,2.7E1,2.10736E5,5.098E3],"tree_param":{"num_deleted":"0","num_feature":"41","num_nodes":"13","size_leaf_vector":"1"}},{"base_weights":[8.759043E-6,-4.0702716E-2,3.2489302E-4,-2.994354E-2,-2.0727107E-1,9.429887E-2,1.647341E-4,-5.2953087E-4,2.5279312E-3,-3.8255053E-3,-8.8414724E-4,1.0939527E-3,5.6715067E-3,-5.7200546E-4,6.0667203E-6],"categories":[],"categories_nodes":[],"categories_segments":[],"categories_sizes":[],"default_left":[0,0,0,0,0,0,0,0,0,0,0,0,0,0,0],"id":45,"left_children":[1,3,5,7,9,11,13,-1,-1,-1,-1,-1,-1,-1,-1],"loss_changes":[2.803437E0,2.9897878E0,3.2500079E0,2.0196004E0,7.867942E-1,2.0514314E0,2.1284525E0,0E0,0E0,0E0,0E0,0E0,0E0,0E0,0E0],"parents":[2147483647,0,0,1,1,2,2,3,3,4,4,5,5,6,6],"right_children":[2,4,6,8,10,12,14,-1,-1,-1,-1,-1,-1,-1,-1],"split_conditions":[-1.5776796E0,-1.543956E0,-1.5740056E0,2.2715929E0,-1.4917701E0,-1.5016878E0,-1.5377713E0,-5.2953087E-4,2.5279312E-3,-3.8255053E-3,-8.8414724E-4,1.0939527E-3,5.6715067E-3,-5.7200546E-4,6.0667203E-6],"split_indices":[32,14,15,21,31,19,32,0,0,0,0,0,0,0,0],"split_type":[0,0,0,0,0,0,0,0,0,0,0,0,0,0,0],"sum_hessian":[2.18029E5,1.678E3,2.16351E5,1.577E3,1.01E2,3.67E2,2.15984E5,1.53E3,4.7E1,7.3E1,2.8E1,3.45E2,2.2E1,1.366E3,2.14618E5],"tree_param":{"num_deleted":"0","num_feature":"41","num_nodes":"15","size_leaf_vector":"1"}},{"base_weights":[5.6542856E-5,-2.7986547E-2,4.9872E-4,-1.7709438E-2,-2.5479797E-1,6.533407E-2,2.4191082E-4,2.3832583E-5,-2.098313E-3,-3.0458055E-3,-5.852816E-3,4.6956497E-3,6.648233E-4,-2.313812E-3,5.025646E-6],"categories":[],"categories_nodes":[],"categories_segments":[],"categories_sizes":[],"default_left":[0,0,0,0,0,0,0,0,0,0,0,0,0,0,0],"id":46,"left_children":[1,3,5,7,9,11,13,-1,-1,-1,-1,-1,-1,-1,-1],"loss_changes":[2.703542E0,7.8691196E0,3.571971E0,7.9021225E0,9.142904E-1,4.2646623E0,3.4634883E0,0E0,0E0,0E0,0E0,0E0,0E0,0E0,0E0],"parents":[2147483647,0,0,1,1,2,2,3,3,4,4,5,5,6,6],"right_children":[2,4,6,8,10,12,14,-1,-1,-1,-1,-1,-1,-1,-1],"split_conditions":[-1.5377713E0,1.8809034E0,-1.5132427E0,9.92382E-2,-1.5012065E0,-1.506552E-1,-1.5018576E0,2.3832583E-5,-2.098313E-3,-3.0458055E-3,-5.852816E-3,4.6956497E-3,6.648233E-4,-2.313812E-3,5.025646E-6],"split_indices":[32,35,32,37,11,37,9,0,0,0,0,0,0,0,0],"split_type":[0,0,0,0,0,0,0,0,0,0,0,0,0,0,0],"sum_hessian":[2.18173E5,3.384E3,2.14789E5,3.238E3,1.46E2,8.46E2,2.13943E5,2.807E3,4.31E2,1.12E2,3.4E1,6E1,7.86E2,1.37E2,2.13806E5],"tree_param":{"num_deleted":"0","num_feature":"41","num_nodes":"15","size_leaf_vector":"1"}},{"base_weights":[2.9532554E-5,-4.070343E-2,3.471834E-4,-4.1305404E-3,-3.257725E-2,9.1763504E-2,2.2272588E-4,-3.6982767E-4,-3.9137057E-3,6.3062967E-3,8.642751E-4,-2.294009E-5,8.33667E-5],"categories":[],"categories_nodes":[],"categories_segments":[],"categories_sizes":[],"default_left":[0,0,0,0,0,0,0,0,0,0,0,0,0],"id":47,"left_children":[1,3,5,-1,7,9,11,-1,-1,-1,-1,-1,-1],"loss_changes":[2.818197E0,3.2926946E0,2.455191E0,0E0,2.7619886E0,3.2078066E0,2.126863E0,0E0,0E0,0E0,0E0,0E0,0E0],"parents":[2147483647,0,0,1,1,2,2,4,4,5,5,6,6],"right_children":[2,4,6,-1,8,10,12,-1,-1,-1,-1,-1,-1],"split_conditions":[-1.5776796E0,-2.6788843E-1,-1.5616627E0,-4.1305404E-3,8.555598E-2,-8.2678616E-2,2.4610382E-1,-3.6982767E-4,-3.9137057E-3,6.3062967E-3,8.642751E-4,-2.294009E-5,8.33667E-5],"split_indices":[32,37,31,0,37,37,35,0,0,0,0,0,0],"split_type":[0,0,0,0,0,0,0,0,0,0,0,0,0],"sum_hessian":[2.18014E5,1.685E3,2.16329E5,5.4E1,1.631E3,2.93E2,2.16036E5,1.583E3,4.8E1,2.5E1,2.68E2,1.628E5,5.3236E4],"tree_param":{"num_deleted":"0","num_feature":"41","num_nodes":"13","size_leaf_vector":"1"}},{"base_weights":[4.0700317E-5,-4.0631685E-2,3.5878856E-4,-3.0991267E-2,-2.0453416E-1,1.3834016E-1,2.5541146E-4,-5.5056694E-4,3.2139563E-3,-3.905172E-3,-2.8437728E-4,7.425409E-4,3.0869076E-3,-2.2047743E-5,8.2935585E-5],"categories":[],"categories_nodes":[],"categories_segments":[],"categories_sizes":[],"default_left":[0,0,0,0,0,0,0,0,0,0,0,0,0,0,0],"id":48,"left_children":[1,3,5,7,9,11,13,-1,-1,-1,-1,-1,-1,-1,-1],"loss_changes":[2.8165534E0,2.6513247E0,3.07505E0,2.6843803E0,1.0667591E0,1.010354E0,2.0696704E0,0E0,0E0,0E0,0E0,0E0,0E0,0E0,0E0],"parents":[2147483647,0,0,1,1,2,2,3,3,4,4,5,5,6,6],"right_children":[2,4,6,8,10,12,14,-1,-1,-1,-1,-1,-1,-1,-1],"split_conditions":[-1.5776796E0,1.8809034E0,-1.5885141E0,2.2715929E0,-1.5475278E0,-1.5696855E0,2.4610382E-1,-5.5056694E-4,3.2139563E-3,-3.905172E-3,-2.8437728E-4,7.425409E-4,3.0869076E-3,-2.2047743E-5,8.2935585E-5],"split_indices":[32,35,15,21,9,19,35,0,0,0,0,0,0,0,0],"split_type":[0,0,0,0,0,0,0,0,0,0,0,0,0,0,0],"sum_hessian":[2.17911E5,1.689E3,2.16222E5,1.596E3,9.3E1,1.61E2,2.16061E5,1.555E3,4.1E1,6.9E1,2.4E1,7.4E1,8.7E1,1.63002E5,5.3059E4],"tree_param":{"num_deleted":"0","num_feature":"41","num_nodes":"15","size_leaf_vector":"1"}},{"base_weights":[-1.5743605E-4,-4.1541636E-2,1.6710715E-4,-3.09367E-2,-2.009861E-1,9.204316E-2,1.8109893E-5,-1.9469747E-3,-1.9926009E-4,-3.9647967E-3,-1.5168518E-3,8.9301186E-4,3.3187412E-3,-5.630658E-4,3.891332E-6],"categories":[],"categories_nodes":[],"categories_segments":[],"categories_sizes":[],"default_left":[0,0,0,0,0,0,0,0,0,0,0,0,0,0,0],"id":49,"left_children":[1,3,5,7,9,11,13,-1,-1,-1,-1,-1,-1,-1,-1],"loss_changes":[2.9298449E0,2.8523402E0,2.9540925E0,2.8091502E0,6.861925E-1,1.4348044E0,2.0667179E0,0E0,0E0,0E0,0E0,0E0,0E0,0E0,0E0],"parents":[2147483647,0,0,1,1,2,2,3,3,4,4,5,5,6,6],"right_children":[2,4,6,8,10,12,14,-1,-1,-1,-1,-1,-1,-1,-1],"split_conditions":[-1.5776796E0,-1.543956E0,-1.5737442E0,-7.980856E-1,5.9455633E0,-1.5728359E0,-1.5377713E0,-1.9469747E-3,-1.9926009E-4,-3.9647967E-3,-1.5168518E-3,8.9301186E-4,3.3187412E-3,-5.630658E-4,3.891332E-6],"split_indices":[32,14,16,36,34,13,32,0,0,0,0,0,0,0,0],"split_type":[0,0,0,0,0,0,0,0,0,0,0,0,0,0,0],"sum_hessian":[2.17937E5,1.697E3,2.1624E5,1.592E3,1.05E2,3.49E2,2.15891E5,2.29E2,1.363E3,6E1,4.5E1,2.85E2,6.4E1,1.379E3,2.14512E5],"tree_param":{"num_deleted":"0","num_feature":"41","num_nodes":"15","size_leaf_vector":"1"}},{"base_weights":[7.92967E-5,-2.6411237E-2,5.014666E-4,-8.54096E-3,-1.3829577E-1,6.132858E-2,2.5900704E-4,-5.9630365E-5,-6.55482E-3,-5.507094E-3,-1.5781549E-3,4.417354E-3,6.1054196E-4,-2.2960317E-3,5.2429823E-6],"categories":[],"categories_nodes":[],"categories_segments":[],"categories_sizes":[],"default_left":[0,0,0,0,0,0,0,0,0,0,0,0,0,0,0],"id":50,"left_children":[1,3,5,7,9,11,13,-1,-1,-1,-1,-1,-1,-1,-1],"loss_changes":[2.4378345E0,6.826597E0,3.162617E0,5.7584376E0,3.3461275E0,3.9794557E0,3.3615997E0,0E0,0E0,0E0,0E0,0E0,0E0,0E0,0E0],"parents":[2147483647,0,0,1,1,2,2,3,3,4,4,5,5,6,6],"right_children":[2,4,6,8,10,12,14,-1,-1,-1,-1,-1,-1,-1,-1],"split_conditions":[-1.5377713E0,9.92382E-2,-1.5132427E0,-1.5016878E0,-6.383583E-1,-1.506552E-1,-1.5018576E0,-5.9630365E-5,-6.55482E-3,-5.507094E-3,-1.5781549E-3,4.417354E-3,6.1054196E-4,-2.2960317E-3,5.2429823E-6],"split_indices":[32,37,32,19,36,37,9,0,0,0,0,0,0,0,0],"split_type":[0,0,0,0,0,0,0,0,0,0,0,0,0,0,0],"sum_hessian":[2.18137E5,3.419E3,2.14718E5,2.949E3,4.7E2,8.51E2,2.13867E5,2.92E3,2.9E1,5.2E1,4.18E2,6.3E1,7.88E2,1.35E2,2.13732E5],"tree_param":{"num_deleted":"0","num_feature":"41","num_nodes":"15","size_leaf_vector":"1"}},{"base_weights":[4.9396796E-5,-1.9743333E-3,4.7633243E-3,-1.4570125E-3,-7.9004444E-2,-1.8408261E-2,7.211304E-3,-3.0053507E-5,3.4303233E-4,-1.72148E-3,-8.465379E-5,-1.0036353E-4,-1.4061367E-3,8.150301E-5,4.564701E-4],"categories":[],"categories_nodes":[],"categories_segments":[],"categories_sizes":[],"default_left":[0,0,0,0,0,0,0,0,0,0,0,0,0,0,0],"id":51,"left_children":[1,3,5,7,9,11,13,-1,-1,-1,-1,-1,-1,-1,-1],"loss_changes":[2.0836184E0,6.083145E0,3.720799E0,2.2760828E0,2.891861E0,5.623391E0,2.3226805E0,0E0,0E0,0E0,0E0,0E0,0E0,0E0,0E0],"parents":[2147483647,0,0,1,1,2,2,3,3,4,4,5,5,6,6],"right_children":[2,4,6,8,10,12,14,-1,-1,-1,-1,-1,-1,-1,-1],"split_conditions":[6.6071296E-1,3.110386E0,-9.571599E-1,1.6382772E0,1.9453859E-2,-9.664675E-1,1.4306473E0,-3.0053507E-5,3.4303233E-4,-1.72148E-3,-8.465379E-5,-1.0036353E-4,-1.4061367E-3,8.150301E-5,4.564701E-4],"split_indices":[37,35,14,16,37,14,38,0,0,0,0,0,0,0,0],"split_type":[0,0,0,0,0,0,0,0,0,0,0,0,0,0,0],"sum_hessian":[2.18395E5,1.52788E5,6.5607E4,1.5177E5,1.018E3,6.266E3,5.9341E4,1.48201E5,3.569E3,6.64E2,3.54E2,5.459E3,8.07E2,5.558E4,3.761E3],"tree_param":{"num_deleted":"0","num_feature":"41","num_nodes":"15","size_leaf_vector":"1"}},{"base_weights":[5.2786523E-5,-3.6296662E-2,3.4156154E-4,-2.5527608E-2,-2.0185481E-1,9.11319E-2,1.833966E-4,-6.14608E-4,9.848939E-4,-3.660774E-3,-1.0443082E-3,6.737665E-4,3.5465646E-3,-2.6639787E-5,6.16447E-5],"categories":[],"categories_nodes":[],"categories_segments":[],"categories_sizes":[],"default_left":[0,0,0,0,0,0,0,0,0,0,0,0,0,0,0],"id":52,"left_children":[1,3,5,7,9,11,13,-1,-1,-1,-1,-1,-1,-1,-1],"loss_changes":[2.2858858E0,3.0431082E0,3.0996993E0,2.4834402E0,6.3662815E-1,2.5395436E0,1.7511046E0,0E0,0E0,0E0,0E0,0E0,0E0,0E0,0E0],"parents":[2147483647,0,0,1,1,2,2,3,3,4,4,5,5,6,6],"right_children":[2,4,6,8,10,12,14,-1,-1,-1,-1,-1,-1,-1,-1],"split_conditions":[-1.5776796E0,-1.543956E0,-1.5740056E0,-1.5728359E0,-1.4917701E0,-1.547812E0,6.3065296E-1,-6.14608E-4,9.848939E-4,-3.660774E-3,-1.0443082E-3,6.737665E-4,3.5465646E-3,-2.6639787E-5,6.16447E-5],"split_indices":[32,14,15,13,31,8,37,0,0,0,0,0,0,0,0],"split_type":[0,0,0,0,0,0,0,0,0,0,0,0,0,0,0],"sum_hessian":[2.17995E5,1.716E3,2.16279E5,1.612E3,1.04E2,3.75E2,2.15904E5,1.369E3,2.43E2,7.5E1,2.9E1,2.9E2,8.5E1,1.44196E5,7.1708E4],"tree_param":{"num_deleted":"0","num_feature":"41","num_nodes":"15","size_leaf_vector":"1"}},{"base_weights":[-3.6579248E-5,-2.6754597E-2,2.825387E-4,4.992155E-3,-8.770922E-2,-1.337153E-3,5.237475E-3,6.287327E-4,-4.2114584E-4,-1.5683993E-3,3.186891E-3,-8.3873056E-5,4.202173E-6,6.5278204E-4,4.454569E-5],"categories":[],"categories_nodes":[],"categories_segments":[],"categories_sizes":[],"default_left":[0,0,0,0,0,0,0,0,0,0,0,0,0,0,0],"id":53,"left_children":[1,3,5,7,9,11,13,-1,-1,-1,-1,-1,-1,-1,-1],"loss_changes":[1.8618395E0,4.993185E0,1.7304265E0,2.1841614E0,5.3304915E0,1.1639247E0,4.581381E0,0E0,0E0,0E0,0E0,0E0,0E0,0E0,0E0],"parents":[2147483647,0,0,1,1,2,2,3,3,4,4,5,5,6,6],"right_children":[2,4,6,8,10,12,14,-1,-1,-1,-1,-1,-1,-1,-1],"split_conditions":[-1.5492954E0,2.7827067E-2,2.4610382E-1,-8.8722706E-2,1.7949119E0,-9.2489487E-1,-1.1828308E0,6.287327E-4,-4.2114584E-4,-1.5683993E-3,3.186891E-3,-8.3873056E-5,4.202173E-6,6.5278204E-4,4.454569E-5],"split_indices":[2,35,35,20,21,16,12,0,0,0,0,0,0,0,0],"split_type":[0,0,0,0,0,0,0,0,0,0,0,0,0,0,0],"sum_hessian":[2.18161E5,2.577E3,2.15584E5,1.694E3,8.83E2,1.62464E5,5.312E4,7.98E2,8.96E2,8.3E2,5.3E1,4.3774E4,1.1869E5,2.786E3,5.0334E4],"tree_param":{"num_deleted":"0","num_feature":"41","num_nodes":"15","size_leaf_vector":"1"}},{"base_weights":[-1.8839758E-4,-2.5737323E-2,2.2042028E-4,-1.5785292E-2,-2.3662667E-1,5.711172E-2,-6.8844442E-6,4.376096E-5,-1.9685407E-3,-2.8361138E-3,-6.6662985E-3,4.209117E-3,5.6183425E-4,-2.1050507E-3,1.2205057E-6],"categories":[],"categories_nodes":[],"categories_segments":[],"categories_sizes":[],"default_left":[0,0,0,0,0,0,0,0,0,0,0,0,0,0,0],"id":54,"left_children":[1,3,5,7,9,11,13,-1,-1,-1,-1,-1,-1,-1,-1],"loss_changes":[2.277E0,7.1877785E0,2.7764168E0,7.341391E0,1.3610506E0,3.6539192E0,2.7952175E0,0E0,0E0,0E0,0E0,0E0,0E0,0E0,0E0],"parents":[2147483647,0,0,1,1,2,2,3,3,4,4,5,5,6,6],"right_children":[2,4,6,8,10,12,14,-1,-1,-1,-1,-1,-1,-1,-1],"split_conditions":[-1.5377713E0,1.8809034E0,-1.5132427E0,9.92382E-2,-1.4276562E0,-1.506552E-1,-1.5018576E0,4.376096E-5,-1.9685407E-3,-2.8361138E-3,-6.6662985E-3,4.209117E-3,5.6183425E-4,-2.1050507E-3,1.2205057E-6],"split_indices":[32,35,32,37,13,37,9,0,0,0,0,0,0,0,0],"split_type":[0,0,0,0,0,0,0,0,0,0,0,0,0,0,0],"sum_hessian":[2.1784E5,3.433E3,2.14407E5,3.279E3,1.54E2,8.54E2,2.13553E5,2.832E3,4.47E2,1.3E2,2.4E1,6.3E1,7.91E2,1.34E2,2.13419E5],"tree_param":{"num_deleted":"0","num_feature":"41","num_nodes":"15","size_leaf_vector":"1"}},{"base_weights":[2.0950361E-5,-3.833762E-2,3.258143E-4,-4.1452437E-3,-3.132941E-2,1.262467E-1,2.3042639E-4,-5.713108E-4,2.677782E-3,2.3168807E-3,-1.1365796E-3,-2.030887E-5,8.451113E-5],"categories":[],"categories_nodes":[],"categories_segments":[],"categories_sizes":[],"default_left":[0,0,0,0,0,0,0,0,0,0,0,0,0],"id":55,"left_children":[1,3,5,-1,7,9,11,-1,-1,-1,-1,-1,-1],"loss_changes":[2.5500143E0,2.934829E0,2.5927384E0,0E0,2.7946763E0,1.0920427E0,1.9503317E0,0E0,0E0,0E0,0E0,0E0,0E0],"parents":[2147483647,0,0,1,1,2,2,4,4,5,5,6,6],"right_children":[2,4,6,-1,8,10,12,-1,-1,-1,-1,-1,-1],"split_conditions":[-1.5776796E0,-2.8152627E-1,-1.5885141E0,-4.1452437E-3,2.6897795E0,1.5952824E0,3.1536463E-1,-5.713108E-4,2.677782E-3,2.3168807E-3,-1.1365796E-3,-2.030887E-5,8.451113E-5],"split_indices":[32,37,15,0,36,34,35,0,0,0,0,0,0],"split_type":[0,0,0,0,0,0,0,0,0,0,0,0,0],"sum_hessian":[2.18273E5,1.719E3,2.16554E5,4.7E1,1.672E3,1.63E2,2.16391E5,1.614E3,5.8E1,1.41E2,2.2E1,1.67511E5,4.888E4],"tree_param":{"num_deleted":"0","num_feature":"41","num_nodes":"13","size_leaf_vector":"1"}},{"base_weights":[-9.084512E-5,-3.8058586E-2,2.0709498E-4,-2.8018177E-2,-2.0064248E-1,9.264221E-2,5.211746E-5,-3.1170892E-4,-3.7224493E-3,-4.0252176E-3,-1.4217326E-3,4.8806786E-4,3.2331701E-3,-3.563365E-5,4.988966E-5],"categories":[],"categories_nodes":[],"categories_segments":[],"categories_sizes":[],"default_left":[0,0,0,0,0,0,0,0,0,0,0,0,0,0,0],"id":56,"left_children":[1,3,5,7,9,11,13,-1,-1,-1,-1,-1,-1,-1,-1],"loss_changes":[2.468979E0,2.7567778E0,3.0930145E0,2.4031262E0,7.2731876E-1,2.7365563E0,1.8116485E0,0E0,0E0,0E0,0E0,0E0,0E0,0E0,0E0],"parents":[2147483647,0,0,1,1,2,2,3,3,4,4,5,5,6,6],"right_children":[2,4,6,8,10,12,14,-1,-1,-1,-1,-1,-1,-1,-1],"split_conditions":[-1.5776796E0,-1.5217057E0,-1.5740056E0,8.555598E-2,5.9455633E0,-1.213424E-1,5.012126E-1,-3.1170892E-4,-3.7224493E-3,-4.0252176E-3,-1.4217326E-3,4.8806786E-4,3.2331701E-3,-3.563365E-5,4.988966E-5],"split_indices":[32,16,15,37,34,35,37,0,0,0,0,0,0,0,0],"split_type":[0,0,0,0,0,0,0,0,0,0,0,0,0,0,0],"sum_hessian":[2.18038E5,1.699E3,2.16339E5,1.601E3,9.8E1,3.61E2,2.15978E5,1.556E3,4.5E1,5.6E1,4.2E1,2.48E2,1.13E2,1.24057E5,9.1921E4],"tree_param":{"num_deleted":"0","num_feature":"41","num_nodes":"15","size_leaf_vector":"1"}},{"base_weights":[1.04937506E-4,-3.8227413E-2,4.1105124E-4,-3.8833176E-3,-3.0911803E-2,8.48226E-2,2.7149532E-4,-6.08067E-4,1.8975158E-3,5.543186E-4,2.586495E-3,-2.662346E-6,2.763435E-4],"categories":[],"categories_nodes":[],"categories_segments":[],"categories_sizes":[],"default_left":[0,0,0,0,0,0,0,0,0,0,0,0,0],"id":57,"left_children":[1,3,5,-1,7,9,11,-1,-1,-1,-1,-1,-1],"loss_changes":[2.5570037E0,2.8534982E0,2.5435822E0,0E0,2.8864527E0,1.5249949E0,1.8304328E0,0E0,0E0,0E0,0E0,0E0,0E0],"parents":[2147483647,0,0,1,1,2,2,4,4,5,5,6,6],"right_children":[2,4,6,-1,8,10,12,-1,-1,-1,-1,-1,-1],"split_conditions":[-1.5776796E0,-2.6788843E-1,-1.5737442E0,-3.8833176E-3,2.205837E0,-1.6839197E-1,1.9469421E0,-6.08067E-4,1.8975158E-3,5.543186E-4,2.586495E-3,-2.662346E-6,2.763435E-4],"split_indices":[32,37,16,0,36,35,37,0,0,0,0,0,0],"split_type":[0,0,0,0,0,0,0,0,0,0,0,0,0],"sum_hessian":[2.18125E5,1.726E3,2.16399E5,5.3E1,1.673E3,3.56E2,2.16043E5,1.569E3,1.04E2,2.37E2,1.19E2,2.10909E5,5.134E3],"tree_param":{"num_deleted":"0","num_feature":"41","num_nodes":"13","size_leaf_vector":"1"}},{"base_weights":[-1.0481429E-5,-3.608492E-2,2.740837E-4,-3.9220103E-3,-2.9698063E-2,8.4585495E-2,1.281798E-4,-3.3457813E-4,-3.5851721E-3,4.388325E-4,2.8387397E-3,-9.4719864E-5,1.8901206E-5],"categories":[],"categories_nodes":[],"categories_segments":[],"categories_sizes":[],"default_left":[0,0,0,0,0,0,0,0,0,0,0,0,0],"id":58,"left_children":[1,3,5,-1,7,9,11,-1,-1,-1,-1,-1,-1],"loss_changes":[2.2433898E0,2.5174136E0,2.6588173E0,0E0,2.4181638E0,2.2193923E0,1.6681441E0,0E0,0E0,0E0,0E0,0E0,0E0],"parents":[2147483647,0,0,1,1,2,2,4,4,5,5,6,6],"right_children":[2,4,6,-1,8,10,12,-1,-1,-1,-1,-1,-1],"split_conditions":[-1.5776796E0,-2.8152627E-1,-1.5740056E0,-3.9220103E-3,8.555598E-2,-1.406686E-1,-5.467756E-1,-3.3457813E-4,-3.5851721E-3,4.388325E-4,2.8387397E-3,-9.4719864E-5,1.8901206E-5],"split_indices":[32,37,15,0,37,35,37,0,0,0,0,0,0],"split_type":[0,0,0,0,0,0,0,0,0,0,0,0,0],"sum_hessian":[2.18305E5,1.71E3,2.16595E5,4.5E1,1.665E3,3.73E2,2.16222E5,1.615E3,5E1,2.5E2,1.23E2,3.2399E4,1.83823E5],"tree_param":{"num_deleted":"0","num_feature":"41","num_nodes":"13","size_leaf_vector":"1"}},{"base_weights":[-1.0064043E-4,-5.5197865E-4,1.8577544E-2,-2.4982356E-2,-2.544229E-4,-1.5837686E-1,2.347998E-2,8.831822E-5,-1.230961E-3,1.8106493E-3,-4.6970463E-6,-3.5660858E-3,-7.916579E-4,9.5050974E-4,1.7634872E-4],"categories":[],"categories_nodes":[],"categories_segments":[],"categories_sizes":[],"default_left":[0,0,0,0,0,0,0,0,0,0,0,0,0,0,0],"id":59,"left_children":[1,3,5,7,9,11,13,-1,-1,-1,-1,-1,-1,-1,-1],"loss_changes":[1.8385174E0,1.5473185E0,4.4562287E0,4.720998E0,1.7521236E0,1.2128236E0,2.3708785E0,0E0,0E0,0E0,0E0,0E0,0E0,0E0,0E0],"parents":[2147483647,0,0,1,1,2,2,3,3,4,4,5,5,6,6],"right_children":[2,4,6,8,10,12,14,-1,-1,-1,-1,-1,-1,-1,-1],"split_conditions":[1.9469421E0,-1.5492954E0,1.0251703E0,2.7827067E-2,-1.5740056E0,2.2948718E-1,1.1579419E0,8.831822E-5,-1.230961E-3,1.8106493E-3,-4.6970463E-6,-3.5660858E-3,-7.916579E-4,9.5050974E-4,1.7634872E-4],"split_indices":[37,2,12,35,15,20,13,0,0,0,0,0,0,0,0],"split_type":[0,0,0,0,0,0,0,0,0,0,0,0,0,0,0],"sum_hessian":[2.18228E5,2.13083E5,5.145E3,2.561E3,2.10522E5,1.38E2,5.007E3,1.681E3,8.8E2,1.13E2,2.10409E5,7.5E1,6.3E1,1.075E3,3.932E3],"tree_param":{"num_deleted":"0","num_feature":"41","num_nodes":"15","size_leaf_vector":"1"}},{"base_weights":[-1.11695235E-5,-2.5434861E-2,3.8937453E-4,-6.3932887E-3,-1.4539696E-1,6.407963E-2,1.2871395E-4,5.2155574E-5,-3.3751219E-3,-5.0323596E-3,-1.6236108E-3,4.2757574E-3,6.5959495E-4,-2.0478603E-3,3.2108003E-6],"categories":[],"categories_nodes":[],"categories_segments":[],"categories_sizes":[],"default_left":[0,0,0,0,0,0,0,0,0,0,0,0,0,0,0],"id":60,"left_children":[1,3,5,7,9,11,13,-1,-1,-1,-1,-1,-1,-1,-1],"loss_changes":[2.223304E0,7.7250347E0,3.5614233E0,6.563743E0,3.1122656E0,3.7537475E0,2.7294838E0,0E0,0E0,0E0,0E0,0E0,0E0,0E0,0E0],"parents":[2147483647,0,0,1,1,2,2,3,3,4,4,5,5,6,6],"right_children":[2,4,6,8,10,12,14,-1,-1,-1,-1,-1,-1,-1,-1],"split_conditions":[-1.5377713E0,9.92382E-2,-1.5132427E0,1.8809034E0,-5.5057925E-1,-1.506552E-1,-1.5018576E0,5.2155574E-5,-3.3751219E-3,-5.0323596E-3,-1.6236108E-3,4.2757574E-3,6.5959495E-4,-2.0478603E-3,3.2108003E-6],"split_indices":[32,37,32,35,36,37,9,0,0,0,0,0,0,0,0],"split_type":[0,0,0,0,0,0,0,0,0,0,0,0,0,0,0],"sum_hessian":[2.18165E5,3.386E3,2.14779E5,2.923E3,4.63E2,8.74E2,2.13905E5,2.799E3,1.24E2,6.7E1,3.96E2,6.6E1,8.08E2,1.38E2,2.13767E5],"tree_param":{"num_deleted":"0","num_feature":"41","num_nodes":"15","size_leaf_vector":"1"}},{"base_weights":[-9.898347E-5,-2.5626933E-2,3.0644782E-4,-7.556065E-3,-1.3627343E-1,5.2351583E-2,9.642434E-5,3.5097328E-5,-3.294829E-3,-5.3845705E-3,-1.5772859E-3,3.7772127E-3,5.3975015E-4,-1.6774536E-3,3.2158146E-6],"categories":[],"categories_nodes":[],"categories_segments":[],"categories_sizes":[],"default_left":[0,0,0,0,0,0,0,0,0,0,0,0,0,0,0],"id":61,"left_children":[1,3,5,7,9,11,13,-1,-1,-1,-1,-1,-1,-1,-1],"loss_changes":[2.258419E0,6.8111E0,2.342648E0,6.3874283E0,3.0943985E0,2.711109E0,3.03641E0,0E0,0E0,0E0,0E0,0E0,0E0,0E0,0E0],"parents":[2147483647,0,0,1,1,2,2,3,3,4,4,5,5,6,6],"right_children":[2,4,6,8,10,12,14,-1,-1,-1,-1,-1,-1,-1,-1],"split_conditions":[-1.5377713E0,9.92382E-2,-1.5132427E0,1.8809034E0,-6.383583E-1,-1.506552E-1,-1.5012065E0,3.5097328E-5,-3.294829E-3,-5.3845705E-3,-1.5772859E-3,3.7772127E-3,5.3975015E-4,-1.6774536E-3,3.2158146E-6],"split_indices":[32,37,32,35,36,37,11,0,0,0,0,0,0,0,0],"split_type":[0,0,0,0,0,0,0,0,0,0,0,0,0,0,0],"sum_hessian":[2.18046E5,3.411E3,2.14635E5,2.933E3,4.78E2,8.61E2,2.13774E5,2.805E3,1.28E2,5.1E1,4.27E2,5.9E1,8.02E2,2.29E2,2.13545E5],"tree_param":{"num_deleted":"0","num_feature":"41","num_nodes":"15","size_leaf_vector":"1"}},{"base_weights":[4.5848483E-6,-2.509472E-3,3.4417068E-3,-1.857155E-3,-8.705212E-2,-7.4969977E-3,7.558148E-3,-2.1425016E-5,-1.1165411E-3,-2.2490015E-3,-4.029408E-4,-1.2771563E-4,3.072499E-3,8.7517156E-4,1.0060069E-4],"categories":[],"categories_nodes":[],"categories_segments":[],"categories_sizes":[],"default_left":[0,0,0,0,0,0,0,0,0,0,0,0,0,0,0],"id":62,"left_children":[1,3,5,7,9,11,13,-1,-1,-1,-1,-1,-1,-1,-1],"loss_changes":[1.8842733E0,6.938671E0,4.1483426E0,3.6286645E0,3.8231072E0,6.850953E0,2.3373013E0,0E0,0E0,0E0,0E0,0E0,0E0,0E0,0E0],"parents":[2147483647,0,0,1,1,2,2,3,3,4,4,5,5,6,6],"right_children":[2,4,6,8,10,12,14,-1,-1,-1,-1,-1,-1,-1,-1],"split_conditions":[5.012126E-1,3.110386E0,-9.0310425E-1,4.5586514E0,1.3147802E0,2.403198E0,-9.0119785E-1,-2.1425016E-5,-1.1165411E-3,-2.2490015E-3,-4.029408E-4,-1.2771563E-4,3.072499E-3,8.7517156E-4,1.0060069E-4],"split_indices":[37,35,11,34,14,35,32,0,0,0,0,0,0,0,0],"split_type":[0,0,0,0,0,0,0,0,0,0,0,0,0,0,0],"sum_hessian":[2.18051E5,1.25925E5,9.2126E4,1.24962E5,9.63E2,2.5185E4,6.6941E4,1.24314E5,6.48E2,4.52E2,5.11E2,2.5042E4,1.43E2,8.41E2,6.61E4],"tree_param":{"num_deleted":"0","num_feature":"41","num_nodes":"15","size_leaf_vector":"1"}},{"base_weights":[-2.0237105E-5,-3.6645953E-2,2.6710783E-4,-2.7227284E-2,-1.9778349E-1,1.20100625E-1,1.7346976E-4,-2.9186232E-4,-3.5734528E-3,-3.852243E-3,-1.4412251E-3,2.2049155E-3,-1.1851562E-3,-5.7892976E-6,2.276679E-4],"categories":[],"categories_nodes":[],"categories_segments":[],"categories_sizes":[],"default_left":[0,0,0,0,0,0,0,0,0,0,0,0,0,0,0],"id":63,"left_children":[1,3,5,7,9,11,13,-1,-1,-1,-1,-1,-1,-1,-1],"loss_changes":[2.2975109E0,2.5621774E0,2.4200337E0,2.5094538E0,5.770135E-1,1.0573766E0,1.9013208E0,0E0,0E0,0E0,0E0,0E0,0E0,0E0,0E0],"parents":[2147483647,0,0,1,1,2,2,3,3,4,4,5,5,6,6],"right_children":[2,4,6,8,10,12,14,-1,-1,-1,-1,-1,-1,-1,-1],"split_conditions":[-1.5776796E0,-1.5217057E0,-1.5885141E0,8.555598E-2,5.9455633E0,1.9214412E0,1.5268934E0,-2.9186232E-4,-3.5734528E-3,-3.852243E-3,-1.4412251E-3,2.2049155E-3,-1.1851562E-3,-5.7892976E-6,2.276679E-4],"split_indices":[32,16,15,37,34,34,30,0,0,0,0,0,0,0,0],"split_type":[0,0,0,0,0,0,0,0,0,0,0,0,0,0,0],"sum_hessian":[2.18078E5,1.699E3,2.16379E5,1.606E3,9.3E1,1.68E2,2.16211E5,1.555E3,5.1E1,5.5E1,3.8E1,1.46E2,2.2E1,2.085E5,7.711E3],"tree_param":{"num_deleted":"0","num_feature":"41","num_nodes":"15","size_leaf_vector":"1"}},{"base_weights":[1.5760055E-5,-3.6737993E-2,3.067666E-4,-3.911248E-3,-3.0396491E-2,8.45268E-2,1.6993354E-4,-5.968052E-4,1.8635897E-3,8.0525957E-4,2.9216846E-3,-7.785141E-4,4.7372528E-6],"categories":[],"categories_nodes":[],"categories_segments":[],"categories_sizes":[],"default_left":[0,0,0,0,0,0,0,0,0,0,0,0,0],"id":64,"left_children":[1,3,5,-1,7,9,11,-1,-1,-1,-1,-1,-1],"loss_changes":[2.3315063E0,2.4871638E0,2.4893672E0,0E0,2.7578297E0,1.1683905E0,1.7832028E0,0E0,0E0,0E0,0E0,0E0,0E0],"parents":[2147483647,0,0,1,1,2,2,4,4,5,5,6,6],"right_children":[2,4,6,-1,8,10,12,-1,-1,-1,-1,-1,-1],"split_conditions":[-1.5776796E0,-2.8152627E-1,-1.5737442E0,-3.911248E-3,2.205837E0,-1.5728359E0,-1.543956E0,-5.968052E-4,1.8635897E-3,8.0525957E-4,2.9216846E-3,-7.785141E-4,4.7372528E-6],"split_indices":[32,37,16,0,36,13,14,0,0,0,0,0,0],"split_type":[0,0,0,0,0,0,0,0,0,0,0,0,0],"sum_hessian":[2.18212E5,1.712E3,2.165E5,4.5E1,1.667E3,3.5E2,2.1615E5,1.564E3,1.03E2,2.8E2,7E1,6.21E2,2.15529E5],"tree_param":{"num_deleted":"0","num_feature":"41","num_nodes":"13","size_leaf_vector":"1"}},{"base_weights":[-1.1560259E-4,-2.49223E-2,2.8157528E-4,-6.9766706E-3,-1.340672E-1,5.9829663E-2,4.315203E-5,3.3839493E-5,-3.1733238E-3,-5.2876538E-3,-1.5247543E-3,4.0274686E-3,6.238435E-4,-2.0181427E-3,1.8375001E-6],"categories":[],"categories_nodes":[],"categories_segments":[],"categories_sizes":[],"default_left":[0,0,0,0,0,0,0,0,0,0,0,0,0,0,0],"id":65,"left_children":[1,3,5,7,9,11,13,-1,-1,-1,-1,-1,-1,-1,-1],"loss_changes":[2.1516352E0,6.730881E0,3.0453346E0,5.794918E0,3.235176E0,3.1343408E0,2.4370599E0,0E0,0E0,0E0,0E0,0E0,0E0,0E0,0E0],"parents":[2147483647,0,0,1,1,2,2,3,3,4,4,5,5,6,6],"right_children":[2,4,6,8,10,12,14,-1,-1,-1,-1,-1,-1,-1,-1],"split_conditions":[-1.5377713E0,9.92382E-2,-1.5132427E0,1.8809034E0,-6.383583E-1,-1.506552E-1,-1.5018576E0,3.3839493E-5,-3.1733238E-3,-5.2876538E-3,-1.5247543E-3,4.0274686E-3,6.238435E-4,-2.0181427E-3,1.8375001E-6],"split_indices":[32,37,32,35,36,37,9,0,0,0,0,0,0,0,0],"split_type":[0,0,0,0,0,0,0,0,0,0,0,0,0,0,0],"sum_hessian":[2.18215E5,3.441E3,2.14774E5,2.956E3,4.85E2,8.55E2,2.13919E5,2.831E3,1.25E2,5.5E1,4.3E2,6.2E1,7.93E2,1.27E2,2.13792E5],"tree_param":{"num_deleted":"0","num_feature":"41","num_nodes":"15","size_leaf_vector":"1"}},{"base_weights":[4.401199E-5,-3.267994E-2,3.012673E-4,-2.3119472E-2,-1.8601322E-1,8.365575E-2,1.5514312E-4,-1.8353802E-3,-9.0384405E-5,-3.4631724E-3,-7.6504354E-4,8.551737E-4,4.846258E-3,-5.745996E-6,2.2126891E-4],"categories":[],"categories_nodes":[],"categories_segments":[],"categories_sizes":[],"default_left":[0,0,0,0,0,0,0,0,0,0,0,0,0,0,0],"id":66,"left_children":[1,3,5,7,9,11,13,-1,-1,-1,-1,-1,-1,-1,-1],"loss_changes":[1.8362974E0,2.4786217E0,2.6336603E0,2.7738807E0,6.5572214E-1,2.3229833E0,1.7812408E0,0E0,0E0,0E0,0E0,0E0,0E0,0E0,0E0],"parents":[2147483647,0,0,1,1,2,2,3,3,4,4,5,5,6,6],"right_children":[2,4,6,8,10,12,14,-1,-1,-1,-1,-1,-1,-1,-1],"split_conditions":[-1.5776796E0,-1.5217057E0,-1.5740056E0,-7.980856E-1,-1.4917701E0,-1.5255142E0,1.5275524E0,-1.8353802E-3,-9.0384405E-5,-3.4631724E-3,-7.6504354E-4,8.551737E-4,4.846258E-3,-5.745996E-6,2.2126891E-4],"split_indices":[32,16,15,36,31,11,10,0,0,0,0,0,0,0,0],"split_type":[0,0,0,0,0,0,0,0,0,0,0,0,0,0,0],"sum_hessian":[2.18382E5,1.701E3,2.16681E5,1.602E3,9.9E1,3.78E2,2.16303E5,2.26E2,1.376E3,7.1E1,2.8E1,3.44E2,3.4E1,2.08666E5,7.637E3],"tree_param":{"num_deleted":"0","num_feature":"41","num_nodes":"15","size_leaf_vector":"1"}},{"base_weights":[1.6811626E-5,-3.4441657E-2,2.8984106E-4,-3.6741348E-3,-2.7531164E-2,8.052902E-2,1.487924E-4,-3.0753386E-4,-3.6594872E-3,3.7620805E-4,2.7422982E-3,-3.2488915E-5,4.8971735E-5],"categories":[],"categories_nodes":[],"categories_segments":[],"categories_sizes":[],"default_left":[0,0,0,0,0,0,0,0,0,0,0,0,0],"id":67,"left_children":[1,3,5,-1,7,9,11,-1,-1,-1,-1,-1,-1],"loss_changes":[2.0470119E0,2.5461173E0,2.4404876E0,0E0,2.373059E0,2.2073147E0,1.6416844E0,0E0,0E0,0E0,0E0,0E0,0E0],"parents":[2147483647,0,0,1,1,2,2,4,4,5,5,6,6],"right_children":[2,4,6,-1,8,10,12,-1,-1,-1,-1,-1,-1],"split_conditions":[-1.5776796E0,-2.6788843E-1,-1.5740056E0,-3.6741348E-3,8.555598E-2,-1.406686E-1,5.012126E-1,-3.0753386E-4,-3.6594872E-3,3.7620805E-4,2.7422982E-3,-3.2488915E-5,4.8971735E-5],"split_indices":[32,37,15,0,37,35,37,0,0,0,0,0,0],"split_type":[0,0,0,0,0,0,0,0,0,0,0,0,0],"sum_hessian":[2.17817E5,1.71E3,2.16107E5,5.2E1,1.658E3,3.78E2,2.15729E5,1.612E3,4.6E1,2.51E2,1.27E2,1.23925E5,9.1804E4],"tree_param":{"num_deleted":"0","num_feature":"41","num_nodes":"13","size_leaf_vector":"1"}},{"base_weights":[6.8507516E-6,-2.3580413E-2,3.8232087E-4,-5.7454333E-3,-1.3289404E-1,6.17834E-2,1.389631E-4,1.6250935E-5,-3.1424658E-3,-8.325037E-4,-2.8096072E-3,4.0637096E-3,6.401464E-4,-1.9971144E-3,3.309454E-6],"categories":[],"categories_nodes":[],"categories_segments":[],"categories_sizes":[],"default_left":[0,0,0,0,0,0,0,0,0,0,0,0,0,0,0],"id":68,"left_children":[1,3,5,7,9,11,13,-1,-1,-1,-1,-1,-1,-1,-1],"loss_changes":[1.9298944E0,6.6472645E0,3.2036023E0,4.2331524E0,2.1403837E0,3.2617695E0,2.5588548E0,0E0,0E0,0E0,0E0,0E0,0E0,0E0,0E0],"parents":[2147483647,0,0,1,1,2,2,3,3,4,4,5,5,6,6],"right_children":[2,4,6,8,10,12,14,-1,-1,-1,-1,-1,-1,-1,-1],"split_conditions":[-1.5377713E0,9.92382E-2,-1.5132427E0,-1.4810809E0,-1.7011723E-1,-1.506552E-1,-1.5018576E0,1.6250935E-5,-3.1424658E-3,-8.325037E-4,-2.8096072E-3,4.0637096E-3,6.401464E-4,-1.9971144E-3,3.309454E-6],"split_indices":[32,37,32,15,21,37,9,0,0,0,0,0,0,0,0],"split_type":[0,0,0,0,0,0,0,0,0,0,0,0,0,0,0],"sum_hessian":[2.18084E5,3.414E3,2.1467E5,2.936E3,4.78E2,8.46E2,2.13824E5,2.843E3,9.3E1,2.11E2,2.67E2,6.4E1,7.82E2,1.36E2,2.13688E5],"tree_param":{"num_deleted":"0","num_feature":"41","num_nodes":"15","size_leaf_vector":"1"}},{"base_weights":[1.646686E-4,-3.412432E-2,4.3620003E-4,-3.6670994E-3,-2.8033728E-2,1.2250625E-1,3.4312502E-4,-5.36527E-4,2.84922E-3,6.034519E-4,2.819064E-3,-2.797394E-6,2.1819655E-4],"categories":[],"categories_nodes":[],"categories_segments":[],"categories_sizes":[],"default_left":[0,0,0,0,0,0,0,0,0,0,0,0,0],"id":69,"left_children":[1,3,5,-1,7,9,11,-1,-1,-1,-1,-1,-1],"loss_changes":[2.029306E0,2.242402E0,2.4514914E0,0E0,3.2331421E0,9.231777E-1,1.6899552E0,0E0,0E0,0E0,0E0,0E0,0E0],"parents":[2147483647,0,0,1,1,2,2,4,4,5,5,6,6],"right_children":[2,4,6,-1,8,10,12,-1,-1,-1,-1,-1,-1],"split_conditions":[-1.5776796E0,-2.8152627E-1,-1.5885141E0,-3.6670994E-3,2.6897795E0,-1.5696855E0,1.5268934E0,-5.36527E-4,2.84922E-3,6.034519E-4,2.819064E-3,-2.797394E-6,2.1819655E-4],"split_indices":[32,37,15,0,36,19,30,0,0,0,0,0,0],"split_type":[0,0,0,0,0,0,0,0,0,0,0,0,0],"sum_hessian":[2.18196E5,1.712E3,2.16484E5,4.6E1,1.666E3,1.64E2,2.1632E5,1.604E3,6.2E1,7.7E1,8.7E1,2.08674E5,7.646E3],"tree_param":{"num_deleted":"0","num_feature":"41","num_nodes":"13","size_leaf_vector":"1"}},{"base_weights":[-7.0984795E-5,-3.0832617E-2,1.7386819E-4,-2.4902798E-2,-4.937817E-3,1.7985757E-1,6.770564E-5,-4.7035664E-4,2.4600595E-3,5.0947876E-3,1.3768484E-3,-5.063359E-6,2.508583E-4],"categories":[],"categories_nodes":[],"categories_segments":[],"categories_sizes":[],"default_left":[0,0,0,0,0,0,0,0,0,0,0,0,0],"id":70,"left_children":[1,3,5,7,-1,9,11,-1,-1,-1,-1,-1,-1],"loss_changes":[1.644739E0,3.1156101E0,4.115539E0,2.3866124E0,0E0,1.8006935E0,1.535111E0,0E0,0E0,0E0,0E0,0E0,0E0],"parents":[2147483647,0,0,1,1,2,2,3,3,5,5,6,6],"right_children":[2,4,6,8,-1,10,12,-1,-1,-1,-1,-1,-1],"split_conditions":[-1.5696855E0,8.555598E-2,-1.5616627E0,1.9227667E0,-4.937817E-3,-4.537468E-1,1.9469421E0,-4.7035664E-4,2.4600595E-3,5.0947876E-3,1.3768484E-3,-5.063359E-6,2.508583E-4],"split_indices":[19,37,31,21,0,34,37,0,0,0,0,0,0],"split_type":[0,0,0,0,0,0,0,0,0,0,0,0,0],"sum_hessian":[2.18095E5,1.724E3,2.16371E5,1.692E3,3.2E1,1.27E2,2.16244E5,1.631E3,6.1E1,4.2E1,8.5E1,2.11127E5,5.117E3],"tree_param":{"num_deleted":"0","num_feature":"41","num_nodes":"13","size_leaf_vector":"1"}},{"base_weights":[-1.43046345E-5,-2.2116773E-2,3.350936E-4,-1.2560415E-2,-2.3080222E-1,5.453101E-2,1.2126643E-4,1.3322141E-3,-3.4207982E-4,-2.5713716E-3,-5.19549E-3,9.240247E-4,-4.898278E-3,-2.039026E-3,3.0776887E-6],"categories":[],"categories_nodes":[],"categories_segments":[],"categories_sizes":[],"default_left":[0,0,0,0,0,0,0,0,0,0,0,0,0,0,0],"id":71,"left_children":[1,3,5,7,9,11,13,-1,-1,-1,-1,-1,-1,-1,-1],"loss_changes":[1.6854118E0,6.756113E0,2.4840145E0,3.6614869E0,9.548006E-1,2.8675387E0,2.6665924E0,0E0,0E0,0E0,0E0,0E0,0E0,0E0,0E0],"parents":[2147483647,0,0,1,1,2,2,3,3,4,4,5,5,6,6],"right_children":[2,4,6,8,10,12,14,-1,-1,-1,-1,-1,-1,-1,-1],"split_conditions":[-1.5377713E0,1.8809034E0,-1.5132427E0,-3.2450852E-1,-1.5012065E0,2.1102238E0,-1.5018576E0,1.3322141E-3,-3.4207982E-4,-2.5713716E-3,-5.19549E-3,9.240247E-4,-4.898278E-3,-2.039026E-3,3.0776887E-6],"split_indices":[32,35,32,34,11,35,9,0,0,0,0,0,0,0,0],"split_type":[0,0,0,0,0,0,0,0,0,0,0,0,0,0,0],"sum_hessian":[2.18058E5,3.396E3,2.14662E5,3.248E3,1.48E2,8.42E2,2.1382E5,3.07E2,2.941E3,1.04E2,4.4E1,8.24E2,1.8E1,1.36E2,2.13684E5],"tree_param":{"num_deleted":"0","num_feature":"41","num_nodes":"15","size_leaf_vector":"1"}},{"base_weights":[-9.1279886E-5,-6.212223E-4,1.4484663E-2,-4.4013583E-4,-8.598585E-2,1.6550275E-2,-1.0591997E-1,-7.0228602E-6,3.50376E-3,-7.6251035E-4,-3.9466475E-3,4.980713E-4,4.6205958E-5,7.8799715E-4,-1.9386616E-3],"categories":[],"categories_nodes":[],"categories_segments":[],"categories_sizes":[],"default_left":[0,0,0,0,0,0,0,0,0,0,0,0,0,0,0],"id":72,"left_children":[1,3,5,7,9,11,13,-1,-1,-1,-1,-1,-1,-1,-1],"loss_changes":[1.6825486E0,3.2451627E0,1.8952758E0,2.0463114E0,2.7385387E0,1.7638667E0,5.595039E-1,0E0,0E0,0E0,0E0,0E0,0E0,0E0,0E0],"parents":[2147483647,0,0,1,1,2,2,3,3,4,4,5,5,6,6],"right_children":[2,4,6,8,10,12,14,-1,-1,-1,-1,-1,-1,-1,-1],"split_conditions":[1.5268934E0,1.5285077E0,3.6639252E0,1.5915325E0,2.3004403E0,-3.3032864E-2,7.351748E-1,-7.0228602E-6,3.50376E-3,-7.6251035E-4,-3.9466475E-3,4.980713E-4,4.6205958E-5,7.8799715E-4,-1.9386616E-3],"split_indices":[30,13,21,15,34,37,36,0,0,0,0,0,0,0,0],"split_type":[0,0,0,0,0,0,0,0,0,0,0,0,0,0,0],"sum_hessian":[2.1794E5,2.10299E5,7.641E3,2.09855E5,4.44E2,7.513E3,1.28E2,2.0982E5,3.5E1,3.76E2,6.8E1,3.247E3,4.266E3,1.8E1,1.1E2],"tree_param":{"num_deleted":"0","num_feature":"41","num_nodes":"15","size_leaf_vector":"1"}},{"base_weights":[1.00412326E-4,-4.3142115E-4,1.4684548E-2,-2.5463753E-4,-8.492899E-2,1.6902538E-2,-1.6527297E-3,-4.3290215E-6,3.808866E-3,-7.5922266E-4,-3.4315854E-3,4.85561E-4,6.467178E-5],"categories":[],"categories_nodes":[],"categories_segments":[],"categories_sizes":[],"default_left":[0,0,0,0,0,0,0,0,0,0,0,0,0],"id":73,"left_children":[1,3,5,7,9,11,-1,-1,-1,-1,-1,-1,-1],"loss_changes":[1.6920447E0,3.1365774E0,2.171463E0,2.2776139E0,2.143091E0,1.5366263E0,0E0,0E0,0E0,0E0,0E0,0E0,0E0],"parents":[2147483647,0,0,1,1,2,2,3,3,4,4,5,5],"right_children":[2,4,6,8,10,12,-1,-1,-1,-1,-1,-1,-1],"split_conditions":[1.5268934E0,1.5285077E0,3.6639252E0,1.5915325E0,1.9214412E0,-3.3032864E-2,-1.6527297E-3,-4.3290215E-6,3.808866E-3,-7.5922266E-4,-3.4315854E-3,4.85561E-4,6.467178E-5],"split_indices":[30,13,21,15,34,37,0,0,0,0,0,0,0],"split_type":[0,0,0,0,0,0,0,0,0,0,0,0,0],"sum_hessian":[2.18028E5,2.10353E5,7.675E3,2.09915E5,4.38E2,7.545E3,1.3E2,2.09882E5,3.3E1,3.6E2,7.8E1,3.262E3,4.283E3],"tree_param":{"num_deleted":"0","num_feature":"41","num_nodes":"13","size_leaf_vector":"1"}},{"base_weights":[-9.355613E-5,-2.302154E-2,2.717322E-4,-5.740455E-3,-1.2985204E-1,5.207693E-2,6.5773434E-5,-3.607276E-5,-6.279456E-3,-5.1691476E-3,-1.4702947E-3,4.0089665E-3,5.013018E-4,-1.505765E-3,2.6242358E-6],"categories":[],"categories_nodes":[],"categories_segments":[],"categories_sizes":[],"default_left":[0,0,0,0,0,0,0,0,0,0,0,0,0,0,0],"id":74,"left_children":[1,3,5,7,9,11,13,-1,-1,-1,-1,-1,-1,-1,-1],"loss_changes":[1.8293818E0,6.314529E0,2.28863E0,4.063367E0,3.06909E0,3.3289773E0,2.5097115E0,0E0,0E0,0E0,0E0,0E0,0E0,0E0,0E0],"parents":[2147483647,0,0,1,1,2,2,3,3,4,4,5,5,6,6],"right_children":[2,4,6,8,10,12,14,-1,-1,-1,-1,-1,-1,-1,-1],"split_conditions":[-1.5377713E0,9.92382E-2,-1.5132427E0,-1.4787102E0,-6.383583E-1,-1.506552E-1,-1.5012065E0,-3.607276E-5,-6.279456E-3,-5.1691476E-3,-1.4702947E-3,4.0089665E-3,5.013018E-4,-1.505765E-3,2.6242358E-6],"split_indices":[32,37,32,11,36,37,11,0,0,0,0,0,0,0,0],"split_type":[0,0,0,0,0,0,0,0,0,0,0,0,0,0,0],"sum_hessian":[2.18245E5,3.425E3,2.1482E5,2.949E3,4.76E2,8.49E2,2.13971E5,2.927E3,2.2E1,5.4E1,4.22E2,6.2E1,7.87E2,2.35E2,2.13736E5],"tree_param":{"num_deleted":"0","num_feature":"41","num_nodes":"15","size_leaf_vector":"1"}},{"base_weights":[7.463522E-5,-3.4346353E-4,1.7460935E-2,-2.0314414E-2,-1.9440315E-5,-1.5106915E-1,2.1936731E-2,-3.7021025E-5,-1.9396752E-3,3.520401E-3,-9.329176E-7,-3.5699531E-3,-7.2808785E-4,9.67631E-4,1.4361848E-4],"categories":[],"categories_nodes":[],"categories_segments":[],"categories_sizes":[],"default_left":[0,0,0,0,0,0,0,0,0,0,0,0,0,0,0],"id":75,"left_children":[1,3,5,7,9,11,13,-1,-1,-1,-1,-1,-1,-1,-1],"loss_changes":[1.5881095E0,1.3781902E0,3.8626704E0,6.7943425E0,2.2330184E0,1.2277281E0,2.6763103E0,0E0,0E0,0E0,0E0,0E0,0E0,0E0,0E0],"parents":[2147483647,0,0,1,1,2,2,3,3,4,4,5,5,6,6],"right_children":[2,4,6,8,10,12,14,-1,-1,-1,-1,-1,-1,-1,-1],"split_conditions":[1.9469421E0,-1.5377713E0,1.0251703E0,9.92382E-2,-1.5740056E0,2.2948718E-1,1.1607182E0,-3.7021025E-5,-1.9396752E-3,3.520401E-3,-9.329176E-7,-3.5699531E-3,-7.2808785E-4,9.67631E-4,1.4361848E-4],"split_indices":[37,32,12,37,15,20,16,0,0,0,0,0,0,0,0],"split_type":[0,0,0,0,0,0,0,0,0,0,0,0,0,0,0],"sum_hessian":[2.18315E5,2.13185E5,5.13E3,3.4E3,2.09785E5,1.32E2,4.998E3,2.937E3,4.63E2,3.8E1,2.09747E5,6.8E1,6.4E1,1.07E3,3.928E3],"tree_param":{"num_deleted":"0","num_feature":"41","num_nodes":"15","size_leaf_vector":"1"}},{"base_weights":[3.0172657E-4,-2.1078805E-3,3.6080368E-3,-1.4849685E-3,-8.122958E-2,-7.7591324E-3,7.5114532E-3,-1.628399E-5,-1.0575032E-3,-2.1308153E-3,-4.0458725E-4,-1.3734988E-4,2.8464044E-3,8.933659E-5,4.47808E-4],"categories":[],"categories_nodes":[],"categories_segments":[],"categories_sizes":[],"default_left":[0,0,0,0,0,0,0,0,0,0,0,0,0,0,0],"id":76,"left_children":[1,3,5,7,9,11,13,-1,-1,-1,-1,-1,-1,-1,-1],"loss_changes":[1.7392019E0,6.2171445E0,4.083646E0,3.2803466E0,3.3997283E0,7.8472166E0,2.2072685E0,0E0,0E0,0E0,0E0,0E0,0E0,0E0,0E0],"parents":[2147483647,0,0,1,1,2,2,3,3,4,4,5,5,6,6],"right_children":[2,4,6,8,10,12,14,-1,-1,-1,-1,-1,-1,-1,-1],"split_conditions":[5.012126E-1,3.110386E0,-9.174841E-1,4.5586514E0,1.3160148E0,1.9908042E0,1.4870971E0,-1.628399E-5,-1.0575032E-3,-2.1308153E-3,-4.0458725E-4,-1.3734988E-4,2.8464044E-3,8.933659E-5,4.47808E-4],"split_indices":[37,35,12,34,13,35,38,0,0,0,0,0,0,0,0],"split_type":[0,0,0,0,0,0,0,0,0,0,0,0,0,0,0],"sum_hessian":[2.1829E5,1.26256E5,9.2034E4,1.25271E5,9.85E2,2.3521E4,6.8513E4,1.24623E5,6.48E2,4.45E2,5.4E2,2.3332E4,1.89E2,6.463E4,3.883E3],"tree_param":{"num_deleted":"0","num_feature":"41","num_nodes":"15","size_leaf_vector":"1"}},{"base_weights":[-1.3477709E-5,-5.065191E-4,1.3482404E-2,-3.2610906E-4,-8.542122E-2,1.5039146E-2,-8.219425E-2,-5.375486E-6,3.418018E-3,-7.344636E-4,-3.5593088E-3,3.7159893E-4,3.1018822E-5,-2.531336E-3,-1.2024381E-4],"categories":[],"categories_nodes":[],"categories_segments":[],"categories_sizes":[],"default_left":[0,0,0,0,0,0,0,0,0,0,0,0,0,0,0],"id":77,"left_children":[1,3,5,7,9,11,13,-1,-1,-1,-1,-1,-1,-1,-1],"loss_changes":[1.4506046E0,3.218296E0,1.1404463E0,2.0556128E0,2.452618E0,1.0149416E0,8.128259E-1,0E0,0E0,0E0,0E0,0E0,0E0,0E0,0E0],"parents":[2147483647,0,0,1,1,2,2,3,3,4,4,5,5,6,6],"right_children":[2,4,6,8,10,12,14,-1,-1,-1,-1,-1,-1,-1,-1],"split_conditions":[1.5268934E0,1.5285077E0,3.655547E0,1.5915325E0,1.9214412E0,1.8030914E0,-1.0975387E-1,-5.375486E-6,3.418018E-3,-7.344636E-4,-3.5593088E-3,3.7159893E-4,3.1018822E-5,-2.531336E-3,-1.2024381E-4],"split_indices":[30,13,20,15,34,15,22,0,0,0,0,0,0,0,0],"split_type":[0,0,0,0,0,0,0,0,0,0,0,0,0,0,0],"sum_hessian":[2.18132E5,2.10449E5,7.683E3,2.10004E5,4.45E2,7.561E3,1.22E2,2.09967E5,3.7E1,3.65E2,8E1,4.183E3,3.378E3,5.4E1,6.8E1],"tree_param":{"num_deleted":"0","num_feature":"41","num_nodes":"15","size_leaf_vector":"1"}},{"base_weights":[4.7363294E-5,-4.5382147E-4,1.384296E-2,-3.381134E-4,-1.2599146E-1,1.586424E-2,-1.0608541E-1,-9.454246E-6,3.0471626E-4,-9.917087E-4,-4.0370002E-3,3.9812637E-4,2.5496587E-5,6.5149384E-4,-1.9495446E-3],"categories":[],"categories_nodes":[],"categories_segments":[],"categories_sizes":[],"default_left":[0,0,0,0,0,0,0,0,0,0,0,0,0,0,0],"id":78,"left_children":[1,3,5,7,9,11,13,-1,-1,-1,-1,-1,-1,-1,-1],"loss_changes":[1.509867E0,3.0506139E0,1.8504399E0,1.3793912E0,1.660039E0,1.2103137E0,5.309688E-1,0E0,0E0,0E0,0E0,0E0,0E0,0E0,0E0],"parents":[2147483647,0,0,1,1,2,2,3,3,4,4,5,5,6,6],"right_children":[2,4,6,8,10,12,14,-1,-1,-1,-1,-1,-1,-1,-1],"split_conditions":[1.5268934E0,1.5511159E0,3.6639252E0,2.2715929E0,2.3004403E0,1.8030914E0,7.351748E-1,-9.454246E-6,3.0471626E-4,-9.917087E-4,-4.0370002E-3,3.9812637E-4,2.5496587E-5,6.5149384E-4,-1.9495446E-3],"split_indices":[30,14,21,21,34,15,36,0,0,0,0,0,0,0,0],"split_type":[0,0,0,0,0,0,0,0,0,0,0,0,0,0,0],"sum_hessian":[2.18245E5,2.1059E5,7.655E3,2.10397E5,1.93E2,7.529E3,1.26E2,2.07375E5,3.022E3,1.4E2,5.3E1,4.162E3,3.367E3,1.9E1,1.07E2],"tree_param":{"num_deleted":"0","num_feature":"41","num_nodes":"15","size_leaf_vector":"1"}},{"base_weights":[1.3746497E-4,-3.774472E-4,1.4221963E-2,-3.0465715E-4,-1.4484936E-1,3.1814173E-2,1.208109E-3,-4.1106538E-5,4.393659E-5,-1.1533059E-3,-5.4242476E-3,4.975459E-3,4.3581193E-4,-7.7621854E-4,1.3118814E-4],"categories":[],"categories_nodes":[],"categories_segments":[],"categories_sizes":[],"default_left":[0,0,0,0,0,0,0,0,0,0,0,0,0,0,0],"id":79,"left_children":[1,3,5,7,9,11,13,-1,-1,-1,-1,-1,-1,-1,-1],"loss_changes":[1.581119E0,2.2008946E0,1.7582325E0,1.7481287E0,1.5319371E0,1.9548612E0,1.8673488E0,0E0,0E0,0E0,0E0,0E0,0E0,0E0,0E0],"parents":[2147483647,0,0,1,1,2,2,3,3,4,4,5,5,6,6],"right_children":[2,4,6,8,10,12,14,-1,-1,-1,-1,-1,-1,-1,-1],"split_conditions":[1.5268934E0,1.5519438E0,-3.3032864E-2,5.012126E-1,2.205837E0,-1.5050082E0,1.6882367E0,-4.1106538E-5,4.393659E-5,-1.1533059E-3,-5.4242476E-3,4.975459E-3,4.3581193E-4,-7.7621854E-4,1.3118814E-4],"split_indices":[30,31,37,37,36,36,15,0,0,0,0,0,0,0,0],"split_type":[0,0,0,0,0,0,0,0,0,0,0,0,0,0,0],"sum_hessian":[2.1789E5,2.10201E5,7.689E3,2.10096E5,1.05E2,3.267E3,4.422E3,1.19544E5,9.0552E4,8.2E1,2.3E1,2E1,3.247E3,5.52E2,3.87E3],"tree_param":{"num_deleted":"0","num_feature":"41","num_nodes":"15","size_leaf_vector":"1"}},{"base_weights":[8.754565E-5,-3.1290613E-2,3.3633076E-4,7.205476E-2,-4.4165783E-2,1.2922266E-1,2.4100597E-4,4.2956634E-3,1.3788942E-4,-2.9857266E-3,-4.9472466E-4,5.2397023E-4,2.8126359E-3,-1.9602629E-5,7.445478E-5],"categories":[],"categories_nodes":[],"categories_segments":[],"categories_sizes":[],"default_left":[0,0,0,0,0,0,0,0,0,0,0,0,0,0,0],"id":80,"left_children":[1,3,5,7,9,11,13,-1,-1,-1,-1,-1,-1,-1,-1],"loss_changes":[1.7003937E0,2.279242E0,2.64975E0,2.6132717E0,2.4943435E0,9.256687E-1,1.6637803E0,0E0,0E0,0E0,0E0,0E0,0E0,0E0,0E0],"parents":[2147483647,0,0,1,1,2,2,3,3,4,4,5,5,6,6],"right_children":[2,4,6,8,10,12,14,-1,-1,-1,-1,-1,-1,-1,-1],"split_conditions":[-1.5776796E0,-1.4613065E0,-1.5885141E0,-1.6094595E-1,-1.8824235E-1,-1.5683297E0,2.4610382E-1,4.2956634E-3,1.3788942E-4,-2.9857266E-3,-4.9472466E-4,5.2397023E-4,2.8126359E-3,-1.9602629E-5,7.445478E-5],"split_indices":[32,39,15,37,37,30,35,0,0,0,0,0,0,0,0],"split_type":[0,0,0,0,0,0,0,0,0,0,0,0,0,0,0],"sum_hessian":[2.18081E5,1.713E3,2.16368E5,1.89E2,1.524E3,1.59E2,2.16209E5,4.1E1,1.48E2,9.1E1,1.433E3,6.5E1,9.4E1,1.6305E5,5.3159E4],"tree_param":{"num_deleted":"0","num_feature":"41","num_nodes":"15","size_leaf_vector":"1"}},{"base_weights":[4.5615652E-5,-2.7758326E-2,2.6608584E-4,-1.228014E-1,-1.3460607E-2,1.1969738E-1,1.7663062E-4,-5.2567676E-4,-3.6445053E-3,-4.2604795E-5,-2.4884022E-3,2.187214E-3,-1.4656305E-3,-1.765872E-5,6.467619E-5],"categories":[],"categories_nodes":[],"categories_segments":[],"categories_sizes":[],"default_left":[0,0,0,0,0,0,0,0,0,0,0,0,0,0,0],"id":81,"left_children":[1,3,5,7,9,11,13,-1,-1,-1,-1,-1,-1,-1,-1],"loss_changes":[1.3350799E0,2.318675E0,2.3038154E0,2.4365566E0,2.4548135E0,1.0786712E0,1.2748897E0,0E0,0E0,0E0,0E0,0E0,0E0,0E0,0E0],"parents":[2147483647,0,0,1,1,2,2,3,3,4,4,5,5,6,6],"right_children":[2,4,6,8,10,12,14,-1,-1,-1,-1,-1,-1,-1,-1],"split_conditions":[-1.5776796E0,-7.980856E-1,-1.5885141E0,2.855274E-1,-1.543956E0,8.02883E-1,2.4610382E-1,-5.2567676E-4,-3.6445053E-3,-4.2604795E-5,-2.4884022E-3,2.187214E-3,-1.4656305E-3,-1.765872E-5,6.467619E-5],"split_indices":[32,36,15,34,14,35,35,0,0,0,0,0,0,0,0],"split_type":[0,0,0,0,0,0,0,0,0,0,0,0,0,0,0],"sum_hessian":[2.18092E5,1.713E3,2.16379E5,2.23E2,1.49E3,1.61E2,2.16218E5,1.33E2,9E1,1.397E3,9.3E1,1.42E2,1.9E1,1.63061E5,5.3157E4],"tree_param":{"num_deleted":"0","num_feature":"41","num_nodes":"15","size_leaf_vector":"1"}},{"base_weights":[-3.8264934E-6,-3.241102E-2,2.4843414E-4,-3.5357666E-3,-2.617452E-2,8.021899E-2,1.1042638E-4,-4.8976386E-4,2.420181E-3,4.278365E-4,2.7369666E-3,2.0161574E-3,8.772787E-7],"categories":[],"categories_nodes":[],"categories_segments":[],"categories_sizes":[],"default_left":[0,0,0,0,0,0,0,0,0,0,0,0,0],"id":82,"left_children":[1,3,5,-1,7,9,11,-1,-1,-1,-1,-1,-1],"loss_changes":[1.7869838E0,2.1884627E0,2.3856645E0,0E0,2.3139908E0,2.0168693E0,1.4930558E0,0E0,0E0,0E0,0E0,0E0,0E0],"parents":[2147483647,0,0,1,1,2,2,4,4,5,5,6,6],"right_children":[2,4,6,-1,8,10,12,-1,-1,-1,-1,-1,-1],"split_conditions":[-1.5776796E0,-2.8152627E-1,-1.5740056E0,-3.5357666E-3,2.6897795E0,-1.213424E-1,-1.5616627E0,-4.8976386E-4,2.420181E-3,4.278365E-4,2.7369666E-3,2.0161574E-3,8.772787E-7],"split_indices":[32,37,15,0,36,35,31,0,0,0,0,0,0],"split_type":[0,0,0,0,0,0,0,0,0,0,0,0,0],"sum_hessian":[2.18329E5,1.688E3,2.16641E5,4.8E1,1.64E3,3.72E2,2.16269E5,1.58E3,6E1,2.53E2,1.19E2,7.8E1,2.16191E5],"tree_param":{"num_deleted":"0","num_feature":"41","num_nodes":"13","size_leaf_vector":"1"}},{"base_weights":[5.5840414E-5,-6.5242173E-3,1.0987198E-3,-5.9742536E-3,-2.8120744E-1,-3.778273E-3,2.984382E-3,-9.340885E-5,9.6348696E-4,-5.5876924E-3,-3.4511022E-4,5.4934423E-4,-8.6212654E-5,8.905744E-4,3.5171408E-5],"categories":[],"categories_nodes":[],"categories_segments":[],"categories_sizes":[],"default_left":[0,0,0,0,0,0,0,0,0,0,0,0,0,0,0],"id":83,"left_children":[1,3,5,7,9,11,13,-1,-1,-1,-1,-1,-1,-1,-1],"loss_changes":[1.497303E0,4.489583E0,1.7325315E0,9.040973E-1,1.5224195E0,4.6224914E0,4.5316334E0,0E0,0E0,0E0,0E0,0E0,0E0,0E0,0E0],"parents":[2147483647,0,0,1,1,2,2,3,3,4,4,5,5,6,6],"right_children":[2,4,6,8,10,12,14,-1,-1,-1,-1,-1,-1,-1,-1],"split_conditions":[-5.6252074E-1,8.151106E-1,-9.0305525E-1,3.223837E0,9.327041E-1,-8.367282E-3,-9.0119785E-1,-9.340885E-5,9.6348696E-4,-5.5876924E-3,-3.4511022E-4,5.4934423E-4,-8.6212654E-5,8.905744E-4,3.5171408E-5],"split_indices":[37,30,13,36,14,37,32,0,0,0,0,0,0,0,0],"split_type":[0,0,0,0,0,0,0,0,0,0,0,0,0,0,0],"sum_hessian":[2.18247E5,2.9849E4,1.88398E5,2.979E4,5.9E1,5.2522E4,1.35876E5,2.9617E4,1.73E2,4.2E1,1.7E1,2.564E3,4.9958E4,1.333E3,1.34543E5],"tree_param":{"num_deleted":"0","num_feature":"41","num_nodes":"15","size_leaf_vector":"1"}},{"base_weights":[1.6363803E-5,-2.939081E-2,2.4527957E-4,-9.339838E-2,1.094238E-2,-6.8060425E-3,1.1910235E-3,-2.1581866E-3,-4.5751221E-4,8.590949E-5,4.973447E-3,-9.156146E-6,-2.1277898E-4,-5.019227E-5,4.19077E-5],"categories":[],"categories_nodes":[],"categories_segments":[],"categories_sizes":[],"default_left":[0,0,0,0,0,0,0,0,0,0,0,0,0,0,0],"id":84,"left_children":[1,3,5,7,9,11,13,-1,-1,-1,-1,-1,-1,-1,-1],"loss_changes":[1.4671195E0,4.351756E0,1.4436983E0,2.18636E0,1.6980453E0,1.2276838E0,1.4841843E0,0E0,0E0,0E0,0E0,0E0,0E0,0E0,0E0],"parents":[2147483647,0,0,1,1,2,2,3,3,4,4,5,5,6,6],"right_children":[2,4,6,8,10,12,14,-1,-1,-1,-1,-1,-1,-1,-1],"split_conditions":[-3.2683504E0,5.4936314E-1,-5.8673114E-1,1.2687234E0,1.6421398E0,-8.057469E-1,-9.174841E-1,-2.1581866E-3,-4.5751221E-4,8.590949E-5,4.973447E-3,-9.156146E-6,-2.1277898E-4,-5.019227E-5,4.19077E-5],"split_indices":[21,37,37,14,1,18,12,0,0,0,0,0,0,0,0],"split_type":[0,0,0,0,0,0,0,0,0,0,0,0,0,0,0],"sum_hessian":[2.18225E5,1.683E3,2.16542E5,6.51E2,1.032E3,2.56E4,1.90942E5,3.46E2,3.05E2,1.017E3,1.5E1,1.4263E4,1.1337E4,5.0821E4,1.40121E5],"tree_param":{"num_deleted":"0","num_feature":"41","num_nodes":"15","size_leaf_vector":"1"}},{"base_weights":[-2.2778664E-4,-2.12163E-2,1.0656228E-4,-7.968932E-3,-1.4894238E-1,5.802981E-2,-1.265888E-4,9.498472E-6,-2.9940433E-3,-5.8815507E-3,-1.7816706E-3,3.719246E-3,6.100874E-4,-1.4821027E-3,-2.6889728E-7],"categories":[],"categories_nodes":[],"categories_segments":[],"categories_sizes":[],"default_left":[0,0,0,0,0,0,0,0,0,0,0,0,0,0,0],"id":85,"left_children":[1,3,5,7,9,11,13,-1,-1,-1,-1,-1,-1,-1,-1],"loss_changes":[1.5329928E0,5.785049E0,2.905071E0,5.287573E0,2.1419792E0,2.7318115E0,2.3398678E0,0E0,0E0,