{"learner":{"attributes":{"best_iteration":"3","best_score":"0.11739764740405899","scikit_learn":"{\"_estimator_type\": \"regressor\"}"},"feature_names":[],"feature_types":[],"gradient_booster":{"model":{"cats":{"enc":[],"feature_segments":[],"sorted_idx":[]},"gbtree_model_param":{"num_parallel_tree":"1","num_trees":"34"},"iteration_indptr":[0,1,2,3,4,5,6,7,8,9,10,11,12,13,14,15,16,17,18,19,20,21,22,23,24,25,26,27,28,29,30,31,32,33,34],"tree_info":[0,0,0,0,0,0,0,0,0,0,0,0,0,0,0,0,0,0,0,0,0,0,0,0,0,0,0,0,0,0,0,0,0,0],"trees":[{"base_weights":[-2.776199E-4,7.533966E-2,-1.1848431E-3,6.1277907E-2,3.1404537E-3,-1.5347922E-1,-8.126237E-4,7.055442E-2,-2.0491553E-3,-9.90954E-4,-2.8091855E-3,2.617405E-5,-1.0856377E-2,1.074716E-1,-1.20470395E-4,-6.7987524E-2,-7.7152294E-3,5.8433146E-4,1.7271844E-3,-9.16402E-4,1.2304293E-3,4.5771323E-4,-1.0975882E-4],"categories":[],"categories_nodes":[],"categories_segments":[],"categories_sizes":[],"default_left":[0,0,0,0,0,0,0,0,0,0,0,0,0,0,0,0,0,0,0,0,0,0,0],"id":0,"left_children":[1,3,5,7,-1,9,11,13,-1,-1,-1,-1,15,17,-1,19,21,-1,-1,-1,-1,-1,-1],"loss_changes":[8.467301E0,4.364829E0,6.9114475E0,3.39744E0,0E0,1.7540317E0,4.0067186E0,4.079852E0,0E0,0E0,0E0,0E0,5.3682375E0,2.6023054E0,0E0,5.3490896E0,3.790402E0,0E0,0E0,0E0,0E0,0E0,0E0],"parents":[2147483647,0,0,1,1,2,2,3,3,5,5,6,6,7,7,12,12,13,13,15,15,16,16],"right_children":[2,4,6,8,-1,10,12,14,-1,-1,-1,-1,16,18,-1,20,22,-1,-1,-1,-1,-1,-1],"split_conditions":[-1.5776796E0,-1.5217954E0,-1.5737442E0,2.273435E0,3.1404537E-3,-9.8592594E-2,2.927046E-1,-1.5836674E0,-2.0491553E-3,-9.90954E-4,-2.8091855E-3,2.617405E-5,1.9749852E-1,-1.440724E-1,-1.20470395E-4,2.5018404E0,4.9297523E-1,5.8433146E-4,1.7271844E-3,-9.16402E-4,1.2304293E-3,4.5771323E-4,-1.0975882E-4],"split_indices":[32,16,16,21,0,35,35,14,0,0,0,0,37,35,0,35,37,0,0,0,0,0,0],"split_type":[0,0,0,0,0,0,0,0,0,0,0,0,0,0,0,0,0,0,0,0,0,0,0],"sum_hessian":[1.23417E5,1.454E3,1.21963E5,1.378E3,7.6E1,2.88E2,1.21675E5,1.336E3,4.2E1,1.98E2,9E1,9.1739E4,2.9936E4,9.19E2,4.17E2,1.55E3,2.8386E4,4.81E2,4.38E2,1.414E3,1.36E2,1.386E3,2.7E4],"tree_param":{"num_deleted":"0","num_feature":"41","num_nodes":"23","size_leaf_vector":"1"}},{"base_weights":[2.0705315E-4,1.0054385E-1,-6.035748E-4,1.1809465E-1,-8.9335024E-2,3.7861534E-4,-3.271343E-4,6.31962E-2,1.8312355E-3,-2.3585258E-3,1.4991597E-3,-6.386834E-2,7.030863E-4,-1.7825632E-3,1.064265E-3,9.483818E-4,-9.264534E-2,4.999894E-2,3.128587E-4,9.323029E-5,-1.561829E-3,-1.1617617E-3,8.5718324E-4,2.8484199E-5,-9.190271E-5],"categories":[],"categories_nodes":[],"categories_segments":[],"categories_sizes":[],"default_left":[0,0,0,0,0,0,0,0,0,0,0,0,0,0,0,0,0,0,0,0,0,0,0,0,0],"id":1,"left_children":[1,3,5,7,9,11,-1,13,-1,-1,-1,15,17,-1,-1,-1,19,21,23,-1,-1,-1,-1,-1,-1],"loss_changes":[1.0080449E1,3.408125E0,3.6481876E0,2.6239214E0,3.0250666E0,2.4819193E0,0E0,4.1735735E0,0E0,0E0,0E0,2.7142684E0,2.2785003E0,0E0,0E0,0E0,2.821549E0,4.641269E0,2.4994943E0,0E0,0E0,0E0,0E0,0E0,0E0],"parents":[2147483647,0,0,1,1,2,2,3,3,4,4,5,5,7,7,11,11,12,12,16,16,17,17,18,18],"right_children":[2,4,6,8,10,12,-1,14,-1,-1,-1,16,18,-1,-1,-1,20,22,24,-1,-1,-1,-1,-1,-1],"split_conditions":[-1.5850338E0,2.2201972E0,1.9525869E0,-1.5251186E-1,4.00475E0,-1.5737442E0,-3.271343E-4,-9.758617E-2,1.8312355E-3,-2.3585258E-3,1.4991597E-3,-1.5843182E0,-1.5431086E0,-1.7825632E-3,1.064265E-3,9.483818E-4,-1.582283E0,-5.317356E-1,3.773811E-1,9.323029E-5,-1.561829E-3,-1.1617617E-3,8.5718324E-4,2.8484199E-5,-9.190271E-5],"split_indices":[19,36,37,35,4,16,0,37,0,0,0,1,2,0,0,0,13,35,35,0,0,0,0,0,0],"split_type":[0,0,0,0,0,0,0,0,0,0,0,0,0,0,0,0,0,0,0,0,0,0,0,0,0],"sum_hessian":[1.23907E5,9.84E2,1.22923E5,9.04E2,8E1,1.19061E5,3.862E3,4.6E2,4.44E2,5.1E1,2.9E1,5.89E2,1.18472E5,5.9E1,4.01E2,9E1,4.99E2,9.21E2,1.17551E5,1.77E2,3.22E2,1.45E2,7.76E2,9.2987E4,2.4564E4],"tree_param":{"num_deleted":"0","num_feature":"41","num_nodes":"25","size_leaf_vector":"1"}},{"base_weights":[-2.7080052E-4,8.8835336E-2,-9.901284E-4,2.4608972E-2,1.5089056E-1,1.9823238E-3,-1.0966009E-2,-9.33012E-2,7.1907404E-4,1.0808842E-3,2.4763686E-3,-7.746696E-4,2.3902E-3,1.8193084E-1,-1.1982209E-2,3.4171E-2,-2.7259646E-3,8.693519E-6,1.39928255E-2,3.7462852E-4,2.978597E-3,-6.639383E-2,-9.637394E-3,-1.4030351E-3,1.5585567E-3,1.5965059E-4,-2.5627469E-3,-1.0851412E-3,1.162066E-3,3.2039352E-3,-1.0859096E-4],"categories":[],"categories_nodes":[],"categories_segments":[],"categories_sizes":[],"default_left":[0,0,0,0,0,0,0,0,0,0,0,0,0,0,0,0,0,0,0,0,0,0,0,0,0,0,0,0,0,0,0],"id":2,"left_children":[1,3,5,7,9,11,13,15,-1,-1,-1,-1,17,19,21,23,-1,-1,25,-1,-1,27,29,-1,-1,-1,-1,-1,-1,-1,-1],"loss_changes":[7.934092E0,3.9145088E0,3.6417608E0,2.5918598E0,1.806838E0,2.8935103E0,5.5448914E0,2.9439785E0,0E0,0E0,0E0,0E0,1.7156018E0,2.0495377E0,3.572577E0,1.7773451E0,0E0,0E0,3.0283098E0,0E0,0E0,7.3936315E0,4.980916E0,0E0,0E0,0E0,0E0,0E0,0E0,0E0,0E0],"parents":[2147483647,0,0,1,1,2,2,3,3,4,4,5,5,6,6,7,7,12,12,13,13,14,14,15,15,18,18,21,21,22,22],"right_children":[2,4,6,8,10,12,14,16,-1,-1,-1,-1,18,20,22,24,-1,-1,26,-1,-1,28,30,-1,-1,-1,-1,-1,-1,-1,-1],"split_conditions":[-1.5850338E0,-1.6045755E0,3.4808493E-1,-3.9708441E-1,-1.5251186E-1,-1.5737442E0,-1.556717E0,7.8933567E-1,7.1907404E-4,1.0808842E-3,2.4763686E-3,-7.746696E-4,4.4124112E-1,5.7180023E-1,1.18377134E-1,-1.440724E-1,-2.7259646E-3,8.693519E-6,1.8385937E0,3.7462852E-4,2.978597E-3,2.317932E0,-1.526259E0,-1.4030351E-3,1.5585567E-3,1.5965059E-4,-2.5627469E-3,-1.0851412E-3,1.162066E-3,3.2039352E-3,-1.0859096E-4],"split_indices":[19,30,35,22,35,16,2,36,0,0,0,0,34,35,37,35,0,0,37,0,0,35,8,0,0,0,0,0,0,0,0],"split_type":[0,0,0,0,0,0,0,0,0,0,0,0,0,0,0,0,0,0,0,0,0,0,0,0,0,0,0,0,0,0,0],"sum_hessian":[1.23776E5,9.82E2,1.22794E5,4.89E2,4.93E2,9.461E4,2.8184E4,1.28E2,3.61E2,3.22E2,1.71E2,5.03E2,9.4107E4,1.39E2,2.8045E4,7.6E1,5.2E1,8.2892E4,1.1215E4,6.1E1,7.8E1,1.148E3,2.6897E4,3E1,4.6E1,1.1178E4,3.7E1,9.57E2,1.91E2,4.2E1,2.6855E4],"tree_param":{"num_deleted":"0","num_feature":"41","num_nodes":"31","size_leaf_vector":"1"}},{"base_weights":[-3.1845414E-4,8.2742274E-2,-9.736874E-4,1.077037E-2,1.5966961E-3,-3.660935E-5,-3.1369884E-4,1.5052706E-3,-2.642194E-2,-7.451092E-2,3.3571856E-4,-1.1066814E-1,4.626879E-4,-4.8174035E-2,-3.0040431E-3,4.372346E-2,-8.471015E-6,1.2590946E-4,-2.1159311E-3,-7.3048554E-4,2.4252846E-3,2.859185E-3,2.7124112E-4,-3.316862E-4,5.009388E-6],"categories":[],"categories_nodes":[],"categories_segments":[],"categories_sizes":[],"default_left":[0,0,0,0,0,0,0,0,0,0,0,0,0,0,0,0,0,0,0,0,0,0,0,0,0],"id":3,"left_children":[1,3,5,7,-1,9,-1,-1,11,13,15,17,-1,19,-1,21,23,-1,-1,-1,-1,-1,-1,-1,-1],"loss_changes":[6.7189384E0,4.688567E0,3.279901E0,2.3664646E0,0E0,3.2902207E0,0E0,0E0,2.288063E0,3.11081E0,1.7632174E0,1.9274707E0,0E0,3.199213E0,0E0,3.743102E0,1.7576133E0,0E0,0E0,0E0,0E0,0E0,0E0,0E0,0E0],"parents":[2147483647,0,0,1,1,2,2,3,3,5,5,8,8,9,9,10,10,11,11,13,13,15,15,16,16],"right_children":[2,4,6,8,-1,10,-1,-1,12,14,16,18,-1,20,-1,22,24,-1,-1,-1,-1,-1,-1,-1,-1],"split_conditions":[-1.5850338E0,-1.6045755E0,1.9525869E0,-6.5627885E-1,1.5966961E-3,-1.5740056E0,-3.1369884E-4,1.5052706E-3,2.3009917E-2,-1.541325E0,-2.201316E-1,-5.248403E-1,4.626879E-4,9.4236776E-2,-3.0040431E-3,-1.3730584E0,-2.3356762E0,1.2590946E-4,-2.1159311E-3,-7.3048554E-4,2.4252846E-3,2.859185E-3,2.7124112E-4,-3.316862E-4,5.009388E-6],"split_indices":[19,30,37,36,0,15,0,0,22,30,37,20,0,37,0,8,22,0,0,0,0,0,0,0,0],"split_type":[0,0,0,0,0,0,0,0,0,0,0,0,0,0,0,0,0,0,0,0,0,0,0,0,0],"sum_hessian":[1.23448E5,9.57E2,1.22491E5,4.69E2,4.88E2,1.18611E5,3.88E3,9.8E1,3.71E2,5.81E2,1.1803E5,1.66E2,2.05E2,5.26E2,5.5E1,9.2E2,1.1711E5,7.3E1,9.3E1,4.96E2,3E1,5.9E1,8.61E2,1.765E3,1.15345E5],"tree_param":{"num_deleted":"0","num_feature":"41","num_nodes":"25","size_leaf_vector":"1"}},{"base_weights":[4.278778E-5,7.253717E-2,-8.1372913E-4,5.7127133E-2,3.1069966E-3,-2.3018995E-3,-5.1779696E-4,6.788706E-2,-2.1113476E-3,3.6903165E-4,-2.7668586E-2,1.0174965E-1,-9.270236E-3,9.607499E-6,-2.866267E-2,1.3423867E-3,-3.2371524E-4,4.028016E-4,1.4419921E-3,-7.962283E-4,5.4551376E-4,2.13042E-3,-3.7309108E-4],"categories":[],"categories_nodes":[],"categories_segments":[],"categories_sizes":[],"default_left":[0,0,0,0,0,0,0,0,0,0,0,0,0,0,0,0,0,0,0,0,0,0,0],"id":4,"left_children":[1,3,5,7,-1,-1,9,11,-1,13,15,17,19,-1,21,-1,-1,-1,-1,-1,-1,-1,-1],"loss_changes":[7.6852264E0,4.7439947E0,7.8156185E0,3.8762035E0,0E0,0E0,2.9416492E0,3.4435563E0,0E0,1.8406456E0,1.7164516E0,1.9385033E0,1.6676538E0,0E0,3.2505903E0,0E0,0E0,0E0,0E0,0E0,0E0,0E0,0E0],"parents":[2147483647,0,0,1,1,2,2,3,3,6,6,7,7,9,9,10,10,11,11,12,12,14,14],"right_children":[2,4,6,8,-1,-1,10,12,-1,14,16,18,20,-1,22,-1,-1,-1,-1,-1,-1,-1,-1],"split_conditions":[-1.5776796E0,-1.5217954E0,-1.5836337E0,2.273435E0,3.1069966E-3,-2.3018995E-3,1.9525869E0,-1.5836674E0,-2.1113476E-3,2.080303E0,1.0193597E0,-9.758617E-2,-1.797925E-2,9.607499E-6,-1.5070814E0,1.3423867E-3,-3.2371524E-4,4.028016E-4,1.4419921E-3,-7.962283E-4,5.4551376E-4,2.13042E-3,-3.7309108E-4],"split_indices":[32,16,15,21,0,0,37,14,0,21,31,37,37,0,15,0,0,0,0,0,0,0,0],"split_type":[0,0,0,0,0,0,0,0,0,0,0,0,0,0,0,0,0,0,0,0,0,0,0],"sum_hessian":[1.2374E5,1.436E3,1.22304E5,1.353E3,8.3E1,1.58E2,1.22146E5,1.305E3,4.8E1,1.18291E5,3.855E3,9.05E2,4E2,1.16156E5,2.135E3,6.2E1,3.793E3,3.22E2,5.83E2,1.91E2,2.09E2,5.1E1,2.084E3],"tree_param":{"num_deleted":"0","num_feature":"41","num_nodes":"23","size_leaf_vector":"1"}},{"base_weights":[3.2680182E-5,7.344477E-2,-8.5593923E-4,5.7744678E-2,3.2207435E-3,-1.4500992E-1,-4.81498E-4,6.648298E-2,-1.9971507E-3,-8.293449E-4,-2.7265942E-3,2.2475207E-3,-1.0936674E-2,5.8086555E-2,3.0474851E-3,7.940497E-3,-1.5767815E-3,1.1870839E-1,-1.1756817E-2,1.5931047E-3,4.294318E-4,2.3319364E-5,2.1378887E-4,-1.4738421E-3,-1.4228125E-5,-5.752416E-4,2.486183E-3,-1.8499473E-3,-1.12688824E-4],"categories":[],"categories_nodes":[],"categories_segments":[],"categories_sizes":[],"default_left":[0,0,0,0,0,0,0,0,0,0,0,0,0,0,0,0,0,0,0,0,0,0,0,0,0,0,0,0,0],"id":5,"left_children":[1,3,5,7,-1,9,11,13,-1,-1,-1,15,17,19,-1,21,23,25,27,-1,-1,-1,-1,-1,-1,-1,-1,-1,-1],"loss_changes":[8.063289E0,5.170403E0,6.589147E0,3.1122565E0,0E0,2.176159E0,3.4757411E0,2.3500395E0,0E0,0E0,0E0,2.1033318E0,2.6928751E0,2.0768685E0,0E0,2.7190723E0,1.8731371E0,3.299257E0,4.632599E0,0E0,0E0,0E0,0E0,0E0,0E0,0E0,0E0,0E0,0E0],"parents":[2147483647,0,0,1,1,2,2,3,3,5,5,6,6,7,7,11,11,12,12,13,13,15,15,16,16,17,17,18,18],"right_children":[2,4,6,8,-1,10,12,14,-1,-1,-1,16,18,20,-1,22,24,26,28,-1,-1,-1,-1,-1,-1,-1,-1,-1,-1],"split_conditions":[-1.5776796E0,-1.5217954E0,-1.5737442E0,2.273435E0,3.2207435E-3,-1.440724E-1,4.391395E-1,1.2636803E0,-1.9971507E-3,-8.293449E-4,-2.7265942E-3,-9.056171E-1,-1.5377713E0,-7.8869385E-1,3.0474851E-3,-4.0190586E-1,-9.4721866E-1,6.275187E-1,-1.4939431E0,1.5931047E-3,4.294318E-4,2.3319364E-5,2.1378887E-4,-1.4738421E-3,-1.4228125E-5,-5.752416E-4,2.486183E-3,-1.8499473E-3,-1.12688824E-4],"split_indices":[32,16,16,21,0,35,35,35,0,0,0,16,32,36,0,35,40,35,12,0,0,0,0,0,0,0,0,0,0],"split_type":[0,0,0,0,0,0,0,0,0,0,0,0,0,0,0,0,0,0,0,0,0,0,0,0,0,0,0,0,0],"sum_hessian":[1.23573E5,1.469E3,1.22104E5,1.386E3,8.3E1,3.07E2,1.21797E5,1.345E3,4.1E1,2.02E2,1.05E2,9.6591E4,2.5206E4,1.307E3,3.8E1,3.881E4,5.7781E4,1.5E2,2.5056E4,1.99E2,1.108E3,2.6393E4,1.2417E4,9E1,5.7691E4,6.2E1,8.8E1,1.65E2,2.4891E4],"tree_param":{"num_deleted":"0","num_feature":"41","num_nodes":"29","size_leaf_vector":"1"}},{"base_weights":[-7.5997064E-5,6.910082E-2,-9.095517E-4,5.1788677E-2,3.3972405E-3,-1.3995372E-3,-5.946738E-4,6.0644284E-2,-1.967167E-3,5.900874E-3,-3.991922E-3,9.478086E-2,-1.2544566E-4,-4.8852415E-4,1.9357407E-2,-2.4738747E-3,-1.9207349E-2,4.1774253E-4,1.4919004E-3,1.5134662E-5,-5.6765415E-4,1.4471834E-3,1.8665212E-4,-3.776378E-4,-1.8019346E-5,-6.2835665E-4,-9.696477E-5],"categories":[],"categories_nodes":[],"categories_segments":[],"categories_sizes":[],"default_left":[0,0,0,0,0,0,0,0,0,0,0,0,0,0,0,0,0,0,0,0,0,0,0,0,0,0,0],"id":6,"left_children":[1,3,5,7,-1,-1,9,11,-1,13,15,17,-1,19,21,23,25,-1,-1,-1,-1,-1,-1,-1,-1,-1,-1],"loss_changes":[7.1351686E0,6.2419195E0,5.038664E0,3.0196166E0,0E0,0E0,2.692244E0,3.3413186E0,0E0,3.6024916E0,1.849627E0,2.2704678E0,0E0,2.8830824E0,2.7776213E0,1.871446E0,2.9204032E0,0E0,0E0,0E0,0E0,0E0,0E0,0E0,0E0,0E0,0E0],"parents":[2147483647,0,0,1,1,2,2,3,3,6,6,7,7,9,9,10,10,11,11,13,13,14,14,15,15,16,16],"right_children":[2,4,6,8,-1,-1,10,12,-1,14,16,18,-1,20,22,24,26,-1,-1,-1,-1,-1,-1,-1,-1,-1,-1],"split_conditions":[-1.5776796E0,-1.5217954E0,-1.5737442E0,2.273435E0,3.3972405E-3,-1.3995372E-3,-9.158947E-1,-1.5836674E0,-1.967167E-3,-1.1662873E0,1.0633525E0,-1.6045755E0,-1.2544566E-4,-1.2116337E0,-1.1617329E0,-9.045229E-1,1.1580304E0,4.1774253E-4,1.4919004E-3,1.5134662E-5,-5.6765415E-4,1.4471834E-3,1.8665212E-4,-3.776378E-4,-1.8019346E-5,-6.2835665E-4,-9.696477E-5],"split_indices":[32,16,16,21,0,0,14,14,0,0,13,30,0,16,14,32,16,0,0,0,0,0,0,0,0,0,0],"split_type":[0,0,0,0,0,0,0,0,0,0,0,0,0,0,0,0,0,0,0,0,0,0,0,0,0,0,0],"sum_hessian":[1.23733E5,1.464E3,1.22269E5,1.38E3,8.4E1,2.84E2,1.21985E5,1.337E3,4.3E1,4.1887E4,8.0098E4,9.07E2,4.3E2,2.8407E4,1.348E4,7.2842E4,7.256E3,4.18E2,4.89E2,2.7425E4,9.82E2,1.91E2,1.3289E4,1.66E3,7.1182E4,1.451E3,5.805E3],"tree_param":{"num_deleted":"0","num_feature":"41","num_nodes":"27","size_leaf_vector":"1"}},{"base_weights":[-3.125403E-4,6.87864E-2,-1.1308038E-3,5.1593114E-2,3.1851176E-3,-1.3728582E-3,-8.183484E-4,6.171699E-2,-2.1467803E-3,2.5455148E-3,-1.0337969E-2,-6.3930206E-2,7.757199E-2,5.6825254E-2,2.3294226E-5,-6.9604196E-2,-7.833971E-3,-2.8287E-3,-2.7535069E-5,1.1260809E-3,7.220202E-5,-1.5469794E-3,1.02833E-3,-1.0017152E-3,1.008073E-3,2.7075227E-4,-1.2450945E-4],"categories":[],"categories_nodes":[],"categories_segments":[],"categories_sizes":[],"default_left":[0,0,0,0,0,0,0,0,0,0,0,0,0,0,0,0,0,0,0,0,0,0,0,0,0,0,0],"id":7,"left_children":[1,3,5,7,-1,-1,9,11,-1,13,15,17,19,21,-1,23,25,-1,-1,-1,-1,-1,-1,-1,-1,-1,-1],"loss_changes":[6.9968734E0,5.6107755E0,4.89643E0,3.6068223E0,0E0,0E0,3.9077768E0,2.6642828E0,0E0,1.7176254E0,4.7225714E0,1.8821669E0,2.354497E0,4.827838E0,0E0,5.3386483E0,3.9728255E0,0E0,0E0,0E0,0E0,0E0,0E0,0E0,0E0,0E0,0E0],"parents":[2147483647,0,0,1,1,2,2,3,3,6,6,7,7,9,9,10,10,11,11,12,12,13,13,15,15,16,16],"right_children":[2,4,6,8,-1,-1,10,12,-1,14,16,18,20,22,-1,24,26,-1,-1,-1,-1,-1,-1,-1,-1,-1,-1],"split_conditions":[-1.5776796E0,-1.5217954E0,-1.5737442E0,2.273435E0,3.1851176E-3,-1.3728582E-3,2.4291569E-1,-1.4456867E0,-2.1467803E-3,-1.5490308E0,1.18377134E-1,-1.5942171E-1,-1.5850338E0,-5.317356E-1,2.3294226E-5,2.317932E0,-9.5903987E-1,-2.8287E-3,-2.7535069E-5,1.1260809E-3,7.220202E-5,-1.5469794E-3,1.02833E-3,-1.0017152E-3,1.008073E-3,2.7075227E-4,-1.2450945E-4],"split_indices":[32,16,16,21,0,0,35,39,0,32,37,37,19,35,0,35,6,0,0,0,0,0,0,0,0,0,0],"split_type":[0,0,0,0,0,0,0,0,0,0,0,0,0,0,0,0,0,0,0,0,0,0,0,0,0,0,0],"sum_hessian":[1.23739E5,1.439E3,1.223E5,1.35E3,8.9E1,2.88E2,1.22012E5,1.305E3,4.5E1,9.0159E4,3.1853E4,1.43E2,1.162E3,5.7E2,8.9589E4,1.281E3,3.0572E4,2.6E1,1.17E2,8.25E2,3.37E2,9E1,4.8E2,1.117E3,1.64E2,3.192E3,2.738E4],"tree_param":{"num_deleted":"0","num_feature":"41","num_nodes":"27","size_leaf_vector":"1"}},{"base_weights":[1.6005308E-4,7.896979E-2,-4.5127736E-4,9.571429E-2,-2.3432442E-3,2.592803E-3,-9.029729E-3,7.75047E-2,4.041719E-3,-5.6618482E-2,2.9325446E-3,1.5281108E-3,-9.700907E-3,1.9275361E-3,5.409376E-2,1.3896966E-3,-8.620874E-2,5.369957E-2,2.7121712E-5,-4.092866E-2,-7.0078466E-3,-7.7894125E-5,1.171145E-3,7.3094585E-4,-1.1985892E-3,-1.1683609E-3,9.5644046E-4,-6.20442E-4,5.4967264E-4,4.377098E-4,-1.061563E-4],"categories":[],"categories_nodes":[],"categories_segments":[],"categories_sizes":[],"default_left":[0,0,0,0,0,0,0,0,0,0,0,0,0,0,0,0,0,0,0,0,0,0,0,0,0,0,0,0,0,0,0],"id":8,"left_children":[1,3,5,7,-1,9,11,13,-1,15,17,-1,19,-1,21,-1,23,25,-1,27,29,-1,-1,-1,-1,-1,-1,-1,-1,-1,-1],"loss_changes":[5.972886E0,4.9830966E0,3.2123568E0,4.445771E0,0E0,1.8274366E0,3.3194835E0,2.0193028E0,0E0,2.9798281E0,1.729809E0,0E0,2.6953187E0,0E0,2.4997027E0,0E0,1.9485443E0,4.062209E0,0E0,4.160721E0,4.2679825E0,0E0,0E0,0E0,0E0,0E0,0E0,0E0,0E0,0E0,0E0],"parents":[2147483647,0,0,1,1,2,2,3,3,5,5,6,6,7,7,9,9,10,10,12,12,14,14,16,16,17,17,19,19,20,20],"right_children":[2,4,6,8,-1,10,12,14,-1,16,18,-1,20,-1,22,-1,24,26,-1,28,30,-1,-1,-1,-1,-1,-1,-1,-1,-1,-1],"split_conditions":[-1.586236E0,1.7000153E0,2.4291569E-1,1.4658592E0,-2.3432442E-3,-1.5737442E0,-1.5544193E0,-7.961872E-1,4.041719E-3,-1.5835751E0,-1.5394791E0,1.5281108E-3,-1.1664163E0,1.9275361E-3,-1.6045755E0,1.3896966E-3,-1.0373348E0,-5.252086E-1,2.7121712E-5,2.1734993E0,-9.62465E-1,-7.7894125E-5,1.171145E-3,7.3094585E-4,-1.1985892E-3,-1.1683609E-3,9.5644046E-4,-6.20442E-4,5.4967264E-4,4.377098E-4,-1.061563E-4],"split_indices":[10,21,35,35,0,16,3,36,0,12,13,0,3,0,30,0,38,35,0,35,6,0,0,0,0,0,0,0,0,0,0],"split_type":[0,0,0,0,0,0,0,0,0,0,0,0,0,0,0,0,0,0,0,0,0,0,0,0,0,0,0,0,0,0,0],"sum_hessian":[1.2394E5,9.45E2,1.22995E5,9.01E2,4.4E1,9.0785E4,3.221E4,8.58E2,4.3E1,5.09E2,9.0276E4,1.32E2,3.2078E4,1.46E2,7.12E2,6.5E1,4.44E2,6.57E2,8.9619E4,2.536E3,2.9542E4,3.44E2,3.68E2,6.3E1,3.81E2,1.16E2,5.41E2,2.136E3,4E2,1.718E3,2.7824E4],"tree_param":{"num_deleted":"0","num_feature":"41","num_nodes":"31","size_leaf_vector":"1"}},{"base_weights":[-3.172488E-4,8.428428E-2,-9.947394E-4,2.4249572E-2,1.4393005E-1,2.94962E-6,-1.8817486E-2,-1.1388019E-1,7.3968664E-2,1.0360905E-3,2.4311217E-3,4.803612E-5,-3.063631E-4,3.1717194E-4,-2.7739045E-3,2.4466801E-2,1.9740167E-3,1.5446483E-3,-5.060304E-4],"categories":[],"categories_nodes":[],"categories_segments":[],"categories_sizes":[],"default_left":[0,0,0,0,0,0,0,0,0,0,0,0,0,0,0,0,0,0,0],"id":9,"left_children":[1,3,5,7,9,-1,11,13,15,-1,-1,-1,-1,-1,-1,17,-1,-1,-1],"loss_changes":[7.094004E0,3.4867768E0,2.7853706E0,3.5201454E0,1.7259321E0,0E0,1.919596E0,2.9623404E0,2.030157E0,0E0,0E0,0E0,0E0,0E0,0E0,2.424786E0,0E0,0E0,0E0],"parents":[2147483647,0,0,1,1,2,2,3,3,4,4,6,6,7,7,8,8,15,15],"right_children":[2,4,6,8,10,-1,12,14,16,-1,-1,-1,-1,-1,-1,18,-1,-1,-1],"split_conditions":[-1.5850338E0,-1.6045755E0,1.0309759E0,-4.1683987E-1,-1.6115257E-1,2.94962E-6,2.5583705E-1,7.8933567E-1,5.342835E-1,1.0360905E-3,2.4311217E-3,4.803612E-5,-3.063631E-4,3.1717194E-4,-2.7739045E-3,-6.6363335E-1,1.9740167E-3,1.5446483E-3,-5.060304E-4],"split_indices":[19,30,11,22,35,0,35,36,36,0,0,0,0,0,0,36,0,0,0],"split_type":[0,0,0,0,0,0,0,0,0,0,0,0,0,0,0,0,0,0,0],"sum_hessian":[1.23761E5,9.74E2,1.22787E5,4.92E2,4.82E2,1.14612E5,8.175E3,1.27E2,3.65E2,3.25E2,1.57E2,2.46E3,5.715E3,6.8E1,5.9E1,2.61E2,1.04E2,9.4E1,1.67E2],"tree_param":{"num_deleted":"0","num_feature":"41","num_nodes":"19","size_leaf_vector":"1"}},{"base_weights":[1.1168541E-4,6.661677E-2,-6.77923E-4,5.0511267E-2,3.0611237E-3,-1.338445E-1,-3.4328044E-4,6.0615346E-2,-2.576468E-3,-7.685002E-4,-2.8557864E-3,2.4176592E-3,-1.0688898E-2,2.6258022E-2,1.2215156E-3,7.5752777E-3,-1.1325871E-5,-6.1202557E-3,-3.0645058E-2,-2.833181E-4,7.8867644E-4,1.2000512E-5,1.8982352E-4,-4.713826E-4,-2.6349588E-5,-7.09247E-4,-1.5973732E-4],"categories":[],"categories_nodes":[],"categories_segments":[],"categories_sizes":[],"default_left":[0,0,0,0,0,0,0,0,0,0,0,0,0,0,0,0,0,0,0,0,0,0,0,0,0,0,0],"id":10,"left_children":[1,3,5,7,-1,9,11,13,-1,-1,-1,15,17,19,-1,21,-1,23,25,-1,-1,-1,-1,-1,-1,-1,-1],"loss_changes":[6.495041E0,5.043986E0,5.444727E0,4.176056E0,0E0,2.359861E0,3.4829261E0,2.4514408E0,0E0,0E0,0E0,1.7298745E0,2.3397558E0,2.1175582E0,0E0,2.5771656E0,0E0,2.9112542E0,2.68743E0,0E0,0E0,0E0,0E0,0E0,0E0,0E0,0E0],"parents":[2147483647,0,0,1,1,2,2,3,3,5,5,6,6,7,7,11,11,12,12,13,13,15,15,17,17,18,18],"right_children":[2,4,6,8,-1,10,12,14,-1,-1,-1,16,18,20,-1,22,-1,24,26,-1,-1,-1,-1,-1,-1,-1,-1],"split_conditions":[-1.5776796E0,1.8240138E0,-1.5737442E0,2.273435E0,3.0611237E-3,-8.016154E-2,4.2315283E-1,1.4108617E-2,-2.576468E-3,-7.685002E-4,-2.8557864E-3,-9.056171E-1,1.0309759E0,-7.876221E-2,1.2215156E-3,-5.0454026E-1,-1.1325871E-5,-1.1987884E0,1.1580304E0,-2.833181E-4,7.8867644E-4,1.2000512E-5,1.8982352E-4,-4.713826E-4,-2.6349588E-5,-7.09247E-4,-1.5973732E-4],"split_indices":[32,35,16,21,0,35,35,35,0,0,0,16,11,20,0,35,0,19,16,0,0,0,0,0,0,0,0],"split_type":[0,0,0,0,0,0,0,0,0,0,0,0,0,0,0,0,0,0,0,0,0,0,0,0,0,0,0],"sum_hessian":[1.23654E5,1.442E3,1.22212E5,1.355E3,8.7E1,2.97E2,1.21915E5,1.317E3,3.8E1,2.14E2,8.3E1,9.6238E4,2.5677E4,8.16E2,5.01E2,3.88E4,5.7438E4,2.0904E4,4.773E3,3.9E2,4.26E2,2.3878E4,1.4922E4,1.805E3,1.9099E4,1.429E3,3.344E3],"tree_param":{"num_deleted":"0","num_feature":"41","num_nodes":"27","size_leaf_vector":"1"}},{"base_weights":[1.6551604E-4,6.283558E-2,-5.859246E-4,4.685743E-2,3.1912015E-3,-2.0621857E-3,-3.2280886E-4,7.4586466E-2,-1.4323094E-4,2.476578E-3,-8.939721E-3,2.6012404E-2,1.3114093E-3,4.8333406E-3,-5.538651E-3,-6.4141415E-2,-6.48938E-3,7.8420475E-5,2.7868005E-3,4.4186414E-5,4.260951E-4,-1.6918124E-4,2.8679513E-5,2.0846556E-4,-1.1885474E-3,2.6612595E-4,-1.0688814E-4],"categories":[],"categories_nodes":[],"categories_segments":[],"categories_sizes":[],"default_left":[0,0,0,0,0,0,0,0,0,0,0,0,0,0,0,0,0,0,0,0,0,0,0,0,0,0,0],"id":11,"left_children":[1,3,5,7,-1,-1,9,11,-1,13,15,17,-1,19,21,23,25,-1,-1,-1,-1,-1,-1,-1,-1,-1,-1],"loss_changes":[5.807982E0,5.4171457E0,6.206676E0,2.3197346E0,0E0,0E0,2.9359603E0,2.2206035E0,0E0,1.7355745E0,4.0323553E0,2.1254768E0,0E0,1.6802453E0,1.7892233E0,5.097721E0,3.2309074E0,0E0,0E0,0E0,0E0,0E0,0E0,0E0,0E0,0E0,0E0],"parents":[2147483647,0,0,1,1,2,2,3,3,6,6,7,7,9,9,10,10,11,11,13,13,14,14,15,15,16,16],"right_children":[2,4,6,8,-1,-1,10,12,-1,14,16,18,-1,20,22,24,26,-1,-1,-1,-1,-1,-1,-1,-1,-1,-1],"split_conditions":[-1.5776796E0,-1.5217954E0,-1.5836337E0,-1.5836674E0,3.1912015E-3,-2.0621857E-3,2.927046E-1,-1.6039101E0,-1.4323094E-4,-5.345508E-1,1.18377134E-1,1.932518E0,1.3114093E-3,-5.4549086E-1,7.3215085E-1,-1.4068233E0,-9.590295E-1,7.8420475E-5,2.7868005E-3,4.4186414E-5,4.260951E-4,-1.6918124E-4,2.8679513E-5,2.0846556E-4,-1.1885474E-3,2.6612595E-4,-1.0688814E-4],"split_indices":[32,16,15,14,0,0,35,11,0,14,37,35,0,13,37,19,5,0,0,0,0,0,0,0,0,0,0],"split_type":[0,0,0,0,0,0,0,0,0,0,0,0,0,0,0,0,0,0,0,0,0,0,0,0,0,0,0],"sum_hessian":[1.233E5,1.452E3,1.21848E5,1.371E3,8.1E1,1.56E2,1.21692E5,9.38E2,4.33E2,9.1856E4,2.9836E4,4.78E2,4.6E2,7.0988E4,2.0868E4,1.258E3,2.8578E4,4.52E2,2.6E1,6.9674E4,1.314E3,9.223E3,1.1645E4,4.59E2,7.99E2,2.905E3,2.5673E4],"tree_param":{"num_deleted":"0","num_feature":"41","num_nodes":"27","size_leaf_vector":"1"}},{"base_weights":[-2.5487976E-4,6.9152854E-2,-1.0793516E-3,5.4068077E-2,3.064572E-3,-1.2933615E-1,-7.5735763E-4,6.374285E-2,-2.1907592E-3,-6.951918E-4,-2.7412511E-3,2.6054648E-3,-1.0254634E-2,9.894791E-2,-1.10368695E-4,5.240903E-5,-5.616161E-3,-6.959714E-2,-7.711708E-3,4.912004E-4,1.5965974E-3,-1.7048356E-4,3.4247973E-5,-1.0227349E-3,1.0354839E-3,2.4919852E-4,-1.2046186E-4],"categories":[],"categories_nodes":[],"categories_segments":[],"categories_sizes":[],"default_left":[0,0,0,0,0,0,0,0,0,0,0,0,0,0,0,0,0,0,0,0,0,0,0,0,0,0,0],"id":12,"left_children":[1,3,5,7,-1,9,11,13,-1,-1,-1,15,17,19,-1,-1,21,23,25,-1,-1,-1,-1,-1,-1,-1,-1],"loss_changes":[7.0841794E0,4.6640406E0,5.050613E0,3.5753646E0,0E0,2.360207E0,3.898487E0,3.47994E0,0E0,0E0,0E0,1.7280138E0,4.8109417E0,2.378621E0,0E0,0E0,1.8396795E0,5.942806E0,3.4733849E0,0E0,0E0,0E0,0E0,0E0,0E0,0E0,0E0],"parents":[2147483647,0,0,1,1,2,2,3,3,5,5,6,6,7,7,11,11,12,12,13,13,16,16,17,17,18,18],"right_children":[2,4,6,8,-1,10,12,14,-1,-1,-1,16,18,20,-1,-1,22,24,26,-1,-1,-1,-1,-1,-1,-1,-1],"split_conditions":[-1.5776796E0,-1.5217954E0,-1.5737442E0,2.273435E0,3.064572E-3,-9.8592594E-2,2.4291569E-1,-1.5836674E0,-2.1907592E-3,-6.951918E-4,-2.7412511E-3,-5.345508E-1,1.18377134E-1,-1.5251186E-1,-1.10368695E-4,5.240903E-5,7.3215085E-1,2.317932E0,-9.5903987E-1,4.912004E-4,1.5965974E-3,-1.7048356E-4,3.4247973E-5,-1.0227349E-3,1.0354839E-3,2.4919852E-4,-1.2046186E-4],"split_indices":[32,16,16,21,0,35,35,14,0,0,0,14,37,35,0,0,37,35,6,0,0,0,0,0,0,0,0],"split_type":[0,0,0,0,0,0,0,0,0,0,0,0,0,0,0,0,0,0,0,0,0,0,0,0,0,0,0],"sum_hessian":[1.23787E5,1.444E3,1.22343E5,1.362E3,8.2E1,2.97E2,1.22046E5,1.32E3,4.2E1,2.08E2,8.9E1,9.0136E4,3.191E4,8.93E2,4.27E2,7.0228E4,1.9908E4,1.301E3,3.0609E4,4.5E2,4.43E2,9.125E3,1.0783E4,1.125E3,1.76E2,3.19E3,2.7419E4],"tree_param":{"num_deleted":"0","num_feature":"41","num_nodes":"27","size_leaf_vector":"1"}},{"base_weights":[-2.581849E-4,6.826196E-2,-1.07471E-3,5.313904E-2,2.762195E-1,-2.2299848E-3,-8.133357E-4,6.1949845E-2,-2.0578285E-3,3.7426436E-3,2.470803E-4,2.36152E-5,-1.0281582E-2,8.98596E-2,6.25672E-4,-5.7823494E-2,-7.798493E-3,1.9200643E-3,7.211984E-4,-2.576593E-4,2.5203472E-3,1.9809071E-4,-1.1348173E-3,-2.4526997E-5,-3.2336797E-4],"categories":[],"categories_nodes":[],"categories_segments":[],"categories_sizes":[],"default_left":[0,0,0,0,0,0,0,0,0,0,0,0,0,0,0,0,0,0,0,0,0,0,0,0,0],"id":13,"left_children":[1,3,5,7,9,-1,11,13,-1,-1,-1,-1,15,17,19,21,23,-1,-1,-1,-1,-1,-1,-1,-1],"loss_changes":[6.9044113E0,4.430943E0,6.6580515E0,3.0829375E0,1.7783871E0,0E0,3.504144E0,2.2684808E0,0E0,0E0,0E0,0E0,3.4886384E0,1.7017922E0,2.5566113E0,5.526182E0,3.4981499E0,0E0,0E0,0E0,0E0,0E0,0E0,0E0,0E0],"parents":[2147483647,0,0,1,1,2,2,3,3,4,4,6,6,7,7,12,12,13,13,14,14,15,15,16,16],"right_children":[2,4,6,8,10,-1,12,14,-1,-1,-1,-1,16,18,20,22,24,-1,-1,-1,-1,-1,-1,-1,-1],"split_conditions":[-1.5776796E0,-1.5217954E0,-1.5836337E0,2.273435E0,-1.4859266E0,-2.2299848E-3,3.0569386E-1,-1.5850338E0,-2.0578285E-3,3.7426436E-3,2.470803E-4,2.36152E-5,1.7619754E-1,-7.961872E-1,8.4909126E-2,-1.4038676E0,1.0309759E0,1.9200643E-3,7.211984E-4,-2.576593E-4,2.5203472E-3,1.9809071E-4,-1.1348173E-3,-2.4526997E-5,-3.2336797E-4],"split_indices":[32,16,15,21,31,0,35,19,0,0,0,0,37,36,37,12,11,0,0,0,0,0,0,0,0],"split_type":[0,0,0,0,0,0,0,0,0,0,0,0,0,0,0,0,0,0,0,0,0,0,0,0,0],"sum_hessian":[1.23398E5,1.444E3,1.21954E5,1.357E3,8.7E1,1.43E2,1.21811E5,1.317E3,4E1,6.4E1,2.3E1,9.2227E4,2.9584E4,9.02E2,4.15E2,1.458E3,2.8126E4,1.62E2,7.4E2,3.83E2,3.2E1,5.72E2,8.86E2,2.2651E4,5.475E3],"tree_param":{"num_deleted":"0","num_feature":"41","num_nodes":"25","size_leaf_vector":"1"}},{"base_weights":[5.0584502E-5,7.705524E-2,-5.6642777E-4,9.354927E-2,-2.0683515E-3,3.107941E-4,-2.7359597E-2,7.953448E-2,3.617454E-3,2.5254986E-3,2.3422827E-4,1.2684575E-3,-3.2500946E-4,-7.936164E-2,1.112806E-3,-6.799833E-2,5.7930744E-4,-1.657578E-3,2.055085E-3,-4.527151E-4,-2.6832737E-3,1.2328108E-5,-2.6782125E-4],"categories":[],"categories_nodes":[],"categories_segments":[],"categories_sizes":[],"default_left":[0,0,0,0,0,0,0,0,0,0,0,0,0,0,0,0,0,0,0,0,0,0,0],"id":14,"left_children":[1,3,5,7,-1,9,11,13,-1,-1,15,-1,-1,17,-1,19,21,-1,-1,-1,-1,-1,-1],"loss_changes":[5.8831697E0,4.581688E0,2.8871245E0,2.9811735E0,0E0,2.1604915E0,1.8941779E0,3.6784916E0,0E0,0E0,2.799423E0,0E0,0E0,2.967395E0,0E0,2.6995127E0,1.7769487E0,0E0,0E0,0E0,0E0,0E0,0E0],"parents":[2147483647,0,0,1,1,2,2,3,3,5,5,6,6,7,7,10,10,13,13,15,15,16,16],"right_children":[2,4,6,8,-1,10,12,14,-1,-1,16,-1,-1,18,-1,20,22,-1,-1,-1,-1,-1,-1],"split_conditions":[-1.5850338E0,1.8025573E0,1.9525869E0,1.4658592E0,-2.0683515E-3,-1.6073785E0,1.0197877E0,-1.4773928E-1,3.617454E-3,2.5254986E-3,-1.5740056E0,1.2684575E-3,-3.2500946E-4,7.2790855E-1,1.112806E-3,-1.541325E0,1.9302019E0,-1.657578E-3,2.055085E-3,-4.527151E-4,-2.6832737E-3,1.2328108E-5,-2.6782125E-4],"split_indices":[19,21,37,35,0,3,12,37,0,0,15,0,0,35,0,30,21,0,0,0,0,0,0],"split_type":[0,0,0,0,0,0,0,0,0,0,0,0,0,0,0,0,0,0,0,0,0,0,0],"sum_hessian":[1.23788E5,9.75E2,1.22813E5,9.25E2,5E1,1.18928E5,3.885E3,8.87E2,3.8E1,2.9E1,1.18899E5,7.7E1,3.808E3,1.19E2,7.68E2,5.89E2,1.1831E5,9.6E1,2.3E1,5.28E2,6.1E1,1.1571E5,2.6E3],"tree_param":{"num_deleted":"0","num_feature":"41","num_nodes":"23","size_leaf_vector":"1"}},{"base_weights":[1.4230076E-4,7.473706E-2,-4.5382133E-4,9.114452E-2,-2.114883E-3,-7.384483E-2,-1.3383674E-4,7.5550675E-2,2.6518938E-3,-5.5989847E-2,-3.4585088E-3,1.8067434E-2,-1.3551149E-3,9.026647E-4,-2.2328454E-3,5.010271E-4,-9.679069E-4,1.2802957E-2,1.7447115E-1,-2.903876E-3,-1.2472392E-3,1.3332197E-3,1.1275223E-4,2.6049446E-3,6.4796314E-4,-8.084456E-6,-5.485757E-4],"categories":[],"categories_nodes":[],"categories_segments":[],"categories_sizes":[],"default_left":[0,0,0,0,0,0,0,0,0,0,0,0,0,0,0,0,0,0,0,0,0,0,0,0,0,0,0],"id":15,"left_children":[1,3,5,7,-1,9,11,13,-1,15,-1,17,19,-1,-1,-1,-1,21,23,-1,25,-1,-1,-1,-1,-1,-1],"loss_changes":[5.498149E0,4.5731773E0,2.8793972E0,2.1256566E0,0E0,2.221221E0,2.7147503E0,2.4975104E0,0E0,1.8854711E0,0E0,6.30031E0,3.354483E0,0E0,0E0,0E0,0E0,1.8170882E0,1.862823E0,0E0,2.8015509E0,0E0,0E0,0E0,0E0,0E0,0E0],"parents":[2147483647,0,0,1,1,2,2,3,3,5,5,6,6,7,7,9,9,11,11,12,12,17,17,18,18,20,20],"right_children":[2,4,6,8,-1,10,12,14,-1,16,-1,18,20,-1,-1,-1,-1,22,24,-1,26,-1,-1,-1,-1,-1,-1],"split_conditions":[-1.5836674E0,2.273435E0,-1.5740056E0,4.3405867E0,-2.114883E-3,-1.5511377E0,-1.4038676E0,1.3145068E0,2.6518938E-3,-2.4358591E-1,-3.4585088E-3,4.3405867E0,-1.4242462E0,9.026647E-4,-2.2328454E-3,5.010271E-4,-9.679069E-4,-1.4830906E0,-1.4775784E0,-2.903876E-3,4.3405867E0,1.3332197E-3,1.1275223E-4,2.6049446E-3,6.4796314E-4,-8.084456E-6,-5.485757E-4],"split_indices":[14,21,15,34,0,14,12,21,0,20,0,34,13,0,0,0,0,21,30,0,34,0,0,0,0,0,0],"split_type":[0,0,0,0,0,0,0,0,0,0,0,0,0,0,0,0,0,0,0,0,0,0,0,0,0,0,0],"sum_hessian":[1.2361E5,9.71E2,1.22639E5,9.22E2,4.9E1,5.23E2,1.22116E5,8.52E2,7E1,4.99E2,2.4E1,7.67E3,1.14446E5,8.31E2,2.1E1,1.26E2,3.73E2,7.43E3,2.4E2,3.6E1,1.1441E5,1.31E2,7.299E3,1.41E2,9.9E1,1.13328E5,1.082E3],"tree_param":{"num_deleted":"0","num_feature":"41","num_nodes":"27","size_leaf_vector":"1"}},{"base_weights":[-1.5597805E-4,7.6952614E-2,-7.7125995E-4,9.639162E-2,-1.216443E-1,3.989165E-4,-1.7067766E-2,4.1017093E-2,1.6120876E-3,1.7600822E-3,-2.4370712E-3,-6.3963294E-2,7.281908E-4,-1.8267081E-5,-3.3245696E-4,-9.063782E-4,8.597585E-4,-8.150362E-2,1.9538393E-3,4.441504E-2,3.7629743E-6,-5.0523045E-4,-2.7994278E-3,-1.0900561E-3,8.0388214E-4],"categories":[],"categories_nodes":[],"categories_segments":[],"categories_sizes":[],"default_left":[0,0,0,0,0,0,0,0,0,0,0,0,0,0,0,0,0,0,0,0,0,0,0,0,0],"id":16,"left_children":[1,3,5,7,9,11,13,15,-1,-1,-1,17,19,-1,-1,-1,-1,21,-1,23,-1,-1,-1,-1,-1],"loss_changes":[5.8629227E0,3.8849802E0,2.3384483E0,2.692728E0,3.1842146E0,2.424376E0,1.7955625E0,2.3941934E0,0E0,0E0,0E0,2.6707973E0,1.8579932E0,0E0,0E0,0E0,0E0,3.2803328E0,0E0,4.516826E0,0E0,0E0,0E0,0E0,0E0],"parents":[2147483647,0,0,1,1,2,2,3,3,4,4,5,5,6,6,7,7,11,11,12,12,17,17,19,19],"right_children":[2,4,6,8,10,12,14,16,-1,-1,-1,18,20,-1,-1,-1,-1,22,-1,24,-1,-1,-1,-1,-1],"split_conditions":[-1.5850338E0,2.2201972E0,1.0309759E0,-1.5251186E-1,-1.1355023E0,-1.5737442E0,5.353328E-1,-1.607375E0,1.6120876E-3,1.7600822E-3,-2.4370712E-3,9.026352E-1,-1.5431086E0,-1.8267081E-5,-3.3245696E-4,-9.063782E-4,8.597585E-4,-1.5546769E0,1.9538393E-3,-5.252086E-1,3.7629743E-6,-5.0523045E-4,-2.7994278E-3,-1.0900561E-3,8.0388214E-4],"split_indices":[19,36,11,35,38,16,35,0,0,0,0,35,2,0,0,0,0,8,0,35,0,0,0,0,0],"split_type":[0,0,0,0,0,0,0,0,0,0,0,0,0,0,0,0,0,0,0,0,0,0,0,0,0],"sum_hessian":[1.23573E5,9.69E2,1.22604E5,8.87E2,8.2E1,1.14398E5,8.206E3,4.52E2,4.35E2,2.1E1,6.1E1,5.73E2,1.13825E5,3.956E3,4.25E3,1.06E2,3.46E2,5.41E2,3.2E1,9.56E2,1.12869E5,4.66E2,7.5E1,1.64E2,7.92E2],"tree_param":{"num_deleted":"0","num_feature":"41","num_nodes":"25","size_leaf_vector":"1"}},{"base_weights":[2.1052772E-5,6.4884484E-2,-4.7863903E-4,8.6305983E-4,-2.3140402E-3,4.4015255E-6,-2.8139085E-2,1.2985037E-3,-3.1159181E-2,-7.365503E-4,-1.900042E-2,7.4752467E-4,-3.2190277E-4],"categories":[],"categories_nodes":[],"categories_segments":[],"categories_sizes":[],"default_left":[0,0,0,0,0,0,0,0,0,0,0,0,0],"id":17,"left_children":[1,3,5,-1,-1,-1,7,-1,9,-1,11,-1,-1],"loss_changes":[4.0033712E0,4.5461597E0,3.0283344E0,0E0,0E0,0E0,1.7765579E0,0E0,1.7370853E0,0E0,2.924876E0,0E0,0E0],"parents":[2147483647,0,0,1,1,2,2,6,6,8,8,10,10],"right_children":[2,4,6,-1,-1,-1,8,-1,10,-1,12,-1,-1],"split_conditions":[-1.586236E0,1.7000153E0,1.9525869E0,8.6305983E-4,-2.3140402E-3,4.4015255E-6,1.0197877E0,1.2985037E-3,1.1687757E0,-7.365503E-4,1.2223024E0,7.4752467E-4,-3.2190277E-4],"split_indices":[10,21,37,0,0,0,12,0,13,0,11,0,0],"split_type":[0,0,0,0,0,0,0,0,0,0,0,0,0],"sum_hessian":[1.23477E5,9.35E2,1.22542E5,8.9E2,4.5E1,1.18717E5,3.825E3,6.8E1,3.757E3,8.96E2,2.861E3,3.16E2,2.545E3],"tree_param":{"num_deleted":"0","num_feature":"41","num_nodes":"13","size_leaf_vector":"1"}},{"base_weights":[-9.9295445E-5,6.556331E-2,-8.909607E-4,4.9640216E-2,3.0106048E-3,-2.2848442E-3,-6.129009E-4,4.198748E-2,2.7849132E-3,2.2339636E-5,-9.050425E-3,5.157538E-2,-2.071026E-3,-5.113198E-2,-6.7662634E-3,2.5752428E-4,1.0519399E-3,2.6004677E-4,-1.0797969E-3,5.148038E-4,-1.0236581E-4],"categories":[],"categories_nodes":[],"categories_segments":[],"categories_sizes":[],"default_left":[0,0,0,0,0,0,0,0,0,0,0,0,0,0,0,0,0,0,0,0,0],"id":18,"left_children":[1,3,5,7,-1,-1,9,11,-1,-1,13,15,-1,17,19,-1,-1,-1,-1,-1,-1],"loss_changes":[6.4286885E0,4.980616E0,7.279715E0,2.1478076E0,0E0,0E0,2.7986257E0,3.1540155E0,0E0,0E0,2.8543687E0,1.6666839E0,0E0,5.873662E0,4.4881697E0,0E0,0E0,0E0,0E0,0E0,0E0],"parents":[2147483647,0,0,1,1,2,2,3,3,6,6,7,7,10,10,11,11,13,13,14,14],"right_children":[2,4,6,8,-1,-1,10,12,-1,-1,14,16,-1,18,20,-1,-1,-1,-1,-1,-1],"split_conditions":[-1.5776796E0,1.8240138E0,-1.5836337E0,8.4909126E-2,3.0106048E-3,-2.2848442E-3,3.0569386E-1,1.7956185E0,2.7849132E-3,2.2339636E-5,1.9147693E-1,1.4108617E-2,-2.071026E-3,-1.4038676E0,4.9297523E-1,2.5752428E-4,1.0519399E-3,2.6004677E-4,-1.0797969E-3,5.148038E-4,-1.0236581E-4],"split_indices":[32,35,15,37,0,0,35,20,0,0,37,35,0,12,37,0,0,0,0,0,0],"split_type":[0,0,0,0,0,0,0,0,0,0,0,0,0,0,0,0,0,0,0,0,0],"sum_hessian":[1.23663E5,1.464E3,1.22199E5,1.375E3,8.9E1,1.49E2,1.2205E5,1.338E3,3.7E1,9.2324E4,2.9726E4,1.293E3,4.5E1,1.52E3,2.8206E4,8.3E2,4.63E2,6.11E2,9.09E2,1.388E3,2.6818E4],"tree_param":{"num_deleted":"0","num_feature":"41","num_nodes":"21","size_leaf_vector":"1"}},{"base_weights":[-9.627886E-5,7.943105E-2,-7.408865E-4,9.3363546E-2,-1.7811799E-3,1.9343172E-3,-8.955462E-3,7.9655655E-2,3.47958E-3,-6.231015E-4,2.4112926E-5,1.2812886E-1,-1.0319473E-2,-1.1994892E-1,1.0455798E-3,4.516129E-2,2.877976E-3,-7.700684E-2,-6.8808715E-3,-2.9672934E-3,9.775092E-4,-2.2997137E-4,2.6849841E-3,-1.4614244E-3,-1.9754602E-4,4.699598E-4,-1.0152872E-4],"categories":[],"categories_nodes":[],"categories_segments":[],"categories_sizes":[],"default_left":[0,0,0,0,0,0,0,0,0,0,0,0,0,0,0,0,0,0,0,0,0,0,0,0,0,0,0],"id":19,"left_children":[1,3,5,7,-1,9,11,13,-1,-1,-1,15,17,19,-1,21,-1,23,25,-1,-1,-1,-1,-1,-1,-1,-1],"loss_changes":[6.332923E0,3.5653887E0,2.693512E0,2.7942467E0,0E0,1.8897071E0,5.641159E0,3.5160284E0,0E0,0E0,0E0,3.4091783E0,6.8327866E0,3.0234249E0,0E0,2.8195317E0,0E0,5.1504793E0,3.8963897E0,0E0,0E0,0E0,0E0,0E0,0E0,0E0,0E0],"parents":[2147483647,0,0,1,1,2,2,3,3,5,5,6,6,7,7,11,11,12,12,13,13,15,15,17,17,18,18],"right_children":[2,4,6,8,-1,10,12,14,-1,-1,-1,16,18,20,-1,22,-1,24,26,-1,-1,-1,-1,-1,-1,-1,-1],"split_conditions":[-1.5850338E0,1.8025573E0,2.927046E-1,1.4658592E0,-1.7811799E-3,-1.5737442E0,-1.5490308E0,-1.5942171E-1,3.47958E-3,-6.231015E-4,2.4112926E-5,-1.5217954E0,1.9749852E-1,4.391395E-1,1.0455798E-3,1.18377134E-1,2.877976E-3,1.964253E0,4.9297523E-1,-2.9672934E-3,9.775092E-4,-2.2997137E-4,2.6849841E-3,-1.4614244E-3,-1.9754602E-4,4.699598E-4,-1.0152872E-4],"split_indices":[19,21,35,35,0,16,32,37,0,0,0,16,37,35,0,37,0,34,37,0,0,0,0,0,0,0,0],"split_type":[0,0,0,0,0,0,0,0,0,0,0,0,0,0,0,0,0,0,0,0,0,0,0,0,0,0,0],"sum_hessian":[1.23532E5,9.84E2,1.22548E5,9.37E2,4.7E1,9.2447E4,3.0101E4,8.97E2,4E1,5.02E2,9.1945E4,2.88E2,2.9813E4,7.3E1,8.24E2,1.9E2,9.8E1,1.452E3,2.8361E4,4E1,3.3E1,1.5E2,4E1,7.06E2,7.46E2,1.406E3,2.6955E4],"tree_param":{"num_deleted":"0","num_feature":"41","num_nodes":"27","size_leaf_vector":"1"}},{"base_weights":[-6.488918E-5,6.895509E-2,-6.1771844E-4,8.587484E-2,-2.0118023E-3,2.532305E-4,-2.7350886E-2,-7.4446184E-4,1.0034368E-1,-5.6175392E-2,5.2711245E-4,1.3701534E-3,-3.0798158E-2,4.6834484E-2,1.5597702E-3,-7.2243825E-2,2.8194657E-3,5.637417E-3,-2.4263758E-5,-7.2985794E-4,-1.8875817E-2,-1.5389869E-3,8.7219203E-4,-4.669247E-4,-2.0812484E-3,-4.8612856E-4,9.3156705E-5,7.660543E-4,-3.212149E-4],"categories":[],"categories_nodes":[],"categories_segments":[],"categories_sizes":[],"default_left":[0,0,0,0,0,0,0,0,0,0,0,0,0,0,0,0,0,0,0,0,0,0,0,0,0,0,0,0,0],"id":20,"left_children":[1,3,5,7,-1,9,11,-1,13,15,17,-1,19,21,-1,23,-1,25,-1,-1,27,-1,-1,-1,-1,-1,-1,-1,-1],"loss_changes":[4.721558E0,4.4495225E0,2.8590014E0,2.1629858E0,0E0,1.837449E0,2.124783E0,0E0,2.0633955E0,3.1447234E0,1.7012165E0,0E0,1.705636E0,2.8958893E0,0E0,1.8568418E0,0E0,6.7831316E0,0E0,0E0,3.0277905E0,0E0,0E0,0E0,0E0,0E0,0E0,0E0,0E0],"parents":[2147483647,0,0,1,1,2,2,3,3,5,5,6,6,8,8,9,9,10,10,12,12,13,13,15,15,17,17,20,20],"right_children":[2,4,6,8,-1,10,12,-1,14,16,18,-1,20,22,-1,24,-1,26,-1,-1,28,-1,-1,-1,-1,-1,-1,-1,-1],"split_conditions":[-1.5850338E0,1.7000153E0,1.9525869E0,-1.4456867E0,-2.0118023E-3,-1.5737442E0,1.0197877E0,-7.4446184E-4,4.0902027E-1,5.052184E0,-9.15409E-1,1.3701534E-3,1.1687757E0,-9.758617E-2,1.5597702E-3,-1.556717E0,2.8194657E-3,1.18377134E-1,-2.4263758E-5,-7.2985794E-4,1.2223024E0,-1.5389869E-3,8.7219203E-4,-4.669247E-4,-2.0812484E-3,-4.8612856E-4,9.3156705E-5,7.660543E-4,-3.212149E-4],"split_indices":[19,21,37,39,0,16,12,0,34,34,12,0,13,37,0,2,0,37,0,0,11,0,0,0,0,0,0,0,0],"split_type":[0,0,0,0,0,0,0,0,0,0,0,0,0,0,0,0,0,0,0,0,0,0,0,0,0,0,0,0,0],"sum_hessian":[1.23742E5,9.74E2,1.22768E5,9.2E2,5.4E1,1.18903E5,3.865E3,7.5E1,8.45E2,5.65E2,1.18338E5,7.6E1,3.789E3,4.02E2,4.43E2,5.45E2,2E1,4.2008E4,7.633E4,8.95E2,2.894E3,5.8E1,3.44E2,4.54E2,9.1E1,2.408E3,3.96E4,3.16E2,2.578E3],"tree_param":{"num_deleted":"0","num_feature":"41","num_nodes":"29","size_leaf_vector":"1"}},{"base_weights":[1.0479971E-5,6.0675703E-2,-7.24864E-4,4.460937E-2,3.0231264E-3,-2.0827458E-3,-4.6946798E-4,5.3963482E-2,-2.0707317E-3,6.4404E-4,-1.5805991E-2,1.626252E-3,3.760283E-4,1.3457045E-5,-2.7956232E-2,-3.9774194E-2,-5.802656E-3,2.0459609E-3,-3.6731112E-4,-1.7086236E-4,-8.6427206E-4,1.1998059E-3,-9.982327E-5],"categories":[],"categories_nodes":[],"categories_segments":[],"categories_sizes":[],"default_left":[0,0,0,0,0,0,0,0,0,0,0,0,0,0,0,0,0,0,0,0,0,0,0],"id":21,"left_children":[1,3,5,7,-1,-1,9,11,-1,13,15,-1,-1,-1,17,19,21,-1,-1,-1,-1,-1,-1],"loss_changes":[5.513799E0,5.2082043E0,6.092581E0,3.2172477E0,0E0,0E0,2.0829432E0,2.4265811E0,0E0,2.0279071E0,1.9769185E0,0E0,0E0,0E0,3.6167707E0,2.381929E0,2.5053606E0,0E0,0E0,0E0,0E0,0E0,0E0],"parents":[2147483647,0,0,1,1,2,2,3,3,6,6,7,7,9,9,10,10,14,14,15,15,16,16],"right_children":[2,4,6,8,-1,-1,10,12,-1,14,16,-1,-1,-1,18,20,22,-1,-1,-1,-1,-1,-1],"split_conditions":[-1.5776796E0,-1.5217954E0,-1.5836337E0,2.273435E0,3.0231264E-3,-2.0827458E-3,1.0309759E0,-7.7325904E-1,-2.0707317E-3,1.9302019E0,1.1580304E0,1.626252E-3,3.760283E-4,1.3457045E-5,-1.5070814E0,1.0780666E0,1.1176552E0,2.0459609E-3,-3.6731112E-4,-1.7086236E-4,-8.6427206E-4,1.1998059E-3,-9.982327E-5],"split_indices":[32,16,15,21,0,0,11,36,0,21,16,0,0,0,15,15,2,0,0,0,0,0,0],"split_type":[0,0,0,0,0,0,0,0,0,0,0,0,0,0,0,0,0,0,0,0,0,0,0],"sum_hessian":[1.23568E5,1.471E3,1.22097E5,1.383E3,8.8E1,1.5E2,1.21947E5,1.338E3,4.5E1,1.137E5,8.247E3,2E2,1.138E3,1.11283E5,2.417E3,2.42E3,5.827E3,6.3E1,2.354E3,1.551E3,8.69E2,1.63E2,5.664E3],"tree_param":{"num_deleted":"0","num_feature":"41","num_nodes":"23","size_leaf_vector":"1"}},{"base_weights":[1.108097E-4,7.22805E-2,-4.4847094E-4,8.674215E-2,-1.9228193E-3,-7.229858E-2,-1.451396E-4,7.57632E-4,2.7039081E-3,-5.3732743E-4,-3.504291E-3,6.4860017E-4,-2.5845174E-4,4.7907922E-2,2.8018764E-4,2.7787858E-3,2.7193385E-4,-3.4095973E-4,8.210572E-6],"categories":[],"categories_nodes":[],"categories_segments":[],"categories_sizes":[],"default_left":[0,0,0,0,0,0,0,0,0,0,0,0,0,0,0,0,0,0,0],"id":22,"left_children":[1,3,5,7,-1,9,11,-1,-1,-1,-1,13,-1,15,17,-1,-1,-1,-1],"loss_changes":[4.987771E0,3.6268926E0,2.6712441E0,2.16607E0,0E0,2.7215843E0,2.3457232E0,0E0,0E0,0E0,0E0,2.057865E0,0E0,4.293289E0,1.8745849E0,0E0,0E0,0E0,0E0],"parents":[2147483647,0,0,1,1,2,2,3,3,5,5,6,6,11,11,13,13,14,14],"right_children":[2,4,6,8,-1,10,12,-1,-1,-1,-1,14,-1,16,18,-1,-1,-1,-1],"split_conditions":[-1.5836674E0,2.273435E0,-1.5740056E0,4.3405867E0,-1.9228193E-3,-1.5511377E0,1.9525869E0,7.57632E-4,2.7039081E-3,-5.3732743E-4,-3.504291E-3,-2.201316E-1,-2.5845174E-4,-1.3731682E0,-2.3356762E0,2.7787858E-3,2.7193385E-4,-3.4095973E-4,8.210572E-6],"split_indices":[14,21,15,34,0,14,37,0,0,0,0,37,0,18,22,0,0,0,0],"split_type":[0,0,0,0,0,0,0,0,0,0,0,0,0,0,0,0,0,0,0],"sum_hessian":[1.23537E5,9.41E2,1.22596E5,8.96E2,4.5E1,5.06E2,1.2209E5,8.33E2,6.3E1,4.77E2,2.9E1,1.18221E5,3.869E3,9.05E2,1.17316E5,7.6E1,8.29E2,1.75E3,1.15566E5],"tree_param":{"num_deleted":"0","num_feature":"41","num_nodes":"19","size_leaf_vector":"1"}},{"base_weights":[3.1029573E-4,6.716401E-2,-4.933461E-4,5.117403E-2,2.9795037E-3,-2.0636204E-3,-2.2752158E-4,6.0428947E-2,-1.9614436E-3,2.3496492E-5,-8.745867E-3,9.110011E-2,-6.9630216E-5,9.969775E-2,-9.523442E-3,4.0780279E-4,1.5213044E-3,8.854288E-5,2.4839982E-3,-1.588511E-3,-9.012156E-5],"categories":[],"categories_nodes":[],"categories_segments":[],"categories_sizes":[],"default_left":[0,0,0,0,0,0,0,0,0,0,0,0,0,0,0,0,0,0,0,0,0],"id":23,"left_children":[1,3,5,7,-1,-1,9,11,-1,-1,13,15,-1,17,19,-1,-1,-1,-1,-1,-1],"loss_changes":[6.645697E0,4.879097E0,6.2966504E0,3.1116168E0,0E0,0E0,2.5380137E0,2.7457457E0,0E0,0E0,2.3003561E0,2.4642835E0,0E0,2.3625546E0,3.8999429E0,0E0,0E0,0E0,0E0,0E0,0E0],"parents":[2147483647,0,0,1,1,2,2,3,3,6,6,7,7,10,10,11,11,13,13,14,14],"right_children":[2,4,6,8,-1,-1,10,12,-1,-1,14,16,-1,18,20,-1,-1,-1,-1,-1,-1],"split_conditions":[-1.5776796E0,-1.5217954E0,-1.5836337E0,2.273435E0,2.9795037E-3,-2.0636204E-3,3.773811E-1,-1.5836674E0,-1.9614436E-3,2.3496492E-5,-1.5377713E0,-1.5251186E-1,-6.9630216E-5,-1.5119685E0,-1.4939431E0,4.0780279E-4,1.5213044E-3,8.854288E-5,2.4839982E-3,-1.588511E-3,-9.012156E-5],"split_indices":[32,16,15,21,0,0,35,14,0,0,32,35,0,13,12,0,0,0,0,0,0],"split_type":[0,0,0,0,0,0,0,0,0,0,0,0,0,0,0,0,0,0,0,0,0],"sum_hessian":[1.23667E5,1.46E3,1.22207E5,1.369E3,9.1E1,1.58E2,1.22049E5,1.324E3,4.5E1,9.4871E4,2.7178E4,9.06E2,4.18E2,1.85E2,2.6993E4,4.59E2,4.47E2,1.16E2,6.9E1,1.88E2,2.6805E4],"tree_param":{"num_deleted":"0","num_feature":"41","num_nodes":"21","size_leaf_vector":"1"}},{"base_weights":[3.605674E-5,7.119417E-2,-5.37166E-4,8.6466216E-2,-1.9761152E-3,1.7900503E-3,-9.253463E-3,7.430054E-2,3.30488E-3,-8.385847E-2,2.1349659E-5,1.8816792E-3,-1.01583125E-2,1.441176E-2,1.3632305E-3,3.674333E-5,-2.5000798E-3,-7.5706034E-3,-4.3041722E-4,-8.1394904E-4,7.568994E-4,-2.7178152E-4,-2.7797274E-5],"categories":[],"categories_nodes":[],"categories_segments":[],"categories_sizes":[],"default_left":[0,0,0,0,0,0,0,0,0,0,0,0,0,0,0,0,0,0,0,0,0,0,0],"id":24,"left_children":[1,3,5,7,-1,9,11,13,-1,15,-1,-1,17,19,-1,-1,-1,21,-1,-1,-1,-1,-1],"loss_changes":[5.04436E0,4.0319695E0,2.4884007E0,2.3508143E0,0E0,1.8332462E0,4.377404E0,2.9084191E0,0E0,3.310493E0,0E0,0E0,2.0201476E0,2.3264892E0,0E0,0E0,0E0,2.117652E0,0E0,0E0,0E0,0E0,0E0],"parents":[2147483647,0,0,1,1,2,2,3,3,5,5,6,6,7,7,9,9,12,12,13,13,17,17],"right_children":[2,4,6,8,-1,10,12,14,-1,16,-1,-1,18,20,-1,-1,-1,22,-1,-1,-1,-1,-1],"split_conditions":[-1.5850338E0,1.8025573E0,4.2315283E-1,1.4658592E0,-1.9761152E-3,-1.5836337E0,-1.556717E0,-1.02297686E-1,3.30488E-3,-1.568666E0,2.1349659E-5,1.8816792E-3,1.3024429E0,-1.5956502E0,1.3632305E-3,3.674333E-5,-2.5000798E-3,-7.746228E-1,-4.3041722E-4,-8.1394904E-4,7.568994E-4,-2.7178152E-4,-2.7797274E-5],"split_indices":[19,21,35,35,0,15,2,21,0,18,0,0,16,16,0,0,0,11,0,0,0,0,0],"split_type":[0,0,0,0,0,0,0,0,0,0,0,0,0,0,0,0,0,0,0,0,0,0,0],"sum_hessian":[1.23632E5,9.79E2,1.22653E5,9.3E2,4.9E1,9.6811E4,2.5842E4,8.94E2,3.6E1,2.4E2,9.6571E4,1.16E2,2.5726E4,4.3E2,4.64E2,1.58E2,8.2E1,2.3718E4,2.008E3,1.64E2,2.66E2,5.102E3,1.8616E4],"tree_param":{"num_deleted":"0","num_feature":"41","num_nodes":"23","size_leaf_vector":"1"}},{"base_weights":[8.5427535E-5,6.188886E-2,-6.484617E-4,4.61851E-2,2.9587813E-3,-2.0859404E-3,-4.0115524E-4,7.3319234E-2,-1.5284003E-4,7.4636237E-6,-1.56674E-2,2.6862457E-2,1.2461579E-3,-3.8429245E-2,-6.159552E-3,-1.5303578E-3,6.259121E-4,-1.8230327E-4,-8.11099E-4,1.374747E-3,-1.0805519E-4],"categories":[],"categories_nodes":[],"categories_segments":[],"categories_sizes":[],"default_left":[0,0,0,0,0,0,0,0,0,0,0,0,0,0,0,0,0,0,0,0,0],"id":25,"left_children":[1,3,5,7,-1,-1,9,11,-1,-1,13,15,-1,17,19,-1,-1,-1,-1,-1,-1],"loss_changes":[5.6168923E0,4.8253965E0,5.923858E0,2.25632E0,0E0,0E0,2.0606155E0,1.9042459E0,0E0,0E0,1.7817442E0,2.6700153E0,0E0,1.9461112E0,3.1877437E0,0E0,0E0,0E0,0E0,0E0,0E0],"parents":[2147483647,0,0,1,1,2,2,3,3,6,6,7,7,10,10,11,11,13,13,14,14],"right_children":[2,4,6,8,-1,-1,10,12,-1,-1,14,16,-1,18,20,-1,-1,-1,-1,-1,-1],"split_conditions":[-1.5776796E0,-1.5217954E0,-1.5836337E0,-1.5836674E0,2.9587813E-3,-2.0859404E-3,1.0309759E0,-1.6045755E0,-1.5284003E-4,7.4636237E-6,1.1580304E0,-6.151049E-1,1.2461579E-3,1.0780666E0,1.1187748E0,-1.5303578E-3,6.259121E-4,-1.8230327E-4,-8.11099E-4,1.374747E-3,-1.0805519E-4],"split_indices":[32,16,15,14,0,0,11,30,0,0,16,22,0,15,3,0,0,0,0,0,0],"split_type":[0,0,0,0,0,0,0,0,0,0,0,0,0,0,0,0,0,0,0,0,0],"sum_hessian":[1.23806E5,1.444E3,1.22362E5,1.357E3,8.7E1,1.45E2,1.22217E5,9.36E2,4.21E2,1.13981E5,8.236E3,4.63E2,4.73E2,2.418E3,5.818E3,6.8E1,3.95E2,1.559E3,8.59E2,1.59E2,5.659E3],"tree_param":{"num_deleted":"0","num_feature":"41","num_nodes":"21","size_leaf_vector":"1"}},{"base_weights":[9.562346E-5,5.9057634E-2,-6.1063055E-4,4.4738933E-2,2.6910931E-3,-1.9104922E-3,-3.555776E-4,5.451969E-4,-1.9730008E-3,2.2109189E-5,-8.825285E-3,-5.7897408E-2,-6.296187E-3,2.8230695E-4,-1.1537755E-3,4.739028E-4,-9.689248E-5],"categories":[],"categories_nodes":[],"categories_segments":[],"categories_sizes":[],"default_left":[0,0,0,0,0,0,0,0,0,0,0,0,0,0,0,0,0],"id":26,"left_children":[1,3,5,7,-1,-1,9,-1,-1,-1,11,13,15,-1,-1,-1,-1],"loss_changes":[5.144477E0,3.9627213E0,5.581143E0,2.1820252E0,0E0,0E0,2.5175438E0,0E0,0E0,0E0,3.3779252E0,5.75246E0,3.7413085E0,0E0,0E0,0E0,0E0],"parents":[2147483647,0,0,1,1,2,2,3,3,6,6,10,10,11,11,12,12],"right_children":[2,4,6,8,-1,-1,10,-1,-1,-1,12,14,16,-1,-1,-1,-1],"split_conditions":[-1.5776796E0,1.8240138E0,-1.5836337E0,2.273435E0,2.6910931E-3,-1.9104922E-3,3.773811E-1,5.451969E-4,-1.9730008E-3,2.2109189E-5,1.7619754E-1,-1.4030105E0,4.9297523E-1,2.8230695E-4,-1.1537755E-3,4.739028E-4,-9.689248E-5],"split_indices":[32,35,15,21,0,0,35,0,0,0,37,19,37,0,0,0,0],"split_type":[0,0,0,0,0,0,0,0,0,0,0,0,0,0,0,0,0],"sum_hessian":[1.23508E5,1.453E3,1.22055E5,1.364E3,8.9E1,1.64E2,1.21891E5,1.333E3,3.1E1,9.465E4,2.7241E4,1.325E3,2.5916E4,4.99E2,8.26E2,1.357E3,2.4559E4],"tree_param":{"num_deleted":"0","num_feature":"41","num_nodes":"17","size_leaf_vector":"1"}},{"base_weights":[5.043375E-5,6.127463E-2,-6.798742E-4,4.563101E-2,2.8322318E-3,-1.9996203E-3,-4.3354154E-4,5.295561E-2,-2.1378126E-3,2.4385427E-5,-8.785595E-3,-8.731472E-2,6.350933E-2,-6.771526E-2,-6.26587E-3,-2.7105175E-3,2.6156472E-3,1.0029025E-3,6.111333E-5,-9.708588E-4,8.323092E-4,1.8666507E-3,-7.1686714E-5],"categories":[],"categories_nodes":[],"categories_segments":[],"categories_sizes":[],"default_left":[0,0,0,0,0,0,0,0,0,0,0,0,0,0,0,0,0,0,0,0,0,0,0],"id":27,"left_children":[1,3,5,7,-1,-1,9,11,-1,-1,13,15,17,19,21,-1,-1,-1,-1,-1,-1,-1,-1],"loss_changes":[5.535151E0,4.5753007E0,5.652221E0,2.5708792E0,0E0,0E0,2.7864196E0,2.027814E0,0E0,0E0,4.4652176E0,6.035745E0,2.224002E0,4.343596E0,2.568595E0,0E0,0E0,0E0,0E0,0E0,0E0,0E0,0E0],"parents":[2147483647,0,0,1,1,2,2,3,3,6,6,7,7,10,10,11,11,12,12,13,13,14,14],"right_children":[2,4,6,8,-1,-1,10,12,-1,-1,14,16,18,20,22,-1,-1,-1,-1,-1,-1,-1,-1],"split_conditions":[-1.5776796E0,1.8240138E0,-1.5836337E0,2.273435E0,2.8322318E-3,-1.9996203E-3,2.927046E-1,-1.5942171E-1,-2.1378126E-3,2.4385427E-5,1.18377134E-1,7.2790855E-1,-1.5836674E0,2.317932E0,-1.5377713E0,-2.7105175E-3,2.6156472E-3,1.0029025E-3,6.111333E-5,-9.708588E-4,8.323092E-4,1.8666507E-3,-7.1686714E-5],"split_indices":[32,35,15,21,0,0,35,37,0,0,37,35,14,35,32,0,0,0,0,0,0,0,0],"split_type":[0,0,0,0,0,0,0,0,0,0,0,0,0,0,0,0,0,0,0,0,0,0,0],"sum_hessian":[1.23762E5,1.45E3,1.22312E5,1.358E3,9.2E1,1.51E2,1.22161E5,1.326E3,3.2E1,9.2067E4,3.0094E4,8.8E1,1.238E3,1.224E3,2.887E4,6E1,2.8E1,8.02E2,4.36E2,1.056E3,1.68E2,6.8E1,2.8802E4],"tree_param":{"num_deleted":"0","num_feature":"41","num_nodes":"23","size_leaf_vector":"1"}},{"base_weights":[4.4547312E-4,6.3078366E-2,-2.9934137E-4,5.241123E-2,2.6197222E-3,4.886617E-4,-2.4393369E-2,4.360541E-2,2.770022E-3,-1.0031085E-3,7.1183845E-6,1.2957319E-3,-2.7664375E-2,1.1344913E-1,1.5603428E-2,-6.9538597E-4,-1.553804E-2,4.2489974E-4,2.0029112E-3,1.4614932E-3,2.3613368E-6,7.6351635E-4,-2.8185625E-4],"categories":[],"categories_nodes":[],"categories_segments":[],"categories_sizes":[],"default_left":[0,0,0,0,0,0,0,0,0,0,0,0,0,0,0,0,0,0,0,0,0,0,0],"id":28,"left_children":[1,3,5,7,-1,9,11,13,-1,-1,-1,-1,15,17,19,-1,21,-1,-1,-1,-1,-1,-1],"loss_changes":[5.7727475E0,2.7265291E0,2.3220534E0,2.4367204E0,0E0,2.0449584E0,1.8856692E0,2.6054308E0,0E0,0E0,0E0,0E0,1.7315671E0,2.0387816E0,1.8161201E0,0E0,2.7977679E0,0E0,0E0,0E0,0E0,0E0,0E0],"parents":[2147483647,0,0,1,1,2,2,3,3,5,5,6,6,7,7,12,12,13,13,14,14,16,16],"right_children":[2,4,6,8,-1,10,12,14,-1,-1,-1,-1,16,18,20,-1,22,-1,-1,-1,-1,-1,-1],"split_conditions":[-1.5776796E0,-1.5380286E0,1.9525869E0,8.4909126E-2,2.6197222E-3,-1.5716318E0,1.0197877E0,-4.2637178E-1,2.770022E-3,-1.0031085E-3,7.1183845E-6,1.2957319E-3,1.1687757E0,2.9529673E-1,-1.4695872E0,-6.9538597E-4,1.2223024E0,4.2489974E-4,2.0029112E-3,1.4614932E-3,2.3613368E-6,7.6351635E-4,-2.8185625E-4],"split_indices":[32,14,37,37,0,14,12,36,0,0,0,0,13,34,38,0,11,0,0,0,0,0,0],"split_type":[0,0,0,0,0,0,0,0,0,0,0,0,0,0,0,0,0,0,0,0,0,0,0],"sum_hessian":[1.23719E5,1.445E3,1.22274E5,1.377E3,6.8E1,1.1841E5,3.864E3,1.332E3,4.5E1,2.17E2,1.18193E5,7.7E1,3.787E3,3.73E2,9.59E2,9.09E2,2.878E3,1.96E2,1.77E2,9.9E1,8.6E2,3.16E2,2.562E3],"tree_param":{"num_deleted":"0","num_feature":"41","num_nodes":"23","size_leaf_vector":"1"}},{"base_weights":[4.9941264E-5,5.464669E-2,-5.884867E-4,4.0190585E-2,2.8116992E-3,-1.813446E-3,-3.5227556E-4,4.73612E-2,-1.9745794E-3,2.4581754E-5,-9.691174E-3,2.5020886E-2,1.1714674E-3,-5.141067E-2,-7.4646836E-3,-8.178251E-5,8.2027516E-4,-7.611409E-4,1.3209987E-3,4.413574E-4,-1.0590374E-4],"categories":[],"categories_nodes":[],"categories_segments":[],"categories_sizes":[],"default_left":[0,0,0,0,0,0,0,0,0,0,0,0,0,0,0,0,0,0,0,0,0],"id":29,"left_children":[1,3,5,7,-1,-1,9,11,-1,-1,13,15,-1,17,19,-1,-1,-1,-1,-1,-1],"loss_changes":[4.3101716E0,4.241277E0,4.9117675E0,2.2668939E0,0E0,0E0,3.0410671E0,1.8223155E0,0E0,0E0,2.5150638E0,1.6856225E0,0E0,4.976983E0,3.1752162E0,0E0,0E0,0E0,0E0,0E0,0E0],"parents":[2147483647,0,0,1,1,2,2,3,3,6,6,7,7,10,10,11,11,13,13,14,14],"right_children":[2,4,6,8,-1,-1,10,12,-1,-1,14,16,-1,18,20,-1,-1,-1,-1,-1,-1],"split_conditions":[-1.5776796E0,1.8240138E0,-1.5836337E0,2.273435E0,2.8116992E-3,-1.813446E-3,3.773811E-1,1.6516061E-2,-1.9745794E-3,2.4581754E-5,1.9147693E-1,2.3978429E-2,1.1714674E-3,2.5018404E0,4.9297523E-1,-8.178251E-5,8.2027516E-4,-7.611409E-4,1.3209987E-3,4.413574E-4,-1.0590374E-4],"split_indices":[32,35,15,21,0,0,35,37,0,0,37,35,0,35,37,0,0,0,0,0,0],"split_type":[0,0,0,0,0,0,0,0,0,0,0,0,0,0,0,0,0,0,0,0,0],"sum_hessian":[1.23622E5,1.42E3,1.22202E5,1.339E3,8.1E1,1.6E2,1.22042E5,1.305E3,3.4E1,9.493E4,2.7112E4,9.73E2,3.32E2,1.363E3,2.5749E4,6.03E2,3.7E2,1.227E3,1.36E2,1.247E3,2.4502E4],"tree_param":{"num_deleted":"0","num_feature":"41","num_nodes":"21","size_leaf_vector":"1"}},{"base_weights":[1.6790101E-6,4.518445E-2,-9.054698E-4,3.201075E-2,2.8679182E-3,-3.1450936E-3,-7.607545E-4,1.9396305E-2,1.5132466E-1,5.291307E-5,-2.497909E-2,2.5768112E-2,-2.3385764E-3,2.33064E-3,1.8877636E-4,9.048491E-6,-2.1291845E-2,1.3253489E-3,-2.8429607E-2,-2.909739E-6,8.8766054E-4,1.9524776E-5,-6.1809306E-4,-7.282524E-4,-1.6466835E-4],"categories":[],"categories_nodes":[],"categories_segments":[],"categories_sizes":[],"default_left":[0,0,0,0,0,0,0,0,0,0,0,0,0,0,0,0,0,0,0,0,0,0,0,0,0],"id":30,"left_children":[1,3,5,7,-1,-1,9,11,13,15,17,19,-1,-1,-1,-1,21,-1,23,-1,-1,-1,-1,-1,-1],"loss_changes":[5.065109E0,7.124848E0,5.1721697E0,3.4451222E0,0E0,0E0,2.3863034E0,3.254982E0,1.9586196E0,1.9990214E0,2.0667503E0,3.092667E0,0E0,0E0,0E0,0E0,3.6143074E0,0E0,1.9898264E0,0E0,0E0,0E0,0E0,0E0,0E0],"parents":[2147483647,0,0,1,1,2,2,3,3,6,6,7,7,8,8,9,9,10,10,11,11,16,16,18,18],"right_children":[2,4,6,8,-1,-1,10,12,14,16,18,20,-1,-1,-1,-1,22,-1,24,-1,-1,-1,-1,-1,-1],"split_conditions":[-1.5490308E0,1.8240138E0,-1.5740056E0,9.4236776E-2,2.8679182E-3,-3.1450936E-3,1.9525869E0,1.8025573E0,-1.5394791E0,1.8240138E0,1.0197877E0,1.4108617E-2,-2.3385764E-3,2.33064E-3,1.8877636E-4,9.048491E-6,2.8137788E-2,1.3253489E-3,1.1687757E0,-2.909739E-6,8.8766054E-4,1.9524776E-5,-6.1809306E-4,-7.282524E-4,-1.6466835E-4],"split_indices":[32,35,15,37,0,0,37,21,13,35,12,35,0,0,0,0,38,0,13,0,0,0,0,0,0],"split_type":[0,0,0,0,0,0,0,0,0,0,0,0,0,0,0,0,0,0,0,0,0,0,0,0,0],"sum_hessian":[1.23547E5,2.423E3,1.21124E5,2.299E3,1.24E2,5E1,1.21074E5,2.089E3,2.1E2,1.17147E5,3.927E3,2.043E3,4.6E1,1.35E2,7.5E1,1.12927E5,4.22E3,8.1E1,3.846E3,1.415E3,6.28E2,2.6E3,1.62E3,9.26E2,2.92E3],"tree_param":{"num_deleted":"0","num_feature":"41","num_nodes":"25","size_leaf_vector":"1"}},{"base_weights":[3.545199E-4,6.8087615E-2,-1.9772703E-4,8.162843E-2,-1.8785164E-3,5.3975935E-4,-2.4297961E-4,6.23292E-2,2.1971965E-3,-5.1670294E-2,8.1199495E-4,-6.751753E-2,7.8364246E-2,-6.6879526E-2,2.7914753E-3,4.469437E-2,4.9797495E-6,-2.5948868E-3,5.229375E-4,2.9827429E-3,6.624186E-4,-3.6106748E-4,-2.1178806E-3,-2.4396E-3,6.617445E-4],"categories":[],"categories_nodes":[],"categories_segments":[],"categories_sizes":[],"default_left":[0,0,0,0,0,0,0,0,0,0,0,0,0,0,0,0,0,0,0,0,0,0,0,0,0],"id":31,"left_children":[1,3,5,7,-1,9,-1,11,-1,13,15,17,19,21,-1,23,-1,-1,-1,-1,-1,-1,-1,-1,-1],"loss_changes":[4.6264033E0,3.4516606E0,2.0530295E0,2.1859245E0,0E0,1.6886386E0,0E0,1.798646E0,0E0,3.1097014E0,1.7781878E0,2.1229627E0,2.2674956E0,2.5293565E0,0E0,4.567268E0,0E0,0E0,0E0,0E0,0E0,0E0,0E0,0E0,0E0],"parents":[2147483647,0,0,1,1,2,2,3,3,5,5,7,7,9,9,10,10,11,11,12,12,13,13,15,15],"right_children":[2,4,6,8,-1,10,-1,12,-1,14,16,18,20,22,-1,24,-1,-1,-1,-1,-1,-1,-1,-1,-1],"split_conditions":[-1.5850338E0,1.8025573E0,1.9525869E0,-1.5860496E0,-1.8785164E-3,-1.5740056E0,-2.4297961E-4,-1.4456867E0,2.1971965E-3,5.052184E0,-1.5431086E0,-1.5942171E-1,-1.9222943E-1,-1.5547986E0,2.7914753E-3,-3.6094114E-1,4.9797495E-6,-2.5948868E-3,5.229375E-4,2.9827429E-3,6.624186E-4,-3.6106748E-4,-2.1178806E-3,-2.4396E-3,6.617445E-4],"split_indices":[19,21,37,7,0,15,0,39,0,34,2,37,37,7,0,34,0,0,0,0,0,0,0,0,0],"split_type":[0,0,0,0,0,0,0,0,0,0,0,0,0,0,0,0,0,0,0,0,0,0,0,0,0],"sum_hessian":[1.23651E5,9.91E2,1.2266E5,9.45E2,4.6E1,1.18807E5,3.853E3,8.31E2,1.14E2,6.07E2,1.182E5,8.8E1,7.43E2,5.86E2,2.1E1,9.07E2,1.17293E5,3.1E1,5.7E1,4.3E1,7E2,4.79E2,1.07E2,4.8E1,8.59E2],"tree_param":{"num_deleted":"0","num_feature":"41","num_nodes":"25","size_leaf_vector":"1"}},{"base_weights":[-1.5576547E-5,5.920565E-2,-7.240886E-4,4.5299444E-2,2.6928375E-3,-1.9575045E-3,-4.9427204E-4,3.671265E-2,2.71201E-3,1.9950357E-3,-9.794292E-3,4.5335114E-2,-1.6816929E-3,7.1183983E-3,-1.5981634E-5,-5.4980792E-2,-7.5048036E-3,7.909054E-4,-2.7609162E-4,-1.0852074E-3,8.6316744E-5,-8.387359E-4,1.3578144E-3,4.3143716E-4,-1.06607375E-4],"categories":[],"categories_nodes":[],"categories_segments":[],"categories_sizes":[],"default_left":[0,0,0,0,0,0,0,0,0,0,0,0,0,0,0,0,0,0,0,0,0,0,0,0,0],"id":32,"left_children":[1,3,5,7,-1,-1,9,11,-1,13,15,17,-1,19,-1,21,23,-1,-1,-1,-1,-1,-1,-1,-1],"loss_changes":[5.1755524E0,3.8335676E0,5.142655E0,2.3864052E0,0E0,0E0,2.8191113E0,2.301716E0,0E0,1.7228653E0,2.6555526E0,2.6822374E0,0E0,4.322407E0,0E0,5.533499E0,2.9940252E0,0E0,0E0,0E0,0E0,0E0,0E0,0E0,0E0],"parents":[2147483647,0,0,1,1,2,2,3,3,6,6,7,7,9,9,10,10,11,11,13,13,15,15,16,16],"right_children":[2,4,6,8,-1,-1,10,12,-1,14,16,18,-1,20,-1,22,24,-1,-1,-1,-1,-1,-1,-1,-1],"split_conditions":[-1.5776796E0,-1.5217954E0,-1.5836337E0,8.4909126E-2,2.6928375E-3,-1.9575045E-3,4.2315283E-1,1.8025573E0,2.71201E-3,-9.058501E-1,1.7619754E-1,-1.5850338E0,-1.6816929E-3,-1.797925E-2,-1.5981634E-5,2.5018404E0,4.9297523E-1,7.909054E-4,-2.7609162E-4,-1.0852074E-3,8.6316744E-5,-8.387359E-4,1.3578144E-3,4.3143716E-4,-1.06607375E-4],"split_indices":[32,16,15,37,0,0,35,21,0,15,37,19,0,37,0,35,37,0,0,0,0,0,0,0,0],"split_type":[0,0,0,0,0,0,0,0,0,0,0,0,0,0,0,0,0,0,0,0,0,0,0,0,0],"sum_hessian":[1.23344E5,1.449E3,1.21895E5,1.363E3,8.6E1,1.43E2,1.21752E5,1.32E3,4.3E1,9.6049E4,2.5703E4,1.271E3,4.9E1,3.8984E4,5.7065E4,1.229E3,2.4474E4,9.02E2,3.69E2,3.49E2,3.8635E4,1.091E3,1.38E2,1.218E3,2.3256E4],"tree_param":{"num_deleted":"0","num_feature":"41","num_nodes":"25","size_leaf_vector":"1"}},{"base_weights":[2.770386E-5,5.7582654E-2,-6.517912E-4,4.3566734E-2,2.9870768E-3,-1.6972206E-3,-4.581743E-4,6.999966E-2,-1.3047189E-4,3.063482E-6,-2.3201054E-2,8.1834E-2,-1.6143235E-3,7.936461E-4,-2.7963273E-2,2.5913212E-4,1.4470203E-3,-8.0629095E-4,-1.531283E-4],"categories":[],"categories_nodes":[],"categories_segments":[],"categories_sizes":[],"default_left":[0,0,0,0,0,0,0,0,0,0,0,0,0,0,0,0,0,0,0],"id":33,"left_children":[1,3,5,7,-1,-1,9,11,-1,-1,13,15,-1,-1,17,-1,-1,-1,-1],"loss_changes":[4.834003E0,4.40676E0,3.7631404E0,2.0287578E0,0E0,0E0,2.07239E0,2.5592346E0,0E0,0E0,1.8285546E0,2.7489705E0,0E0,0E0,2.396823E0,0E0,0E0,0E0,0E0],"parents":[2147483647,0,0,1,1,2,2,3,3,6,6,7,7,10,10,11,11,14,14],"right_children":[2,4,6,8,-1,-1,10,12,-1,-1,14,16,-1,-1,18,-1,-1,-1,-1],"split_conditions":[-1.5776796E0,-1.5217954E0,-1.5836337E0,-1.5836674E0,2.9870768E-3,-1.6972206E-3,1.9525869E0,2.273435E0,-1.3047189E-4,3.063482E-6,1.0460871E0,-1.5251186E-1,-1.6143235E-3,7.936461E-4,1.1687757E0,2.5913212E-4,1.4470203E-3,-8.0629095E-4,-1.531283E-4],"split_indices":[32,16,15,14,0,0,37,21,0,0,11,35,0,0,13,0,0,0,0],"split_type":[0,0,0,0,0,0,0,0,0,0,0,0,0,0,0,0,0,0,0],"sum_hessian":[1.23572E5,1.433E3,1.22139E5,1.359E3,7.4E1,1.39E2,1.22E5,9.21E2,4.38E2,1.1813E5,3.87E3,8.8E2,4.1E1,1.73E2,3.697E3,4.35E2,4.45E2,8.04E2,2.893E3],"tree_param":{"num_deleted":"0","num_feature":"41","num_nodes":"19","size_leaf_vector":"1"}}]},"name":"gbtree"},"learner_model_param":{"base_score":"[5.08515E-1]","boost_from_average":"1","num_class":"0","num_feature":"41","num_target":"1"},"objective":{"name":"reg:squarederror","reg_loss_param":{"scale_pos_weight":"1"}}},"version":[3,2,0]}