{"learner":{"attributes":{"best_iteration":"1","best_score":"0.11741538893525111","scikit_learn":"{\"_estimator_type\": \"regressor\"}"},"feature_names":[],"feature_types":[],"gradient_booster":{"model":{"cats":{"enc":[],"feature_segments":[],"sorted_idx":[]},"gbtree_model_param":{"num_parallel_tree":"1","num_trees":"32"},"iteration_indptr":[0,1,2,3,4,5,6,7,8,9,10,11,12,13,14,15,16,17,18,19,20,21,22,23,24,25,26,27,28,29,30,31,32],"tree_info":[0,0,0,0,0,0,0,0,0,0,0,0,0,0,0,0,0,0,0,0,0,0,0,0,0,0,0,0,0,0,0,0],"trees":[{"base_weights":[1.01801816E-4,-7.303099E-2,9.671661E-4,-5.7564106E-2,-3.378775E-1,1.5494587E-1,6.008623E-4,-9.790682E-4,3.5142957E-3,-5.9316275E-3,-9.527964E-4,1.6602307E-3,5.9497943E-3,-3.6967096E-5,1.5519932E-4],"categories":[],"categories_nodes":[],"categories_segments":[],"categories_sizes":[],"default_left":[0,0,0,0,0,0,0,0,0,0,0,0,0,0,0],"id":0,"left_children":[1,3,5,7,9,11,13,-1,-1,-1,-1,-1,-1,-1,-1],"loss_changes":[9.191264E0,6.923402E0,8.089685E0,4.5408835E0,1.6996479E0,3.4922009E0,4.501902E0,0E0,0E0,0E0,0E0,0E0,0E0,0E0,0E0],"parents":[2147483647,0,0,1,1,2,2,3,3,4,4,5,5,6,6],"right_children":[2,4,6,8,10,12,14,-1,-1,-1,-1,-1,-1,-1,-1],"split_conditions":[-1.5776796E0,-1.5217954E0,-1.5737442E0,2.273435E0,-1.5409362E0,-1.5490308E0,3.1949404E-1,-9.790682E-4,3.5142957E-3,-5.9316275E-3,-9.527964E-4,1.6602307E-3,5.9497943E-3,-3.6967096E-5,1.5519932E-4],"split_indices":[32,16,16,21,10,32,35,0,0,0,0,0,0,0,0],"split_type":[0,0,0,0,0,0,0,0,0,0,0,0,0,0,0],"sum_hessian":[1.45307E5,1.698E3,1.43609E5,1.605E3,9.3E1,3.4E2,1.43269E5,1.556E3,4.9E1,7.4E1,1.9E1,2.93E2,4.7E1,1.09163E5,3.4106E4],"tree_param":{"num_deleted":"0","num_feature":"41","num_nodes":"15","size_leaf_vector":"1"}},{"base_weights":[-2.5570856E-5,-9.298264E-2,7.13626E-4,-1.11638896E-1,2.5455642E-1,-2.2073995E-4,2.9403519E-2,-1.4089748E-3,-6.456329E-3,5.1811547E-3,-1.0125362E-4,9.827776E-4,-8.171331E-6,-2.20194E-3,4.648679E-4],"categories":[],"categories_nodes":[],"categories_segments":[],"categories_sizes":[],"default_left":[0,0,0,0,0,0,0,0,0,0,0,0,0,0,0],"id":1,"left_children":[1,3,5,7,9,11,13,-1,-1,-1,-1,-1,-1,-1,-1],"loss_changes":[9.993462E0,7.4412584E0,3.8674903E0,5.398221E0,1.5556808E0,3.1920269E0,1.9917514E0,0E0,0E0,0E0,0E0,0E0,0E0,0E0,0E0],"parents":[2147483647,0,0,1,1,2,2,3,3,4,4,5,5,6,6],"right_children":[2,4,6,8,10,12,14,-1,-1,-1,-1,-1,-1,-1,-1],"split_conditions":[-1.5850338E0,1.8025573E0,1.9525869E0,1.4658592E0,9.494545E-1,-1.5740056E0,1.0193597E0,-1.4089748E-3,-6.456329E-3,5.1811547E-3,-1.0125362E-4,9.827776E-4,-8.171331E-6,-2.20194E-3,4.648679E-4],"split_indices":[19,21,37,35,39,15,31,0,0,0,0,0,0,0,0],"split_type":[0,0,0,0,0,0,0,0,0,0,0,0,0,0,0],"sum_hessian":[1.45347E5,1.147E3,1.442E5,1.089E3,5.8E1,1.3965E5,4.55E3,1.042E3,4.7E1,4.2E1,1.6E1,6.96E2,1.38954E5,6E1,4.49E3],"tree_param":{"num_deleted":"0","num_feature":"41","num_nodes":"15","size_leaf_vector":"1"}},{"base_weights":[1.763147E-5,-7.225057E-2,8.72893E-4,-5.6004405E-2,-3.3856782E-1,2.2544192E-1,5.932426E-4,-9.5182745E-4,3.3879408E-3,-6.2009227E-3,-1.2427993E-3,2.2444231E-3,6.146592E-3,-3.1999785E-5,1.6129001E-4],"categories":[],"categories_nodes":[],"categories_segments":[],"categories_sizes":[],"default_left":[0,0,0,0,0,0,0,0,0,0,0,0,0,0,0],"id":2,"left_children":[1,3,5,7,9,11,13,-1,-1,-1,-1,-1,-1,-1,-1],"loss_changes":[8.980517E0,7.319092E0,9.00782E0,4.2357855E0,2.0784302E0,2.4382944E0,4.178226E0,0E0,0E0,0E0,0E0,0E0,0E0,0E0,0E0],"parents":[2147483647,0,0,1,1,2,2,3,3,4,4,5,5,6,6],"right_children":[2,4,6,8,10,12,14,-1,-1,-1,-1,-1,-1,-1,-1],"split_conditions":[-1.5776796E0,-1.5217954E0,-1.5836337E0,2.273435E0,-1.4859266E0,-1.5490308E0,4.2315283E-1,-9.5182745E-4,3.3879408E-3,-6.2009227E-3,-1.2427993E-3,2.2444231E-3,6.146592E-3,-3.1999785E-5,1.6129001E-4],"split_indices":[32,16,15,21,31,32,35,0,0,0,0,0,0,0,0],"split_type":[0,0,0,0,0,0,0,0,0,0,0,0,0,0,0],"sum_hessian":[1.45372E5,1.699E3,1.43673E5,1.602E3,9.7E1,1.78E2,1.43495E5,1.553E3,4.9E1,7.2E1,2.5E1,1.31E2,4.7E1,1.13304E5,3.0191E4],"tree_param":{"num_deleted":"0","num_feature":"41","num_nodes":"15","size_leaf_vector":"1"}},{"base_weights":[1.6247523E-4,-8.5926525E-2,8.405967E-4,-1.0204884E-1,2.2150916E-1,-6.7909496E-5,2.8776128E-2,-6.416974E-4,-2.2645418E-3,4.809143E-3,-3.5096036E-4,1.0236006E-3,-6.0963685E-6,-2.3441846E-3,4.6011235E-4],"categories":[],"categories_nodes":[],"categories_segments":[],"categories_sizes":[],"default_left":[0,0,0,0,0,0,0,0,0,0,0,0,0,0,0],"id":3,"left_children":[1,3,5,7,9,11,13,-1,-1,-1,-1,-1,-1,-1,-1],"loss_changes":[8.466186E0,5.618808E0,3.6561642E0,3.3049974E0,1.517163E0,3.4169428E0,2.3453963E0,0E0,0E0,0E0,0E0,0E0,0E0,0E0,0E0],"parents":[2147483647,0,0,1,1,2,2,3,3,4,4,5,5,6,6],"right_children":[2,4,6,8,10,12,14,-1,-1,-1,-1,-1,-1,-1,-1],"split_conditions":[-1.5850338E0,1.7000153E0,1.9525869E0,-1.6045755E0,1.259205E0,-1.5740056E0,1.0193597E0,-6.416974E-4,-2.2645418E-3,4.809143E-3,-3.5096036E-4,1.0236006E-3,-6.0963685E-6,-2.3441846E-3,4.6011235E-4],"split_indices":[19,21,37,30,39,15,31,0,0,0,0,0,0,0,0],"split_type":[0,0,0,0,0,0,0,0,0,0,0,0,0,0,0],"sum_hessian":[1.45117E5,1.133E3,1.43984E5,1.077E3,5.6E1,1.39447E5,4.537E3,5.15E2,5.62E2,3.9E1,1.7E1,6.9E2,1.38757E5,6.4E1,4.473E3],"tree_param":{"num_deleted":"0","num_feature":"41","num_nodes":"15","size_leaf_vector":"1"}},{"base_weights":[-3.5297533E-5,-7.267186E-2,8.3209266E-4,-5.7135332E-2,-3.272505E-1,2.2483604E-1,5.4373435E-4,-9.711756E-4,3.3309334E-3,-6.0958755E-3,-1.239145E-3,1.5889591E-3,4.6839262E-3,-4.935166E-6,4.0271145E-4],"categories":[],"categories_nodes":[],"categories_segments":[],"categories_sizes":[],"default_left":[0,0,0,0,0,0,0,0,0,0,0,0,0,0,0],"id":4,"left_children":[1,3,5,7,9,11,13,-1,-1,-1,-1,-1,-1,-1,-1],"loss_changes":[9.163911E0,6.756012E0,9.26438E0,4.326937E0,2.1055489E0,2.0107698E0,3.4224062E0,0E0,0E0,0E0,0E0,0E0,0E0,0E0,0E0],"parents":[2147483647,0,0,1,1,2,2,3,3,4,4,5,5,6,6],"right_children":[2,4,6,8,10,12,14,-1,-1,-1,-1,-1,-1,-1,-1],"split_conditions":[-1.5776796E0,-1.5217954E0,-1.5836337E0,2.273435E0,-1.4859266E0,-1.5696855E0,1.9525869E0,-9.711756E-4,3.3309334E-3,-6.0958755E-3,-1.239145E-3,1.5889591E-3,4.6839262E-3,-4.935166E-6,4.0271145E-4],"split_indices":[32,16,15,21,31,19,37,0,0,0,0,0,0,0,0],"split_type":[0,0,0,0,0,0,0,0,0,0,0,0,0,0,0],"sum_hessian":[1.45373E5,1.716E3,1.43657E5,1.618E3,9.8E1,1.84E2,1.43473E5,1.567E3,5.1E1,7.1E1,2.7E1,8.4E1,1E2,1.3894E5,4.533E3],"tree_param":{"num_deleted":"0","num_feature":"41","num_nodes":"15","size_leaf_vector":"1"}},{"base_weights":[-1.4545338E-4,-7.307668E-2,7.324308E-4,-5.739766E-2,-3.294633E-1,1.399339E-1,3.9263722E-4,-9.6096436E-4,3.087562E-3,-6.008811E-3,-1.1862654E-3,1.4967067E-3,5.409119E-3,-3.265383E-5,1.4933084E-4],"categories":[],"categories_nodes":[],"categories_segments":[],"categories_sizes":[],"default_left":[0,0,0,0,0,0,0,0,0,0,0,0,0,0,0],"id":5,"left_children":[1,3,5,7,9,11,13,-1,-1,-1,-1,-1,-1,-1,-1],"loss_changes":[9.314662E0,6.922963E0,6.786708E0,3.6893358E0,1.9794846E0,2.9681263E0,3.7068365E0,0E0,0E0,0E0,0E0,0E0,0E0,0E0,0E0],"parents":[2147483647,0,0,1,1,2,2,3,3,4,4,5,5,6,6],"right_children":[2,4,6,8,10,12,14,-1,-1,-1,-1,-1,-1,-1,-1],"split_conditions":[-1.5776796E0,-1.5217954E0,-1.5737442E0,2.273435E0,-1.4859266E0,-1.5490308E0,4.2315283E-1,-9.6096436E-4,3.087562E-3,-6.008811E-3,-1.1862654E-3,1.4967067E-3,5.409119E-3,-3.265383E-5,1.4933084E-4],"split_indices":[32,16,16,21,31,32,35,0,0,0,0,0,0,0,0],"split_type":[0,0,0,0,0,0,0,0,0,0,0,0,0,0,0],"sum_hessian":[1.45409E5,1.73E3,1.43679E5,1.631E3,9.9E1,3.49E2,1.4333E5,1.582E3,4.9E1,7.4E1,2.5E1,3.01E2,4.8E1,1.13092E5,3.0238E4],"tree_param":{"num_deleted":"0","num_feature":"41","num_nodes":"15","size_leaf_vector":"1"}},{"base_weights":[-8.9573325E-5,-6.886823E-2,7.411785E-4,-5.265184E-2,-3.3209577E-1,1.3077961E-1,4.2444552E-4,-6.391855E-4,-4.737692E-3,-5.959923E-3,-1.4361527E-3,1.388507E-3,5.4423166E-3,-7.109836E-6,4.1237476E-4],"categories":[],"categories_nodes":[],"categories_segments":[],"categories_sizes":[],"default_left":[0,0,0,0,0,0,0,0,0,0,0,0,0,0,0],"id":6,"left_children":[1,3,5,7,9,11,13,-1,-1,-1,-1,-1,-1,-1,-1],"loss_changes":[8.308408E0,7.375371E0,5.905639E0,3.914679E0,1.7365913E0,2.9628515E0,3.633909E0,0E0,0E0,0E0,0E0,0E0,0E0,0E0,0E0],"parents":[2147483647,0,0,1,1,2,2,3,3,4,4,5,5,6,6],"right_children":[2,4,6,8,10,12,14,-1,-1,-1,-1,-1,-1,-1,-1],"split_conditions":[-1.5776796E0,-1.5217954E0,-1.5737442E0,8.4909126E-2,-1.4859266E0,-1.5490308E0,1.9525869E0,-6.391855E-4,-4.737692E-3,-5.959923E-3,-1.4361527E-3,1.388507E-3,5.4423166E-3,-7.109836E-6,4.1237476E-4],"split_indices":[32,16,16,37,31,32,37,0,0,0,0,0,0,0,0],"split_type":[0,0,0,0,0,0,0,0,0,0,0,0,0,0,0],"sum_hessian":[1.4533E5,1.735E3,1.43595E5,1.635E3,1E2,3.48E2,1.43247E5,1.584E3,5.1E1,7.5E1,2.5E1,3.04E2,4.4E1,1.38701E5,4.546E3],"tree_param":{"num_deleted":"0","num_feature":"41","num_nodes":"15","size_leaf_vector":"1"}},{"base_weights":[1.7132214E-4,-6.932654E-2,9.920424E-4,-5.3239074E-2,-3.1906754E-1,1.3366011E-1,6.731141E-4,-8.9775596E-4,3.2309382E-3,-5.8838874E-3,-1.1835793E-3,1.4841547E-3,4.995356E-3,-3.5569963E-5,1.491388E-4],"categories":[],"categories_nodes":[],"categories_segments":[],"categories_sizes":[],"default_left":[0,0,0,0,0,0,0,0,0,0,0,0,0,0,0],"id":7,"left_children":[1,3,5,7,9,11,13,-1,-1,-1,-1,-1,-1,-1,-1],"loss_changes":[8.295236E0,6.78831E0,6.076104E0,3.6080823E0,2.0004883E0,2.255076E0,4.257062E0,0E0,0E0,0E0,0E0,0E0,0E0,0E0,0E0],"parents":[2147483647,0,0,1,1,2,2,3,3,4,4,5,5,6,6],"right_children":[2,4,6,8,10,12,14,-1,-1,-1,-1,-1,-1,-1,-1],"split_conditions":[-1.5776796E0,-1.5217954E0,-1.5737442E0,2.273435E0,-1.4859266E0,-1.5490308E0,2.927046E-1,-8.9775596E-4,3.2309382E-3,-5.8838874E-3,-1.1835793E-3,1.4841547E-3,4.995356E-3,-3.5569963E-5,1.491388E-4],"split_indices":[32,16,16,21,31,32,35,0,0,0,0,0,0,0,0],"split_type":[0,0,0,0,0,0,0,0,0,0,0,0,0,0,0],"sum_hessian":[1.45511E5,1.697E3,1.43814E5,1.595E3,1.02E2,3.44E2,1.4347E5,1.549E3,4.6E1,7.5E1,2.7E1,2.99E2,4.5E1,1.08203E5,3.5267E4],"tree_param":{"num_deleted":"0","num_feature":"41","num_nodes":"15","size_leaf_vector":"1"}},{"base_weights":[-7.344595E-5,-8.561737E-2,5.9848913E-4,-1.0202395E-1,2.2753794E-1,-2.1516536E-3,9.367653E-3,-1.2624701E-3,-6.292942E-3,4.716896E-3,-8.0980704E-4,1.0464244E-3,-3.73067E-5,-2.1779789E-3,1.5851989E-4],"categories":[],"categories_nodes":[],"categories_segments":[],"categories_sizes":[],"default_left":[0,0,0,0,0,0,0,0,0,0,0,0,0,0,0],"id":8,"left_children":[1,3,5,7,9,11,13,-1,-1,-1,-1,-1,-1,-1,-1],"loss_changes":[8.366407E0,5.829199E0,3.481005E0,5.4697943E0,1.5494413E0,3.2683315E0,8.130187E0,0E0,0E0,0E0,0E0,0E0,0E0,0E0,0E0],"parents":[2147483647,0,0,1,1,2,2,3,3,4,4,5,5,6,6],"right_children":[2,4,6,8,10,12,14,-1,-1,-1,-1,-1,-1,-1,-1],"split_conditions":[-1.5850338E0,1.7000153E0,3.1949404E-1,1.4658592E0,1.315552E0,-1.5737442E0,-1.5490308E0,-1.2624701E-3,-6.292942E-3,4.716896E-3,-8.0980704E-4,1.0464244E-3,-3.73067E-5,-2.1779789E-3,1.5851989E-4],"split_indices":[19,21,35,35,39,16,32,0,0,0,0,0,0,0,0],"split_type":[0,0,0,0,0,0,0,0,0,0,0,0,0,0,0],"sum_hessian":[1.45455E5,1.134E3,1.44321E5,1.078E3,5.6E1,1.0986E5,3.4461E4,1.03E3,4.8E1,4.2E1,1.4E1,5.96E2,1.09264E5,3.2E2,3.4141E4],"tree_param":{"num_deleted":"0","num_feature":"41","num_nodes":"15","size_leaf_vector":"1"}},{"base_weights":[-3.2219876E-5,-8.297874E-2,6.182555E-4,-7.028476E-2,-3.5965097E-1,-6.1878597E-4,1.784585E-2,-1.3187197E-3,2.6712446E-3,-6.287069E-3,-1.493278E-3,-4.7841277E-6,-1.0417027E-3,-1.0720622E-4,4.0267681E-4],"categories":[],"categories_nodes":[],"categories_segments":[],"categories_sizes":[],"default_left":[0,0,0,0,0,0,0,0,0,0,0,0,0,0,0],"id":9,"left_children":[1,3,5,7,9,11,13,-1,-1,-1,-1,-1,-1,-1,-1],"loss_changes":[7.8590174E0,3.9421601E0,3.0790284E0,5.50275E0,8.495021E-1,2.7697089E0,2.3747015E0,0E0,0E0,0E0,0E0,0E0,0E0,0E0,0E0],"parents":[2147483647,0,0,1,1,2,2,3,3,4,4,5,5,6,6],"right_children":[2,4,6,8,10,12,14,-1,-1,-1,-1,-1,-1,-1,-1],"split_conditions":[-1.5850338E0,1.8240138E0,1.0309759E0,2.2201972E0,-2.201316E-1,1.9242457E0,2.1843636E-1,-1.3187197E-3,2.6712446E-3,-6.287069E-3,-1.493278E-3,-4.7841277E-6,-1.0417027E-3,-1.0720622E-4,4.0267681E-4],"split_indices":[19,35,11,36,37,37,35,0,0,0,0,0,0,0,0],"split_type":[0,0,0,0,0,0,0,0,0,0,0,0,0,0,0],"sum_hessian":[1.45558E5,1.133E3,1.44425E5,1.084E3,4.9E1,1.34746E5,9.679E3,1.005E3,7.9E1,3.8E1,1.1E1,1.34195E5,5.51E2,2.696E3,6.983E3],"tree_param":{"num_deleted":"0","num_feature":"41","num_nodes":"15","size_leaf_vector":"1"}},{"base_weights":[1.5942681E-4,-6.530862E-2,9.3286973E-4,-4.9274914E-2,-3.1636617E-1,1.2852862E-1,6.156315E-4,-8.4195036E-4,3.9752186E-3,-5.6297076E-3,-1.1131188E-3,1.0933556E-3,3.8519416E-3,-3.1258332E-5,1.5966076E-4],"categories":[],"categories_nodes":[],"categories_segments":[],"categories_sizes":[],"default_left":[0,0,0,0,0,0,0,0,0,0,0,0,0,0,0],"id":10,"left_children":[1,3,5,7,9,11,13,-1,-1,-1,-1,-1,-1,-1,-1],"loss_changes":[7.348159E0,6.790267E0,5.8003645E0,4.2914696E0,1.6432552E0,2.549172E0,4.072875E0,0E0,0E0,0E0,0E0,0E0,0E0,0E0,0E0],"parents":[2147483647,0,0,1,1,2,2,3,3,4,4,5,5,6,6],"right_children":[2,4,6,8,10,12,14,-1,-1,-1,-1,-1,-1,-1,-1],"split_conditions":[-1.5776796E0,1.8240138E0,-1.5737442E0,2.273435E0,-1.4859266E0,-8.016154E-2,4.2315283E-1,-8.4195036E-4,3.9752186E-3,-5.6297076E-3,-1.1131188E-3,1.0933556E-3,3.8519416E-3,-3.1258332E-5,1.5966076E-4],"split_indices":[32,35,16,21,31,35,35,0,0,0,0,0,0,0,0],"split_type":[0,0,0,0,0,0,0,0,0,0,0,0,0,0,0],"sum_hessian":[1.45201E5,1.694E3,1.43507E5,1.593E3,1.01E2,3.55E2,1.43152E5,1.553E3,4E1,7.8E1,2.3E1,2.55E2,1E2,1.1297E5,3.0182E4],"tree_param":{"num_deleted":"0","num_feature":"41","num_nodes":"15","size_leaf_vector":"1"}},{"base_weights":[3.4630683E-4,-7.476617E-2,9.3645515E-4,-8.9979485E-2,2.2560833E-1,6.808355E-2,6.063559E-4,-1.120517E-3,-5.8805575E-3,4.524288E-3,-9.413533E-4,5.808597E-4,5.3731934E-3,-9.683817E-4,1.6007481E-5],"categories":[],"categories_nodes":[],"categories_segments":[],"categories_sizes":[],"default_left":[0,0,0,0,0,0,0,0,0,0,0,0,0,0,0],"id":11,"left_children":[1,3,5,7,9,11,13,-1,-1,-1,-1,-1,-1,-1,-1],"loss_changes":[6.4277525E0,5.1646304E0,3.1869113E0,4.4115896E0,1.3537967E0,5.937702E0,4.6951528E0,0E0,0E0,0E0,0E0,0E0,0E0,0E0,0E0],"parents":[2147483647,0,0,1,1,2,2,3,3,4,4,5,5,6,6],"right_children":[2,4,6,8,10,12,14,-1,-1,-1,-1,-1,-1,-1,-1],"split_conditions":[-1.5850338E0,1.8025573E0,-1.5740056E0,1.4658592E0,1.315552E0,-1.5490308E0,-1.5490308E0,-1.120517E-3,-5.8805575E-3,4.524288E-3,-9.413533E-4,5.808597E-4,5.3731934E-3,-9.683817E-4,1.6007481E-5],"split_indices":[19,21,15,35,39,32,32,0,0,0,0,0,0,0,0],"split_type":[0,0,0,0,0,0,0,0,0,0,0,0,0,0,0],"sum_hessian":[1.45115E5,1.13E3,1.43985E5,1.076E3,5.4E1,7.03E2,1.43282E5,1.033E3,4.3E1,4.2E1,1.2E1,6.43E2,6E1,1.04E3,1.42242E5],"tree_param":{"num_deleted":"0","num_feature":"41","num_nodes":"15","size_leaf_vector":"1"}},{"base_weights":[2.8124225E-4,-7.760635E-2,8.9777913E-4,-9.39494E-2,2.3630635E-1,-2.0131955E-3,9.109257E-3,-1.1863784E-3,-5.8968617E-3,4.924536E-3,-0E0,9.2543836E-4,-3.466014E-5,-1.9043233E-3,1.5281304E-4],"categories":[],"categories_nodes":[],"categories_segments":[],"categories_sizes":[],"default_left":[0,0,0,0,0,0,0,0,0,0,0,0,0,0,0],"id":12,"left_children":[1,3,5,7,9,11,13,-1,-1,-1,-1,-1,-1,-1,-1],"loss_changes":[6.979139E0,5.8550677E0,3.4497464E0,4.2247276E0,1.3326428E0,2.5091739E0,7.1458488E0,0E0,0E0,0E0,0E0,0E0,0E0,0E0,0E0],"parents":[2147483647,0,0,1,1,2,2,3,3,4,4,5,5,6,6],"right_children":[2,4,6,8,10,12,14,-1,-1,-1,-1,-1,-1,-1,-1],"split_conditions":[-1.5850338E0,1.8025573E0,2.4291569E-1,1.7360239E0,9.1973186E-1,-1.5737442E0,-1.5490308E0,-1.1863784E-3,-5.8968617E-3,4.924536E-3,-0E0,9.2543836E-4,-3.466014E-5,-1.9043233E-3,1.5281304E-4],"split_indices":[19,21,35,35,39,16,32,0,0,0,0,0,0,0,0],"split_type":[0,0,0,0,0,0,0,0,0,0,0,0,0,0,0],"sum_hessian":[1.45441E5,1.141E3,1.443E5,1.085E3,5.6E1,1.06528E5,3.7772E4,1.043E3,4.2E1,3.9E1,1.7E1,5.83E2,1.05945E5,3.63E2,3.7409E4],"tree_param":{"num_deleted":"0","num_feature":"41","num_nodes":"15","size_leaf_vector":"1"}},{"base_weights":[-5.137E-5,-6.527291E-2,7.2149694E-4,-5.0892156E-2,-2.9604152E-1,2.0838892E-1,4.681891E-4,-8.6927897E-4,3.210734E-3,-5.5042324E-3,-7.5455516E-4,1.1973875E-3,4.1802754E-3,-3.0997377E-5,1.522078E-4],"categories":[],"categories_nodes":[],"categories_segments":[],"categories_sizes":[],"default_left":[0,0,0,0,0,0,0,0,0,0,0,0,0,0,0],"id":13,"left_children":[1,3,5,7,9,11,13,-1,-1,-1,-1,-1,-1,-1,-1],"loss_changes":[7.318896E0,5.6140976E0,7.5300403E0,3.744079E0,1.9301729E0,1.6838217E0,3.6961E0,0E0,0E0,0E0,0E0,0E0,0E0,0E0,0E0],"parents":[2147483647,0,0,1,1,2,2,3,3,4,4,5,5,6,6],"right_children":[2,4,6,8,10,12,14,-1,-1,-1,-1,-1,-1,-1,-1],"split_conditions":[-1.5776796E0,-1.5217954E0,-1.5836337E0,2.273435E0,-1.4859266E0,-1.5681707E0,4.391395E-1,-8.6927897E-4,3.210734E-3,-5.5042324E-3,-7.5455516E-4,1.1973875E-3,4.1802754E-3,-3.0997377E-5,1.522078E-4],"split_indices":[32,16,15,21,31,30,35,0,0,0,0,0,0,0,0],"split_type":[0,0,0,0,0,0,0,0,0,0,0,0,0,0,0],"sum_hessian":[1.45109E5,1.7E3,1.43409E5,1.601E3,9.9E1,1.74E2,1.43235E5,1.552E3,4.9E1,7.4E1,2.5E1,6.7E1,1.07E2,1.13651E5,2.9584E4],"tree_param":{"num_deleted":"0","num_feature":"41","num_nodes":"15","size_leaf_vector":"1"}},{"base_weights":[-2.4594196E-5,-6.481117E-2,7.4737327E-4,-5.029951E-2,-3.0212218E-1,1.942354E-1,5.0642405E-4,-8.511056E-4,2.8777006E-3,-5.531232E-3,-1.0670424E-3,1.1798941E-3,3.917367E-3,-3.2342778E-5,1.297734E-4],"categories":[],"categories_nodes":[],"categories_segments":[],"categories_sizes":[],"default_left":[0,0,0,0,0,0,0,0,0,0,0,0,0,0,0],"id":14,"left_children":[1,3,5,7,9,11,13,-1,-1,-1,-1,-1,-1,-1,-1],"loss_changes":[7.2772818E0,5.8712554E0,6.6869407E0,3.1901846E0,1.6882029E0,1.467124E0,3.2747805E0,0E0,0E0,0E0,0E0,0E0,0E0,0E0,0E0],"parents":[2147483647,0,0,1,1,2,2,3,3,4,4,5,5,6,6],"right_children":[2,4,6,8,10,12,14,-1,-1,-1,-1,-1,-1,-1,-1],"split_conditions":[-1.5776796E0,-1.5217954E0,-1.5836337E0,2.273435E0,-1.4859266E0,-1.5681707E0,2.927046E-1,-8.511056E-4,2.8777006E-3,-5.531232E-3,-1.0670424E-3,1.1798941E-3,3.917367E-3,-3.2342778E-5,1.297734E-4],"split_indices":[32,16,15,21,31,30,35,0,0,0,0,0,0,0,0],"split_type":[0,0,0,0,0,0,0,0,0,0,0,0,0,0,0],"sum_hessian":[1.45422E5,1.713E3,1.43709E5,1.615E3,9.8E1,1.78E2,1.43531E5,1.565E3,5E1,7.3E1,2.5E1,7.1E1,1.07E2,1.08344E5,3.5187E4],"tree_param":{"num_deleted":"0","num_feature":"41","num_nodes":"15","size_leaf_vector":"1"}},{"base_weights":[-1.1857415E-4,-7.528012E-2,4.7610275E-4,-9.162246E-2,2.1727301E-1,-3.9217697E-4,2.7140278E-2,-1.0740344E-3,-3.359352E-3,5.693309E-3,1.4214324E-3,8.924651E-4,-1.0273315E-5,-1.983171E-3,4.440516E-4],"categories":[],"categories_nodes":[],"categories_segments":[],"categories_sizes":[],"default_left":[0,0,0,0,0,0,0,0,0,0,0,0,0,0,0],"id":15,"left_children":[1,3,5,7,9,11,13,-1,-1,-1,-1,-1,-1,-1,-1],"loss_changes":[6.51042E0,5.4661508E0,3.3449936E0,2.682479E0,1.2033455E0,2.6755755E0,2.425473E0,0E0,0E0,0E0,0E0,0E0,0E0,0E0,0E0],"parents":[2147483647,0,0,1,1,2,2,3,3,4,4,5,5,6,6],"right_children":[2,4,6,8,10,12,14,-1,-1,-1,-1,-1,-1,-1,-1],"split_conditions":[-1.5850338E0,1.8025573E0,1.9525869E0,-1.5860496E0,2.5470665E0,-1.5740056E0,1.0197877E0,-1.0740344E-3,-3.359352E-3,5.693309E-3,1.4214324E-3,8.924651E-4,-1.0273315E-5,-1.983171E-3,4.440516E-4],"split_indices":[19,21,37,7,20,15,12,0,0,0,0,0,0,0,0],"split_type":[0,0,0,0,0,0,0,0,0,0,0,0,0,0,0],"sum_hessian":[1.45546E5,1.143E3,1.44403E5,1.083E3,6E1,1.39847E5,4.556E3,9.59E2,1.24E2,2.4E1,3.6E1,7.03E2,1.39144E5,8.9E1,4.467E3],"tree_param":{"num_deleted":"0","num_feature":"41","num_nodes":"15","size_leaf_vector":"1"}},{"base_weights":[-1.7148852E-5,-7.293067E-2,5.6603714E-4,-6.0879085E-2,-3.2981518E-1,-2.507831E-4,2.586371E-2,-1.1853242E-3,2.6395547E-3,-6.0626017E-3,-1.6806131E-3,8.889097E-4,-8.114211E-6,-1.8371618E-3,4.2459756E-4],"categories":[],"categories_nodes":[],"categories_segments":[],"categories_sizes":[],"default_left":[0,0,0,0,0,0,0,0,0,0,0,0,0,0,0],"id":16,"left_children":[1,3,5,7,9,11,13,-1,-1,-1,-1,-1,-1,-1,-1],"loss_changes":[6.186258E0,3.5400968E0,2.9817324E0,5.41382E0,8.8868713E-1,2.6006699E0,2.1980512E0,0E0,0E0,0E0,0E0,0E0,0E0,0E0,0E0],"parents":[2147483647,0,0,1,1,2,2,3,3,4,4,5,5,6,6],"right_children":[2,4,6,8,10,12,14,-1,-1,-1,-1,-1,-1,-1,-1],"split_conditions":[-1.5850338E0,1.8240138E0,1.9525869E0,2.1550562E0,-2.410526E-1,-1.5740056E0,1.0197877E0,-1.1853242E-3,2.6395547E-3,-6.0626017E-3,-1.6806131E-3,8.889097E-4,-8.114211E-6,-1.8371618E-3,4.2459756E-4],"split_indices":[19,35,37,36,37,15,12,0,0,0,0,0,0,0,0],"split_type":[0,0,0,0,0,0,0,0,0,0,0,0,0,0,0],"sum_hessian":[1.4537E5,1.154E3,1.44216E5,1.103E3,5.1E1,1.39703E5,4.513E3,1.018E3,8.5E1,3.6E1,1.5E1,6.92E2,1.39011E5,9.3E1,4.42E3],"tree_param":{"num_deleted":"0","num_feature":"41","num_nodes":"15","size_leaf_vector":"1"}},{"base_weights":[8.282571E-5,-6.2867224E-2,5.817354E-4,-7.9683386E-2,2.1354978E-1,-2.2881801E-4,2.5638534E-2,9.713613E-4,-1.3856081E-3,5.697526E-3,1.5445446E-3,9.2716736E-4,-7.597713E-6,-1.9046783E-3,4.183634E-4],"categories":[],"categories_nodes":[],"categories_segments":[],"categories_sizes":[],"default_left":[0,0,0,0,0,0,0,0,0,0,0,0,0,0,0],"id":17,"left_children":[1,3,5,7,9,11,13,-1,-1,-1,-1,-1,-1,-1,-1],"loss_changes":[4.562903E0,5.308054E0,2.931876E0,2.4018488E0,1.1960032E0,2.5926883E0,2.1241648E0,0E0,0E0,0E0,0E0,0E0,0E0,0E0,0E0],"parents":[2147483647,0,0,1,1,2,2,3,3,4,4,5,5,6,6],"right_children":[2,4,6,8,10,12,14,-1,-1,-1,-1,-1,-1,-1,-1],"split_conditions":[-1.5835751E0,1.7000153E0,1.9525869E0,-1.4456867E0,3.8745515E0,-1.5737442E0,1.0197877E0,9.713613E-4,-1.3856081E-3,5.697526E-3,1.5445446E-3,9.2716736E-4,-7.597713E-6,-1.9046783E-3,4.183634E-4],"split_indices":[12,21,37,39,34,16,12,0,0,0,0,0,0,0,0],"split_type":[0,0,0,0,0,0,0,0,0,0,0,0,0,0,0],"sum_hessian":[1.45416E5,1.142E3,1.44274E5,1.077E3,6.5E1,1.39751E5,4.523E3,1.01E2,9.76E2,2.4E1,4.1E1,6.35E2,1.39116E5,8.5E1,4.438E3],"tree_param":{"num_deleted":"0","num_feature":"41","num_nodes":"15","size_leaf_vector":"1"}},{"base_weights":[3.5411173E-5,-6.256115E-2,7.8199134E-4,-4.7690112E-2,-2.8609544E-1,2.0054087E-1,5.302329E-4,-5.7638175E-4,-4.4493773E-3,-5.158293E-3,-1.0893758E-3,2.0821043E-3,5.135017E-3,-3.2674434E-5,1.2193726E-4],"categories":[],"categories_nodes":[],"categories_segments":[],"categories_sizes":[],"default_left":[0,0,0,0,0,0,0,0,0,0,0,0,0,0,0],"id":18,"left_children":[1,3,5,7,9,11,13,-1,-1,-1,-1,-1,-1,-1,-1],"loss_changes":[6.7858443E0,5.6615458E0,7.2074213E0,3.3617063E0,1.4734545E0,1.5273314E0,3.1051536E0,0E0,0E0,0E0,0E0,0E0,0E0,0E0,0E0],"parents":[2147483647,0,0,1,1,2,2,3,3,4,4,5,5,6,6],"right_children":[2,4,6,8,10,12,14,-1,-1,-1,-1,-1,-1,-1,-1],"split_conditions":[-1.5776796E0,1.8240138E0,-1.5836337E0,8.4909126E-2,-1.4859266E0,-1.5490308E0,2.4291569E-1,-5.7638175E-4,-4.4493773E-3,-5.158293E-3,-1.0893758E-3,2.0821043E-3,5.135017E-3,-3.2674434E-5,1.2193726E-4],"split_indices":[32,35,15,37,31,32,35,0,0,0,0,0,0,0,0],"split_type":[0,0,0,0,0,0,0,0,0,0,0,0,0,0,0],"sum_hessian":[1.4529E5,1.711E3,1.43579E5,1.605E3,1.06E2,1.8E2,1.43399E5,1.556E3,4.9E1,8E1,2.6E1,1.31E2,4.9E1,1.05908E5,3.7491E4],"tree_param":{"num_deleted":"0","num_feature":"41","num_nodes":"15","size_leaf_vector":"1"}},{"base_weights":[-6.0413186E-5,-5.885754E-2,6.372923E-4,-4.5662265E-2,-2.9913452E-1,1.8569028E-1,4.091372E-4,-5.498263E-4,-4.428396E-3,-5.4145553E-3,-1.1429448E-3,1.8972013E-3,4.9548093E-3,-2.9810797E-5,1.4006857E-4],"categories":[],"categories_nodes":[],"categories_segments":[],"categories_sizes":[],"default_left":[0,0,0,0,0,0,0,0,0,0,0,0,0,0,0],"id":19,"left_children":[1,3,5,7,9,11,13,-1,-1,-1,-1,-1,-1,-1,-1],"loss_changes":[5.962151E0,5.375637E0,6.047978E0,3.306181E0,1.3589311E0,1.4627151E0,3.2276335E0,0E0,0E0,0E0,0E0,0E0,0E0,0E0,0E0],"parents":[2147483647,0,0,1,1,2,2,3,3,4,4,5,5,6,6],"right_children":[2,4,6,8,10,12,14,-1,-1,-1,-1,-1,-1,-1,-1],"split_conditions":[-1.5776796E0,-1.5217954E0,-1.5836337E0,8.4909126E-2,-1.4859266E0,-1.5490308E0,4.2315283E-1,-5.498263E-4,-4.428396E-3,-5.4145553E-3,-1.1429448E-3,1.8972013E-3,4.9548093E-3,-2.9810797E-5,1.4006857E-4],"split_indices":[32,16,15,37,31,32,35,0,0,0,0,0,0,0,0],"split_type":[0,0,0,0,0,0,0,0,0,0,0,0,0,0,0],"sum_hessian":[1.45242E5,1.704E3,1.43538E5,1.616E3,8.8E1,1.76E2,1.43362E5,1.568E3,4.8E1,6.6E1,2.2E1,1.3E2,4.6E1,1.13158E5,3.0204E4],"tree_param":{"num_deleted":"0","num_feature":"41","num_nodes":"15","size_leaf_vector":"1"}},{"base_weights":[1.3506941E-4,-7.12001E-2,6.9982884E-4,-8.6716175E-2,1.9660841E-1,-1.07368105E-4,2.558141E-2,-1.0965505E-3,-4.497491E-3,4.2525036E-3,-2.3025299E-4,7.7320915E-4,-5.3258873E-6,-1.909705E-3,4.180042E-4],"categories":[],"categories_nodes":[],"categories_segments":[],"categories_sizes":[],"default_left":[0,0,0,0,0,0,0,0,0,0,0,0,0,0,0],"id":20,"left_children":[1,3,5,7,9,11,13,-1,-1,-1,-1,-1,-1,-1,-1],"loss_changes":[5.854266E0,4.742367E0,2.8996005E0,2.7395124E0,1.2743077E0,1.905493E0,2.1572635E0,0E0,0E0,0E0,0E0,0E0,0E0,0E0,0E0],"parents":[2147483647,0,0,1,1,2,2,3,3,4,4,5,5,6,6],"right_children":[2,4,6,8,10,12,14,-1,-1,-1,-1,-1,-1,-1,-1],"split_conditions":[-1.5850338E0,1.7000153E0,1.9525869E0,3.7013383E0,9.494545E-1,-1.5737442E0,1.0197877E0,-1.0965505E-3,-4.497491E-3,4.2525036E-3,-2.3025299E-4,7.7320915E-4,-5.3258873E-6,-1.909705E-3,4.180042E-4],"split_indices":[19,21,37,28,39,16,12,0,0,0,0,0,0,0,0],"split_type":[0,0,0,0,0,0,0,0,0,0,0,0,0,0,0],"sum_hessian":[1.45428E5,1.141E3,1.44287E5,1.079E3,6.2E1,1.39751E5,4.536E3,1.026E3,5.3E1,4.3E1,1.9E1,6.73E2,1.39078E5,8.6E1,4.45E3],"tree_param":{"num_deleted":"0","num_feature":"41","num_nodes":"15","size_leaf_vector":"1"}},{"base_weights":[1.5737445E-4,-5.633151E-2,8.362921E-4,-4.1982014E-2,-2.8762552E-1,1.9291408E-1,5.9552904E-4,-2.2446658E-3,-3.5467613E-4,-5.262357E-3,-1.1040816E-3,1.1891399E-3,4.0829466E-3,-2.8930708E-5,1.4030503E-4],"categories":[],"categories_nodes":[],"categories_segments":[],"categories_sizes":[],"default_left":[0,0,0,0,0,0,0,0,0,0,0,0,0,0,0],"id":21,"left_children":[1,3,5,7,9,11,13,-1,-1,-1,-1,-1,-1,-1,-1],"loss_changes":[5.5687346E0,5.696633E0,6.626801E0,3.1981504E0,1.5099535E0,1.7015314E0,3.331578E0,0E0,0E0,0E0,0E0,0E0,0E0,0E0,0E0],"parents":[2147483647,0,0,1,1,2,2,3,3,4,4,5,5,6,6],"right_children":[2,4,6,8,10,12,14,-1,-1,-1,-1,-1,-1,-1,-1],"split_conditions":[-1.5776796E0,-1.5217954E0,-1.5836337E0,-7.961872E-1,-1.4859266E0,-1.5696855E0,3.773811E-1,-2.2446658E-3,-3.5467613E-4,-5.262357E-3,-1.1040816E-3,1.1891399E-3,4.0829466E-3,-2.8930708E-5,1.4030503E-4],"split_indices":[32,16,15,36,31,19,35,0,0,0,0,0,0,0,0],"split_type":[0,0,0,0,0,0,0,0,0,0,0,0,0,0,0],"sum_hessian":[1.45298E5,1.724E3,1.43574E5,1.624E3,1E2,1.79E2,1.43395E5,2.21E2,1.403E3,7.4E1,2.6E1,7.9E1,1E2,1.11509E5,3.1886E4],"tree_param":{"num_deleted":"0","num_feature":"41","num_nodes":"15","size_leaf_vector":"1"}},{"base_weights":[-1.1129433E-5,-6.8343565E-2,5.1448046E-4,-8.276388E-2,1.9588713E-1,-2.7347624E-4,2.4613393E-2,-1.0210125E-3,-5.3427974E-3,4.3363394E-3,-7.112194E-5,8.317285E-4,-8.165836E-6,-5.3834603E-3,3.7767595E-4],"categories":[],"categories_nodes":[],"categories_segments":[],"categories_sizes":[],"default_left":[0,0,0,0,0,0,0,0,0,0,0,0,0,0,0],"id":22,"left_children":[1,3,5,7,9,11,13,-1,-1,-1,-1,-1,-1,-1,-1],"loss_changes":[5.2293477E0,4.233679E0,2.7428937E0,3.792727E0,1.1849966E0,2.283247E0,2.2373714E0,0E0,0E0,0E0,0E0,0E0,0E0,0E0,0E0],"parents":[2147483647,0,0,1,1,2,2,3,3,4,4,5,5,6,6],"right_children":[2,4,6,8,10,12,14,-1,-1,-1,-1,-1,-1,-1,-1],"split_conditions":[-1.5850338E0,1.8025573E0,1.9525869E0,1.4658592E0,9.494545E-1,-1.5740056E0,9.2701185E-1,-1.0210125E-3,-5.3427974E-3,4.3363394E-3,-7.112194E-5,8.317285E-4,-8.165836E-6,-5.3834603E-3,3.7767595E-4],"split_indices":[19,21,37,35,39,15,9,0,0,0,0,0,0,0,0],"split_type":[0,0,0,0,0,0,0,0,0,0,0,0,0,0,0],"sum_hessian":[1.45473E5,1.111E3,1.44362E5,1.054E3,5.7E1,1.39789E5,4.573E3,1.009E3,4.5E1,3.8E1,1.9E1,6.93E2,1.39096E5,1.4E1,4.559E3],"tree_param":{"num_deleted":"0","num_feature":"41","num_nodes":"15","size_leaf_vector":"1"}},{"base_weights":[-1.0411538E-4,-6.065374E-2,6.1143603E-4,-4.5320243E-2,-2.8958786E-1,1.8749714E-1,3.7883097E-4,-7.728869E-4,2.9538881E-3,-5.1832376E-3,-1.2189344E-3,3.2811356E-3,-8.7828963E-4,-3.1620715E-5,1.3558951E-4],"categories":[],"categories_nodes":[],"categories_segments":[],"categories_sizes":[],"default_left":[0,0,0,0,0,0,0,0,0,0,0,0,0,0,0],"id":23,"left_children":[1,3,5,7,9,11,13,-1,-1,-1,-1,-1,-1,-1,-1],"loss_changes":[6.307725E0,5.9416804E0,6.2383823E0,3.0014222E0,1.3938618E0,1.661191E0,3.255825E0,0E0,0E0,0E0,0E0,0E0,0E0,0E0,0E0],"parents":[2147483647,0,0,1,1,2,2,3,3,4,4,5,5,6,6],"right_children":[2,4,6,8,10,12,14,-1,-1,-1,-1,-1,-1,-1,-1],"split_conditions":[-1.5776796E0,-1.5217954E0,-1.5836337E0,2.273435E0,-1.4859266E0,1.744849E0,3.773811E-1,-7.728869E-4,2.9538881E-3,-5.1832376E-3,-1.2189344E-3,3.2811356E-3,-8.7828963E-4,-3.1620715E-5,1.3558951E-4],"split_indices":[32,16,15,21,31,34,35,0,0,0,0,0,0,0,0],"split_type":[0,0,0,0,0,0,0,0,0,0,0,0,0,0,0],"sum_hessian":[1.45494E5,1.7E3,1.43794E5,1.594E3,1.06E2,1.78E2,1.43616E5,1.547E3,4.7E1,8E1,2.6E1,1.55E2,2.3E1,1.11701E5,3.1915E4],"tree_param":{"num_deleted":"0","num_feature":"41","num_nodes":"15","size_leaf_vector":"1"}},{"base_weights":[-1.15669005E-4,-6.572885E-2,4.0586366E-4,-7.941515E-2,1.9842462E-1,-5.513993E-3,3.5468577E-3,-9.7612885E-4,-5.2602664E-3,5.4008844E-3,1.3239424E-3,1.5467562E-5,-2.864018E-4,-5.1993774E-3,5.3155036E-5],"categories":[],"categories_nodes":[],"categories_segments":[],"categories_sizes":[],"default_left":[0,0,0,0,0,0,0,0,0,0,0,0,0,0,0],"id":24,"left_children":[1,3,5,7,9,11,13,-1,-1,-1,-1,-1,-1,-1,-1],"loss_changes":[4.978885E0,4.1465306E0,2.6816387E0,3.8119192E0,9.983413E-1,4.6351943E0,3.1570091E0,0E0,0E0,0E0,0E0,0E0,0E0,0E0,0E0],"parents":[2147483647,0,0,1,1,2,2,3,3,4,4,5,5,6,6],"right_children":[2,4,6,8,10,12,14,-1,-1,-1,-1,-1,-1,-1,-1],"split_conditions":[-1.5850338E0,1.8025573E0,-9.158947E-1,1.4658592E0,2.5470665E0,-1.1679151E0,-9.5045173E-1,-9.7612885E-4,-5.2602664E-3,5.4008844E-3,1.3239424E-3,1.5467562E-5,-2.864018E-4,-5.1993774E-3,5.3155036E-5],"split_indices":[19,21,14,35,20,2,16,0,0,0,0,0,0,0,0],"split_type":[0,0,0,0,0,0,0,0,0,0,0,0,0,0,0],"sum_hessian":[1.45372E5,1.147E3,1.44225E5,1.091E3,5.6E1,4.9989E4,9.4236E4,1.045E3,4.6E1,2.1E1,3.5E1,3.4093E4,1.5896E4,2.4E1,9.4212E4],"tree_param":{"num_deleted":"0","num_feature":"41","num_nodes":"15","size_leaf_vector":"1"}},{"base_weights":[-3.8413473E-5,-5.7464723E-2,6.3853676E-4,-4.3325566E-2,-2.8366068E-1,1.8213308E-1,4.1758176E-4,-7.4065017E-4,3.3133442E-3,-4.997942E-3,-1.2337842E-3,1.7029957E-3,5.1148687E-3,-1.0322357E-5,2.3419206E-4],"categories":[],"categories_nodes":[],"categories_segments":[],"categories_sizes":[],"default_left":[0,0,0,0,0,0,0,0,0,0,0,0,0,0,0],"id":25,"left_children":[1,3,5,7,9,11,13,-1,-1,-1,-1,-1,-1,-1,-1],"loss_changes":[5.656912E0,5.3957834E0,5.7515626E0,3.1868057E0,1.1214805E0,1.8739996E0,2.5230308E0,0E0,0E0,0E0,0E0,0E0,0E0,0E0,0E0],"parents":[2147483647,0,0,1,1,2,2,3,3,4,4,5,5,6,6],"right_children":[2,4,6,8,10,12,14,-1,-1,-1,-1,-1,-1,-1,-1],"split_conditions":[-1.5776796E0,1.8240138E0,-1.5836337E0,2.273435E0,-1.4859266E0,-1.5490308E0,1.0309759E0,-7.4065017E-4,3.3133442E-3,-4.997942E-3,-1.2337842E-3,1.7029957E-3,5.1148687E-3,-1.0322357E-5,2.3419206E-4],"split_indices":[32,35,15,21,31,32,11,0,0,0,0,0,0,0,0],"split_type":[0,0,0,0,0,0,0,0,0,0,0,0,0,0,0],"sum_hessian":[1.45419E5,1.695E3,1.43724E5,1.596E3,9.9E1,1.74E2,1.4355E5,1.554E3,4.2E1,7.6E1,2.3E1,1.26E2,4.8E1,1.33907E5,9.643E3],"tree_param":{"num_deleted":"0","num_feature":"41","num_nodes":"15","size_leaf_vector":"1"}},{"base_weights":[7.7021316E-5,-6.876165E-2,6.1471906E-4,-8.244715E-2,1.9982679E-1,-1.5932417E-3,8.316164E-3,-1.0320229E-3,-5.1416256E-3,4.293232E-3,-5.0719158E-5,8.697032E-4,-2.8294246E-5,-2.0927237E-3,1.4327148E-4],"categories":[],"categories_nodes":[],"categories_segments":[],"categories_sizes":[],"default_left":[0,0,0,0,0,0,0,0,0,0,0,0,0,0,0],"id":26,"left_children":[1,3,5,7,9,11,13,-1,-1,-1,-1,-1,-1,-1,-1],"loss_changes":[5.369909E0,4.131779E0,2.4503436E0,3.3579392E0,1.0615911E0,2.3565474E0,7.27971E0,0E0,0E0,0E0,0E0,0E0,0E0,0E0,0E0],"parents":[2147483647,0,0,1,1,2,2,3,3,4,4,5,5,6,6],"right_children":[2,4,6,8,10,12,14,-1,-1,-1,-1,-1,-1,-1,-1],"split_conditions":[-1.5850338E0,1.8025573E0,3.773811E-1,1.4658592E0,9.1973186E-1,-1.5740056E0,-1.5490308E0,-1.0320229E-3,-5.1416256E-3,4.293232E-3,-5.0719158E-5,8.697032E-4,-2.8294246E-5,-2.0927237E-3,1.4327148E-4],"split_indices":[19,21,35,35,39,15,32,0,0,0,0,0,0,0,0],"split_type":[0,0,0,0,0,0,0,0,0,0,0,0,0,0,0],"sum_hessian":[1.45197E5,1.124E3,1.44073E5,1.07E3,5.4E1,1.11965E5,3.2108E4,1.026E3,4.4E1,3.7E1,1.7E1,6.26E2,1.11339E5,3.13E2,3.1795E4],"tree_param":{"num_deleted":"0","num_feature":"41","num_nodes":"15","size_leaf_vector":"1"}},{"base_weights":[-2.1588945E-4,-5.642354E-2,4.437214E-4,-4.2150438E-2,-2.7872238E-1,1.7661995E-1,2.3150665E-4,-4.973697E-4,-4.421342E-3,-4.944644E-3,-1.1872877E-3,1.7063713E-3,4.7799414E-3,-3.395841E-5,1.1780327E-4],"categories":[],"categories_nodes":[],"categories_segments":[],"categories_sizes":[],"default_left":[0,0,0,0,0,0,0,0,0,0,0,0,0,0,0],"id":27,"left_children":[1,3,5,7,9,11,13,-1,-1,-1,-1,-1,-1,-1,-1],"loss_changes":[5.390339E0,5.3249083E0,5.357227E0,3.3148725E0,1.1611905E0,1.5084395E0,2.8750708E0,0E0,0E0,0E0,0E0,0E0,0E0,0E0,0E0],"parents":[2147483647,0,0,1,1,2,2,3,3,4,4,5,5,6,6],"right_children":[2,4,6,8,10,12,14,-1,-1,-1,-1,-1,-1,-1,-1],"split_conditions":[-1.5776796E0,-1.5217954E0,-1.5836337E0,8.4909126E-2,-1.4859266E0,-1.5490308E0,2.927046E-1,-4.973697E-4,-4.421342E-3,-4.944644E-3,-1.1872877E-3,1.7063713E-3,4.7799414E-3,-3.395841E-5,1.1780327E-4],"split_indices":[32,16,15,37,31,32,35,0,0,0,0,0,0,0,0],"split_type":[0,0,0,0,0,0,0,0,0,0,0,0,0,0,0],"sum_hessian":[1.45289E5,1.686E3,1.43603E5,1.585E3,1.01E2,1.72E2,1.43431E5,1.538E3,4.7E1,7.7E1,2.4E1,1.24E2,4.8E1,1.08136E5,3.5295E4],"tree_param":{"num_deleted":"0","num_feature":"41","num_nodes":"15","size_leaf_vector":"1"}},{"base_weights":[-2.8775018E-4,-6.81614E-2,2.4620324E-4,-8.321822E-2,2.0845066E-1,-2.768349E-1,3.1095845E-4,-1.0428925E-3,-5.089983E-3,4.663752E-3,1.10089255E-4,-1.5330965E-3,-5.203956E-3,-6.2652034E-6,3.3704456E-4],"categories":[],"categories_nodes":[],"categories_segments":[],"categories_sizes":[],"default_left":[0,0,0,0,0,0,0,0,0,0,0,0,0,0,0],"id":28,"left_children":[1,3,5,7,9,11,13,-1,-1,-1,-1,-1,-1,-1,-1],"loss_changes":[5.262442E0,4.719065E0,2.5645494E0,3.3270764E0,1.2794633E0,4.1143966E-1,2.4270864E0,0E0,0E0,0E0,0E0,0E0,0E0,0E0,0E0],"parents":[2147483647,0,0,1,1,2,2,3,3,4,4,5,5,6,6],"right_children":[2,4,6,8,10,12,14,-1,-1,-1,-1,-1,-1,-1,-1],"split_conditions":[-1.5850338E0,1.7000153E0,-1.6204864E0,1.3584032E0,9.044829E-1,-1.1410137E0,1.9525869E0,-1.0428925E-3,-5.089983E-3,4.663752E-3,1.10089255E-4,-1.5330965E-3,-5.203956E-3,-6.2652034E-6,3.3704456E-4],"split_indices":[19,21,32,35,39,39,37,0,0,0,0,0,0,0,0],"split_type":[0,0,0,0,0,0,0,0,0,0,0,0,0,0,0],"sum_hessian":[1.45081E5,1.133E3,1.43948E5,1.075E3,5.8E1,3.3E1,1.43915E5,1.03E3,4.5E1,3.7E1,2.1E1,1.1E1,2.2E1,1.39383E5,4.532E3],"tree_param":{"num_deleted":"0","num_feature":"41","num_nodes":"15","size_leaf_vector":"1"}},{"base_weights":[-5.792158E-5,-4.0372662E-2,7.478722E-4,-2.9383073E-2,-2.6531228E-1,3.156851E-1,6.1384833E-4,-2.707079E-4,-2.8649527E-3,-4.633591E-3,-1.4414508E-3,5.688065E-3,1.7164146E-4,-2.4423161E-5,1.3420657E-4],"categories":[],"categories_nodes":[],"categories_segments":[],"categories_sizes":[],"default_left":[0,0,0,0,0,0,0,0,0,0,0,0,0,0,0],"id":29,"left_children":[1,3,5,7,9,11,13,-1,-1,-1,-1,-1,-1,-1,-1],"loss_changes":[4.7235794E0,7.0211344E0,5.992826E0,4.8998055E0,1.1080809E0,1.328176E0,2.7940187E0,0E0,0E0,0E0,0E0,0E0,0E0,0E0,0E0],"parents":[2147483647,0,0,1,1,2,2,3,3,4,4,5,5,6,6],"right_children":[2,4,6,8,10,12,14,-1,-1,-1,-1,-1,-1,-1,-1],"split_conditions":[-1.5490308E0,1.8240138E0,-1.5740056E0,1.18377134E-1,1.1019682E0,2.3699083E0,4.2315283E-1,-2.707079E-4,-2.8649527E-3,-4.633591E-3,-1.4414508E-3,5.688065E-3,1.7164146E-4,-2.4423161E-5,1.3420657E-4],"split_indices":[32,35,15,37,21,36,35,0,0,0,0,0,0,0,0],"split_type":[0,0,0,0,0,0,0,0,0,0,0,0,0,0,0],"sum_hessian":[1.45325E5,2.849E3,1.42476E5,2.717E3,1.32E2,6E1,1.42416E5,2.552E3,1.65E2,1E2,3.2E1,4.8E1,1.2E1,1.12437E5,2.9979E4],"tree_param":{"num_deleted":"0","num_feature":"41","num_nodes":"15","size_leaf_vector":"1"}},{"base_weights":[1.0199422E-4,-4.094776E-2,9.2063774E-4,-2.960589E-2,-2.635116E-1,3.1725675E-1,7.838288E-4,-2.4339139E-4,-2.2383886E-3,-4.7098426E-3,-1.7062969E-3,5.607876E-3,7.1131675E-5,-2.1082029E-5,1.3266808E-4],"categories":[],"categories_nodes":[],"categories_segments":[],"categories_sizes":[],"default_left":[0,0,0,0,0,0,0,0,0,0,0,0,0,0,0],"id":30,"left_children":[1,3,5,7,9,11,13,-1,-1,-1,-1,-1,-1,-1,-1],"loss_changes":[4.88182E0,7.147531E0,6.1463137E0,4.313734E0,1.1462765E0,1.2554102E0,2.635331E0,0E0,0E0,0E0,0E0,0E0,0E0,0E0,0E0],"parents":[2147483647,0,0,1,1,2,2,3,3,4,4,5,5,6,6],"right_children":[2,4,6,8,10,12,14,-1,-1,-1,-1,-1,-1,-1,-1],"split_conditions":[-1.5490308E0,1.8240138E0,-1.5740056E0,9.4236776E-2,9.183033E-1,2.3699083E0,4.2315283E-1,-2.4339139E-4,-2.2383886E-3,-4.7098426E-3,-1.7062969E-3,5.607876E-3,7.1131675E-5,-2.1082029E-5,1.3266808E-4],"split_indices":[32,35,15,37,21,36,35,0,0,0,0,0,0,0,0],"split_type":[0,0,0,0,0,0,0,0,0,0,0,0,0,0,0],"sum_hessian":[1.45348E5,2.84E3,1.42508E5,2.703E3,1.37E2,6.1E1,1.42447E5,2.448E3,2.55E2,9.7E1,4E1,5E1,1.1E1,1.12306E5,3.0141E4],"tree_param":{"num_deleted":"0","num_feature":"41","num_nodes":"15","size_leaf_vector":"1"}},{"base_weights":[-1.7922166E-4,-6.212862E-2,3.223299E-4,-7.506783E-2,1.8320066E-1,-7.184572E-4,1.4844928E-2,-8.3540246E-4,-3.0113608E-3,3.7105847E-3,-2.5088617E-4,-5.7080124E-6,-1.1398089E-3,5.300483E-4,8.603486E-5],"categories":[],"categories_nodes":[],"categories_segments":[],"categories_sizes":[],"default_left":[0,0,0,0,0,0,0,0,0,0,0,0,0,0,0],"id":31,"left_children":[1,3,5,7,9,11,13,-1,-1,-1,-1,-1,-1,-1,-1],"loss_changes":[4.5202785E0,3.7072144E0,2.18026E0,2.578051E0,8.475323E-1,3.4029381E0,1.8502591E0,0E0,0E0,0E0,0E0,0E0,0E0,0E0,0E0],"parents":[2147483647,0,0,1,1,2,2,3,3,4,4,5,5,6,6],"right_children":[2,4,6,8,10,12,14,-1,-1,-1,-1,-1,-1,-1,-1],"split_conditions":[-1.5850338E0,1.8025573E0,1.0309759E0,-1.5860496E0,1.259205E0,1.9242457E0,1.1580304E0,-8.3540246E-4,-3.0113608E-3,3.7105847E-3,-2.5088617E-4,-5.7080124E-6,-1.1398089E-3,5.300483E-4,8.603486E-5],"split_indices":[19,21,11,7,39,37,16,0,0,0,0,0,0,0,0],"split_type":[0,0,0,0,0,0,0,0,0,0,0,0,0,0,0],"sum_hessian":[1.45351E5,1.168E3,1.44183E5,1.11E3,5.8E1,1.34537E5,9.646E3,9.78E2,1.32E2,4.3E1,1.5E1,1.33971E5,5.66E2,2.837E3,6.809E3],"tree_param":{"num_deleted":"0","num_feature":"41","num_nodes":"15","size_leaf_vector":"1"}}]},"name":"gbtree"},"learner_model_param":{"base_score":"[4.9148503E-1]","boost_from_average":"1","num_class":"0","num_feature":"41","num_target":"1"},"objective":{"name":"reg:squarederror","reg_loss_param":{"scale_pos_weight":"1"}}},"version":[3,2,0]}