{"learner":{"attributes":{"best_iteration":"77","best_score":"0.16543366132360174","scikit_learn":"{\"_estimator_type\": \"regressor\"}"},"feature_names":[],"feature_types":[],"gradient_booster":{"model":{"cats":{"enc":[],"feature_segments":[],"sorted_idx":[]},"gbtree_model_param":{"num_parallel_tree":"1","num_trees":"108"},"iteration_indptr":[0,1,2,3,4,5,6,7,8,9,10,11,12,13,14,15,16,17,18,19,20,21,22,23,24,25,26,27,28,29,30,31,32,33,34,35,36,37,38,39,40,41,42,43,44,45,46,47,48,49,50,51,52,53,54,55,56,57,58,59,60,61,62,63,64,65,66,67,68,69,70,71,72,73,74,75,76,77,78,79,80,81,82,83,84,85,86,87,88,89,90,91,92,93,94,95,96,97,98,99,100,101,102,103,104,105,106,107,108],"tree_info":[0,0,0,0,0,0,0,0,0,0,0,0,0,0,0,0,0,0,0,0,0,0,0,0,0,0,0,0,0,0,0,0,0,0,0,0,0,0,0,0,0,0,0,0,0,0,0,0,0,0,0,0,0,0,0,0,0,0,0,0,0,0,0,0,0,0,0,0,0,0,0,0,0,0,0,0,0,0,0,0,0,0,0,0,0,0,0,0,0,0,0,0,0,0,0,0,0,0,0,0,0,0,0,0,0,0,0,0],"trees":[{"base_weights":[-5.318936E-5,-4.467027E-4,3.3139843E-2,-1.36685865E-2,2.725507E-4,5.936899E-2,-1.112966E-2,-1.4174347E-4,-2.2635665E-3,9.22004E-6,-1.7601269E-4,1.2070659E-3,3.0207567E-4,2.2226351E-4,-8.9740753E-4],"categories":[],"categories_nodes":[],"categories_segments":[],"categories_sizes":[],"default_left":[0,0,0,0,0,0,0,0,0,0,0,0,0,0,0],"id":0,"left_children":[1,3,5,7,9,11,13,-1,-1,-1,-1,-1,-1,-1,-1],"loss_changes":[1.8852108E0,1.356843E0,1.96401E0,1.6285899E0,1.149187E0,1.6302524E0,1.3104354E0,0E0,0E0,0E0,0E0,0E0,0E0,0E0,0E0],"parents":[2147483647,0,0,1,1,2,2,3,3,4,4,5,5,6,6],"right_children":[2,4,6,8,10,12,14,-1,-1,-1,-1,-1,-1,-1,-1],"split_conditions":[1.7316446E0,-1.0278395E0,4.5242062E-1,5.9120303E-1,2.3767886E0,1.1128143E0,1.4176977E0,-1.4174347E-4,-2.2635665E-3,9.22004E-6,-1.7601269E-4,1.2070659E-3,3.0207567E-4,2.2226351E-4,-8.9740753E-4],"split_indices":[21,37,31,22,36,23,35,0,0,0,0,0,0,0,0],"split_type":[0,0,0,0,0,0,0,0,0,0,0,0,0,0,0],"sum_hessian":[1.44354E5,1.42663E5,1.691E3,7.361E3,1.35302E5,1.062E3,6.29E2,7.314E3,4.7E1,1.3083E5,4.472E3,4.37E2,6.25E2,4.33E2,1.96E2],"tree_param":{"num_deleted":"0","num_feature":"41","num_nodes":"15","size_leaf_vector":"1"}},{"base_weights":[9.2400705E-6,-3.9976175E-4,3.4253974E-2,-5.985123E-2,-1.6929186E-4,5.8535177E-2,-8.330131E-3,-8.927083E-4,1.2353284E-3,-1.4727567E-4,5.9116283E-6,1.233679E-3,2.7765826E-4,2.5014475E-4,-8.620263E-4],"categories":[],"categories_nodes":[],"categories_segments":[],"categories_sizes":[],"default_left":[0,0,0,0,0,0,0,0,0,0,0,0,0,0,0],"id":1,"left_children":[1,3,5,7,9,11,13,-1,-1,-1,-1,-1,-1,-1,-1],"loss_changes":[2.0233467E0,1.9550807E0,1.7634783E0,1.7380764E0,1.2543083E0,1.8516686E0,1.2691321E0,0E0,0E0,0E0,0E0,0E0,0E0,0E0,0E0],"parents":[2147483647,0,0,1,1,2,2,3,3,4,4,5,5,6,6],"right_children":[2,4,6,8,10,12,14,-1,-1,-1,-1,-1,-1,-1,-1],"split_conditions":[1.7316446E0,-4.222981E0,4.4672206E-1,-4.7174427E-1,-1.0278395E0,1.1128143E0,1.4176977E0,-8.927083E-4,1.2353284E-3,-1.4727567E-4,5.9116283E-6,1.233679E-3,2.7765826E-4,2.5014475E-4,-8.620263E-4],"split_indices":[21,28,18,20,37,23,35,0,0,0,0,0,0,0,0],"split_type":[0,0,0,0,0,0,0,0,0,0,0,0,0,0,0],"sum_hessian":[1.44437E5,1.42732E5,1.705E3,5.51E2,1.42181E5,1.086E3,6.19E2,4.96E2,5.5E1,7.273E3,1.34908E5,4.4E2,6.46E2,4.27E2,1.92E2],"tree_param":{"num_deleted":"0","num_feature":"41","num_nodes":"15","size_leaf_vector":"1"}},{"base_weights":[2.540303E-5,-3.5925218E-4,3.281825E-2,-5.680008E-2,-1.3852087E-4,6.1086867E-2,-1.8476216E-2,-8.8452426E-4,1.1590442E-3,-7.0891765E-6,1.8722273E-4,2.4586054E-3,5.9928594E-4,1.8076153E-4,-1.0368937E-3],"categories":[],"categories_nodes":[],"categories_segments":[],"categories_sizes":[],"default_left":[0,0,0,0,0,0,0,0,0,0,0,0,0,0,0],"id":2,"left_children":[1,3,5,7,9,11,13,-1,-1,-1,-1,-1,-1,-1,-1],"loss_changes":[1.8223834E0,1.7781332E0,2.429245E0,1.8581076E0,1.1468226E0,1.3967218E0,1.4897786E0,0E0,0E0,0E0,0E0,0E0,0E0,0E0,0E0],"parents":[2147483647,0,0,1,1,2,2,3,3,4,4,5,5,6,6],"right_children":[2,4,6,8,10,12,14,-1,-1,-1,-1,-1,-1,-1,-1],"split_conditions":[1.7316446E0,-4.222981E0,4.4681138E-1,-4.9302075E-2,1.0936831E0,8.109007E-1,1.4176977E0,-8.8452426E-4,1.1590442E-3,-7.0891765E-6,1.8722273E-4,2.4586054E-3,5.9928594E-4,1.8076153E-4,-1.0368937E-3],"split_indices":[21,28,9,21,22,37,35,0,0,0,0,0,0,0,0],"split_type":[0,0,0,0,0,0,0,0,0,0,0,0,0,0,0],"sum_hessian":[1.44448E5,1.42773E5,1.675E3,5.56E2,1.42217E5,1.08E3,5.95E2,4.91E2,6.5E1,1.38181E5,4.036E3,5.5E1,1.025E3,4.04E2,1.91E2],"tree_param":{"num_deleted":"0","num_feature":"41","num_nodes":"15","size_leaf_vector":"1"}},{"base_weights":[-1.666093E-5,-3.9689062E-4,3.183316E-2,-5.700383E-2,-1.7309954E-4,5.6307025E-2,-1.2034801E-2,-7.1957783E-4,5.0159055E-3,-7.191111E-6,1.9223527E-4,1.1500204E-3,2.9264818E-4,2.485922E-4,-9.371582E-4],"categories":[],"categories_nodes":[],"categories_segments":[],"categories_sizes":[],"default_left":[0,0,0,0,0,0,0,0,0,0,0,0,0,0,0],"id":3,"left_children":[1,3,5,7,9,11,13,-1,-1,-1,-1,-1,-1,-1,-1],"loss_changes":[1.7461288E0,1.8047755E0,1.8266877E0,1.7652082E0,1.1153154E0,1.4968264E0,1.455511E0,0E0,0E0,0E0,0E0,0E0,0E0,0E0,0E0],"parents":[2147483647,0,0,1,1,2,2,3,3,4,4,5,5,6,6],"right_children":[2,4,6,8,10,12,14,-1,-1,-1,-1,-1,-1,-1,-1],"split_conditions":[1.7316446E0,-4.222981E0,4.4681138E-1,1.1777489E0,8.105154E-1,1.1128143E0,1.4176977E0,-7.1957783E-4,5.0159055E-3,-7.191111E-6,1.9223527E-4,1.1500204E-3,2.9264818E-4,2.485922E-4,-9.371582E-4],"split_indices":[21,28,9,21,11,23,35,0,0,0,0,0,0,0,0],"split_type":[0,0,0,0,0,0,0,0,0,0,0,0,0,0,0],"sum_hessian":[1.44212E5,1.42511E5,1.701E3,5.61E2,1.4195E5,1.092E3,6.09E2,5.54E2,7E0,1.38232E5,3.718E3,4.42E2,6.5E2,4.11E2,1.98E2],"tree_param":{"num_deleted":"0","num_feature":"41","num_nodes":"15","size_leaf_vector":"1"}},{"base_weights":[-6.258079E-5,-6.0632456E-2,1.7525154E-4,-6.8346165E-2,5.391811E-3,-2.1484443E-4,3.2995645E-2,-1.5579469E-3,-2.1429878E-4,-1.4466637E-4,5.8805626E-6,2.332379E-3,3.065044E-4],"categories":[],"categories_nodes":[],"categories_segments":[],"categories_sizes":[],"default_left":[0,0,0,0,0,0,0,0,0,0,0,0,0],"id":4,"left_children":[1,3,5,7,-1,9,11,-1,-1,-1,-1,-1,-1],"loss_changes":[2.0810008E0,2.3286922E0,1.8420801E0,1.8938997E0,0E0,1.3033544E0,1.7505044E0,0E0,0E0,0E0,0E0,0E0,0E0],"parents":[2147483647,0,0,1,1,2,2,3,3,5,5,6,6],"right_children":[2,4,6,8,-1,10,12,-1,-1,-1,-1,-1,-1],"split_conditions":[-4.222981E0,1.1777489E0,1.7316446E0,-1.4712262E0,5.391811E-3,-1.0199594E0,8.109007E-1,-1.5579469E-3,-2.1429878E-4,-1.4466637E-4,5.8805626E-6,2.332379E-3,3.065044E-4],"split_indices":[28,21,21,38,0,37,37,0,0,0,0,0,0],"split_type":[0,0,0,0,0,0,0,0,0,0,0,0,0],"sum_hessian":[1.44417E5,5.65E2,1.43852E5,5.57E2,8E0,1.42162E5,1.69E3,2.33E2,3.24E2,7.859E3,1.34303E5,5.7E1,1.633E3],"tree_param":{"num_deleted":"0","num_feature":"41","num_nodes":"13","size_leaf_vector":"1"}},{"base_weights":[-1.9421524E-4,-5.612019E-4,3.0938549E-2,-8.0228236E-4,3.608582E-2,5.6525193E-2,-1.5348646E-2,-6.6936504E-6,-7.4074225E-4,1.594345E-4,1.4871368E-3,1.1635037E-3,2.9937673E-4,2.0771049E-4,-1.0038813E-3],"categories":[],"categories_nodes":[],"categories_segments":[],"categories_sizes":[],"default_left":[0,0,0,0,0,0,0,0,0,0,0,0,0,0,0],"id":5,"left_children":[1,3,5,7,9,11,13,-1,-1,-1,-1,-1,-1,-1,-1],"loss_changes":[1.6504935E0,1.2612948E0,1.9936692E0,1.9467696E0,1.9491049E0,1.4993091E0,1.4712628E0,0E0,0E0,0E0,0E0,0E0,0E0,0E0,0E0],"parents":[2147483647,0,0,1,1,2,2,3,3,4,4,5,5,6,6],"right_children":[2,4,6,8,10,12,14,-1,-1,-1,-1,-1,-1,-1,-1],"split_conditions":[1.7316446E0,2.0632946E0,4.4672206E-1,6.9478164E0,1.1004546E0,1.1128143E0,1.4176977E0,-6.6936504E-6,-7.4074225E-4,1.594345E-4,1.4871368E-3,1.1635037E-3,2.9937673E-4,2.0771049E-4,-1.0038813E-3],"split_indices":[21,22,18,34,4,23,35,0,0,0,0,0,0,0,0],"split_type":[0,0,0,0,0,0,0,0,0,0,0,0,0,0,0],"sum_hessian":[1.44486E5,1.42803E5,1.683E3,1.4187E5,9.33E2,1.084E3,5.99E2,1.41402E5,4.68E2,7.57E2,1.76E2,4.3E2,6.54E2,4.1E2,1.89E2],"tree_param":{"num_deleted":"0","num_feature":"41","num_nodes":"15","size_leaf_vector":"1"}},{"base_weights":[1.8215955E-5,-5.8568135E-2,2.4558845E-4,-6.726605E-2,5.343963E-3,-1.3570624E-4,3.2034006E-2,4.337591E-5,-1.2611266E-3,-1.7136152E-4,5.490507E-6,2.959231E-4,2.6614026E-3],"categories":[],"categories_nodes":[],"categories_segments":[],"categories_sizes":[],"default_left":[0,0,0,0,0,0,0,0,0,0,0,0,0],"id":6,"left_children":[1,3,5,7,-1,9,11,-1,-1,-1,-1,-1,-1],"loss_changes":[1.9227319E0,2.5632675E0,1.7435871E0,1.707417E0,0E0,1.3147608E0,2.0624223E0,0E0,0E0,0E0,0E0,0E0,0E0],"parents":[2147483647,0,0,1,1,2,2,3,3,5,5,6,6],"right_children":[2,4,6,8,-1,10,12,-1,-1,-1,-1,-1,-1],"split_conditions":[-4.222981E0,1.1777489E0,1.7316446E0,7.391163E-1,5.343963E-3,-1.0531123E0,6.9478164E0,4.337591E-5,-1.2611266E-3,-1.7136152E-4,5.490507E-6,2.959231E-4,2.6614026E-3],"split_indices":[28,21,21,36,0,37,34,0,0,0,0,0,0],"split_type":[0,0,0,0,0,0,0,0,0,0,0,0,0],"sum_hessian":[1.44383E5,5.58E2,1.43825E5,5.49E2,9E0,1.4212E5,1.705E3,2.09E2,3.4E2,5.652E3,1.36468E5,1.656E3,4.9E1],"tree_param":{"num_deleted":"0","num_feature":"41","num_nodes":"13","size_leaf_vector":"1"}},{"base_weights":[-2.7467322E-5,-3.751071E-4,2.9398607E-2,1.6256305E-4,-1.6146608E-2,5.3337883E-2,-1.3548884E-2,-9.777286E-7,4.2814537E-4,-7.790847E-5,-7.391723E-4,1.3030176E-3,2.6506177E-4,-2.287822E-3,-2.3672073E-6],"categories":[],"categories_nodes":[],"categories_segments":[],"categories_sizes":[],"default_left":[0,0,0,0,0,0,0,0,0,0,0,0,0,0,0],"id":7,"left_children":[1,3,5,7,9,11,13,-1,-1,-1,-1,-1,-1,-1,-1],"loss_changes":[1.4789103E0,1.2120261E0,1.7359043E0,1.289406E0,2.1401486E0,1.9940186E0,1.5112326E0,0E0,0E0,0E0,0E0,0E0,0E0,0E0,0E0],"parents":[2147483647,0,0,1,1,2,2,3,3,4,4,5,5,6,6],"right_children":[2,4,6,8,10,12,14,-1,-1,-1,-1,-1,-1,-1,-1],"split_conditions":[1.7316446E0,2.3767886E0,4.4681138E-1,2.0632946E0,3.037391E0,9.6702343E-1,4.096648E-1,-9.777286E-7,4.2814537E-4,-7.790847E-5,-7.391723E-4,1.3030176E-3,2.6506177E-4,-2.287822E-3,-2.3672073E-6],"split_indices":[21,36,9,22,34,23,15,0,0,0,0,0,0,0,0],"split_type":[0,0,0,0,0,0,0,0,0,0,0,0,0,0,0],"sum_hessian":[1.44599E5,1.42911E5,1.688E3,1.38199E5,4.712E3,1.084E3,6.04E2,1.37289E5,9.1E2,3.96E3,7.52E2,3.56E2,7.28E2,4E1,5.64E2],"tree_param":{"num_deleted":"0","num_feature":"41","num_nodes":"15","size_leaf_vector":"1"}},{"base_weights":[6.944016E-5,-5.1906884E-2,2.698962E-4,-5.9984628E-2,4.9596806E-3,-1.4904352E-8,3.7441075E-2,-1.3752385E-3,-2.2017151E-4,1.7541583E-3,1.951054E-4],"categories":[],"categories_nodes":[],"categories_segments":[],"categories_sizes":[],"default_left":[0,0,0,0,0,0,0,0,0,0,0],"id":8,"left_children":[1,3,5,7,-1,-1,9,-1,-1,-1,-1],"loss_changes":[1.5051705E0,2.1861422E0,1.4516423E0,1.3521355E0,0E0,0E0,2.4705892E0,0E0,0E0,0E0,0E0],"parents":[2147483647,0,0,1,1,2,2,3,3,6,6],"right_children":[2,4,6,8,-1,-1,10,-1,-1,-1,-1],"split_conditions":[-4.222981E0,1.1777489E0,2.1848135E0,-1.4712262E0,4.9596806E-3,-1.4904352E-8,-4.1432673E-1,-1.3752385E-3,-2.2017151E-4,1.7541583E-3,1.951054E-4],"split_indices":[28,21,35,38,0,0,19,0,0,0,0],"split_type":[0,0,0,0,0,0,0,0,0,0,0],"sum_hessian":[1.44514E5,5.55E2,1.43959E5,5.46E2,9E0,1.42916E5,1.043E3,2.18E2,3.28E2,1.54E2,8.89E2],"tree_param":{"num_deleted":"0","num_feature":"41","num_nodes":"11","size_leaf_vector":"1"}},{"base_weights":[-5.0140046E-5,-4.4009855E-4,3.299396E-2,-5.8498424E-2,-2.115985E-4,5.8620673E-2,-1.3373935E-2,-8.362514E-4,1.6885462E-3,-4.1849494E-6,5.501407E-4,1.1943498E-3,3.1961966E-4,1.8100016E-4,-8.600685E-4],"categories":[],"categories_nodes":[],"categories_segments":[],"categories_sizes":[],"default_left":[0,0,0,0,0,0,0,0,0,0,0,0,0,0,0],"id":9,"left_children":[1,3,5,7,9,11,13,-1,-1,-1,-1,-1,-1,-1,-1],"loss_changes":[1.8627075E0,1.8950917E0,2.0038757E0,1.7505254E0,1.0841992E0,1.5381751E0,1.0963333E0,0E0,0E0,0E0,0E0,0E0,0E0,0E0,0E0],"parents":[2147483647,0,0,1,1,2,2,3,3,4,4,5,5,6,6],"right_children":[2,4,6,8,10,12,14,-1,-1,-1,-1,-1,-1,-1,-1],"split_conditions":[1.7316446E0,-4.222981E0,4.4681138E-1,2.2595976E-1,2.7902145E0,1.0933642E0,1.4176977E0,-8.362514E-4,1.6885462E-3,-4.1849494E-6,5.501407E-4,1.1943498E-3,3.1961966E-4,1.8100016E-4,-8.600685E-4],"split_indices":[21,28,9,21,35,23,35,0,0,0,0,0,0,0,0],"split_type":[0,0,0,0,0,0,0,0,0,0,0,0,0,0,0],"sum_hessian":[1.4458E5,1.42894E5,1.686E3,5.6E2,1.42334E5,1.086E3,6E2,5.22E2,3.8E1,1.41877E5,4.57E2,4.3E2,6.56E2,4.08E2,1.92E2],"tree_param":{"num_deleted":"0","num_feature":"41","num_nodes":"15","size_leaf_vector":"1"}},{"base_weights":[-7.9530604E-5,-4.7608695E-4,3.3167947E-2,-5.954915E-2,-2.4429234E-4,2.7947828E-2,2.01712E-1,-2.377913E-3,-4.3181068E-4,-4.7173203E-6,5.7789055E-4,5.523995E-4,-1.4640766E-4,3.1859973E-3,-1.3616625E-3],"categories":[],"categories_nodes":[],"categories_segments":[],"categories_sizes":[],"default_left":[0,0,0,0,0,0,0,0,0,0,0,0,0,0,0],"id":10,"left_children":[1,3,5,7,9,11,13,-1,-1,-1,-1,-1,-1,-1,-1],"loss_changes":[1.901603E0,1.9513814E0,1.4933418E0,1.7943823E0,1.2394358E0,1.392016E0,1.2925837E0,0E0,0E0,0E0,0E0,0E0,0E0,0E0,0E0],"parents":[2147483647,0,0,1,1,2,2,3,3,4,4,5,5,6,6],"right_children":[2,4,6,8,10,12,14,-1,-1,-1,-1,-1,-1,-1,-1],"split_conditions":[1.7316446E0,-4.222981E0,6.9478164E0,-3.040959E0,2.7902145E0,6.6932523E-1,1.7545143E0,-2.377913E-3,-4.3181068E-4,-4.7173203E-6,5.7789055E-4,5.523995E-4,-1.4640766E-4,3.1859973E-3,-1.3616625E-3],"split_indices":[21,28,34,21,35,22,22,0,0,0,0,0,0,0,0],"split_type":[0,0,0,0,0,0,0,0,0,0,0,0,0,0,0],"sum_hessian":[1.44255E5,1.42555E5,1.7E3,5.57E2,1.41998E5,1.649E3,5.1E1,7E1,4.87E2,1.41525E5,4.73E2,1.095E3,5.54E2,4.1E1,1E1],"tree_param":{"num_deleted":"0","num_feature":"41","num_nodes":"15","size_leaf_vector":"1"}},{"base_weights":[-7.770288E-6,-6.2064905E-2,2.3240501E-4,-8.613013E-2,1.13410875E-1,-6.8230824E-5,4.1458175E-2,-2.007138E-3,-7.0387527E-4,7.274206E-4,4.887308E-3,-1.4162154E-4,6.834025E-6,2.4275496E-3,2.990175E-4],"categories":[],"categories_nodes":[],"categories_segments":[],"categories_sizes":[],"default_left":[0,0,0,0,0,0,0,0,0,0,0,0,0,0,0],"id":11,"left_children":[1,3,5,7,9,11,13,-1,-1,-1,-1,-1,-1,-1,-1],"loss_changes":[2.1495333E0,2.3477974E0,1.7804573E0,1.0679052E0,1.0430028E0,1.183711E0,2.7091274E0,0E0,0E0,0E0,0E0,0E0,0E0,0E0,0E0],"parents":[2147483647,0,0,1,1,2,2,3,3,4,4,5,5,6,6],"right_children":[2,4,6,8,10,12,14,-1,-1,-1,-1,-1,-1,-1,-1],"split_conditions":[-4.222981E0,-4.9302075E-2,2.1848135E0,-1.5814734E0,1.1777489E0,-1.0278395E0,-4.5066565E-1,-2.007138E-3,-7.0387527E-4,7.274206E-4,4.887308E-3,-1.4162154E-4,6.834025E-6,2.4275496E-3,2.990175E-4],"split_indices":[28,21,35,27,21,37,15,0,0,0,0,0,0,0,0],"split_type":[0,0,0,0,0,0,0,0,0,0,0,0,0,0,0],"sum_hessian":[1.44178E5,5.56E2,1.43622E5,4.89E2,6.7E1,1.42582E5,1.04E3,1.03E2,3.86E2,5.8E1,9E0,7.309E3,1.35273E5,8.4E1,9.56E2],"tree_param":{"num_deleted":"0","num_feature":"41","num_nodes":"15","size_leaf_vector":"1"}},{"base_weights":[2.5213035E-4,-5.432981E-2,4.7098688E-4,-6.147791E-2,5.1381453E-3,1.8865516E-4,3.9790213E-2,-3.0023113E-5,-1.1103392E-3,-1.9090196E-5,4.7051974E-5,2.1245496E-3,2.9507215E-4],"categories":[],"categories_nodes":[],"categories_segments":[],"categories_sizes":[],"default_left":[0,0,0,0,0,0,0,0,0,0,0,0,0],"id":12,"left_children":[1,3,5,7,-1,9,11,-1,-1,-1,-1,-1,-1],"loss_changes":[1.7259251E0,2.0856023E0,1.5975983E0,1.2122793E0,0E0,1.0556442E0,2.0850735E0,0E0,0E0,0E0,0E0,0E0,0E0],"parents":[2147483647,0,0,1,1,2,2,3,3,5,5,6,6],"right_children":[2,4,6,8,-1,10,12,-1,-1,-1,-1,-1,-1],"split_conditions":[-4.222981E0,1.1777489E0,2.1848135E0,7.575396E-1,5.1381453E-3,-4.0559807E-1,-5.293858E-1,-3.0023113E-5,-1.1103392E-3,-1.9090196E-5,4.7051974E-5,2.1245496E-3,2.9507215E-4],"split_indices":[28,21,35,36,0,35,13,0,0,0,0,0,0],"split_type":[0,0,0,0,0,0,0,0,0,0,0,0,0],"sum_hessian":[1.44527E5,5.77E2,1.4395E5,5.69E2,8E0,1.42924E5,1.026E3,2.17E2,3.52E2,9.7039E4,4.5885E4,8.8E1,9.38E2],"tree_param":{"num_deleted":"0","num_feature":"41","num_nodes":"13","size_leaf_vector":"1"}},{"base_weights":[1.9413233E-4,-1.6473242E-4,3.0133275E-2,-1.3928656E-2,5.8455934E-4,5.432097E-2,-1.1552582E-2,-1.445959E-4,-2.654803E-3,7.0561375E-4,5.0857434E-6,1.1773452E-3,2.3841184E-4,1.9970503E-4,-8.542403E-4],"categories":[],"categories_nodes":[],"categories_segments":[],"categories_sizes":[],"default_left":[0,0,0,0,0,0,0,0,0,0,0,0,0,0,0],"id":13,"left_children":[1,3,5,7,9,11,13,-1,-1,-1,-1,-1,-1,-1,-1],"loss_changes":[1.5493311E0,1.4694235E0,1.7225969E0,1.941858E0,1.1378001E0,1.7753053E0,1.1626716E0,0E0,0E0,0E0,0E0,0E0,0E0,0E0,0E0],"parents":[2147483647,0,0,1,1,2,2,3,3,4,4,5,5,6,6],"right_children":[2,4,6,8,10,12,14,-1,-1,-1,-1,-1,-1,-1,-1],"split_conditions":[1.7316446E0,-1.0278395E0,4.4666037E-1,6.429052E-1,-1.124689E0,1.1128143E0,1.4176977E0,-1.445959E-4,-2.654803E-3,7.0561375E-4,5.0857434E-6,1.1773452E-3,2.3841184E-4,1.9970503E-4,-8.542403E-4],"split_indices":[21,37,7,22,15,23,35,0,0,0,0,0,0,0,0],"split_type":[0,0,0,0,0,0,0,0,0,0,0,0,0,0,0],"sum_hessian":[1.44175E5,1.42467E5,1.708E3,7.356E3,1.35111E5,1.081E3,6.27E2,7.316E3,4E1,3E2,1.34811E5,4.36E2,6.45E2,4.3E2,1.97E2],"tree_param":{"num_deleted":"0","num_feature":"41","num_nodes":"15","size_leaf_vector":"1"}},{"base_weights":[2.449626E-4,-5.0610192E-2,4.4112204E-4,-5.790974E-2,5.0747995E-3,1.8064296E-4,3.604949E-2,-2.2098399E-3,-4.1872033E-4,-1.3475E-4,9.44076E-6,1.9965256E-3,2.5810165E-4],"categories":[],"categories_nodes":[],"categories_segments":[],"categories_sizes":[],"default_left":[0,0,0,0,0,0,0,0,0,0,0,0,0],"id":14,"left_children":[1,3,5,7,-1,9,11,-1,-1,-1,-1,-1,-1],"loss_changes":[1.4409398E0,2.0108633E0,1.3347148E0,1.5708662E0,0E0,1.118546E0,1.9440944E0,0E0,0E0,0E0,0E0,0E0,0E0],"parents":[2147483647,0,0,1,1,2,2,3,3,5,5,6,6],"right_children":[2,4,6,8,-1,10,12,-1,-1,-1,-1,-1,-1],"split_conditions":[-4.222981E0,1.1777489E0,2.1848135E0,-3.040959E0,5.0747995E-3,-1.0278395E0,-4.5066565E-1,-2.2098399E-3,-4.1872033E-4,-1.3475E-4,9.44076E-6,1.9965256E-3,2.5810165E-4],"split_indices":[28,21,35,21,0,37,15,0,0,0,0,0,0],"split_type":[0,0,0,0,0,0,0,0,0,0,0,0,0],"sum_hessian":[1.44495E5,5.55E2,1.4394E5,5.47E2,8E0,1.42895E5,1.045E3,7.3E1,4.74E2,7.321E3,1.35574E5,9.1E1,9.54E2],"tree_param":{"num_deleted":"0","num_feature":"41","num_nodes":"13","size_leaf_vector":"1"}},{"base_weights":[-1.932725E-4,-5.8708522E-2,3.3278608E-5,-6.744084E-2,4.7536287E-3,-4.3635894E-4,1.664938E-2,-1.7359491E-3,-5.027762E-4,-3.5234427E-6,-1.8988054E-3,4.0590463E-4,1.8989838E-5],"categories":[],"categories_nodes":[],"categories_segments":[],"categories_sizes":[],"default_left":[0,0,0,0,0,0,0,0,0,0,0,0,0],"id":15,"left_children":[1,3,5,7,-1,9,11,-1,-1,-1,-1,-1,-1],"loss_changes":[1.9180491E0,2.321428E0,1.1245205E0,1.0825586E0,0E0,2.9472506E0,1.1312324E0,0E0,0E0,0E0,0E0,0E0,0E0],"parents":[2147483647,0,0,1,1,2,2,3,3,5,5,6,6],"right_children":[2,4,6,8,-1,10,12,-1,-1,-1,-1,-1,-1],"split_conditions":[-4.222981E0,1.1777489E0,8.113472E-1,-1.5844707E0,4.7536287E-3,8.402602E-1,-2.4743535E-1,-1.7359491E-3,-5.027762E-4,-3.5234427E-6,-1.8988054E-3,4.0590463E-4,1.8989838E-5],"split_indices":[28,21,19,24,0,15,21,0,0,0,0,0,0],"split_type":[0,0,0,0,0,0,0,0,0,0,0,0,0],"sum_hessian":[1.44641E5,5.58E2,1.44083E5,5.48E2,1E1,1.40122E5,3.961E3,1.17E2,4.31E2,1.40016E5,1.06E2,1.742E3,2.219E3],"tree_param":{"num_deleted":"0","num_feature":"41","num_nodes":"13","size_leaf_vector":"1"}},{"base_weights":[-4.777339E-5,-1.26453275E-2,6.3043565E-4,-1.1192312E-2,-2.0593655E-1,6.1859775E-2,4.964988E-4,-4.987248E-3,-1.2316594E-4,-3.0951828E-3,2.0808345E-3,5.242949E-4,3.0601227E-3,2.6989371E-6,3.606444E-4],"categories":[],"categories_nodes":[],"categories_segments":[],"categories_sizes":[],"default_left":[0,0,0,0,0,0,0,0,0,0,0,0,0,0,0],"id":16,"left_children":[1,3,5,7,9,11,13,-1,-1,-1,-1,-1,-1,-1,-1],"loss_changes":[1.2342433E0,2.0705147E0,1.1234438E0,1.1004543E0,1.4240184E0,9.716861E-1,1.1062765E0,0E0,0E0,0E0,0E0,0E0,0E0,0E0,0E0],"parents":[2147483647,0,0,1,1,2,2,3,3,4,4,5,5,6,6],"right_children":[2,4,6,8,10,12,14,-1,-1,-1,-1,-1,-1,-1,-1],"split_conditions":[-1.0278395E0,5.9120303E-1,-1.124689E0,-9.301132E-1,-9.7668684E-1,-5.780133E-1,2.1848135E0,-4.987248E-3,-1.2316594E-4,-3.0951828E-3,2.0808345E-3,5.242949E-4,3.0601227E-3,2.6989371E-6,3.606444E-4],"split_indices":[37,22,15,22,1,35,35,0,0,0,0,0,0,0,0],"split_type":[0,0,0,0,0,0,0,0,0,0,0,0,0,0,0],"sum_hessian":[1.44447E5,7.38E3,1.37067E5,7.325E3,5.5E1,2.99E2,1.36768E5,6E0,7.319E3,4.7E1,8E0,2.78E2,2.1E1,1.35644E5,1.124E3],"tree_param":{"num_deleted":"0","num_feature":"41","num_nodes":"15","size_leaf_vector":"1"}},{"base_weights":[8.860766E-6,-5.2221745E-2,2.1690589E-4,-6.8672344E-2,1.4529875E-1,-3.9815226E-5,3.5663623E-2,1.7928012E-4,-1.2004093E-3,2.2326868E-3,-4.1277865E-3,-1.2295281E-4,6.7226642E-6,1.9634059E-3,2.5849466E-4],"categories":[],"categories_nodes":[],"categories_segments":[],"categories_sizes":[],"default_left":[0,0,0,0,0,0,0,0,0,0,0,0,0,0,0],"id":17,"left_children":[1,3,5,7,9,11,13,-1,-1,-1,-1,-1,-1,-1,-1],"loss_changes":[1.5694245E0,1.8612489E0,1.3098806E0,1.6527247E0,1.1450717E0,9.7274166E-1,1.8309216E0,0E0,0E0,0E0,0E0,0E0,0E0,0E0,0E0],"parents":[2147483647,0,0,1,1,2,2,3,3,4,4,5,5,6,6],"right_children":[2,4,6,8,10,12,14,-1,-1,-1,-1,-1,-1,-1,-1],"split_conditions":[-4.222981E0,1.3487189E-1,2.1848135E0,1.3325025E0,-8.734348E-1,-1.0199594E0,-4.5066565E-1,1.7928012E-4,-1.2004093E-3,2.2326868E-3,-4.1277865E-3,-1.2295281E-4,6.7226642E-6,1.9634059E-3,2.5849466E-4],"split_indices":[28,21,35,4,22,37,15,0,0,0,0,0,0,0,0],"split_type":[0,0,0,0,0,0,0,0,0,0,0,0,0,0,0],"sum_hessian":[1.44478E5,5.73E2,1.43905E5,5.29E2,4.4E1,1.4287E5,1.035E3,1.61E2,3.68E2,4E1,4E0,7.906E3,1.34964E5,8.9E1,9.46E2],"tree_param":{"num_deleted":"0","num_feature":"41","num_nodes":"15","size_leaf_vector":"1"}},{"base_weights":[-3.3570064E-5,-3.8745464E-4,2.9713752E-2,-4.8195105E-2,-2.0001289E-4,5.5651113E-2,-1.5903044E-2,-7.151091E-4,1.5571349E-3,-1.0141976E-5,1.15719624E-4,1.1729595E-3,2.5447656E-4,-1.7095804E-3,-3.0306914E-5],"categories":[],"categories_nodes":[],"categories_segments":[],"categories_sizes":[],"default_left":[0,0,0,0,0,0,0,0,0,0,0,0,0,0,0],"id":18,"left_children":[1,3,5,7,9,11,13,-1,-1,-1,-1,-1,-1,-1,-1],"loss_changes":[1.5195594E0,1.2780747E0,2.0082762E0,1.5202512E0,1.0220135E0,1.7107229E0,1.0937554E0,0E0,0E0,0E0,0E0,0E0,0E0,0E0,0E0],"parents":[2147483647,0,0,1,1,2,2,3,3,4,4,5,5,6,6],"right_children":[2,4,6,8,10,12,14,-1,-1,-1,-1,-1,-1,-1,-1],"split_conditions":[1.7316446E0,-4.222981E0,4.4672206E-1,2.2595976E-1,1.8750275E0,1.1128143E0,4.096648E-1,-7.151091E-4,1.5571349E-3,-1.0141976E-5,1.15719624E-4,1.1729595E-3,2.5447656E-4,-1.7095804E-3,-3.0306914E-5],"split_indices":[21,28,18,21,37,23,15,0,0,0,0,0,0,0,0],"split_type":[0,0,0,0,0,0,0,0,0,0,0,0,0,0,0],"sum_hessian":[1.44375E5,1.42678E5,1.697E3,5.57E2,1.42121E5,1.082E3,6.15E2,5.16E2,4.1E1,1.33236E5,8.885E3,4.45E2,6.37E2,5.5E1,5.6E2],"tree_param":{"num_deleted":"0","num_feature":"41","num_nodes":"15","size_leaf_vector":"1"}},{"base_weights":[-3.1683114E-4,-6.66562E-4,2.9299693E-2,-1.3550172E-4,-1.6110752E-2,5.3792726E-2,-1.4592636E-2,-6.893727E-6,2.0023037E-4,-6.3200205E-5,-8.2273385E-4,1.0308152E-3,2.118629E-4,1.5248505E-4,-8.374099E-4],"categories":[],"categories_nodes":[],"categories_segments":[],"categories_sizes":[],"default_left":[0,0,0,0,0,0,0,0,0,0,0,0,0,0,0],"id":19,"left_children":[1,3,5,7,9,11,13,-1,-1,-1,-1,-1,-1,-1,-1],"loss_changes":[1.4945635E0,1.1697172E0,1.8108081E0,1.153656E0,2.8146718E0,1.4019248E0,9.9903387E-1,0E0,0E0,0E0,0E0,0E0,0E0,0E0,0E0],"parents":[2147483647,0,0,1,1,2,2,3,3,4,4,5,5,6,6],"right_children":[2,4,6,8,10,12,14,-1,-1,-1,-1,-1,-1,-1,-1],"split_conditions":[1.7316446E0,2.3767886E0,4.4681138E-1,8.113472E-1,3.037391E0,6.5004486E-1,1.4176977E0,-6.893727E-6,2.0023037E-4,-6.3200205E-5,-8.2273385E-4,1.0308152E-3,2.118629E-4,1.5248505E-4,-8.374099E-4],"split_indices":[21,36,9,19,34,33,35,0,0,0,0,0,0,0,0],"split_type":[0,0,0,0,0,0,0,0,0,0,0,0,0,0,0],"sum_hessian":[1.44321E5,1.42637E5,1.684E3,1.37896E5,4.741E3,1.081E3,6.03E2,1.34332E5,3.564E3,3.993E3,7.48E2,5.27E2,5.54E2,4.09E2,1.94E2],"tree_param":{"num_deleted":"0","num_feature":"41","num_nodes":"15","size_leaf_vector":"1"}},{"base_weights":[1.16737996E-4,-5.250663E-2,3.2306736E-4,-7.341525E-2,1.024285E-1,4.1289044E-7,3.9471403E-2,7.3413903E-6,-1.1982741E-3,-2.9342095E-4,2.6683128E-3,1.8910678E-3,3.1748772E-4],"categories":[],"categories_nodes":[],"categories_segments":[],"categories_sizes":[],"default_left":[0,0,0,0,0,0,0,0,0,0,0,0,0],"id":20,"left_children":[1,3,5,7,9,-1,11,-1,-1,-1,-1,-1,-1],"loss_changes":[1.5679991E0,1.8268976E0,1.6148465E0,1.1805241E0,1.140094E0,0E0,1.5291638E0,0E0,0E0,0E0,0E0,0E0,0E0],"parents":[2147483647,0,0,1,1,2,2,3,3,4,4,6,6],"right_children":[2,4,6,8,10,-1,12,-1,-1,-1,-1,-1,-1],"split_conditions":[-4.222981E0,-4.9302075E-2,2.1848135E0,1.3325025E0,-9.3004066E-1,4.1289044E-7,-5.293858E-1,7.3413903E-6,-1.1982741E-3,-2.9342095E-4,2.6683128E-3,1.8910678E-3,3.1748772E-4],"split_indices":[28,21,35,4,16,0,13,0,0,0,0,0,0],"split_type":[0,0,0,0,0,0,0,0,0,0,0,0,0],"sum_hessian":[1.44461E5,5.64E2,1.43897E5,4.97E2,6.7E1,1.42851E5,1.046E3,1.5E2,3.47E2,3.4E1,3.3E1,8.7E1,9.59E2],"tree_param":{"num_deleted":"0","num_feature":"41","num_nodes":"13","size_leaf_vector":"1"}},{"base_weights":[9.450611E-5,-2.2231943E-4,2.6987666E-2,-4.862325E-2,-2.9106044E-5,5.1401835E-2,-1.4669531E-2,-6.0561276E-4,4.3878583E-3,-2.2724494E-6,5.908071E-4,1.1050194E-3,2.240903E-4,1.5927835E-4,-8.3840755E-4],"categories":[],"categories_nodes":[],"categories_segments":[],"categories_sizes":[],"default_left":[0,0,0,0,0,0,0,0,0,0,0,0,0,0,0],"id":21,"left_children":[1,3,5,7,9,11,13,-1,-1,-1,-1,-1,-1,-1,-1],"loss_changes":[1.2300998E0,1.3336092E0,1.710008E0,1.1496083E0,1.2627379E0,1.5384731E0,1.0537941E0,0E0,0E0,0E0,0E0,0E0,0E0,0E0,0E0],"parents":[2147483647,0,0,1,1,2,2,3,3,4,4,5,5,6,6],"right_children":[2,4,6,8,10,12,14,-1,-1,-1,-1,-1,-1,-1,-1],"split_conditions":[1.7316446E0,-4.222981E0,4.5242062E-1,1.1777489E0,2.7902145E0,1.1128143E0,1.4176977E0,-6.0561276E-4,4.3878583E-3,-2.2724494E-6,5.908071E-4,1.1050194E-3,2.240903E-4,1.5927835E-4,-8.3840755E-4],"split_indices":[21,28,31,21,35,23,35,0,0,0,0,0,0,0,0],"split_type":[0,0,0,0,0,0,0,0,0,0,0,0,0,0,0],"sum_hessian":[1.44339E5,1.42658E5,1.681E3,5.67E2,1.42091E5,1.06E3,6.21E2,5.61E2,6E0,1.41626E5,4.65E2,4.33E2,6.27E2,4.18E2,2.03E2],"tree_param":{"num_deleted":"0","num_feature":"41","num_nodes":"15","size_leaf_vector":"1"}},{"base_weights":[-1.444879E-5,-5.3660322E-2,1.9488872E-4,-7.084019E-2,1.8676078E-3,-4.349939E-4,1.6212916E-2,-1.9429796E-3,-5.2417984E-4,-1.3439784E-4,2.2985046E-6,8.727901E-4,1.2339916E-4],"categories":[],"categories_nodes":[],"categories_segments":[],"categories_sizes":[],"default_left":[0,0,0,0,0,0,0,0,0,0,0,0,0],"id":22,"left_children":[1,3,5,7,-1,9,11,-1,-1,-1,-1,-1,-1],"loss_changes":[1.6237108E0,2.10429E0,1.4528006E0,1.2870889E0,0E0,1.0059171E0,1.7663219E0,0E0,0E0,0E0,0E0,0E0,0E0],"parents":[2147483647,0,0,1,1,2,2,3,3,5,5,6,6],"right_children":[2,4,6,8,-1,10,12,-1,-1,-1,-1,-1,-1],"split_conditions":[-4.222981E0,2.2595976E-1,9.748456E-1,-1.5844707E0,1.8676078E-3,-1.0278395E0,-4.1432673E-1,-1.9429796E-3,-5.2417984E-4,-1.3439784E-4,2.2985046E-6,8.727901E-4,1.2339916E-4],"split_indices":[28,21,35,24,0,37,19,0,0,0,0,0,0],"split_type":[0,0,0,0,0,0,0,0,0,0,0,0,0],"sum_hessian":[1.44538E5,5.62E2,1.43976E5,5.21E2,4.1E1,1.38528E5,5.448E3,1.03E2,4.18E2,7.339E3,1.31189E5,4.42E2,5.006E3],"tree_param":{"num_deleted":"0","num_feature":"41","num_nodes":"13","size_leaf_vector":"1"}},{"base_weights":[-3.9151803E-4,-7.499764E-4,2.9676894E-2,-5.0925437E-2,-5.537732E-4,5.455104E-2,-1.2846929E-2,2.7309524E-4,-9.1407227E-4,1.4367013E-4,-1.2210921E-5,1.0878008E-3,2.7303214E-4,1.9117669E-4,-8.733375E-4],"categories":[],"categories_nodes":[],"categories_segments":[],"categories_sizes":[],"default_left":[0,0,0,0,0,0,0,0,0,0,0,0,0,0,0],"id":23,"left_children":[1,3,5,7,9,11,13,-1,-1,-1,-1,-1,-1,-1,-1],"loss_changes":[1.5571606E0,1.405262E0,1.8007168E0,1.2309613E0,9.777432E-1,1.3488402E0,1.1934775E0,0E0,0E0,0E0,0E0,0E0,0E0,0E0,0E0],"parents":[2147483647,0,0,1,1,2,2,3,3,4,4,5,5,6,6],"right_children":[2,4,6,8,10,12,14,-1,-1,-1,-1,-1,-1,-1,-1],"split_conditions":[1.7316446E0,-4.222981E0,4.4672206E-1,1.3325025E0,-1.0638005E0,1.1317573E0,1.4176977E0,2.7309524E-4,-9.1407227E-4,1.4367013E-4,-1.2210921E-5,1.0878008E-3,2.7303214E-4,1.9117669E-4,-8.733375E-4],"split_indices":[21,28,18,4,21,23,35,0,0,0,0,0,0,0,0],"split_type":[0,0,0,0,0,0,0,0,0,0,0,0,0,0,0],"sum_hessian":[1.44499E5,1.42797E5,1.702E3,5.56E2,1.42241E5,1.074E3,6.28E2,1.57E2,3.99E2,5.4E3,1.36841E5,4.57E2,6.17E2,4.29E2,1.99E2],"tree_param":{"num_deleted":"0","num_feature":"41","num_nodes":"15","size_leaf_vector":"1"}},{"base_weights":[3.281557E-5,-5.3445492E-2,2.4724682E-4,-5.9759337E-2,4.4749025E-3,1.4701614E-2,-3.1614685E-4,-8.2007213E-4,1.087894E-3,3.0819124E-3,1.4527173E-4,-8.550945E-6,1.9009362E-4],"categories":[],"categories_nodes":[],"categories_segments":[],"categories_sizes":[],"default_left":[0,0,0,0,0,0,0,0,0,0,0,0,0],"id":24,"left_children":[1,3,5,7,-1,9,11,-1,-1,-1,-1,-1,-1],"loss_changes":[1.6568311E0,1.6264145E0,1.1724089E0,1.0982528E0,0E0,2.6524892E0,1.030511E0,0E0,0E0,0E0,0E0,0E0,0E0],"parents":[2147483647,0,0,1,1,2,2,3,3,5,5,6,6],"right_children":[2,4,6,8,-1,10,12,-1,-1,-1,-1,-1,-1],"split_conditions":[-4.222981E0,1.1777489E0,-1.0638005E0,2.0487969E-1,4.4749025E-3,-1.0134012E0,9.748456E-1,-8.2007213E-4,1.087894E-3,3.0819124E-3,1.4527173E-4,-8.550945E-6,1.9009362E-4],"split_indices":[28,21,21,0,0,1,35,0,0,0,0,0,0],"split_type":[0,0,0,0,0,0,0,0,0,0,0,0,0],"sum_hessian":[1.44528E5,5.77E2,1.43951E5,5.69E2,8E0,5.401E3,1.3855E5,5.27E2,4.2E1,4E1,5.361E3,1.35092E5,3.458E3],"tree_param":{"num_deleted":"0","num_feature":"41","num_nodes":"13","size_leaf_vector":"1"}},{"base_weights":[1.1146885E-4,-4.9527753E-2,3.0606386E-4,-5.6746934E-2,4.4775032E-3,-4.746635E-4,1.0866146E-2,-2.1091227E-3,-4.1922828E-4,2.7291544E-4,-8.64655E-6,1.0190372E-4,1.404002E-3],"categories":[],"categories_nodes":[],"categories_segments":[],"categories_sizes":[],"default_left":[0,0,0,0,0,0,0,0,0,0,0,0,0],"id":25,"left_children":[1,3,5,7,-1,9,11,-1,-1,-1,-1,-1,-1],"loss_changes":[1.3952056E0,1.8030233E0,1.1867002E0,1.417588E0,0E0,9.3956757E-1,2.117947E0,0E0,0E0,0E0,0E0,0E0,0E0],"parents":[2147483647,0,0,1,1,2,2,3,3,5,5,6,6],"right_children":[2,4,6,8,-1,10,12,-1,-1,-1,-1,-1,-1],"split_conditions":[-4.222981E0,1.1777489E0,6.185145E-1,-3.040959E0,4.4775032E-3,-1.2220515E0,4.6187763E0,-2.1091227E-3,-4.1922828E-4,2.7291544E-4,-8.64655E-6,1.0190372E-4,1.404002E-3],"split_indices":[28,21,35,21,0,22,28,0,0,0,0,0,0],"split_type":[0,0,0,0,0,0,0,0,0,0,0,0,0],"sum_hessian":[1.44489E5,5.64E2,1.43925E5,5.55E2,9E0,1.34016E5,9.909E3,7.4E1,4.81E2,1.548E3,1.32468E5,9.745E3,1.64E2],"tree_param":{"num_deleted":"0","num_feature":"41","num_nodes":"13","size_leaf_vector":"1"}},{"base_weights":[1.6269438E-4,-2.1790325E-4,3.2536946E-2,-4.9973477E-2,-1.9586914E-5,2.7145375E-2,2.0773278E-1,-1.1781646E-3,-5.2521766E-5,-5.4498214E-6,1.9762828E-4,5.322481E-4,-1.284077E-4,3.2517677E-3,-7.8977295E-4],"categories":[],"categories_nodes":[],"categories_segments":[],"categories_sizes":[],"default_left":[0,0,0,0,0,0,0,0,0,0,0,0,0,0,0],"id":26,"left_children":[1,3,5,7,9,11,13,-1,-1,-1,-1,-1,-1,-1,-1],"loss_changes":[1.7783252E0,1.4068098E0,1.5816586E0,1.3777286E0,1.1377783E0,1.2324519E0,1.0901065E0,0E0,0E0,0E0,0E0,0E0,0E0,0E0,0E0],"parents":[2147483647,0,0,1,1,2,2,3,3,4,4,5,5,6,6],"right_children":[2,4,6,8,10,12,14,-1,-1,-1,-1,-1,-1,-1,-1],"split_conditions":[1.7316446E0,-4.222981E0,6.9478164E0,-1.3741634E0,8.113472E-1,6.6932523E-1,1.7545143E0,-1.1781646E-3,-5.2521766E-5,-5.4498214E-6,1.9762828E-4,5.322481E-4,-1.284077E-4,3.2517677E-3,-7.8977295E-4],"split_indices":[21,28,34,38,19,22,22,0,0,0,0,0,0,0,0],"split_type":[0,0,0,0,0,0,0,0,0,0,0,0,0,0,0],"sum_hessian":[1.443E5,1.42623E5,1.677E3,5.66E2,1.42057E5,1.627E3,5E1,2.59E2,3.07E2,1.38401E5,3.656E3,1.076E3,5.51E2,3.9E1,1.1E1],"tree_param":{"num_deleted":"0","num_feature":"41","num_nodes":"15","size_leaf_vector":"1"}},{"base_weights":[-6.726409E-5,-3.9358795E-4,2.697939E-2,1.2648868E-4,-1.574407E-2,2.162086E-3,2.1783281E-2,-3.5264732E-6,2.1825673E-4,-6.7503686E-5,-7.6460594E-4,6.0872384E-4,-1.8110954E-5],"categories":[],"categories_nodes":[],"categories_segments":[],"categories_sizes":[],"default_left":[0,0,0,0,0,0,0,0,0,0,0,0,0],"id":27,"left_children":[1,3,5,7,9,-1,11,-1,-1,-1,-1,-1,-1],"loss_changes":[1.2741511E0,1.1391759E0,1.4581707E0,1.1505166E0,2.3621945E0,0E0,1.2401012E0,0E0,0E0,0E0,0E0,0E0,0E0],"parents":[2147483647,0,0,1,1,2,2,3,3,4,4,6,6],"right_children":[2,4,6,8,10,-1,12,-1,-1,-1,-1,-1,-1],"split_conditions":[1.7316446E0,2.3767886E0,8.109007E-1,2.5972416E0,3.037391E0,2.162086E-3,4.6230623E-1,-3.5264732E-6,2.1825673E-4,-6.7503686E-5,-7.6460594E-4,6.0872384E-4,-1.8110954E-5],"split_indices":[21,36,37,34,34,0,24,0,0,0,0,0,0],"split_type":[0,0,0,0,0,0,0,0,0,0,0,0,0],"sum_hessian":[1.44394E5,1.42673E5,1.721E3,1.37997E5,4.676E3,5.3E1,1.668E3,1.34908E5,3.089E3,3.929E3,7.47E2,7.07E2,9.61E2],"tree_param":{"num_deleted":"0","num_feature":"41","num_nodes":"13","size_leaf_vector":"1"}},{"base_weights":[-1.595879E-5,-3.5412048E-4,2.8492965E-2,1.5316605E-4,-1.7119098E-2,2.1198149E-1,2.26604E-2,-4.5651127E-6,1.6912883E-4,-1.498561E-4,-1.8178584E-3,1.0995463E-3,4.1871523E-3,4.8637306E-4,-1.4145552E-4],"categories":[],"categories_nodes":[],"categories_segments":[],"categories_sizes":[],"default_left":[0,0,0,0,0,0,0,0,0,0,0,0,0,0,0],"id":28,"left_children":[1,3,5,7,9,11,13,-1,-1,-1,-1,-1,-1,-1,-1],"loss_changes":[1.3898678E0,1.2121418E0,1.8062624E0,1.130926E0,2.34887E0,9.328778E-1,1.1588182E0,0E0,0E0,0E0,0E0,0E0,0E0,0E0,0E0],"parents":[2147483647,0,0,1,1,2,2,3,3,4,4,5,5,6,6],"right_children":[2,4,6,8,10,12,14,-1,-1,-1,-1,-1,-1,-1,-1],"split_conditions":[1.7316446E0,2.4620535E0,8.109007E-1,1.6419239E0,6.9478164E0,-8.1006145E-1,4.4681138E-1,-4.5651127E-6,1.6912883E-4,-1.498561E-4,-1.8178584E-3,1.0995463E-3,4.1871523E-3,4.8637306E-4,-1.4145552E-4],"split_indices":[21,36,37,28,34,31,9,0,0,0,0,0,0,0,0],"split_type":[0,0,0,0,0,0,0,0,0,0,0,0,0,0,0],"sum_hessian":[1.44197E5,1.42507E5,1.69E3,1.38321E5,4.186E3,5.2E1,1.638E3,1.33299E5,5.022E3,4.074E3,1.12E2,3E1,2.2E1,1.041E3,5.97E2],"tree_param":{"num_deleted":"0","num_feature":"41","num_nodes":"15","size_leaf_vector":"1"}},{"base_weights":[3.6445304E-5,-2.8608486E-4,2.7340764E-2,2.2399836E-4,-1.5140972E-2,4.938178E-2,-1.2640348E-2,-2.5267434E-6,1.9263543E-4,-1.2891593E-4,-1.9044675E-3,1.072231E-3,2.1464269E-4,1.7365791E-4,-8.0655713E-4],"categories":[],"categories_nodes":[],"categories_segments":[],"categories_sizes":[],"default_left":[0,0,0,0,0,0,0,0,0,0,0,0,0,0,0],"id":29,"left_children":[1,3,5,7,9,11,13,-1,-1,-1,-1,-1,-1,-1,-1],"loss_changes":[1.27181E0,1.0814276E0,1.486129E0,1.0304201E0,2.7398937E0,1.4898024E0,9.764559E-1,0E0,0E0,0E0,0E0,0E0,0E0,0E0,0E0],"parents":[2147483647,0,0,1,1,2,2,3,3,4,4,5,5,6,6],"right_children":[2,4,6,8,10,12,14,-1,-1,-1,-1,-1,-1,-1,-1],"split_conditions":[1.7316446E0,2.3767886E0,4.4681138E-1,8.113472E-1,6.9478164E0,1.1128143E0,1.4176977E0,-2.5267434E-6,1.9263543E-4,-1.2891593E-4,-1.9044675E-3,1.072231E-3,2.1464269E-4,1.7365791E-4,-8.0655713E-4],"split_indices":[21,36,9,19,34,23,35,0,0,0,0,0,0,0,0],"split_type":[0,0,0,0,0,0,0,0,0,0,0,0,0,0,0],"sum_hessian":[1.44387E5,1.42701E5,1.686E3,1.37963E5,4.738E3,1.087E3,5.99E2,1.34377E5,3.586E3,4.623E3,1.15E2,4.39E2,6.48E2,4.05E2,1.94E2],"tree_param":{"num_deleted":"0","num_feature":"41","num_nodes":"15","size_leaf_vector":"1"}},{"base_weights":[2.8243603E-4,-5.7049507E-5,2.9129717E-2,-1.1646392E-2,6.2494207E-4,5.1149018E-2,-8.213058E-3,-5.034567E-3,-1.2736274E-4,8.315353E-4,5.7461184E-6,8.7313773E-4,7.128632E-5,2.0032584E-4,-7.4812403E-4],"categories":[],"categories_nodes":[],"categories_segments":[],"categories_sizes":[],"default_left":[0,0,0,0,0,0,0,0,0,0,0,0,0,0,0],"id":30,"left_children":[1,3,5,7,9,11,13,-1,-1,-1,-1,-1,-1,-1,-1],"loss_changes":[1.4145029E0,1.1282009E0,1.3818433E0,1.4924902E0,1.1654207E0,1.2179387E0,9.283491E-1,0E0,0E0,0E0,0E0,0E0,0E0,0E0,0E0],"parents":[2147483647,0,0,1,1,2,2,3,3,4,4,5,5,6,6],"right_children":[2,4,6,8,10,12,14,-1,-1,-1,-1,-1,-1,-1,-1],"split_conditions":[1.7316446E0,-1.0199594E0,4.5242062E-1,-9.301132E-1,-1.124689E0,6.6932523E-1,1.4176977E0,-5.034567E-3,-1.2736274E-4,8.315353E-4,5.7461184E-6,8.7313773E-4,7.128632E-5,2.0032584E-4,-7.4812403E-4],"split_indices":[21,37,31,22,15,22,35,0,0,0,0,0,0,0,0],"split_type":[0,0,0,0,0,0,0,0,0,0,0,0,0,0,0],"sum_hessian":[1.44407E5,1.42727E5,1.68E3,7.933E3,1.34794E5,1.057E3,6.23E2,8E0,7.925E3,2.21E2,1.34573E5,6.72E2,3.85E2,4.3E2,1.93E2],"tree_param":{"num_deleted":"0","num_feature":"41","num_nodes":"15","size_leaf_vector":"1"}},{"base_weights":[9.785869E-5,-1.1196409E-2,7.0206146E-4,-1.001618E-2,-2.1094377E-1,7.518379E-4,5.6268653E-4,-1.5451915E-3,-9.83062E-5,-3.2073106E-3,2.5786164E-3,5.518968E-10,1.4777135E-4],"categories":[],"categories_nodes":[],"categories_segments":[],"categories_sizes":[],"default_left":[0,0,0,0,0,0,0,0,0,0,0,0,0],"id":31,"left_children":[1,3,5,7,9,-1,11,-1,-1,-1,-1,-1,-1],"loss_changes":[9.851824E-1,1.7260346E0,1.2498547E0,1.2512069E0,1.3446295E0,0E0,9.572897E-1,0E0,0E0,0E0,0E0,0E0,0E0],"parents":[2147483647,0,0,1,1,2,2,3,3,4,4,6,6],"right_children":[2,4,6,8,10,-1,12,-1,-1,-1,-1,-1,-1],"split_conditions":[-1.0278395E0,6.429052E-1,-1.124689E0,-4.538926E-1,-9.7668684E-1,7.518379E-4,1.6419239E0,-1.5451915E-3,-9.83062E-5,-3.2073106E-3,2.5786164E-3,5.518968E-10,1.4777135E-4],"split_indices":[37,22,15,20,1,0,28,0,0,0,0,0,0],"split_type":[0,0,0,0,0,0,0,0,0,0,0,0,0],"sum_hessian":[1.44385E5,7.331E3,1.37054E5,7.288E3,4.3E1,2.91E2,1.36763E5,7.8E1,7.21E3,3.7E1,6E0,1.30847E5,5.916E3],"tree_param":{"num_deleted":"0","num_feature":"41","num_nodes":"13","size_leaf_vector":"1"}},{"base_weights":[-5.769473E-5,-3.8211557E-4,2.7102096E-2,-4.6770234E-2,-1.9752001E-4,5.0076116E-2,-1.6676447E-4,-1.3014978E-3,-3.8587423E-5,-7.345612E-6,1.9019171E-4,1.0309729E-3,2.5823872E-4],"categories":[],"categories_nodes":[],"categories_segments":[],"categories_sizes":[],"default_left":[0,0,0,0,0,0,0,0,0,0,0,0,0],"id":32,"left_children":[1,3,5,7,9,11,-1,-1,-1,-1,-1,-1,-1],"loss_changes":[1.2690041E0,1.2184961E0,1.6320775E0,1.6567681E0,1.077922E0,1.2186692E0,0E0,0E0,0E0,0E0,0E0,0E0,0E0],"parents":[2147483647,0,0,1,1,2,2,3,3,4,4,5,5],"right_children":[2,4,6,8,10,12,-1,-1,-1,-1,-1,-1,-1],"split_conditions":[1.7316446E0,-4.222981E0,4.4672206E-1,-1.4712262E0,8.113472E-1,1.1128143E0,-1.6676447E-4,-1.3014978E-3,-3.8587423E-5,-7.345612E-6,1.9019171E-4,1.0309729E-3,2.5823872E-4],"split_indices":[21,28,18,38,19,23,0,0,0,0,0,0,0],"split_type":[0,0,0,0,0,0,0,0,0,0,0,0,0],"sum_hessian":[1.44052E5,1.42352E5,1.7E3,5.64E2,1.41788E5,1.097E3,6.03E2,2.2E2,3.44E2,1.38127E5,3.661E3,4.41E2,6.56E2],"tree_param":{"num_deleted":"0","num_feature":"41","num_nodes":"13","size_leaf_vector":"1"}},{"base_weights":[1.322251E-4,-1.8561822E-4,2.7084459E-2,3.05896E-4,-1.6524399E-2,5.0023124E-2,-8.66816E-3,-1.196391E-4,1.1169495E-5,-3.810365E-5,-5.686706E-4,5.054274E-4,3.897197E-3,2.0434672E-4,-7.635015E-4],"categories":[],"categories_nodes":[],"categories_segments":[],"categories_sizes":[],"default_left":[0,0,0,0,0,0,0,0,0,0,0,0,0,0,0],"id":33,"left_children":[1,3,5,7,9,11,13,-1,-1,-1,-1,-1,-1,-1,-1],"loss_changes":[1.2377299E0,1.1466956E0,1.3815057E0,1.0167425E0,1.8406672E0,1.661576E0,1.0269146E0,0E0,0E0,0E0,0E0,0E0,0E0,0E0,0E0],"parents":[2147483647,0,0,1,1,2,2,3,3,4,4,5,5,6,6],"right_children":[2,4,6,8,10,12,14,-1,-1,-1,-1,-1,-1,-1,-1],"split_conditions":[1.7316446E0,2.4620535E0,3.743284E-1,-1.0115798E0,7.807711E-1,3.9216468E-1,1.4176977E0,-1.196391E-4,1.1169495E-5,-3.810365E-5,-5.686706E-4,5.054274E-4,3.897197E-3,2.0434672E-4,-7.635015E-4],"split_indices":[21,36,32,37,4,31,35,0,0,0,0,0,0,0,0],"split_type":[0,0,0,0,0,0,0,0,0,0,0,0,0,0,0],"sum_hessian":[1.44452E5,1.42768E5,1.684E3,1.38598E5,4.17E3,1.026E3,6.58E2,8.151E3,1.30447E5,2.994E3,1.176E3,1.007E3,1.9E1,4.52E2,2.06E2],"tree_param":{"num_deleted":"0","num_feature":"41","num_nodes":"15","size_leaf_vector":"1"}},{"base_weights":[3.488649E-5,-4.5407802E-2,2.0915167E-4,2.8204704E-2,-9.168883E-2,-1.2500527E-2,7.2347454E-4,-4.82702E-3,4.962E-4,-1.2637017E-3,8.8191614E-4,-1.224315E-3,-9.60801E-5,1.464632E-6,1.5684564E-4],"categories":[],"categories_nodes":[],"categories_segments":[],"categories_sizes":[],"default_left":[0,0,0,0,0,0,0,0,0,0,0,0,0,0,0],"id":34,"left_children":[1,3,5,7,9,11,13,-1,-1,-1,-1,-1,-1,-1,-1],"loss_changes":[1.1442982E0,1.8812912E0,9.41219E-1,1.4887519E0,1.1212332E0,2.1562493E0,1.0762539E0,0E0,0E0,0E0,0E0,0E0,0E0,0E0,0E0],"parents":[2147483647,0,0,1,1,2,2,3,3,4,4,5,5,6,6],"right_children":[2,4,6,8,10,12,14,-1,-1,-1,-1,-1,-1,-1,-1],"split_conditions":[-4.222981E0,7.575396E-1,-1.0531123E0,-1.0596867E0,2.155831E-1,-1.0534607E0,1.6419239E0,-4.82702E-3,4.962E-4,-1.2637017E-3,8.8191614E-4,-1.224315E-3,-9.60801E-5,1.464632E-6,1.5684564E-4],"split_indices":[28,36,37,12,2,2,28,0,0,0,0,0,0,0,0],"split_type":[0,0,0,0,0,0,0,0,0,0,0,0,0,0,0],"sum_hessian":[1.44556E5,5.52E2,1.44004E5,2.13E2,3.39E2,5.6E3,1.38404E5,7E0,2.06E2,3.04E2,3.5E1,2.28E2,5.372E3,1.32387E5,6.017E3],"tree_param":{"num_deleted":"0","num_feature":"41","num_nodes":"15","size_leaf_vector":"1"}},{"base_weights":[-7.475338E-5,-3.9786572E-4,2.6671434E-2,-4.819252E-2,-2.0785538E-4,4.8447542E-2,-1.2284026E-2,-2.1469737E-3,-3.0626767E-4,-7.549362E-6,1.9229477E-4,1.0112785E-3,2.4009019E-4,-2.247493E-3,-3.555856E-5],"categories":[],"categories_nodes":[],"categories_segments":[],"categories_sizes":[],"default_left":[0,0,0,0,0,0,0,0,0,0,0,0,0,0,0],"id":35,"left_children":[1,3,5,7,9,11,13,-1,-1,-1,-1,-1,-1,-1,-1],"loss_changes":[1.2481898E0,1.2957969E0,1.4628443E0,1.6868826E0,1.1118307E0,1.224139E0,1.0475522E0,0E0,0E0,0E0,0E0,0E0,0E0,0E0,0E0],"parents":[2147483647,0,0,1,1,2,2,3,3,4,4,5,5,6,6],"right_children":[2,4,6,8,10,12,14,-1,-1,-1,-1,-1,-1,-1,-1],"split_conditions":[1.7316446E0,-4.222981E0,4.4681138E-1,-3.040959E0,8.113472E-1,1.1128143E0,4.4737777E-1,-2.1469737E-3,-3.0626767E-4,-7.549362E-6,1.9229477E-4,1.0112785E-3,2.4009019E-4,-2.247493E-3,-3.555856E-5],"split_indices":[21,28,9,21,19,23,32,0,0,0,0,0,0,0,0],"split_type":[0,0,0,0,0,0,0,0,0,0,0,0,0,0,0],"sum_hessian":[1.44463E5,1.42739E5,1.724E3,5.65E2,1.42174E5,1.106E3,6.18E2,7.4E1,4.91E2,1.38484E5,3.69E3,4.45E2,6.61E2,2.9E1,5.89E2],"tree_param":{"num_deleted":"0","num_feature":"41","num_nodes":"15","size_leaf_vector":"1"}},{"base_weights":[1.4576988E-4,-1.8726682E-4,2.8440436E-2,3.1141294E-4,-1.6636543E-2,4.8940863E-2,-3.416891E-3,-2.8351053E-6,1.7275571E-4,-1.4654068E-4,-1.6980509E-3,4.922336E-4,3.922321E-3,2.7483757E-4,-7.179456E-4],"categories":[],"categories_nodes":[],"categories_segments":[],"categories_sizes":[],"default_left":[0,0,0,0,0,0,0,0,0,0,0,0,0,0,0],"id":36,"left_children":[1,3,5,7,9,11,13,-1,-1,-1,-1,-1,-1,-1,-1],"loss_changes":[1.3616378E0,1.1714423E0,1.0983071E0,1.1578417E0,2.0853283E0,1.6992822E0,1.0860577E0,0E0,0E0,0E0,0E0,0E0,0E0,0E0,0E0],"parents":[2147483647,0,0,1,1,2,2,3,3,4,4,5,5,6,6],"right_children":[2,4,6,8,10,12,14,-1,-1,-1,-1,-1,-1,-1,-1],"split_conditions":[1.7316446E0,2.4620535E0,3.769423E-1,1.6419239E0,6.9478164E0,3.9216468E-1,1.4176977E0,-2.8351053E-6,1.7275571E-4,-1.4654068E-4,-1.6980509E-3,4.922336E-4,3.922321E-3,2.7483757E-4,-7.179456E-4],"split_indices":[21,36,30,28,34,31,35,0,0,0,0,0,0,0,0],"split_type":[0,0,0,0,0,0,0,0,0,0,0,0,0,0,0],"sum_hessian":[1.44469E5,1.42788E5,1.681E3,1.38586E5,4.202E3,1.023E3,6.58E2,1.33555E5,5.031E3,4.087E3,1.15E2,1.004E3,1.9E1,4.5E2,2.08E2],"tree_param":{"num_deleted":"0","num_feature":"41","num_nodes":"15","size_leaf_vector":"1"}},{"base_weights":[1.8175472E-4,-4.334987E-2,3.514997E-4,-5.1256657E-2,4.4414042E-3,9.2569314E-7,3.7623186E-2,-1.9263484E-3,-3.638069E-4,9.3398325E-4,-5.489559E-5],"categories":[],"categories_nodes":[],"categories_segments":[],"categories_sizes":[],"default_left":[0,0,0,0,0,0,0,0,0,0,0],"id":37,"left_children":[1,3,5,7,-1,-1,9,-1,-1,-1,-1],"loss_changes":[1.0672685E0,1.9229847E0,1.4482281E0,1.2517517E0,0E0,0E0,1.9594456E0,0E0,0E0,0E0,0E0],"parents":[2147483647,0,0,1,1,2,2,3,3,6,6],"right_children":[2,4,6,8,-1,-1,10,-1,-1,-1,-1],"split_conditions":[-4.222981E0,1.1777489E0,2.1848135E0,-3.040959E0,4.4414042E-3,9.2569314E-7,2.5915185E-1,-1.9263484E-3,-3.638069E-4,9.3398325E-4,-5.489559E-5],"split_indices":[28,21,35,21,0,0,19,0,0,0,0],"split_type":[0,0,0,0,0,0,0,0,0,0,0],"sum_hessian":[1.44493E5,5.61E2,1.43932E5,5.51E2,1E1,1.42897E5,1.035E3,7.7E1,4.74E2,5.05E2,5.3E2],"tree_param":{"num_deleted":"0","num_feature":"41","num_nodes":"11","size_leaf_vector":"1"}},{"base_weights":[9.456116E-5,-9.898924E-3,8.511685E-4,-6.4785196E-3,-9.493708E-2,2.3359166E-6,1.7772676E-2,-2.0928038E-4,1.5447898E-4,6.837557E-4,-1.3359964E-3,8.1575767E-4,1.3363731E-4],"categories":[],"categories_nodes":[],"categories_segments":[],"categories_sizes":[],"default_left":[0,0,0,0,0,0,0,0,0,0,0,0,0],"id":38,"left_children":[1,3,5,7,9,-1,11,-1,-1,-1,-1,-1,-1],"loss_changes":[1.0922605E0,2.9562054E0,1.4669795E0,2.3426936E0,1.3809195E0,0E0,1.6017746E0,0E0,0E0,0E0,0E0,0E0,0E0],"parents":[2147483647,0,0,1,1,2,2,3,3,4,4,6,6],"right_children":[2,4,6,8,10,-1,12,-1,-1,-1,-1,-1,-1],"split_conditions":[-1.4844435E0,4.273694E0,9.748456E-1,1.2299984E0,-1.0500729E0,2.3359166E-6,-4.1432673E-1,-2.0928038E-4,1.5447898E-4,6.837557E-4,-1.3359964E-3,8.1575767E-4,1.3363731E-4],"split_indices":[23,34,35,37,13,0,19,0,0,0,0,0,0],"split_type":[0,0,0,0,0,0,0,0,0,0,0,0,0],"sum_hessian":[1.44469E5,1.0167E4,1.34302E5,9.774E3,3.93E2,1.29367E5,4.935E3,6.129E3,3.645E3,5E1,3.43E2,4.94E2,4.441E3],"tree_param":{"num_deleted":"0","num_feature":"41","num_nodes":"13","size_leaf_vector":"1"}},{"base_weights":[2.1633718E-5,-2.82781E-4,2.5637152E-2,-4.5446508E-2,-1.05386214E-4,4.8318777E-2,-1.4316608E-2,2.8810013E-4,-1.0364307E-3,-2.869294E-6,5.145312E-4,1.0375773E-3,2.0229329E-4,1.5080649E-4,-8.317675E-4],"categories":[],"categories_nodes":[],"categories_segments":[],"categories_sizes":[],"default_left":[0,0,0,0,0,0,0,0,0,0,0,0,0,0,0],"id":39,"left_children":[1,3,5,7,9,11,13,-1,-1,-1,-1,-1,-1,-1,-1],"loss_changes":[1.1260682E0,1.1426772E0,1.5373011E0,1.8088942E0,9.486813E-1,1.4185479E0,9.98128E-1,0E0,0E0,0E0,0E0,0E0,0E0,0E0,0E0],"parents":[2147483647,0,0,1,1,2,2,3,3,4,4,5,5,6,6],"right_children":[2,4,6,8,10,12,14,-1,-1,-1,-1,-1,-1,-1,-1],"split_conditions":[1.7316446E0,-4.222981E0,4.5242062E-1,7.575396E-1,2.7902145E0,1.1128143E0,1.4176977E0,2.8810013E-4,-1.0364307E-3,-2.869294E-6,5.145312E-4,1.0375773E-3,2.0229329E-4,1.5080649E-4,-8.317675E-4],"split_indices":[21,28,31,36,35,23,35,0,0,0,0,0,0,0,0],"split_type":[0,0,0,0,0,0,0,0,0,0,0,0,0,0,0],"sum_hessian":[1.44377E5,1.42681E5,1.696E3,5.58E2,1.42123E5,1.082E3,6.14E2,2.19E2,3.39E2,1.41664E5,4.59E2,4.49E2,6.33E2,4.18E2,1.96E2],"tree_param":{"num_deleted":"0","num_feature":"41","num_nodes":"15","size_leaf_vector":"1"}},{"base_weights":[-2.3532264E-4,-4.5130517E-2,-5.9641345E-5,1.7702628E-2,-8.54601E-2,-3.2808725E-6,3.1654373E-2,-4.4633443E-3,4.0087395E-4,-3.663717E-4,-2.0936443E-3,2.3493173E-3,1.900646E-4],"categories":[],"categories_nodes":[],"categories_segments":[],"categories_sizes":[],"default_left":[0,0,0,0,0,0,0,0,0,0,0,0,0],"id":40,"left_children":[1,3,5,7,9,-1,11,-1,-1,-1,-1,-1,-1],"loss_changes":[1.1392312E0,1.4273852E0,1.0454768E0,1.5841476E0,1.8012056E0,0E0,2.6952085E0,0E0,0E0,0E0,0E0,0E0,0E0],"parents":[2147483647,0,0,1,1,2,2,3,3,4,4,6,6],"right_children":[2,4,6,8,10,-1,12,-1,-1,-1,-1,-1,-1],"split_conditions":[-4.222981E0,7.575396E-1,2.1848135E0,-1.0596867E0,6.9478164E0,-3.2808725E-6,-4.5066565E-1,-4.4633443E-3,4.0087395E-4,-3.663717E-4,-2.0936443E-3,2.3493173E-3,1.900646E-4],"split_indices":[28,36,35,12,34,0,15,0,0,0,0,0,0],"split_type":[0,0,0,0,0,0,0,0,0,0,0,0,0],"sum_hessian":[1.44497E5,5.63E2,1.43934E5,2.2E2,3.43E2,1.42902E5,1.032E3,9E0,2.11E2,2.23E2,1.2E2,8.1E1,9.51E2],"tree_param":{"num_deleted":"0","num_feature":"41","num_nodes":"13","size_leaf_vector":"1"}},{"base_weights":[2.9295727E-4,-1.3905066E-5,2.6370171E-2,4.902629E-4,-1.4705429E-2,4.622006E-2,-1.0933373E-2,-1.1599058E-6,1.8514312E-4,-6.199608E-5,-7.193066E-4,1.053056E-3,2.5562535E-4,-2.2951695E-3,-1.4654401E-5],"categories":[],"categories_nodes":[],"categories_segments":[],"categories_sizes":[],"default_left":[0,0,0,0,0,0,0,0,0,0,0,0,0,0,0],"id":41,"left_children":[1,3,5,7,9,11,13,-1,-1,-1,-1,-1,-1,-1,-1],"loss_changes":[1.1572657E0,1.058639E0,1.2458396E0,1.2935516E0,2.130887E0,1.2089527E0,1.0740175E0,0E0,0E0,0E0,0E0,0E0,0E0,0E0,0E0],"parents":[2147483647,0,0,1,1,2,2,3,3,4,4,5,5,6,6],"right_children":[2,4,6,8,10,12,14,-1,-1,-1,-1,-1,-1,-1,-1],"split_conditions":[1.7316446E0,2.3767886E0,4.4681138E-1,1.6419239E0,3.037391E0,9.6702343E-1,4.4737777E-1,-1.1599058E-6,1.8514312E-4,-6.199608E-5,-7.193066E-4,1.053056E-3,2.5562535E-4,-2.2951695E-3,-1.4654401E-5],"split_indices":[21,36,9,28,34,23,32,0,0,0,0,0,0,0,0],"split_type":[0,0,0,0,0,0,0,0,0,0,0,0,0,0,0],"sum_hessian":[1.44587E5,1.42905E5,1.682E3,1.38163E5,4.742E3,1.098E3,5.84E2,1.33171E5,4.992E3,3.984E3,7.58E2,3.71E2,7.27E2,2.8E1,5.56E2],"tree_param":{"num_deleted":"0","num_feature":"41","num_nodes":"15","size_leaf_vector":"1"}},{"base_weights":[1.901484E-5,-4.999626E-2,2.145214E-4,-5.7019986E-2,4.3265433E-3,-1.6800364E-3,4.213391E-3,-1.840277E-3,-3.4882853E-4,-8.447491E-6,-1.5678367E-4,-2.2328247E-3,5.3109125E-5],"categories":[],"categories_nodes":[],"categories_segments":[],"categories_sizes":[],"default_left":[0,0,0,0,0,0,0,0,0,0,0,0,0],"id":42,"left_children":[1,3,5,7,-1,9,11,-1,-1,-1,-1,-1,-1],"loss_changes":[1.4138961E0,1.7004498E0,1.0916111E0,1.5282118E0,0E0,1.1094427E0,4.2809496E0,0E0,0E0,0E0,0E0,0E0,0E0],"parents":[2147483647,0,0,1,1,2,2,3,3,5,5,6,6],"right_children":[2,4,6,8,-1,10,12,-1,-1,-1,-1,-1,-1],"split_conditions":[-4.222981E0,1.1777489E0,-3.9802638E-1,-1.5844707E0,4.3265433E-3,7.871226E-1,-1.0610342E0,-1.840277E-3,-3.4882853E-4,-8.447491E-6,-1.5678367E-4,-2.2328247E-3,5.3109125E-5],"split_indices":[28,21,35,24,0,34,9,0,0,0,0,0,0],"split_type":[0,0,0,0,0,0,0,0,0,0,0,0,0],"sum_hessian":[1.44646E5,5.63E2,1.44083E5,5.54E2,9E0,9.7763E4,4.632E4,1.11E2,4.43E2,9.075E4,7.013E3,1.06E2,4.6214E4],"tree_param":{"num_deleted":"0","num_feature":"41","num_nodes":"13","size_leaf_vector":"1"}},{"base_weights":[-1.3270871E-5,-1.1935982E-2,6.2702264E-4,-2.5713317E-2,8.926533E-3,1.6116872E-2,1.7031672E-6,-1.012185E-3,-2.1743152E-4,1.6113358E-4,-1.2041013E-3,2.7216268E-3,1.5363432E-4],"categories":[],"categories_nodes":[],"categories_segments":[],"categories_sizes":[],"default_left":[0,0,0,0,0,0,0,0,0,0,0,0,0],"id":43,"left_children":[1,3,5,7,9,11,-1,-1,-1,-1,-1,-1,-1],"loss_changes":[1.1031626E0,2.117095E0,1.0132902E0,1.8478329E0,1.7674457E0,2.3733692E0,0E0,0E0,0E0,0E0,0E0,0E0,0E0],"parents":[2147483647,0,0,1,1,2,2,3,3,4,4,5,5],"right_children":[2,4,6,8,10,12,-1,-1,-1,-1,-1,-1,-1],"split_conditions":[-1.659926E0,-6.90115E-1,-1.0638005E0,-7.3169196E-1,4.273694E0,-1.0130603E0,1.7031672E-6,-1.012185E-3,-2.1743152E-4,1.6113358E-4,-1.2041013E-3,2.7216268E-3,1.5363432E-4],"split_indices":[23,31,21,21,34,31,0,0,0,0,0,0,0],"split_type":[0,0,0,0,0,0,0,0,0,0,0,0,0],"sum_hessian":[1.44491E5,7.365E3,1.37126E5,4.436E3,2.929E3,4.097E3,1.33029E5,4.17E2,4.019E3,2.801E3,1.28E2,4.7E1,4.05E3],"tree_param":{"num_deleted":"0","num_feature":"41","num_nodes":"13","size_leaf_vector":"1"}},{"base_weights":[1.0537892E-5,-2.8196306E-4,2.4484137E-2,-1.1022291E-2,3.4778853E-4,1.9883161E-2,2.1206192E-3,-1.11168316E-4,-1.30601E-3,9.6119154E-4,2.3575672E-6,5.845689E-4,-3.2598048E-6],"categories":[],"categories_nodes":[],"categories_segments":[],"categories_sizes":[],"default_left":[0,0,0,0,0,0,0,0,0,0,0,0,0],"id":44,"left_children":[1,3,5,7,9,11,-1,-1,-1,-1,-1,-1,-1],"loss_changes":[1.0340374E0,9.653466E-1,1.2706418E0,1.016175E0,1.5925012E0,1.0567093E0,0E0,0E0,0E0,0E0,0E0,0E0,0E0],"parents":[2147483647,0,0,1,1,2,2,3,3,4,4,5,5],"right_children":[2,4,6,8,10,12,-1,-1,-1,-1,-1,-1,-1],"split_conditions":[1.7316446E0,-1.0199594E0,6.9478164E0,4.7991543E0,-1.124689E0,5.3445566E-1,2.1206192E-3,-1.11168316E-4,-1.30601E-3,9.6119154E-4,2.3575672E-6,5.845689E-4,-3.2598048E-6],"split_indices":[21,37,34,4,15,33,0,0,0,0,0,0,0],"split_type":[0,0,0,0,0,0,0,0,0,0,0,0,0],"sum_hessian":[1.44414E5,1.42708E5,1.706E3,7.905E3,1.34803E5,1.659E3,4.7E1,7.812E3,9.3E1,2.24E2,1.34579E5,6.47E2,1.012E3],"tree_param":{"num_deleted":"0","num_feature":"41","num_nodes":"13","size_leaf_vector":"1"}},{"base_weights":[-6.812003E-5,-4.3862853E-2,1.08026325E-4,-5.1261164E-2,4.2687343E-3,-3.204537E-4,1.7534039E-4,-1.880207E-3,-3.8213056E-4,-2.646969E-6,-1.5826864E-3],"categories":[],"categories_nodes":[],"categories_segments":[],"categories_sizes":[],"default_left":[0,0,0,0,0,0,0,0,0,0,0],"id":45,"left_children":[1,3,5,7,-1,9,-1,-1,-1,-1,-1],"loss_changes":[1.1149976E0,1.7941862E0,9.4497126E-1,1.1437207E0,0E0,1.7007747E0,0E0,0E0,0E0,0E0,0E0],"parents":[2147483647,0,0,1,1,2,2,3,3,5,5],"right_children":[2,4,6,8,-1,10,-1,-1,-1,-1,-1],"split_conditions":[-4.222981E0,1.0982813E0,8.105154E-1,-3.040959E0,4.2687343E-3,8.402602E-1,1.7534039E-4,-1.880207E-3,-3.8213056E-4,-2.646969E-6,-1.5826864E-3],"split_indices":[28,21,11,21,0,15,0,0,0,0,0],"split_type":[0,0,0,0,0,0,0,0,0,0,0],"sum_hessian":[1.4448E5,5.79E2,1.43901E5,5.69E2,1E1,1.39986E5,3.915E3,7.6E1,4.93E2,1.39898E5,8.8E1],"tree_param":{"num_deleted":"0","num_feature":"41","num_nodes":"11","size_leaf_vector":"1"}},{"base_weights":[-5.3307176E-5,-3.4729368E-4,2.4558283E-2,-4.2639975E-2,-1.7709748E-4,4.3969642E-2,-1.0181692E-2,-6.5610826E-4,1.1593602E-3,-1.3188754E-4,4.5074135E-6,1.941478E-3,4.0091123E-4,-2.2882796E-3,-1.500804E-5],"categories":[],"categories_nodes":[],"categories_segments":[],"categories_sizes":[],"default_left":[0,0,0,0,0,0,0,0,0,0,0,0,0,0,0],"id":46,"left_children":[1,3,5,7,9,11,13,-1,-1,-1,-1,-1,-1,-1,-1],"loss_changes":[1.0451176E0,1.0272521E0,1.150118E0,1.2494674E0,9.327232E-1,1.2037313E0,1.0331734E0,0E0,0E0,0E0,0E0,0E0,0E0,0E0,0E0],"parents":[2147483647,0,0,1,1,2,2,3,3,4,4,5,5,6,6],"right_children":[2,4,6,8,10,12,14,-1,-1,-1,-1,-1,-1,-1,-1],"split_conditions":[1.7316446E0,-4.222981E0,4.4681138E-1,-1.5446013E-2,-1.0349734E0,1.438962E-1,4.4737777E-1,-6.5610826E-4,1.1593602E-3,-1.3188754E-4,4.5074135E-6,1.941478E-3,4.0091123E-4,-2.2882796E-3,-1.500804E-5],"split_indices":[21,28,9,21,37,36,32,0,0,0,0,0,0,0,0],"split_type":[0,0,0,0,0,0,0,0,0,0,0,0,0,0,0],"sum_hessian":[1.44477E5,1.42772E5,1.705E3,5.72E2,1.422E5,1.094E3,6.11E2,5.18E2,5.4E1,6.798E3,1.35402E5,7E1,1.024E3,2.7E1,5.84E2],"tree_param":{"num_deleted":"0","num_feature":"41","num_nodes":"15","size_leaf_vector":"1"}},{"base_weights":[5.952148E-6,-1.2160302E-2,6.568365E-4,-1.0885783E-2,-2.2321425E-1,8.245694E-5,1.3371287E-2,-4.4450723E-3,-1.1892438E-4,-3.1245742E-3,3.3104694E-3,-2.279793E-6,3.827819E-4,1.2862729E-3,1.079985E-4],"categories":[],"categories_nodes":[],"categories_segments":[],"categories_sizes":[],"default_left":[0,0,0,0,0,0,0,0,0,0,0,0,0,0,0],"id":47,"left_children":[1,3,5,7,9,11,13,-1,-1,-1,-1,-1,-1,-1,-1],"loss_changes":[1.1445829E0,1.9720359E0,1.0019282E0,1.1598285E0,1.1732507E0,1.2493246E0,2.2877464E0,0E0,0E0,0E0,0E0,0E0,0E0,0E0,0E0],"parents":[2147483647,0,0,1,1,2,2,3,3,4,4,5,5,6,6],"right_children":[2,4,6,8,10,12,14,-1,-1,-1,-1,-1,-1,-1,-1],"split_conditions":[-1.0278395E0,6.429052E-1,1.6419239E0,-8.272364E-1,5.567095E-1,1.7316446E0,-1.0007812E0,-4.4450723E-3,-1.1892438E-4,-3.1245742E-3,3.3104694E-3,-2.279793E-6,3.827819E-4,1.2862729E-3,1.079985E-4],"split_indices":[37,22,28,22,21,21,21,0,0,0,0,0,0,0,0],"split_type":[0,0,0,0,0,0,0,0,0,0,0,0,0,0,0],"sum_hessian":[1.44554E5,7.34E3,1.37214E5,7.296E3,4.4E1,1.31284E5,5.93E3,8E0,7.288E3,4E1,4E0,1.30187E5,1.097E3,2.21E2,5.709E3],"tree_param":{"num_deleted":"0","num_feature":"41","num_nodes":"15","size_leaf_vector":"1"}},{"base_weights":[-4.0777686E-5,-9.417406E-3,7.0695597E-4,-6.1924974E-3,-8.9234635E-2,3.5662983E-2,4.2755395E-4,-1.9302878E-4,1.4330451E-4,-9.2225405E-4,-5.120598E-3,-5.9698534E-4,5.861541E-4,1.9714453E-4,-7.091532E-8],"categories":[],"categories_nodes":[],"categories_segments":[],"categories_sizes":[],"default_left":[0,0,0,0,0,0,0,0,0,0,0,0,0,0,0],"id":48,"left_children":[1,3,5,7,9,11,13,-1,-1,-1,-1,-1,-1,-1,-1],"loss_changes":[1.0123532E0,2.7439902E0,1.3055944E0,2.0808635E0,1.2015905E0,1.4887959E0,9.7399026E-1,0E0,0E0,0E0,0E0,0E0,0E0,0E0,0E0],"parents":[2147483647,0,0,1,1,2,2,3,3,4,4,5,5,6,6],"right_children":[2,4,6,8,10,12,14,-1,-1,-1,-1,-1,-1,-1,-1],"split_conditions":[-1.4535712E0,4.273694E0,-2.1967204E0,-6.675413E-1,-2.5747228E-1,-1.0086923E0,-1.0638005E0,-1.9302878E-4,1.4330451E-4,-9.2225405E-4,-5.120598E-3,-5.9698534E-4,5.861541E-4,1.9714453E-4,-7.091532E-8],"split_indices":[23,34,28,13,39,15,21,0,0,0,0,0,0,0,0],"split_type":[0,0,0,0,0,0,0,0,0,0,0,0,0,0,0],"sum_hessian":[1.44378E5,1.0664E4,1.33714E5,1.025E4,4.14E2,1.06E3,1.32654E5,6.512E3,3.738E3,4.05E2,9E0,1.62E2,8.98E2,3.316E3,1.29338E5],"tree_param":{"num_deleted":"0","num_feature":"41","num_nodes":"15","size_leaf_vector":"1"}},{"base_weights":[8.754312E-5,-4.3042563E-2,2.9041362E-6,-4.98186E-2,4.2067976E-3,-1.150338E-3,-1.4391556E-4],"categories":[],"categories_nodes":[],"categories_segments":[],"categories_sizes":[],"default_left":[0,0,0,0,0,0,0],"id":49,"left_children":[1,3,-1,5,-1,-1,-1],"loss_changes":[1.0457989E0,1.565241E0,0E0,1.0515108E0,0E0,0E0,0E0],"parents":[2147483647,0,0,1,1,3,3],"right_children":[2,4,-1,6,-1,-1,-1],"split_conditions":[-4.222981E0,1.1777489E0,2.9041362E-6,-1.4450856E0,4.2067976E-3,-1.150338E-3,-1.4391556E-4],"split_indices":[28,21,0,38,0,0,0],"split_type":[0,0,0,0,0,0,0],"sum_hessian":[1.44351E5,5.6E2,1.43791E5,5.51E2,9E0,2.31E2,3.2E2],"tree_param":{"num_deleted":"0","num_feature":"41","num_nodes":"7","size_leaf_vector":"1"}},{"base_weights":[7.0612135E-5,-1.1366499E-2,7.723021E-6,-1.1265405E-4,-2.1753544E-1,-3.0739617E-3,2.0231192E-3],"categories":[],"categories_nodes":[],"categories_segments":[],"categories_sizes":[],"default_left":[0,0,0,0,0,0,0],"id":50,"left_children":[1,3,-1,-1,5,-1,-1],"loss_changes":[1.0058942E0,2.1833239E0,0E0,0E0,1.0709517E0,0E0,0E0],"parents":[2147483647,0,0,1,1,4,4],"right_children":[2,4,-1,-1,6,-1,-1],"split_conditions":[-1.0278395E0,5.9120303E-1,7.723021E-6,-1.1265405E-4,-9.7668684E-1,-3.0739617E-3,2.0231192E-3],"split_indices":[37,22,0,0,1,0,0],"split_type":[0,0,0,0,0,0,0],"sum_hessian":[1.44414E5,7.301E3,1.37113E5,7.25E3,5.1E1,4.5E1,6E0],"tree_param":{"num_deleted":"0","num_feature":"41","num_nodes":"7","size_leaf_vector":"1"}},{"base_weights":[3.3444347E-5,-2.9250016E-6,2.4402088E-2,4.2935528E-2,-7.993128E-3,9.3823846E-4,1.7500258E-4,-1.5439885E-3,4.740181E-5],"categories":[],"categories_nodes":[],"categories_segments":[],"categories_sizes":[],"default_left":[0,0,0,0,0,0,0,0,0],"id":51,"left_children":[1,-1,3,5,7,-1,-1,-1,-1],"loss_changes":[1.025773E0,0E0,1.025234E0,1.184241E0,9.674782E-1,0E0,0E0,0E0,0E0],"parents":[2147483647,0,0,2,2,3,3,4,4],"right_children":[2,-1,4,6,8,-1,-1,-1,-1],"split_conditions":[1.7316446E0,-2.9250016E-6,4.4672206E-1,1.1128143E0,4.096648E-1,9.3823846E-4,1.7500258E-4,-1.5439885E-3,4.740181E-5],"split_indices":[21,0,18,23,15,0,0,0,0],"split_type":[0,0,0,0,0,0,0,0,0],"sum_hessian":[1.44684E5,1.42977E5,1.707E3,1.086E3,6.21E2,4.45E2,6.41E2,5.4E1,5.67E2],"tree_param":{"num_deleted":"0","num_feature":"41","num_nodes":"9","size_leaf_vector":"1"}},{"base_weights":[1.3808663E-4,-1.5449715E-4,2.441494E-2,4.2825E-4,-1.7165598E-2,1.7621334E-1,1.9493444E-2,-1.9432746E-6,1.8704287E-4,-8.033616E-5,-8.0102915E-4,5.983125E-4,3.625234E-3,6.3610583E-4,2.6688476E-5],"categories":[],"categories_nodes":[],"categories_segments":[],"categories_sizes":[],"default_left":[0,0,0,0,0,0,0,0,0,0,0,0,0,0,0],"id":52,"left_children":[1,3,5,7,9,11,13,-1,-1,-1,-1,-1,-1,-1,-1],"loss_changes":[1.0271256E0,1.416244E0,1.284475E0,1.3272104E0,2.5469387E0,9.493108E-1,1.042911E0,0E0,0E0,0E0,0E0,0E0,0E0,0E0,0E0],"parents":[2147483647,0,0,1,1,2,2,3,3,4,4,5,5,6,6],"right_children":[2,4,6,8,10,12,14,-1,-1,-1,-1,-1,-1,-1,-1],"split_conditions":[1.7316446E0,2.3767886E0,8.109007E-1,1.6419239E0,3.037391E0,-8.1006145E-1,3.9813676E-1,-1.9432746E-6,1.8704287E-4,-8.033616E-5,-8.0102915E-4,5.983125E-4,3.625234E-3,6.3610583E-4,2.6688476E-5],"split_indices":[21,36,37,28,34,31,25,0,0,0,0,0,0,0,0],"split_type":[0,0,0,0,0,0,0,0,0,0,0,0,0,0,0],"sum_hessian":[1.4457E5,1.42848E5,1.722E3,1.38116E5,4.732E3,5.4E1,1.668E3,1.33139E5,4.977E3,3.979E3,7.53E2,2.9E1,2.5E1,5.33E2,1.135E3],"tree_param":{"num_deleted":"0","num_feature":"41","num_nodes":"15","size_leaf_vector":"1"}},{"base_weights":[2.1571499E-4,-9.953442E-5,2.7058251E-2,-3.8098067E-6,3.5693612E-2,4.682135E-2,-1.0041063E-4,1.8553421E-4,1.7550254E-3,9.7223744E-4,2.14071E-4],"categories":[],"categories_nodes":[],"categories_segments":[],"categories_sizes":[],"default_left":[0,0,0,0,0,0,0,0,0,0,0],"id":53,"left_children":[1,3,5,-1,7,9,-1,-1,-1,-1,-1],"loss_changes":[1.2239734E0,1.2057836E0,1.1914763E0,0E0,2.148654E0,1.1730273E0,0E0,0E0,0E0,0E0,0E0],"parents":[2147483647,0,0,1,1,2,2,4,4,5,5],"right_children":[2,4,6,-1,8,10,-1,-1,-1,-1,-1],"split_conditions":[1.7316446E0,2.0632946E0,4.4681138E-1,-3.8098067E-6,1.5339501E0,1.1317573E0,-1.0041063E-4,1.8553421E-4,1.7550254E-3,9.7223744E-4,2.14071E-4],"split_indices":[21,22,9,0,4,23,0,0,0,0,0],"split_type":[0,0,0,0,0,0,0,0,0,0,0],"sum_hessian":[1.4461E5,1.42931E5,1.679E3,1.41996E5,9.35E2,1.083E3,5.96E2,8.04E2,1.31E2,4.54E2,6.29E2],"tree_param":{"num_deleted":"0","num_feature":"41","num_nodes":"11","size_leaf_vector":"1"}},{"base_weights":[-6.72233E-5,-2.8181298E-6,4.6772406E-2,6.6980596E-5,1.3621645E-1,-2.199792E-3,2.063007E-3],"categories":[],"categories_nodes":[],"categories_segments":[],"categories_sizes":[],"default_left":[0,0,0,0,0,0,0],"id":54,"left_children":[1,-1,3,-1,5,-1,-1],"loss_changes":[1.2223707E0,0E0,2.027831E0,0E0,2.6027226E0,0E0,0E0],"parents":[2147483647,0,0,2,2,4,4],"right_children":[2,-1,4,-1,6,-1,-1],"split_conditions":[2.7120688E0,-2.8181298E-6,8.73024E-1,6.6980596E-5,1.953251E-1,-2.199792E-3,2.063007E-3],"split_indices":[22,0,4,0,23,0,0],"split_type":[0,0,0,0,0,0,0],"sum_hessian":[1.444E5,1.43845E5,5.55E2,3.81E2,1.74E2,2.1E1,1.53E2],"tree_param":{"num_deleted":"0","num_feature":"41","num_nodes":"7","size_leaf_vector":"1"}},{"base_weights":[-1.15429604E-4,-4.3326374E-2,4.997853E-5,-6.286779E-2,1.9472527E-3,-1.97318E-6,3.086168E-2,-8.851053E-4,1.3272208E-3,1.8044354E-3,2.2265829E-4],"categories":[],"categories_nodes":[],"categories_segments":[],"categories_sizes":[],"default_left":[0,0,0,0,0,0,0,0,0,0,0],"id":55,"left_children":[1,3,5,7,-1,-1,9,-1,-1,-1,-1],"loss_changes":[1.0346537E0,2.315031E0,9.935548E-1,1.3660902E0,0E0,0E0,1.4958107E0,0E0,0E0,0E0,0E0],"parents":[2147483647,0,0,1,1,2,2,3,3,6,6],"right_children":[2,4,6,8,-1,-1,10,-1,-1,-1,-1],"split_conditions":[-4.222981E0,1.3487189E-1,2.1848135E0,2.0487969E-1,1.9472527E-3,-1.97318E-6,-4.5066565E-1,-8.851053E-4,1.3272208E-3,1.8044354E-3,2.2265829E-4],"split_indices":[28,21,35,0,0,0,15,0,0,0,0],"split_type":[0,0,0,0,0,0,0,0,0,0,0],"sum_hessian":[1.44698E5,5.52E2,1.44146E5,5.06E2,4.6E1,1.43107E5,1.039E3,4.67E2,3.9E1,8.4E1,9.55E2],"tree_param":{"num_deleted":"0","num_feature":"41","num_nodes":"11","size_leaf_vector":"1"}},{"base_weights":[9.588297E-5,-1.8217774E-4,2.3433678E-2,-4.0920082E-4,3.4493383E-2,4.3475043E-2,-1.3391116E-4,-2.7856884E-6,-5.8657455E-4,1.4952614E-4,1.4183649E-3,9.06169E-4,2.1816777E-4],"categories":[],"categories_nodes":[],"categories_segments":[],"categories_sizes":[],"default_left":[0,0,0,0,0,0,0,0,0,0,0,0,0],"id":56,"left_children":[1,3,5,7,9,11,-1,-1,-1,-1,-1,-1,-1],"loss_changes":[9.363956E-1,1.1219368E0,1.1995466E0,1.1893698E0,1.78512E0,9.526541E-1,0E0,0E0,0E0,0E0,0E0,0E0,0E0],"parents":[2147483647,0,0,1,1,2,2,3,3,4,4,5,5],"right_children":[2,4,6,8,10,12,-1,-1,-1,-1,-1,-1,-1],"split_conditions":[1.7316446E0,2.0632946E0,4.4672206E-1,6.9478164E0,1.1004546E0,1.1128143E0,-1.3391116E-4,-2.7856884E-6,-5.8657455E-4,1.4952614E-4,1.4183649E-3,9.06169E-4,2.1816777E-4],"split_indices":[21,22,18,34,4,23,0,0,0,0,0,0,0],"split_type":[0,0,0,0,0,0,0,0,0,0,0,0,0],"sum_hessian":[1.44262E5,1.42563E5,1.699E3,1.41636E5,9.27E2,1.083E3,6.16E2,1.41184E5,4.52E2,7.5E2,1.77E2,4.34E2,6.49E2],"tree_param":{"num_deleted":"0","num_feature":"41","num_nodes":"13","size_leaf_vector":"1"}},{"base_weights":[1.6911808E-4,-2.9188607E-4,1.645735E-2,-5.7088217E-4,2.6431033E-2,7.672135E-2,1.2569053E-2,-5.017851E-6,-1.0686024E-3,4.747711E-4,-2.3244217E-4,3.9716377E-3,6.798798E-4,3.458827E-4,-1.5693817E-5],"categories":[],"categories_nodes":[],"categories_segments":[],"categories_sizes":[],"default_left":[0,0,0,0,0,0,0,0,0,0,0,0,0,0,0],"id":57,"left_children":[1,3,5,7,9,11,13,-1,-1,-1,-1,-1,-1,-1,-1],"loss_changes":[1.0855346E0,1.0477364E0,9.3147457E-1,1.6800232E0,1.0454656E0,1.1059685E0,9.322207E-1,0E0,0E0,0E0,0E0,0E0,0E0,0E0,0E0],"parents":[2147483647,0,0,1,1,2,2,3,3,4,4,5,5,6,6],"right_children":[2,4,6,8,10,12,14,-1,-1,-1,-1,-1,-1,-1,-1],"split_conditions":[8.105154E-1,1.7316446E0,8.148514E-1,8.148514E-1,4.4681138E-1,-2.2231581E0,-2.8173578E-1,-5.017851E-6,-1.0686024E-3,4.747711E-4,-2.3244217E-4,3.9716377E-3,6.798798E-4,3.458827E-4,-1.5693817E-5],"split_indices":[11,21,16,16,9,23,21,0,0,0,0,0,0,0,0],"split_type":[0,0,0,0,0,0,0,0,0,0,0,0,0,0,0],"sum_hessian":[1.44544E5,1.40565E5,3.979E3,1.39113E5,1.452E3,2.41E2,3.738E3,1.38921E5,1.92E2,1.094E3,3.58E2,1.4E1,2.27E2,1.639E3,2.099E3],"tree_param":{"num_deleted":"0","num_feature":"41","num_nodes":"15","size_leaf_vector":"1"}},{"base_weights":[-2.9288993E-5,-6.62926E-3,9.474282E-4,-1.5576467E-2,3.961066E-3,8.760959E-6,4.9084645E-2,-7.7850616E-4,-1.4004385E-4,2.998224E-5,1.1852705E-3,9.180119E-4,-9.6392294E-4],"categories":[],"categories_nodes":[],"categories_segments":[],"categories_sizes":[],"default_left":[0,0,0,0,0,0,0,0,0,0,0,0,0],"id":58,"left_children":[1,3,5,7,9,-1,11,-1,-1,-1,-1,-1,-1],"loss_changes":[9.329018E-1,1.7678454E0,1.0698231E0,1.7399018E0,1.13262E0,0E0,1.9533689E0,0E0,0E0,0E0,0E0,0E0,0E0],"parents":[2147483647,0,0,1,1,2,2,3,3,4,4,6,6],"right_children":[2,4,6,8,10,-1,12,-1,-1,-1,-1,-1,-1],"split_conditions":[-1.1314607E0,-7.7285445E-1,2.7902145E0,-6.690735E-1,3.634631E0,8.760959E-6,7.299653E-1,-7.7850616E-4,-1.4004385E-4,2.998224E-5,1.1852705E-3,9.180119E-4,-9.6392294E-4],"split_indices":[23,40,35,21,36,0,12,0,0,0,0,0,0],"split_type":[0,0,0,0,0,0,0,0,0,0,0,0,0],"sum_hessian":[1.4471E5,1.8656E4,1.26054E5,1.0113E4,8.543E3,1.25594E5,4.6E2,5.85E2,9.528E3,8.432E3,1.11E2,3.72E2,8.8E1],"tree_param":{"num_deleted":"0","num_feature":"41","num_nodes":"13","size_leaf_vector":"1"}},{"base_weights":[-1.7275661E-4,-1.1206016E-2,4.656996E-4,-9.942986E-3,-1.8202996E-1,8.567122E-4,3.949553E-6,-4.018489E-3,-1.0698125E-4,-2.537599E-3,2.877765E-3],"categories":[],"categories_nodes":[],"categories_segments":[],"categories_sizes":[],"default_left":[0,0,0,0,0,0,0,0,0,0,0],"id":59,"left_children":[1,3,5,7,9,-1,-1,-1,-1,-1,-1],"loss_changes":[1.0188826E0,1.7051207E0,1.209144E0,1.4210188E0,1.0432485E0,0E0,0E0,0E0,0E0,0E0,0E0],"parents":[2147483647,0,0,1,1,2,2,3,3,4,4],"right_children":[2,4,6,8,10,-1,-1,-1,-1,-1,-1],"split_conditions":[-1.0199594E0,5.9120303E-1,-1.124689E0,-8.272364E-1,-9.766225E-1,8.567122E-4,3.949553E-6,-4.018489E-3,-1.0698125E-4,-2.537599E-3,2.877765E-3],"split_indices":[37,22,15,22,31,0,0,0,0,0,0],"split_type":[0,0,0,0,0,0,0,0,0,0,0],"sum_hessian":[1.44625E5,7.912E3,1.36713E5,7.854E3,5.8E1,2.15E2,1.36498E5,1.2E1,7.842E3,5.3E1,5E0],"tree_param":{"num_deleted":"0","num_feature":"41","num_nodes":"11","size_leaf_vector":"1"}},{"base_weights":[-1.1745656E-4,-1.1083026E-2,4.714504E-4,-7.4236635E-3,-8.865713E-2,3.4824234E-6,4.3013465E-2,-2.4388659E-4,1.6483621E-4,-8.067818E-4,-3.9705816E-3,8.2850835E-4,-8.8535465E-4],"categories":[],"categories_nodes":[],"categories_segments":[],"categories_sizes":[],"default_left":[0,0,0,0,0,0,0,0,0,0,0,0,0],"id":60,"left_children":[1,3,5,7,9,-1,11,-1,-1,-1,-1,-1,-1],"loss_changes":[9.3416744E-1,2.092021E0,9.629385E-1,2.1681004E0,1.5240395E0,0E0,1.9166021E0,0E0,0E0,0E0,0E0,0E0,0E0],"parents":[2147483647,0,0,1,1,2,2,3,3,4,4,6,6],"right_children":[2,4,6,8,10,-1,12,-1,-1,-1,-1,-1,-1],"split_conditions":[-1.659926E0,4.273694E0,2.7902145E0,1.2299984E0,1.8285971E0,3.4824234E-6,7.299653E-1,-2.4388659E-4,1.6483621E-4,-8.067818E-4,-3.9705816E-3,8.2850835E-4,-8.8535465E-4],"split_indices":[23,34,35,37,37,0,12,0,0,0,0,0,0],"split_type":[0,0,0,0,0,0,0,0,0,0,0,0,0],"sum_hessian":[1.44643E5,7.373E3,1.3727E5,7.041E3,3.32E2,1.3674E5,5.3E2,4.293E3,2.748E3,3.11E2,2.1E1,4.25E2,1.05E2],"tree_param":{"num_deleted":"0","num_feature":"41","num_nodes":"13","size_leaf_vector":"1"}},{"base_weights":[-3.120117E-4],"categories":[],"categories_nodes":[],"categories_segments":[],"categories_sizes":[],"default_left":[0],"id":61,"left_children":[-1],"loss_changes":[0E0],"parents":[2147483647],"right_children":[-1],"split_conditions":[-3.5452533E-6],"split_indices":[0],"split_type":[0],"sum_hessian":[1.44559E5],"tree_param":{"num_deleted":"0","num_feature":"41","num_nodes":"1","size_leaf_vector":"1"}},{"base_weights":[1.08127846E-4],"categories":[],"categories_nodes":[],"categories_segments":[],"categories_sizes":[],"default_left":[0],"id":62,"left_children":[-1],"loss_changes":[0E0],"parents":[2147483647],"right_children":[-1],"split_conditions":[1.2286098E-6],"split_indices":[0],"split_type":[0],"sum_hessian":[1.44586E5],"tree_param":{"num_deleted":"0","num_feature":"41","num_nodes":"1","size_leaf_vector":"1"}},{"base_weights":[-2.4817618E-5],"categories":[],"categories_nodes":[],"categories_segments":[],"categories_sizes":[],"default_left":[0],"id":63,"left_children":[-1],"loss_changes":[0E0],"parents":[2147483647],"right_children":[-1],"split_conditions":[-2.8199182E-7],"split_indices":[0],"split_type":[0],"sum_hessian":[1.44474E5],"tree_param":{"num_deleted":"0","num_feature":"41","num_nodes":"1","size_leaf_vector":"1"}},{"base_weights":[-1.5582296E-4,-6.444679E-3,9.0509054E-4,-6.1472216E-5,-8.967199E-2,1.7849762E-2,3.3260296E-6,-2.6429673E-3,-3.0647425E-4,1.4402797E-4,1.3563673E-3],"categories":[],"categories_nodes":[],"categories_segments":[],"categories_sizes":[],"default_left":[0,0,0,0,0,0,0,0,0,0,0],"id":64,"left_children":[1,3,5,-1,7,9,-1,-1,-1,-1,-1],"loss_changes":[9.641764E-1,1.7952611E0,1.2828041E0,0E0,2.2916372E0,2.2636938E0,0E0,0E0,0E0,0E0,0E0],"parents":[2147483647,0,0,1,1,2,2,4,4,5,5],"right_children":[2,4,6,-1,8,10,-1,-1,-1,-1,-1],"split_conditions":[-1.1310333E0,4.273694E0,-1.0638005E0,-6.1472216E-5,-1.9858668E0,1.6419239E0,3.3260296E-6,-2.6429673E-3,-3.0647425E-4,1.4402797E-4,1.3563673E-3],"split_indices":[33,34,21,0,21,28,0,0,0,0,0],"split_type":[0,0,0,0,0,0,0,0,0,0,0],"sum_hessian":[1.44504E5,2.086E4,1.23644E5,2.0604E4,2.56E2,4.312E3,1.19332E5,7.8E1,1.78E2,4.103E3,2.09E2],"tree_param":{"num_deleted":"0","num_feature":"41","num_nodes":"11","size_leaf_vector":"1"}},{"base_weights":[-7.982517E-5,-1.0663223E-2,5.2922056E-4,-9.480943E-3,-1.7531419E-1,8.0351887E-4,4.843503E-6,-3.8439995E-3,-1.0243724E-4,-2.8601578E-3,1.988781E-3],"categories":[],"categories_nodes":[],"categories_segments":[],"categories_sizes":[],"default_left":[0,0,0,0,0,0,0,0,0,0,0],"id":65,"left_children":[1,3,5,7,9,-1,-1,-1,-1,-1,-1],"loss_changes":[9.3163824E-1,1.5291636E0,9.867371E-1,1.1920911E0,1.5005441E0,0E0,0E0,0E0,0E0,0E0,0E0],"parents":[2147483647,0,0,1,1,2,2,3,3,4,4],"right_children":[2,4,6,8,10,-1,-1,-1,-1,-1,-1],"split_conditions":[-1.0199594E0,5.9120303E-1,-1.1253442E0,-8.272364E-1,-9.7668684E-1,8.0351887E-4,4.843503E-6,-3.8439995E-3,-1.0243724E-4,-2.8601578E-3,1.988781E-3],"split_indices":[37,22,16,22,1,0,0,0,0,0,0],"split_type":[0,0,0,0,0,0,0,0,0,0,0],"sum_hessian":[1.44519E5,7.865E3,1.36654E5,7.809E3,5.6E1,2E2,1.36454E5,1.1E1,7.798E3,4.6E1,1E1],"tree_param":{"num_deleted":"0","num_feature":"41","num_nodes":"11","size_leaf_vector":"1"}},{"base_weights":[-1.5349832E-4,-9.2539E-3,5.768775E-4,-1.9592416E-2,8.163722E-3,-5.8361195E-7,1.7216304E-2,-6.877609E-4,-1.637587E-4,-3.7475125E-4,1.9024732E-4,1.8681852E-3,1.7616118E-4],"categories":[],"categories_nodes":[],"categories_segments":[],"categories_sizes":[],"default_left":[0,0,0,0,0,0,0,0,0,0,0,0,0],"id":66,"left_children":[1,3,5,7,9,-1,11,-1,-1,-1,-1,-1,-1],"loss_changes":[9.6227175E-1,1.9369766E0,1.4010007E0,1.4306593E0,1.4139974E0,0E0,1.2274256E0,0E0,0E0,0E0,0E0,0E0,0E0],"parents":[2147483647,0,0,1,1,2,2,3,3,4,4,6,6],"right_children":[2,4,6,8,10,-1,12,-1,-1,-1,-1,-1,-1],"split_conditions":[-1.4535712E0,1.2299984E0,9.748456E-1,-6.138403E-1,-1.9858668E0,-5.8361195E-7,-8.538758E-1,-6.877609E-4,-1.637587E-4,-3.7475125E-4,1.9024732E-4,1.8681852E-3,1.7616118E-4],"split_indices":[23,37,35,21,21,0,32,0,0,0,0,0,0],"split_type":[0,0,0,0,0,0,0,0,0,0,0,0,0],"sum_hessian":[1.44761E5,1.0756E4,1.34005E5,6.75E3,4.006E3,1.29129E5,4.876E3,7.58E2,5.992E3,6.91E2,3.315E3,5.6E1,4.82E3],"tree_param":{"num_deleted":"0","num_feature":"41","num_nodes":"13","size_leaf_vector":"1"}},{"base_weights":[2.9025952E-4],"categories":[],"categories_nodes":[],"categories_segments":[],"categories_sizes":[],"default_left":[0],"id":67,"left_children":[-1],"loss_changes":[0E0],"parents":[2147483647],"right_children":[-1],"split_conditions":[3.298093E-6],"split_indices":[0],"split_type":[0],"sum_hessian":[1.44194E5],"tree_param":{"num_deleted":"0","num_feature":"41","num_nodes":"1","size_leaf_vector":"1"}},{"base_weights":[-2.685879E-5,-3.4981579E-6,2.320409E-2,4.3073192E-2,-1.3130316E-2,9.055366E-4,2.0174179E-4,-1.878233E-3,-2.1107571E-5],"categories":[],"categories_nodes":[],"categories_segments":[],"categories_sizes":[],"default_left":[0,0,0,0,0,0,0,0,0],"id":68,"left_children":[1,-1,3,5,7,-1,-1,-1,-1],"loss_changes":[9.427594E-1,0E0,1.2463689E0,1.0337665E0,1.0447128E0,0E0,0E0,0E0,0E0],"parents":[2147483647,0,0,2,2,3,3,4,4],"right_children":[2,-1,4,6,8,-1,-1,-1,-1],"split_conditions":[1.7316446E0,-3.4981579E-6,4.4681138E-1,1.1128143E0,4.096648E-1,9.055366E-4,2.0174179E-4,-1.878233E-3,-2.1107571E-5],"split_indices":[21,0,9,23,15,0,0,0,0],"split_type":[0,0,0,0,0,0,0,0,0],"sum_hessian":[1.44451E5,1.42725E5,1.726E3,1.116E3,6.1E2,4.56E2,6.6E2,4.2E1,5.68E2],"tree_param":{"num_deleted":"0","num_feature":"41","num_nodes":"9","size_leaf_vector":"1"}},{"base_weights":[1.5256612E-4,-4.424732E-2,3.745016E-6,-5.87636E-2,1.3935366E-1,-1.785545E-3,-4.022389E-4,4.1695006E-4,4.1741673E-3],"categories":[],"categories_nodes":[],"categories_segments":[],"categories_sizes":[],"default_left":[0,0,0,0,0,0,0,0,0],"id":69,"left_children":[1,3,-1,5,7,-1,-1,-1,-1],"loss_changes":[1.1360937E0,1.5291427E0,0E0,1.2208152E0,9.7916025E-1,0E0,0E0,0E0,0E0],"parents":[2147483647,0,0,1,1,3,3,4,4],"right_children":[2,4,-1,6,8,-1,-1,-1,-1],"split_conditions":[-4.222981E0,2.2595976E-1,3.745016E-6,-1.5844707E0,3.0959532E-1,-1.785545E-3,-4.022389E-4,4.1695006E-4,4.1741673E-3],"split_indices":[28,21,0,24,36,0,0,0,0],"split_type":[0,0,0,0,0,0,0,0,0],"sum_hessian":[1.44598E5,5.74E2,1.44024E5,5.32E2,4.2E1,1.02E2,4.3E2,2.9E1,1.3E1],"tree_param":{"num_deleted":"0","num_feature":"41","num_nodes":"9","size_leaf_vector":"1"}},{"base_weights":[-2.2817394E-4,-4.1901316E-2,-7.319148E-7,-1.9522021E-3,-2.3506675E-2,-8.775319E-4,5.8874104E-4],"categories":[],"categories_nodes":[],"categories_segments":[],"categories_sizes":[],"default_left":[0,0,0,0,0,0,0],"id":70,"left_children":[1,3,-1,-1,5,-1,-1],"loss_changes":[9.850802E-1,1.3481638E0,0E0,0E0,2.0033572E0,0E0,0E0],"parents":[2147483647,0,0,1,1,4,4],"right_children":[2,4,-1,-1,6,-1,-1],"split_conditions":[-4.222981E0,-3.040959E0,-7.319148E-7,-1.9522021E-3,-8.535394E-1,-8.775319E-4,5.8874104E-4],"split_indices":[28,21,0,0,9,0,0],"split_type":[0,0,0,0,0,0,0],"sum_hessian":[1.44409E5,5.65E2,1.43844E5,7E1,4.95E2,2.89E2,2.06E2],"tree_param":{"num_deleted":"0","num_feature":"41","num_nodes":"7","size_leaf_vector":"1"}},{"base_weights":[1.3825553E-4],"categories":[],"categories_nodes":[],"categories_segments":[],"categories_sizes":[],"default_left":[0],"id":71,"left_children":[-1],"loss_changes":[0E0],"parents":[2147483647],"right_children":[-1],"split_conditions":[1.5709376E-6],"split_indices":[0],"split_type":[0],"sum_hessian":[1.44474E5],"tree_param":{"num_deleted":"0","num_feature":"41","num_nodes":"1","size_leaf_vector":"1"}},{"base_weights":[-8.9853136E-5],"categories":[],"categories_nodes":[],"categories_segments":[],"categories_sizes":[],"default_left":[0],"id":72,"left_children":[-1],"loss_changes":[0E0],"parents":[2147483647],"right_children":[-1],"split_conditions":[-1.0209621E-6],"split_indices":[0],"split_type":[0],"sum_hessian":[1.44399E5],"tree_param":{"num_deleted":"0","num_feature":"41","num_nodes":"1","size_leaf_vector":"1"}},{"base_weights":[-1.02401355E-4],"categories":[],"categories_nodes":[],"categories_segments":[],"categories_sizes":[],"default_left":[0],"id":73,"left_children":[-1],"loss_changes":[0E0],"parents":[2147483647],"right_children":[-1],"split_conditions":[-1.1635422E-6],"split_indices":[0],"split_type":[0],"sum_hessian":[1.44338E5],"tree_param":{"num_deleted":"0","num_feature":"41","num_nodes":"1","size_leaf_vector":"1"}},{"base_weights":[-1.6687988E-4],"categories":[],"categories_nodes":[],"categories_segments":[],"categories_sizes":[],"default_left":[0],"id":74,"left_children":[-1],"loss_changes":[0E0],"parents":[2147483647],"right_children":[-1],"split_conditions":[-1.8961836E-6],"split_indices":[0],"split_type":[0],"sum_hessian":[1.44506E5],"tree_param":{"num_deleted":"0","num_feature":"41","num_nodes":"1","size_leaf_vector":"1"}},{"base_weights":[2.7874248E-5],"categories":[],"categories_nodes":[],"categories_segments":[],"categories_sizes":[],"default_left":[0],"id":75,"left_children":[-1],"loss_changes":[0E0],"parents":[2147483647],"right_children":[-1],"split_conditions":[3.1672297E-7],"split_indices":[0],"split_type":[0],"sum_hessian":[1.44633E5],"tree_param":{"num_deleted":"0","num_feature":"41","num_nodes":"1","size_leaf_vector":"1"}},{"base_weights":[-1.1300698E-4],"categories":[],"categories_nodes":[],"categories_segments":[],"categories_sizes":[],"default_left":[0],"id":76,"left_children":[-1],"loss_changes":[0E0],"parents":[2147483647],"right_children":[-1],"split_conditions":[-1.2840492E-6],"split_indices":[0],"split_type":[0],"sum_hessian":[1.4448E5],"tree_param":{"num_deleted":"0","num_feature":"41","num_nodes":"1","size_leaf_vector":"1"}},{"base_weights":[-9.514735E-5,-9.214053E-3,6.396936E-4,-6.333975E-3,-8.334003E-2,3.2031953E-2,4.3693394E-6,-1.9567557E-4,1.3265725E-4,-1.0501922E-3,3.0954548E-3,4.0617114E-4,-3.0822898E-3],"categories":[],"categories_nodes":[],"categories_segments":[],"categories_sizes":[],"default_left":[0,0,0,0,0,0,0,0,0,0,0,0,0],"id":77,"left_children":[1,3,5,7,9,11,-1,-1,-1,-1,-1,-1,-1],"loss_changes":[9.6854657E-1,2.3002923E0,1.0709765E0,2.0344284E0,1.3011544E0,1.2122374E0,0E0,0E0,0E0,0E0,0E0,0E0,0E0],"parents":[2147483647,0,0,1,1,2,2,3,3,4,4,5,5],"right_children":[2,4,6,8,10,12,-1,-1,-1,-1,-1,-1,-1],"split_conditions":[-1.4535712E0,4.273694E0,-2.1967204E0,1.2299984E0,-4.7174427E-1,6.429052E-1,4.3693394E-6,-1.9567557E-4,1.3265725E-4,-1.0501922E-3,3.0954548E-3,4.0617114E-4,-3.0822898E-3],"split_indices":[23,34,28,37,20,22,0,0,0,0,0,0,0],"split_type":[0,0,0,0,0,0,0,0,0,0,0,0,0],"sum_hessian":[1.44526E5,1.0779E4,1.33747E5,1.0376E4,4.03E2,1.078E3,1.32669E5,6.467E3,3.909E3,3.93E2,1E1,1.065E3,1.3E1],"tree_param":{"num_deleted":"0","num_feature":"41","num_nodes":"13","size_leaf_vector":"1"}},{"base_weights":[7.925659E-5],"categories":[],"categories_nodes":[],"categories_segments":[],"categories_sizes":[],"default_left":[0],"id":78,"left_children":[-1],"loss_changes":[0E0],"parents":[2147483647],"right_children":[-1],"split_conditions":[9.0055823E-7],"split_indices":[0],"split_type":[0],"sum_hessian":[1.44504E5],"tree_param":{"num_deleted":"0","num_feature":"41","num_nodes":"1","size_leaf_vector":"1"}},{"base_weights":[6.4764004E-5,-3.7159023E-4,1.5493769E-2,-2.5068066E-4,-1.8565453E-3,1.0401991E-4,5.7186175E-2,-1.4441105E-4,4.6171576E-6,3.3286883E-4,2.487727E-3],"categories":[],"categories_nodes":[],"categories_segments":[],"categories_sizes":[],"default_left":[0,0,0,0,0,0,0,0,0,0,0],"id":79,"left_children":[1,3,5,7,-1,-1,9,-1,-1,-1,-1],"loss_changes":[9.7229254E-1,2.766191E0,1.0491114E0,1.148735E0,0E0,0E0,2.3615127E0,0E0,0E0,0E0,0E0],"parents":[2147483647,0,0,1,1,2,2,3,3,6,6],"right_children":[2,4,6,8,-1,-1,10,-1,-1,-1,-1],"split_conditions":[8.113472E-1,8.402602E-1,1.2913146E0,-1.659926E0,-1.8565453E-3,1.0401991E-4,1.030136E0,-1.4441105E-4,4.6171576E-6,3.3286883E-4,2.487727E-3],"split_indices":[19,15,35,23,0,0,6,0,0,0,0],"split_type":[0,0,0,0,0,0,0,0,0,0,0],"sum_hessian":[1.44395E5,1.40423E5,3.972E3,1.40319E5,1.04E2,3.448E3,5.24E2,7.03E3,1.33289E5,4.47E2,7.7E1],"tree_param":{"num_deleted":"0","num_feature":"41","num_nodes":"11","size_leaf_vector":"1"}},{"base_weights":[-2.6353791E-5],"categories":[],"categories_nodes":[],"categories_segments":[],"categories_sizes":[],"default_left":[0],"id":80,"left_children":[-1],"loss_changes":[0E0],"parents":[2147483647],"right_children":[-1],"split_conditions":[-2.994467E-7],"split_indices":[0],"split_type":[0],"sum_hessian":[1.44481E5],"tree_param":{"num_deleted":"0","num_feature":"41","num_nodes":"1","size_leaf_vector":"1"}},{"base_weights":[3.444854E-4],"categories":[],"categories_nodes":[],"categories_segments":[],"categories_sizes":[],"default_left":[0],"id":81,"left_children":[-1],"loss_changes":[0E0],"parents":[2147483647],"right_children":[-1],"split_conditions":[3.914238E-6],"split_indices":[0],"split_type":[0],"sum_hessian":[1.44418E5],"tree_param":{"num_deleted":"0","num_feature":"41","num_nodes":"1","size_leaf_vector":"1"}},{"base_weights":[-1.1523538E-5,-1.1663591E-2,6.952086E-6,-1.1811479E-4,-1.8584351E-1,-2.8533777E-3,2.7430146E-3],"categories":[],"categories_nodes":[],"categories_segments":[],"categories_sizes":[],"default_left":[0,0,0,0,0,0,0],"id":82,"left_children":[1,3,-1,-1,5,-1,-1],"loss_changes":[1.0498663E0,1.6197817E0,0E0,0E0,1.4792601E0,0E0,0E0],"parents":[2147483647,0,0,1,1,4,4],"right_children":[2,4,-1,-1,6,-1,-1],"split_conditions":[-1.0278395E0,5.9120303E-1,6.952086E-6,-1.1811479E-4,-9.7668684E-1,-2.8533777E-3,2.7430146E-3],"split_indices":[37,22,0,0,1,0,0],"split_type":[0,0,0,0,0,0,0],"sum_hessian":[1.44525E5,7.34E3,1.37185E5,7.287E3,5.3E1,4.6E1,7E0],"tree_param":{"num_deleted":"0","num_feature":"41","num_nodes":"7","size_leaf_vector":"1"}},{"base_weights":[-3.478255E-5],"categories":[],"categories_nodes":[],"categories_segments":[],"categories_sizes":[],"default_left":[0],"id":83,"left_children":[-1],"loss_changes":[0E0],"parents":[2147483647],"right_children":[-1],"split_conditions":[-3.9521902E-7],"split_indices":[0],"split_type":[0],"sum_hessian":[1.44552E5],"tree_param":{"num_deleted":"0","num_feature":"41","num_nodes":"1","size_leaf_vector":"1"}},{"base_weights":[-3.290902E-5,-3.599605E-6,2.3584496E-2,4.4771805E-2,-1.4077195E-2,3.5911324E-4,1.4122714E-3,-2.2229152E-3,-5.446578E-5],"categories":[],"categories_nodes":[],"categories_segments":[],"categories_sizes":[],"default_left":[0,0,0,0,0,0,0,0,0],"id":84,"left_children":[1,-1,3,5,7,-1,-1,-1,-1],"loss_changes":[9.6923316E-1,0E0,1.3704033E0,1.1490891E0,1.0396651E0,0E0,0E0,0E0,0E0],"parents":[2147483647,0,0,2,2,3,3,4,4],"right_children":[2,-1,4,6,8,-1,-1,-1,-1],"split_conditions":[1.7316446E0,-3.599605E-6,4.4681138E-1,1.846138E0,4.4737777E-1,3.5911324E-4,1.4122714E-3,-2.2229152E-3,-5.446578E-5],"split_indices":[21,0,9,35,32,0,0,0,0],"split_type":[0,0,0,0,0,0,0,0,0],"sum_hessian":[1.44596E5,1.42879E5,1.717E3,1.099E3,6.18E2,9.43E2,1.56E2,3E1,5.88E2],"tree_param":{"num_deleted":"0","num_feature":"41","num_nodes":"9","size_leaf_vector":"1"}},{"base_weights":[-2.1634695E-4],"categories":[],"categories_nodes":[],"categories_segments":[],"categories_sizes":[],"default_left":[0],"id":85,"left_children":[-1],"loss_changes":[0E0],"parents":[2147483647],"right_children":[-1],"split_conditions":[-2.4582564E-6],"split_indices":[0],"split_type":[0],"sum_hessian":[1.44443E5],"tree_param":{"num_deleted":"0","num_feature":"41","num_nodes":"1","size_leaf_vector":"1"}},{"base_weights":[-8.554456E-5,-1.1288142E-2,5.099503E-4,-1.01560755E-2,-1.6583693E-1,5.5988964E-2,4.399163E-6,-3.7945814E-3,-1.0978366E-4,-2.7754717E-3,1.9350123E-3,-5.0410646E-4,1.0051577E-3],"categories":[],"categories_nodes":[],"categories_segments":[],"categories_sizes":[],"default_left":[0,0,0,0,0,0,0,0,0,0,0,0,0],"id":86,"left_children":[1,3,5,7,9,11,-1,-1,-1,-1,-1,-1,-1],"loss_changes":[9.6470076E-1,1.2752514E0,9.347E-1,1.1560483E0,1.3987044E0,9.879503E-1,0E0,0E0,0E0,0E0,0E0,0E0,0E0],"parents":[2147483647,0,0,1,1,2,2,3,3,4,4,5,5],"right_children":[2,4,6,8,10,12,-1,-1,-1,-1,-1,-1,-1],"split_conditions":[-1.0278395E0,5.9120303E-1,-1.124689E0,-8.272364E-1,-9.7668684E-1,-1.0302206E0,4.399163E-6,-3.7945814E-3,-1.0978366E-4,-2.7754717E-3,1.9350123E-3,-5.0410646E-4,1.0051577E-3],"split_indices":[37,22,15,22,1,25,0,0,0,0,0,0,0],"split_type":[0,0,0,0,0,0,0,0,0,0,0,0,0],"sum_hessian":[1.44593E5,7.299E3,1.37294E5,7.246E3,5.3E1,3.03E2,1.36991E5,1.1E1,7.235E3,4.3E1,1E1,7.4E1,2.29E2],"tree_param":{"num_deleted":"0","num_feature":"41","num_nodes":"13","size_leaf_vector":"1"}},{"base_weights":[-6.975967E-5],"categories":[],"categories_nodes":[],"categories_segments":[],"categories_sizes":[],"default_left":[0],"id":87,"left_children":[-1],"loss_changes":[0E0],"parents":[2147483647],"right_children":[-1],"split_conditions":[-7.9264885E-7],"split_indices":[0],"split_type":[0],"sum_hessian":[1.44515E5],"tree_param":{"num_deleted":"0","num_feature":"41","num_nodes":"1","size_leaf_vector":"1"}},{"base_weights":[7.55283E-5],"categories":[],"categories_nodes":[],"categories_segments":[],"categories_sizes":[],"default_left":[0],"id":88,"left_children":[-1],"loss_changes":[0E0],"parents":[2147483647],"right_children":[-1],"split_conditions":[8.5819534E-7],"split_indices":[0],"split_type":[0],"sum_hessian":[1.44557E5],"tree_param":{"num_deleted":"0","num_feature":"41","num_nodes":"1","size_leaf_vector":"1"}},{"base_weights":[-5.5631088E-5,-3.416779E-4,2.3941409E-2,1.3643992E-4,-1.42680295E-2,1.8553002E-2,2.3358848E-3,-5.359031E-6,1.8766682E-4,-1.3995169E-4,-1.9827113E-3,4.4214493E-4,-1.8084422E-4],"categories":[],"categories_nodes":[],"categories_segments":[],"categories_sizes":[],"default_left":[0,0,0,0,0,0,0,0,0,0,0,0,0],"id":89,"left_children":[1,3,5,7,9,11,-1,-1,-1,-1,-1,-1,-1],"loss_changes":[9.9238646E-1,9.516587E-1,1.6644986E0,1.3762636E0,1.481189E0,1.1609637E0,0E0,0E0,0E0,0E0,0E0,0E0,0E0],"parents":[2147483647,0,0,1,1,2,2,3,3,4,4,5,5],"right_children":[2,4,6,8,10,12,-1,-1,-1,-1,-1,-1,-1],"split_conditions":[1.7316446E0,2.3767886E0,6.9478164E0,1.6419239E0,1.846138E0,5.672893E-1,2.3358848E-3,-5.359031E-6,1.8766682E-4,-1.3995169E-4,-1.9827113E-3,4.4214493E-4,-1.8084422E-4],"split_indices":[21,36,34,28,35,22,0,0,0,0,0,0,0],"split_type":[0,0,0,0,0,0,0,0,0,0,0,0,0],"sum_hessian":[1.44607E5,1.42904E5,1.703E3,1.3816E5,4.744E3,1.654E3,4.9E1,1.33214E5,4.946E3,4.687E3,5.7E1,1.04E3,6.14E2],"tree_param":{"num_deleted":"0","num_feature":"41","num_nodes":"13","size_leaf_vector":"1"}},{"base_weights":[2.3045506E-5],"categories":[],"categories_nodes":[],"categories_segments":[],"categories_sizes":[],"default_left":[0],"id":90,"left_children":[-1],"loss_changes":[0E0],"parents":[2147483647],"right_children":[-1],"split_conditions":[2.618561E-7],"split_indices":[0],"split_type":[0],"sum_hessian":[1.44564E5],"tree_param":{"num_deleted":"0","num_feature":"41","num_nodes":"1","size_leaf_vector":"1"}},{"base_weights":[4.087178E-5,-5.094831E-4,1.2206861E-2,-4.3582577E-6,-6.1831757E-2,1.0419592E-1,8.913158E-3,-1.5292392E-3,7.242479E-5,4.1361433E-3,9.469673E-4,-2.8025717E-3,1.0998597E-4],"categories":[],"categories_nodes":[],"categories_segments":[],"categories_sizes":[],"default_left":[0,0,0,0,0,0,0,0,0,0,0,0,0],"id":91,"left_children":[1,3,5,-1,7,9,11,-1,-1,-1,-1,-1,-1],"loss_changes":[9.6722454E-1,1.0664182E0,1.8931203E0,0E0,1.4056625E0,1.1656401E0,1.1800729E0,0E0,0E0,0E0,0E0,0E0,0E0],"parents":[2147483647,0,0,1,1,2,2,4,4,5,5,6,6],"right_children":[2,4,6,-1,8,10,12,-1,-1,-1,-1,-1,-1],"split_conditions":[1.6419239E0,6.9478164E0,-1.0007812E0,-4.3582577E-6,-8.5211194E-1,-1.0169387E0,-5.06325E-1,-1.5292392E-3,7.242479E-5,4.1361433E-3,9.469673E-4,-2.8025717E-3,1.0998597E-4],"split_indices":[28,34,21,0,24,0,25,0,0,0,0,0,0],"split_type":[0,0,0,0,0,0,0,0,0,0,0,0,0],"sum_hessian":[1.44439E5,1.38187E5,6.252E3,1.37904E5,2.83E2,2.16E2,6.036E3,1.37E2,1.46E2,1.6E1,2E2,1.8E1,6.018E3],"tree_param":{"num_deleted":"0","num_feature":"41","num_nodes":"13","size_leaf_vector":"1"}},{"base_weights":[-6.169489E-5],"categories":[],"categories_nodes":[],"categories_segments":[],"categories_sizes":[],"default_left":[0],"id":92,"left_children":[-1],"loss_changes":[0E0],"parents":[2147483647],"right_children":[-1],"split_conditions":[-7.0101225E-7],"split_indices":[0],"split_type":[0],"sum_hessian":[1.44461E5],"tree_param":{"num_deleted":"0","num_feature":"41","num_nodes":"1","size_leaf_vector":"1"}},{"base_weights":[-1.2032E-5],"categories":[],"categories_nodes":[],"categories_segments":[],"categories_sizes":[],"default_left":[0],"id":93,"left_children":[-1],"loss_changes":[0E0],"parents":[2147483647],"right_children":[-1],"split_conditions":[-1.3671439E-7],"split_indices":[0],"split_type":[0],"sum_hessian":[1.44304E5],"tree_param":{"num_deleted":"0","num_feature":"41","num_nodes":"1","size_leaf_vector":"1"}},{"base_weights":[1.0197201E-4],"categories":[],"categories_nodes":[],"categories_segments":[],"categories_sizes":[],"default_left":[0],"id":94,"left_children":[-1],"loss_changes":[0E0],"parents":[2147483647],"right_children":[-1],"split_conditions":[1.1586636E-6],"split_indices":[0],"split_type":[0],"sum_hessian":[1.44355E5],"tree_param":{"num_deleted":"0","num_feature":"41","num_nodes":"1","size_leaf_vector":"1"}},{"base_weights":[6.915455E-5],"categories":[],"categories_nodes":[],"categories_segments":[],"categories_sizes":[],"default_left":[0],"id":95,"left_children":[-1],"loss_changes":[0E0],"parents":[2147483647],"right_children":[-1],"split_conditions":[7.857731E-7],"split_indices":[0],"split_type":[0],"sum_hessian":[1.44354E5],"tree_param":{"num_deleted":"0","num_feature":"41","num_nodes":"1","size_leaf_vector":"1"}},{"base_weights":[9.4143084E-5],"categories":[],"categories_nodes":[],"categories_segments":[],"categories_sizes":[],"default_left":[0],"id":96,"left_children":[-1],"loss_changes":[0E0],"parents":[2147483647],"right_children":[-1],"split_conditions":[1.069707E-6],"split_indices":[0],"split_type":[0],"sum_hessian":[1.44546E5],"tree_param":{"num_deleted":"0","num_feature":"41","num_nodes":"1","size_leaf_vector":"1"}},{"base_weights":[-1.5618825E-5],"categories":[],"categories_nodes":[],"categories_segments":[],"categories_sizes":[],"default_left":[0],"id":97,"left_children":[-1],"loss_changes":[0E0],"parents":[2147483647],"right_children":[-1],"split_conditions":[-1.7746993E-7],"split_indices":[0],"split_type":[0],"sum_hessian":[1.44631E5],"tree_param":{"num_deleted":"0","num_feature":"41","num_nodes":"1","size_leaf_vector":"1"}},{"base_weights":[5.9859685E-5],"categories":[],"categories_nodes":[],"categories_segments":[],"categories_sizes":[],"default_left":[0],"id":98,"left_children":[-1],"loss_changes":[0E0],"parents":[2147483647],"right_children":[-1],"split_conditions":[6.801596E-7],"split_indices":[0],"split_type":[0],"sum_hessian":[1.44158E5],"tree_param":{"num_deleted":"0","num_feature":"41","num_nodes":"1","size_leaf_vector":"1"}},{"base_weights":[1.1571493E-4],"categories":[],"categories_nodes":[],"categories_segments":[],"categories_sizes":[],"default_left":[0],"id":99,"left_children":[-1],"loss_changes":[0E0],"parents":[2147483647],"right_children":[-1],"split_conditions":[1.3148185E-6],"split_indices":[0],"split_type":[0],"sum_hessian":[1.44286E5],"tree_param":{"num_deleted":"0","num_feature":"41","num_nodes":"1","size_leaf_vector":"1"}},{"base_weights":[1.8047684E-4,-2.4292854E-4,1.7418816E-4,-1.2224459E-4,-1.833888E-3,-1.6019575E-6,4.949811E-3],"categories":[],"categories_nodes":[],"categories_segments":[],"categories_sizes":[],"default_left":[0,0,0,0,0,0,0],"id":100,"left_children":[1,3,-1,5,-1,-1,-1],"loss_changes":[9.259978E-1,2.7292607E0,0E0,1.1414487E0,0E0,0E0,0E0],"parents":[2147483647,0,0,1,1,3,3],"right_children":[2,4,-1,6,-1,-1,-1],"split_conditions":[8.113472E-1,8.402602E-1,1.7418816E-4,8.307739E-1,-1.833888E-3,-1.6019575E-6,4.949811E-3],"split_indices":[19,15,0,13,0,0,0],"split_type":[0,0,0,0,0,0,0],"sum_hessian":[1.44339E5,1.40414E5,3.925E3,1.40309E5,1.05E2,1.40303E5,6E0],"tree_param":{"num_deleted":"0","num_feature":"41","num_nodes":"7","size_leaf_vector":"1"}},{"base_weights":[-1.937349E-4],"categories":[],"categories_nodes":[],"categories_segments":[],"categories_sizes":[],"default_left":[0],"id":101,"left_children":[-1],"loss_changes":[0E0],"parents":[2147483647],"right_children":[-1],"split_conditions":[-2.2013255E-6],"split_indices":[0],"split_type":[0],"sum_hessian":[1.44452E5],"tree_param":{"num_deleted":"0","num_feature":"41","num_nodes":"1","size_leaf_vector":"1"}},{"base_weights":[-1.21322926E-4],"categories":[],"categories_nodes":[],"categories_segments":[],"categories_sizes":[],"default_left":[0],"id":102,"left_children":[-1],"loss_changes":[0E0],"parents":[2147483647],"right_children":[-1],"split_conditions":[-1.3785398E-6],"split_indices":[0],"split_type":[0],"sum_hessian":[1.44389E5],"tree_param":{"num_deleted":"0","num_feature":"41","num_nodes":"1","size_leaf_vector":"1"}},{"base_weights":[-4.9520215E-5],"categories":[],"categories_nodes":[],"categories_segments":[],"categories_sizes":[],"default_left":[0],"id":103,"left_children":[-1],"loss_changes":[0E0],"parents":[2147483647],"right_children":[-1],"split_conditions":[-5.626767E-7],"split_indices":[0],"split_type":[0],"sum_hessian":[1.44464E5],"tree_param":{"num_deleted":"0","num_feature":"41","num_nodes":"1","size_leaf_vector":"1"}},{"base_weights":[-1.0560738E-4,-1.1445362E-2,5.693585E-6,-9.858246E-3,-1.4187199E-1,-2.3195453E-4,8.80341E-5,-2.7920497E-3,5.5424427E-4],"categories":[],"categories_nodes":[],"categories_segments":[],"categories_sizes":[],"default_left":[0,0,0,0,0,0,0,0,0],"id":104,"left_children":[1,3,-1,5,7,-1,-1,-1,-1],"loss_changes":[9.925845E-1,1.5151737E0,0E0,1.345448E0,1.7446691E0,0E0,0E0,0E0,0E0],"parents":[2147483647,0,0,1,1,3,3,4,4],"right_children":[2,4,-1,6,8,-1,-1,-1,-1],"split_conditions":[-1.659926E0,6.9478164E0,5.693585E-6,-6.675413E-1,-1.3741634E0,-2.3195453E-4,8.80341E-5,-2.7920497E-3,5.5424427E-4],"split_indices":[23,34,0,13,38,0,0,0,0],"split_type":[0,0,0,0,0,0,0,0,0],"sum_hessian":[1.44261E5,7.327E3,1.36934E5,7.239E3,8.8E1,4.526E3,2.713E3,5.7E1,3.1E1],"tree_param":{"num_deleted":"0","num_feature":"41","num_nodes":"9","size_leaf_vector":"1"}},{"base_weights":[-3.3405762E-5],"categories":[],"categories_nodes":[],"categories_segments":[],"categories_sizes":[],"default_left":[0],"id":105,"left_children":[-1],"loss_changes":[0E0],"parents":[2147483647],"right_children":[-1],"split_conditions":[-3.7957517E-7],"split_indices":[0],"split_type":[0],"sum_hessian":[1.44744E5],"tree_param":{"num_deleted":"0","num_feature":"41","num_nodes":"1","size_leaf_vector":"1"}},{"base_weights":[-4.98332E-6,-6.7020436E-3,9.871834E-4,-1.5018469E-2,3.1818172E-3,4.5475426E-6,1.6698211E-2,-1.0732785E-3,-1.4572282E-4,1.5746248E-3,2.0081881E-5,9.412012E-4,1.217184E-4],"categories":[],"categories_nodes":[],"categories_segments":[],"categories_sizes":[],"default_left":[0,0,0,0,0,0,0,0,0,0,0,0,0],"id":106,"left_children":[1,3,5,7,9,-1,11,-1,-1,-1,-1,-1,-1],"loss_changes":[9.60222E-1,1.5328734E0,1.1604447E0,1.76366E0,1.6302886E0,0E0,1.7932078E0,0E0,0E0,0E0,0E0,0E0,0E0],"parents":[2147483647,0,0,1,1,2,2,3,3,4,4,6,6],"right_children":[2,4,6,8,10,-1,12,-1,-1,-1,-1,-1,-1],"split_conditions":[-1.1314607E0,-7.691261E-1,9.748456E-1,-9.8164284E-1,-7.753896E-1,4.5475426E-6,-4.5066565E-1,-1.0732785E-3,-1.4572282E-4,1.5746248E-3,2.0081881E-5,9.412012E-4,1.217184E-4],"split_indices":[23,31,35,20,15,0,15,0,0,0,0,0,0],"split_type":[0,0,0,0,0,0,0,0,0,0,0,0,0],"sum_hessian":[1.44503E5,1.8647E4,1.25856E5,1.0127E4,8.52E3,1.21324E5,4.532E3,2.72E2,9.855E3,8.8E1,8.432E3,3.76E2,4.156E3],"tree_param":{"num_deleted":"0","num_feature":"41","num_nodes":"13","size_leaf_vector":"1"}},{"base_weights":[3.1321793E-5],"categories":[],"categories_nodes":[],"categories_segments":[],"categories_sizes":[],"default_left":[0],"id":107,"left_children":[-1],"loss_changes":[0E0],"parents":[2147483647],"right_children":[-1],"split_conditions":[3.5589593E-7],"split_indices":[0],"split_type":[0],"sum_hessian":[1.44477E5],"tree_param":{"num_deleted":"0","num_feature":"41","num_nodes":"1","size_leaf_vector":"1"}}]},"name":"gbtree"},"learner_model_param":{"base_score":"[5.0945824E-1]","boost_from_average":"1","num_class":"0","num_feature":"41","num_target":"1"},"objective":{"name":"reg:squarederror","reg_loss_param":{"scale_pos_weight":"1"}}},"version":[3,2,0]}