{"learner":{"attributes":{"best_iteration":"1","best_score":"0.15508309676615958","scikit_learn":"{\"_estimator_type\": \"regressor\"}"},"feature_names":[],"feature_types":[],"gradient_booster":{"model":{"cats":{"enc":[],"feature_segments":[],"sorted_idx":[]},"gbtree_model_param":{"num_parallel_tree":"1","num_trees":"32"},"iteration_indptr":[0,1,2,3,4,5,6,7,8,9,10,11,12,13,14,15,16,17,18,19,20,21,22,23,24,25,26,27,28,29,30,31,32],"tree_info":[0,0,0,0,0,0,0,0,0,0,0,0,0,0,0,0,0,0,0,0,0,0,0,0,0,0,0,0,0,0,0,0],"trees":[{"base_weights":[-1.00775054E-4,-8.61286E-2,2.2116622E-4,-2.6588258E-1,-2.8793432E-2,-8.1492486E-5,7.598875E-2,-1.2335213E-3,-4.5491853E-3,3.249587E-4,-3.7087642E-3,1.8547432E-3,-2.199244E-6,4.871168E-3,6.40983E-4],"categories":[],"categories_nodes":[],"categories_segments":[],"categories_sizes":[],"default_left":[0,0,0,0,0,0,0,0,0,0,0,0,0,0,0],"id":0,"left_children":[1,3,5,7,9,11,13,-1,-1,-1,-1,-1,-1,-1,-1],"loss_changes":[1.9983445E0,2.7694561E0,1.6484728E0,1.3698764E0,3.4877002E0,1.3081074E0,1.9697986E0,0E0,0E0,0E0,0E0,0E0,0E0,0E0,0E0],"parents":[2147483647,0,0,1,1,2,2,3,3,4,4,5,5,6,6],"right_children":[2,4,6,8,10,12,14,-1,-1,-1,-1,-1,-1,-1,-1],"split_conditions":[-8.490952E-1,-7.150757E-1,3.1161504E0,-1.4636185E0,1.7553687E-1,-8.4826064E-1,-4.5829064E-1,-1.2335213E-3,-4.5491853E-3,3.249587E-4,-3.7087642E-3,1.8547432E-3,-2.199244E-6,4.871168E-3,6.40983E-4],"split_indices":[2,21,21,38,21,9,0,0,0,0,0,0,0,0,0],"split_type":[0,0,0,0,0,0,0,0,0,0,0,0,0,0,0],"sum_hessian":[7.2122E4,2.69E2,7.1853E4,6.5E1,2.04E2,7.1567E4,2.86E2,3E1,3.5E1,1.71E2,3.3E1,4.9E1,7.1518E4,1.5E1,2.71E2],"tree_param":{"num_deleted":"0","num_feature":"41","num_nodes":"15","size_leaf_vector":"1"}},{"base_weights":[-2.6653975E-6,-6.729278E-2,5.2026106E-4,-2.6479864E-1,-1.3029413E-2,1.2615986E-1,3.251778E-4,1.1814575E-3,-3.6545976E-3,-1.2397977E-3,5.8076286E-4,-1.1888591E-3,2.1971916E-3,9.637219E-8,8.8440336E-4],"categories":[],"categories_nodes":[],"categories_segments":[],"categories_sizes":[],"default_left":[0,0,0,0,0,0,0,0,0,0,0,0,0,0,0],"id":1,"left_children":[1,3,5,7,9,11,13,-1,-1,-1,-1,-1,-1,-1,-1],"loss_changes":[2.5417197E0,5.966856E0,1.7550602E0,2.5179796E0,2.6938999E0,1.7230827E0,1.7554622E0,0E0,0E0,0E0,0E0,0E0,0E0,0E0,0E0],"parents":[2147483647,0,0,1,1,2,2,3,3,4,4,5,5,6,6],"right_children":[2,4,6,8,10,12,14,-1,-1,-1,-1,-1,-1,-1,-1],"split_conditions":[-8.3322996E-1,9.037257E-1,-8.3080965E-1,-4.8083252E-1,-7.229226E-1,8.8944227E-1,3.1161504E0,1.1814575E-3,-3.6545976E-3,-1.2397977E-3,5.8076286E-4,-1.1888591E-3,2.1971916E-3,9.637219E-8,8.8440336E-4],"split_indices":[19,37,13,22,38,37,21,0,0,0,0,0,0,0,0],"split_type":[0,0,0,0,0,0,0,0,0,0,0,0,0,0,0],"sum_hessian":[7.2214E4,5.57E2,7.1657E4,1.2E2,4.37E2,1.11E2,7.1546E4,1.6E1,1.04E2,1.75E2,2.62E2,2.5E1,8.6E1,7.1255E4,2.91E2],"tree_param":{"num_deleted":"0","num_feature":"41","num_nodes":"15","size_leaf_vector":"1"}},{"base_weights":[-1.8770045E-4,-8.200108E-2,1.3413877E-4,-2.71629E-1,-3.1998582E-2,-4.0659175E-4,3.4539174E-2,-1.4264914E-4,-4.481408E-3,-9.5449557E-4,1.5885574E-3,-2.1280124E-7,-4.6366165E-4,-2.7475385E-3,4.945347E-4],"categories":[],"categories_nodes":[],"categories_segments":[],"categories_sizes":[],"default_left":[0,0,0,0,0,0,0,0,0,0,0,0,0,0,0],"id":2,"left_children":[1,3,5,7,9,11,13,-1,-1,-1,-1,-1,-1,-1,-1],"loss_changes":[1.9017687E0,2.6803389E0,1.3381822E0,1.8728518E0,2.0010478E0,1.1089753E0,2.7613854E0,0E0,0E0,0E0,0E0,0E0,0E0,0E0,0E0],"parents":[2147483647,0,0,1,1,2,2,3,3,4,4,5,5,6,6],"right_children":[2,4,6,8,10,12,14,-1,-1,-1,-1,-1,-1,-1,-1],"split_conditions":[-8.5408264E-1,8.998371E-1,2.168534E0,-1.3790788E-1,2.4692836E-1,3.5536273E0,-1.648328E0,-1.4264914E-4,-4.481408E-3,-9.5449557E-4,1.5885574E-3,-2.1280124E-7,-4.6366165E-4,-2.7475385E-3,4.945347E-4],"split_indices":[32,37,35,22,35,34,24,0,0,0,0,0,0,0,0],"split_type":[0,0,0,0,0,0,0,0,0,0,0,0,0,0,0],"sum_hessian":[7.2195E4,2.83E2,7.1912E4,5.9E1,2.24E2,7.0799E4,1.113E3,1.9E1,4E1,1.72E2,5.2E1,7.0126E4,6.73E2,3.5E1,1.078E3],"tree_param":{"num_deleted":"0","num_feature":"41","num_nodes":"15","size_leaf_vector":"1"}},{"base_weights":[-2.750482E-4,-8.3764456E-2,5.699475E-5,-2.771986E-1,-3.1266544E-2,-2.2499019E-4,6.970505E-2,-1.2904807E-3,-4.436835E-3,1.8120091E-4,-3.7150353E-3,-1.212136E-5,1.7613353E-4,4.8031053E-3,5.726403E-4],"categories":[],"categories_nodes":[],"categories_segments":[],"categories_sizes":[],"default_left":[0,0,0,0,0,0,0,0,0,0,0,0,0,0,0],"id":3,"left_children":[1,3,5,7,9,11,13,-1,-1,-1,-1,-1,-1,-1,-1],"loss_changes":[2.0015674E0,2.9012282E0,1.4124957E0,1.1253266E0,3.1444423E0,9.476419E-1,1.9717016E0,0E0,0E0,0E0,0E0,0E0,0E0,0E0,0E0],"parents":[2147483647,0,0,1,1,2,2,3,3,4,4,5,5,6,6],"right_children":[2,4,6,8,10,12,14,-1,-1,-1,-1,-1,-1,-1,-1],"split_conditions":[-8.490952E-1,-7.716477E-1,3.1161504E0,4.946513E-2,1.7553687E-1,8.217159E-1,-4.5829064E-1,-1.2904807E-3,-4.436835E-3,1.8120091E-4,-3.7150353E-3,-1.212136E-5,1.7613353E-4,4.8031053E-3,5.726403E-4],"split_indices":[2,21,21,35,21,12,0,0,0,0,0,0,0,0,0],"split_type":[0,0,0,0,0,0,0,0,0,0,0,0,0,0,0],"sum_hessian":[7.2171E4,2.86E2,7.1885E4,6.1E1,2.25E2,7.1595E4,2.9E2,2.5E1,3.6E1,1.94E2,3.1E1,6.7958E4,3.637E3,1.5E1,2.75E2],"tree_param":{"num_deleted":"0","num_feature":"41","num_nodes":"15","size_leaf_vector":"1"}},{"base_weights":[-1.5754982E-5,-5.5237368E-2,4.104077E-4,-2.2486535E-1,-3.6006325E-3,6.640132E-2,8.7180364E-5,9.205797E-4,-3.2707467E-3,-1.339456E-3,5.077846E-4,9.3891134E-4,-3.3420136E-3,-3.060055E-3,1.9376525E-6],"categories":[],"categories_nodes":[],"categories_segments":[],"categories_sizes":[],"default_left":[0,0,0,0,0,0,0,0,0,0,0,0,0,0,0],"id":4,"left_children":[1,3,5,7,9,11,13,-1,-1,-1,-1,-1,-1,-1,-1],"loss_changes":[1.6993775E0,4.8415494E0,1.5273142E0,2.487977E0,2.3407807E0,2.0404255E0,1.5979658E0,0E0,0E0,0E0,0E0,0E0,0E0,0E0,0E0],"parents":[2147483647,0,0,1,1,2,2,3,3,4,4,5,5,6,6],"right_children":[2,4,6,8,10,12,14,-1,-1,-1,-1,-1,-1,-1,-1],"split_conditions":[-8.40134E-1,8.998371E-1,-8.2435536E-1,-1.2972624E0,-4.9602106E-1,1.1544178E0,-8.3083606E-1,9.205797E-4,-3.2707467E-3,-1.339456E-3,5.077846E-4,9.3891134E-4,-3.3420136E-3,-3.060055E-3,1.9376525E-6],"split_indices":[32,37,13,25,21,38,15,0,0,0,0,0,0,0,0],"split_type":[0,0,0,0,0,0,0,0,0,0,0,0,0,0,0],"sum_hessian":[7.2188E4,5.53E2,7.1635E4,1.29E2,4.24E2,3.49E2,7.1286E4,2.2E1,1.07E2,1.26E2,2.98E2,3.34E2,1.5E1,2.2E1,7.1264E4],"tree_param":{"num_deleted":"0","num_feature":"41","num_nodes":"15","size_leaf_vector":"1"}},{"base_weights":[-3.817409E-4,-6.606453E-2,1.3533149E-4,-3.144337E-3,-3.569966E-2,2.2360082E-1,1.6537524E-5,-4.158345E-3,-2.548794E-4,-4.3725525E-3,3.13771E-3,-2.9020368E-6,7.9031603E-4],"categories":[],"categories_nodes":[],"categories_segments":[],"categories_sizes":[],"default_left":[0,0,0,0,0,0,0,0,0,0,0,0,0],"id":5,"left_children":[1,3,5,-1,7,9,11,-1,-1,-1,-1,-1,-1],"loss_changes":[2.4524317E0,3.6046066E0,1.8991714E0,0E0,2.156428E0,1.2152858E0,1.3544357E0,0E0,0E0,0E0,0E0,0E0,0E0],"parents":[2147483647,0,0,1,1,2,2,4,4,5,5,6,6],"right_children":[2,4,6,-1,8,10,12,-1,-1,-1,-1,-1,-1],"split_conditions":[-8.3322996E-1,-7.927294E-1,-8.3354586E-1,-3.144337E-3,5.1455605E-1,-8.983569E-1,3.1161504E0,-4.158345E-3,-2.548794E-4,-4.3725525E-3,3.13771E-3,-2.9020368E-6,7.9031603E-4],"split_indices":[19,21,9,0,34,36,21,0,0,0,0,0,0],"split_type":[0,0,0,0,0,0,0,0,0,0,0,0,0],"sum_hessian":[7.219E4,5.64E2,7.1626E4,7.1E1,4.93E2,3.8E1,7.1588E4,1.9E1,4.74E2,3E0,3.5E1,7.1309E4,2.79E2],"tree_param":{"num_deleted":"0","num_feature":"41","num_nodes":"13","size_leaf_vector":"1"}},{"base_weights":[2.7429423E-4,-6.4573795E-2,7.7736034E-4,-2.4566354E-1,-2.0288896E-2,4.643701E-4,7.7931315E-2,1.3139499E-3,-3.3005085E-3,-1.306172E-3,4.3161117E-4,1.1980064E-3,3.179198E-6,4.750635E-3,6.881285E-4],"categories":[],"categories_nodes":[],"categories_segments":[],"categories_sizes":[],"default_left":[0,0,0,0,0,0,0,0,0,0,0,0,0,0,0],"id":6,"left_children":[1,3,5,7,9,11,13,-1,-1,-1,-1,-1,-1,-1,-1],"loss_changes":[2.352092E0,4.4482183E0,1.727374E0,1.7669601E0,2.4612572E0,1.3798803E0,1.7026191E0,0E0,0E0,0E0,0E0,0E0,0E0,0E0,0E0],"parents":[2147483647,0,0,1,1,2,2,3,3,4,4,5,5,6,6],"right_children":[2,4,6,8,10,12,14,-1,-1,-1,-1,-1,-1,-1,-1],"split_conditions":[-8.3322996E-1,9.037257E-1,3.1161504E0,-4.8083252E-1,-7.229226E-1,-8.3080965E-1,-4.5829064E-1,1.3139499E-3,-3.3005085E-3,-1.306172E-3,4.3161117E-4,1.1980064E-3,3.179198E-6,4.750635E-3,6.881285E-4],"split_indices":[19,37,21,22,38,13,0,0,0,0,0,0,0,0,0],"split_type":[0,0,0,0,0,0,0,0,0,0,0,0,0,0,0],"sum_hessian":[7.2119E4,5.55E2,7.1564E4,1.09E2,4.46E2,7.1275E4,2.89E2,1.2E1,9.7E1,1.7E2,2.76E2,1.25E2,7.115E4,1.4E1,2.75E2],"tree_param":{"num_deleted":"0","num_feature":"41","num_nodes":"15","size_leaf_vector":"1"}},{"base_weights":[1.8072064E-5,-8.605434E-2,3.5734125E-4,-2.7911884E-1,-3.6451057E-2,8.923219E-5,6.669388E-2,3.7856583E-4,-3.825817E-3,6.876903E-5,-3.572055E-3,1.7745624E-3,-4.768107E-8,4.635606E-3,5.605202E-4],"categories":[],"categories_nodes":[],"categories_segments":[],"categories_sizes":[],"default_left":[0,0,0,0,0,0,0,0,0,0,0,0,0,0,0],"id":7,"left_children":[1,3,5,7,9,11,13,-1,-1,-1,-1,-1,-1,-1,-1],"loss_changes":[2.1123838E0,2.7165987E0,1.2813587E0,1.046876E0,2.6728637E0,1.0485187E0,1.7137339E0,0E0,0E0,0E0,0E0,0E0,0E0,0E0,0E0],"parents":[2147483647,0,0,1,1,2,2,3,3,4,4,5,5,6,6],"right_children":[2,4,6,8,10,12,14,-1,-1,-1,-1,-1,-1,-1,-1],"split_conditions":[-8.490952E-1,-7.716477E-1,3.1161504E0,7.667777E-1,1.7553687E-1,-8.4826064E-1,-4.5829064E-1,3.7856583E-4,-3.825817E-3,6.876903E-5,-3.572055E-3,1.7745624E-3,-4.768107E-8,4.635606E-3,5.605202E-4],"split_indices":[2,21,21,37,21,9,0,0,0,0,0,0,0,0,0],"split_type":[0,0,0,0,0,0,0,0,0,0,0,0,0,0,0],"sum_hessian":[7.2367E4,2.84E2,7.2083E4,5.8E1,2.26E2,7.1793E4,2.9E2,9E0,4.9E1,1.96E2,3E1,4.3E1,7.175E4,1.4E1,2.76E2],"tree_param":{"num_deleted":"0","num_feature":"41","num_nodes":"15","size_leaf_vector":"1"}},{"base_weights":[-6.7254005E-5,-8.505224E-2,2.6924818E-4,-2.9029143E-1,-4.75278E-2,6.6930934E-6,6.6958256E-2,-3.974724E-3,3.4280305E-3,-1.242877E-4,-3.066996E-3,1.9079674E-3,-1.0413949E-6,4.5837527E-3,5.605028E-4],"categories":[],"categories_nodes":[],"categories_segments":[],"categories_sizes":[],"default_left":[0,0,0,0,0,0,0,0,0,0,0,0,0,0,0],"id":8,"left_children":[1,3,5,7,9,11,13,-1,-1,-1,-1,-1,-1,-1,-1],"loss_changes":[2.0666277E0,2.1914732E0,1.259159E0,1.5523434E0,1.9583247E0,1.1851534E0,1.667965E0,0E0,0E0,0E0,0E0,0E0,0E0,0E0,0E0],"parents":[2147483647,0,0,1,1,2,2,3,3,4,4,5,5,6,6],"right_children":[2,4,6,8,10,12,14,-1,-1,-1,-1,-1,-1,-1,-1],"split_conditions":[-8.5408264E-1,-7.927294E-1,3.1161504E0,-8.475456E-1,-8.4731E-1,-8.4706986E-1,-4.5829064E-1,-3.974724E-3,3.4280305E-3,-1.242877E-4,-3.066996E-3,1.9079674E-3,-1.0413949E-6,4.5837527E-3,5.605028E-4],"split_indices":[32,21,21,40,30,18,0,0,0,0,0,0,0,0,0],"split_type":[0,0,0,0,0,0,0,0,0,0,0,0,0,0,0],"sum_hessian":[7.2236E4,2.85E2,7.1951E4,4.4E1,2.41E2,7.1669E4,2.82E2,4E1,4E0,2.07E2,3.4E1,4.2E1,7.1627E4,1.4E1,2.68E2],"tree_param":{"num_deleted":"0","num_feature":"41","num_nodes":"15","size_leaf_vector":"1"}},{"base_weights":[-2.994503E-4,-8.8045254E-2,5.3658718E-5,-3.1354274E-3,-4.2024598E-2,-7.250721E-4,2.161091E-2,2.1792695E-5,-3.5059834E-3,-8.3741616E-4,-5.0283256E-6,4.1455445E-3,2.2833816E-4],"categories":[],"categories_nodes":[],"categories_segments":[],"categories_sizes":[],"default_left":[0,0,0,0,0,0,0,0,0,0,0,0,0],"id":9,"left_children":[1,3,5,-1,7,9,11,-1,-1,-1,-1,-1,-1],"loss_changes":[2.2418797E0,2.5044742E0,1.2095325E0,0E0,2.732115E0,1.4327486E0,1.3025218E0,0E0,0E0,0E0,0E0,0E0,0E0],"parents":[2147483647,0,0,1,1,2,2,4,4,5,5,6,6],"right_children":[2,4,6,-1,8,10,12,-1,-1,-1,-1,-1,-1],"split_conditions":[-8.490952E-1,-7.716477E-1,1.4281076E0,-3.1354274E-3,1.7553687E-1,-4.1155357E0,-3.0558016E0,2.1792695E-5,-3.5059834E-3,-8.3741616E-4,-5.0283256E-6,4.1455445E-3,2.2833816E-4],"split_indices":[2,21,21,0,21,28,28,0,0,0,0,0,0],"split_type":[0,0,0,0,0,0,0,0,0,0,0,0,0],"sum_hessian":[7.2328E4,2.9E2,7.2038E4,5.7E1,2.33E2,6.9526E4,2.512E3,2E2,3.3E1,2.68E2,6.9258E4,1.1E1,2.501E3],"tree_param":{"num_deleted":"0","num_feature":"41","num_nodes":"13","size_leaf_vector":"1"}},{"base_weights":[-2.0869702E-4,-9.124673E-2,1.458947E-4,-6.1267205E-2,-4.097019E-3,-1.2586397E-4,6.819008E-2,-1.95675E-3,4.674162E-4,1.8724593E-3,-2.6633109E-6,4.5783664E-3,5.636838E-4],"categories":[],"categories_nodes":[],"categories_segments":[],"categories_sizes":[],"default_left":[0,0,0,0,0,0,0,0,0,0,0,0,0],"id":10,"left_children":[1,3,5,7,-1,9,11,-1,-1,-1,-1,-1,-1],"loss_changes":[2.3297524E0,2.2564056E0,1.3295246E0,2.8644857E0,0E0,1.2794529E0,1.7742236E0,0E0,0E0,0E0,0E0,0E0,0E0],"parents":[2147483647,0,0,1,1,2,2,3,3,5,5,6,6],"right_children":[2,4,6,8,-1,10,12,-1,-1,-1,-1,-1,-1],"split_conditions":[-8.490952E-1,1.1059868E0,3.1161504E0,-4.9602106E-1,-4.097019E-3,-8.4826064E-1,-4.5829064E-1,-1.95675E-3,4.674162E-4,1.8724593E-3,-2.6633109E-6,4.5783664E-3,5.636838E-4],"split_indices":[2,25,21,21,0,9,0,0,0,0,0,0,0],"split_type":[0,0,0,0,0,0,0,0,0,0,0,0,0],"sum_hessian":[7.2142E4,2.8E2,7.1862E4,2.52E2,2.8E1,7.1576E4,2.86E2,1.21E2,1.31E2,4.7E1,7.1529E4,1.5E1,2.71E2],"tree_param":{"num_deleted":"0","num_feature":"41","num_nodes":"13","size_leaf_vector":"1"}},{"base_weights":[1.6768202E-4,-8.1431195E-2,4.9168884E-4,-3.0832214E-3,-3.389674E-2,1.53396E-1,3.8498506E-4,5.9206413E-5,-3.996303E-3,1.0624056E-4,3.3743696E-3,-3.2975485E-3,5.4812294E-6],"categories":[],"categories_nodes":[],"categories_segments":[],"categories_sizes":[],"default_left":[0,0,0,0,0,0,0,0,0,0,0,0,0],"id":11,"left_children":[1,3,5,-1,7,9,11,-1,-1,-1,-1,-1,-1],"loss_changes":[1.9052546E0,2.569821E0,1.1700578E0,0E0,2.8373868E0,1.0312176E0,2.0283563E0,0E0,0E0,0E0,0E0,0E0,0E0],"parents":[2147483647,0,0,1,1,2,2,4,4,5,5,6,6],"right_children":[2,4,6,-1,8,10,12,-1,-1,-1,-1,-1,-1],"split_conditions":[-8.490952E-1,-7.716477E-1,-8.4826064E-1,-3.0832214E-3,1.1059868E0,9.3489075E-1,-8.4679E-1,5.9206413E-5,-3.996303E-3,1.0624056E-4,3.3743696E-3,-3.2975485E-3,5.4812294E-6],"split_indices":[2,21,9,0,25,37,19,0,0,0,0,0,0],"split_type":[0,0,0,0,0,0,0,0,0,0,0,0,0],"sum_hessian":[7.2094E4,2.85E2,7.1809E4,5.7E1,2.28E2,5E1,7.1759E4,2.03E2,2.5E1,2.5E1,2.5E1,2.4E1,7.1735E4],"tree_param":{"num_deleted":"0","num_feature":"41","num_nodes":"13","size_leaf_vector":"1"}},{"base_weights":[1.8721368E-4,-5.9196156E-2,6.52952E-4,-2.1460629E-1,-2.0489644E-2,2.1190475E-1,5.5547815E-4,-1.2002152E-3,-4.2788233E-3,-2.2019674E-3,7.573517E-5,-4.3230546E-3,3.0860289E-3,3.2578082E-6,7.5992505E-4],"categories":[],"categories_nodes":[],"categories_segments":[],"categories_sizes":[],"default_left":[0,0,0,0,0,0,0,0,0,0,0,0,0,0,0],"id":12,"left_children":[1,3,5,7,9,11,13,-1,-1,-1,-1,-1,-1,-1,-1],"loss_changes":[1.9974201E0,3.3783114E0,1.4738737E0,1.9717908E0,2.119642E0,1.1673363E0,1.276476E0,0E0,0E0,0E0,0E0,0E0,0E0,0E0,0E0],"parents":[2147483647,0,0,1,1,2,2,3,3,4,4,5,5,6,6],"right_children":[2,4,6,8,10,12,14,-1,-1,-1,-1,-1,-1,-1,-1],"split_conditions":[-8.3322996E-1,9.037257E-1,-8.3354586E-1,4.946513E-2,-6.82243E-1,-8.983569E-1,3.1161504E0,-1.2002152E-3,-4.2788233E-3,-2.2019674E-3,7.573517E-5,-4.3230546E-3,3.0860289E-3,3.2578082E-6,7.5992505E-4],"split_indices":[19,37,9,35,21,36,21,0,0,0,0,0,0,0,0],"split_type":[0,0,0,0,0,0,0,0,0,0,0,0,0,0,0],"sum_hessian":[7.2242E4,5.62E2,7.168E4,1.12E2,4.5E2,3.3E1,7.1647E4,6.7E1,4.5E1,6.1E1,3.89E2,3E0,3E1,7.1358E4,2.89E2],"tree_param":{"num_deleted":"0","num_feature":"41","num_nodes":"15","size_leaf_vector":"1"}},{"base_weights":[1.2125032E-4,-5.322838E-2,5.440795E-4,-2.1497378E-1,-1.2854844E-2,1.1939887E-1,3.4727604E-4,1.2723424E-3,-3.0566854E-3,-3.245488E-3,5.7946676E-5,-1.4985616E-3,2.1649138E-3,8.565112E-7,7.499024E-4],"categories":[],"categories_nodes":[],"categories_segments":[],"categories_sizes":[],"default_left":[0,0,0,0,0,0,0,0,0,0,0,0,0,0,0],"id":13,"left_children":[1,3,5,7,9,11,13,-1,-1,-1,-1,-1,-1,-1,-1],"loss_changes":[1.6237465E0,3.6938746E0,1.6698335E0,1.9986377E0,2.2214808E0,2.1102352E0,1.2724235E0,0E0,0E0,0E0,0E0,0E0,0E0,0E0,0E0],"parents":[2147483647,0,0,1,1,2,2,3,3,4,4,5,5,6,6],"right_children":[2,4,6,8,10,12,14,-1,-1,-1,-1,-1,-1,-1,-1],"split_conditions":[-8.3322996E-1,9.037257E-1,-8.3080965E-1,-4.8083252E-1,-8.125042E-1,8.8944227E-1,3.1161504E0,1.2723424E-3,-3.0566854E-3,-3.245488E-3,5.7946676E-5,-1.4985616E-3,2.1649138E-3,8.565112E-7,7.499024E-4],"split_indices":[19,37,13,22,21,37,21,0,0,0,0,0,0,0,0],"split_type":[0,0,0,0,0,0,0,0,0,0,0,0,0,0,0],"sum_hessian":[7.2005E4,5.66E2,7.1439E4,1.13E2,4.53E2,1.18E2,7.1321E4,1.6E1,9.7E1,2.8E1,4.25E2,2.6E1,9.2E1,7.1027E4,2.94E2],"tree_param":{"num_deleted":"0","num_feature":"41","num_nodes":"15","size_leaf_vector":"1"}},{"base_weights":[2.3536643E-4,-7.505335E-2,5.275938E-4,-1.9882412E-1,-2.7815377E-2,6.6167213E-6,4.8589073E-2,-5.4284832E-3,-1.5522043E-3,-4.1542033E-5,-3.4978725E-3,-5.595372E-4,4.4526323E-6,9.401467E-4,-3.3794515E-4],"categories":[],"categories_nodes":[],"categories_segments":[],"categories_sizes":[],"default_left":[0,0,0,0,0,0,0,0,0,0,0,0,0,0,0],"id":14,"left_children":[1,3,5,7,9,11,13,-1,-1,-1,-1,-1,-1,-1,-1],"loss_changes":[1.5876914E0,1.6289594E0,1.8002636E0,1.329576E0,1.3635272E0,1.3494447E0,2.0631156E0,0E0,0E0,0E0,0E0,0E0,0E0,0E0,0E0],"parents":[2147483647,0,0,1,1,2,2,3,3,4,4,5,5,6,6],"right_children":[2,4,6,8,10,12,14,-1,-1,-1,-1,-1,-1,-1,-1],"split_conditions":[-4.1155357E0,-3.040959E0,2.4620898E0,-1.6183616E0,-8.687627E-1,-8.3322996E-1,6.1466527E-1,-5.4284832E-3,-1.5522043E-3,-4.1542033E-5,-3.4978725E-3,-5.595372E-4,4.4526323E-6,9.401467E-4,-3.3794515E-4],"split_indices":[28,21,35,27,33,19,13,0,0,0,0,0,0,0,0],"split_type":[0,0,0,0,0,0,0,0,0,0,0,0,0,0,0],"sum_hessian":[7.2197E4,2.79E2,7.1918E4,7.7E1,2.02E2,7.1147E4,7.71E2,1.4E1,6.3E1,1.86E2,1.6E1,5.52E2,7.0595E4,5.37E2,2.34E2],"tree_param":{"num_deleted":"0","num_feature":"41","num_nodes":"15","size_leaf_vector":"1"}},{"base_weights":[-3.158884E-4,-7.139341E-2,-3.3637756E-5,-5.6462146E-2,-4.3616267E-3,-1.2229048E-2,1.3446966E-3,-7.6693733E-4,4.9100015E-3,-2.5655507E-4,4.7614747E-5,3.9717072E-4,7.752713E-6],"categories":[],"categories_nodes":[],"categories_segments":[],"categories_sizes":[],"default_left":[0,0,0,0,0,0,0,0,0,0,0,0,0],"id":15,"left_children":[1,3,5,7,-1,9,11,-1,-1,-1,-1,-1,-1],"loss_changes":[1.4506674E0,1.329737E0,1.2113913E0,1.4685848E0,0E0,1.2438155E0,1.4409814E0,0E0,0E0,0E0,0E0,0E0,0E0],"parents":[2147483647,0,0,1,1,2,2,3,3,5,5,6,6],"right_children":[2,4,6,8,-1,10,12,-1,-1,-1,-1,-1,-1],"split_conditions":[-4.1155357E0,-5.3264624E-1,-7.828966E-1,1.1450133E0,-4.3616267E-3,9.0996814E-1,-7.808225E-1,-7.6693733E-4,4.9100015E-3,-2.5655507E-4,4.7614747E-5,3.9717072E-4,7.752713E-6],"split_indices":[28,26,13,21,0,37,15,0,0,0,0,0,0],"split_type":[0,0,0,0,0,0,0,0,0,0,0,0,0],"sum_hessian":[7.2346E4,2.86E2,7.206E4,2.73E2,1.3E1,7.318E3,6.4742E4,2.67E2,6E0,4.489E3,2.829E3,1.251E3,6.3491E4],"tree_param":{"num_deleted":"0","num_feature":"41","num_nodes":"13","size_leaf_vector":"1"}},{"base_weights":[-2.4174128E-4,-5.9503973E-2,2.3145162E-4,-2.4023184E-1,-1.3502577E-2,1.984638E-1,1.2050056E-4,-1.5245014E-3,-4.262717E-3,-1.2126527E-3,4.9976195E-4,-4.274717E-3,2.7887153E-3,-3.6852057E-6,4.2764712E-4],"categories":[],"categories_nodes":[],"categories_segments":[],"categories_sizes":[],"default_left":[0,0,0,0,0,0,0,0,0,0,0,0,0,0,0],"id":16,"left_children":[1,3,5,7,9,11,13,-1,-1,-1,-1,-1,-1,-1,-1],"loss_changes":[2.0249515E0,4.7529745E0,1.5731632E0,1.654491E0,2.444389E0,1.0796523E0,1.1948658E0,0E0,0E0,0E0,0E0,0E0,0E0,0E0,0E0],"parents":[2147483647,0,0,1,1,2,2,3,3,4,4,5,5,6,6],"right_children":[2,4,6,8,10,12,14,-1,-1,-1,-1,-1,-1,-1,-1],"split_conditions":[-8.3322996E-1,9.037257E-1,-8.3354586E-1,4.946513E-2,-7.364366E-1,-8.983569E-1,2.4620898E0,-1.5245014E-3,-4.262717E-3,-1.2126527E-3,4.9976195E-4,-4.274717E-3,2.7887153E-3,-3.6852057E-6,4.2764712E-4],"split_indices":[19,37,9,35,38,36,35,0,0,0,0,0,0,0,0],"split_type":[0,0,0,0,0,0,0,0,0,0,0,0,0,0,0],"sum_hessian":[7.2189E4,5.72E2,7.1617E4,1.16E2,4.56E2,4E1,7.1577E4,6.5E1,5.1E1,1.74E2,2.82E2,3E0,3.7E1,7.0738E4,8.39E2],"tree_param":{"num_deleted":"0","num_feature":"41","num_nodes":"15","size_leaf_vector":"1"}},{"base_weights":[1.408077E-4,-1.3369387E-4,7.093225E-2,-1.2258265E-2,1.2406904E-3,4.5424746E-3,5.7803886E-4,-1.1241554E-4,-1.2759643E-3,4.005102E-4,6.2650124E-6],"categories":[],"categories_nodes":[],"categories_segments":[],"categories_sizes":[],"default_left":[0,0,0,0,0,0,0,0,0,0,0],"id":17,"left_children":[1,3,5,7,9,-1,-1,-1,-1,-1,-1],"loss_changes":[1.403667E0,1.1985391E0,1.8357881E0,1.731129E0,1.5138764E0,0E0,0E0,0E0,0E0,0E0,0E0],"parents":[2147483647,0,0,1,1,2,2,3,3,4,4],"right_children":[2,4,6,8,10,-1,-1,-1,-1,-1,-1],"split_conditions":[3.1161504E0,-7.828966E-1,-4.5829064E-1,3.5536273E0,-7.808225E-1,4.5424746E-3,5.7803886E-4,-1.1241554E-4,-1.2759643E-3,4.005102E-4,6.2650124E-6],"split_indices":[21,13,0,34,15,0,0,0,0,0,0],"split_type":[0,0,0,0,0,0,0,0,0,0,0],"sum_hessian":[7.2197E4,7.1918E4,2.79E2,7.323E3,6.4595E4,1.6E1,2.63E2,7.154E3,1.69E2,1.283E3,6.3312E4],"tree_param":{"num_deleted":"0","num_feature":"41","num_nodes":"11","size_leaf_vector":"1"}},{"base_weights":[2.1696837E-4,-5.816071E-2,6.881474E-4,-2.0903917E-1,-1.3141215E-2,2.6325767E-3,5.688027E-4,-1.1311966E-3,-4.1368124E-3,-1.2547252E-3,5.507847E-4,3.5051962E-6,7.3969166E-4],"categories":[],"categories_nodes":[],"categories_segments":[],"categories_sizes":[],"default_left":[0,0,0,0,0,0,0,0,0,0,0,0,0],"id":18,"left_children":[1,3,5,7,9,-1,11,-1,-1,-1,-1,-1,-1],"loss_changes":[1.989179E0,3.9306633E0,1.9759754E0,2.2526698E0,2.674161E0,0E0,1.2041506E0,0E0,0E0,0E0,0E0,0E0,0E0],"parents":[2147483647,0,0,1,1,2,2,3,3,4,4,6,6],"right_children":[2,4,6,8,10,-1,12,-1,-1,-1,-1,-1,-1],"split_conditions":[-8.3322996E-1,9.0996814E-1,-8.3354586E-1,4.946513E-2,-7.229226E-1,2.6325767E-3,3.1161504E0,-1.1311966E-3,-4.1368124E-3,-1.2547252E-3,5.507847E-4,3.5051962E-6,7.3969166E-4],"split_indices":[19,37,9,35,38,0,21,0,0,0,0,0,0],"split_type":[0,0,0,0,0,0,0,0,0,0,0,0,0],"sum_hessian":[7.2338E4,5.79E2,7.1759E4,1.33E2,4.46E2,3.7E1,7.1722E4,7.8E1,5.5E1,1.73E2,2.73E2,7.1434E4,2.88E2],"tree_param":{"num_deleted":"0","num_feature":"41","num_nodes":"13","size_leaf_vector":"1"}},{"base_weights":[-9.8821496E-5,-8.180659E-2,2.1163277E-4,-3.316175E-3,-2.8755482E-2,-5.722346E-5,6.9185615E-2,2.2640266E-4,-3.7956408E-3,1.815818E-3,-1.7190988E-6,4.482498E-3,5.6063646E-4],"categories":[],"categories_nodes":[],"categories_segments":[],"categories_sizes":[],"default_left":[0,0,0,0,0,0,0,0,0,0,0,0,0],"id":19,"left_children":[1,3,5,-1,7,9,11,-1,-1,-1,-1,-1,-1],"loss_changes":[1.8295915E0,3.0388846E0,1.3325468E0,0E0,3.2432754E0,1.0742992E0,1.7965767E0,0E0,0E0,0E0,0E0,0E0,0E0],"parents":[2147483647,0,0,1,1,2,2,4,4,5,5,6,6],"right_children":[2,4,6,-1,8,10,12,-1,-1,-1,-1,-1,-1],"split_conditions":[-8.490952E-1,-7.716477E-1,3.1161504E0,-3.316175E-3,1.7553687E-1,-8.4706986E-1,-4.5829064E-1,2.2640266E-4,-3.7956408E-3,1.815818E-3,-1.7190988E-6,4.482498E-3,5.6063646E-4],"split_indices":[2,21,21,0,21,18,0,0,0,0,0,0,0],"split_type":[0,0,0,0,0,0,0,0,0,0,0,0,0],"sum_hessian":[7.2094E4,2.73E2,7.1821E4,5.5E1,2.18E2,7.1542E4,2.79E2,1.88E2,3E1,4.2E1,7.15E4,1.6E1,2.63E2],"tree_param":{"num_deleted":"0","num_feature":"41","num_nodes":"13","size_leaf_vector":"1"}},{"base_weights":[3.02939E-4,-7.824486E-2,6.080987E-4,-2.3777369E-1,-2.373224E-2,1.6143774E-4,3.7816554E-2,-1.2370906E-3,-4.043733E-3,-1.1174623E-3,1.9740574E-3,-6.772418E-5,2.9359175E-5,-2.7638183E-3,5.626061E-4],"categories":[],"categories_nodes":[],"categories_segments":[],"categories_sizes":[],"default_left":[0,0,0,0,0,0,0,0,0,0,0,0,0,0,0],"id":20,"left_children":[1,3,5,7,9,11,13,-1,-1,-1,-1,-1,-1,-1,-1],"loss_changes":[1.7281289E0,2.423695E0,1.1937358E0,1.0759935E0,3.0642033E0,1.0528208E0,2.7992964E0,0E0,0E0,0E0,0E0,0E0,0E0,0E0,0E0],"parents":[2147483647,0,0,1,1,2,2,3,3,4,4,5,5,6,6],"right_children":[2,4,6,8,10,12,14,-1,-1,-1,-1,-1,-1,-1,-1],"split_conditions":[-8.490952E-1,-7.150757E-1,2.4620898E0,4.946513E-2,9.6931493E-1,-6.641318E-1,-1.648328E0,-1.2370906E-3,-4.043733E-3,-1.1174623E-3,1.9740574E-3,-6.772418E-5,2.9359175E-5,-2.7638183E-3,5.626061E-4],"split_indices":[2,21,35,35,37,36,24,0,0,0,0,0,0,0,0],"split_type":[0,0,0,0,0,0,0,0,0,0,0,0,0,0,0],"sum_hessian":[7.2129E4,2.79E2,7.185E4,7.1E1,2.08E2,7.0998E4,8.52E2,3.4E1,3.7E1,1.51E2,5.7E1,2.0128E4,5.087E4,3.4E1,8.18E2],"tree_param":{"num_deleted":"0","num_feature":"41","num_nodes":"15","size_leaf_vector":"1"}},{"base_weights":[-8.5439315E-5,-6.788027E-2,1.8311883E-4,-1.114703E-1,1.1017965E-1,-8.3703024E-5,6.751022E-2,-2.337435E-3,-5.9731863E-4,-3.1790829E-3,2.8762254E-3,-3.5318E-6,6.706576E-4,4.64269E-3,5.6552514E-4],"categories":[],"categories_nodes":[],"categories_segments":[],"categories_sizes":[],"default_left":[0,0,0,0,0,0,0,0,0,0,0,0,0,0,0],"id":21,"left_children":[1,3,5,7,9,11,13,-1,-1,-1,-1,-1,-1,-1,-1],"loss_changes":[1.31514E0,2.212306E0,1.2925088E0,1.268548E0,3.122959E0,9.609829E-1,1.7136261E0,0E0,0E0,0E0,0E0,0E0,0E0,0E0,0E0],"parents":[2147483647,0,0,1,1,2,2,3,3,4,4,5,5,6,6],"right_children":[2,4,6,8,10,12,14,-1,-1,-1,-1,-1,-1,-1,-1],"split_conditions":[-8.5408264E-1,9.6931493E-1,3.1161504E0,-2.324093E-1,-6.477259E-1,3.4180164E0,-4.5829064E-1,-2.337435E-3,-5.9731863E-4,-3.1790829E-3,2.8762254E-3,-3.5318E-6,6.706576E-4,4.64269E-3,5.6552514E-4],"split_indices":[32,37,21,36,21,22,0,0,0,0,0,0,0,0,0],"split_type":[0,0,0,0,0,0,0,0,0,0,0,0,0,0,0],"sum_hessian":[7.2196E4,2.85E2,7.1911E4,2.29E2,5.6E1,7.1627E4,2.84E2,8.8E1,1.41E2,1.5E1,4.1E1,7.1353E4,2.74E2,1.4E1,2.7E2],"tree_param":{"num_deleted":"0","num_feature":"41","num_nodes":"15","size_leaf_vector":"1"}},{"base_weights":[2.5687218E-4,-7.863388E-2,5.531477E-4,-3.0325158E-3,-3.4737013E-2,2.736136E-4,6.909684E-2,4.498179E-6,-3.4956406E-3,-7.435309E-4,6.0193374E-6,2.9305988E-3,4.2410556E-4],"categories":[],"categories_nodes":[],"categories_segments":[],"categories_sizes":[],"default_left":[0,0,0,0,0,0,0,0,0,0,0,0,0],"id":22,"left_children":[1,3,5,-1,7,9,11,-1,-1,-1,-1,-1,-1],"loss_changes":[1.6868021E0,2.2281697E0,1.3775254E0,0E0,2.1029694E0,1.2051039E0,1.7487711E0,0E0,0E0,0E0,0E0,0E0,0E0],"parents":[2147483647,0,0,1,1,2,2,4,4,5,5,6,6],"right_children":[2,4,6,-1,8,10,12,-1,-1,-1,-1,-1,-1],"split_conditions":[-8.490952E-1,-7.716477E-1,3.1161504E0,-3.0325158E-3,1.7553687E-1,-4.1155357E0,-2.6082242E-2,4.498179E-6,-3.4956406E-3,-7.435309E-4,6.0193374E-6,2.9305988E-3,4.2410556E-4],"split_indices":[2,21,21,0,21,28,15,0,0,0,0,0,0],"split_type":[0,0,0,0,0,0,0,0,0,0,0,0,0],"sum_hessian":[7.2201E4,2.7E2,7.1931E4,5.1E1,2.19E2,7.1639E4,2.92E2,1.94E2,2.5E1,2.78E2,7.1361E4,4.2E1,2.5E2],"tree_param":{"num_deleted":"0","num_feature":"41","num_nodes":"13","size_leaf_vector":"1"}},{"base_weights":[-5.237441E-4,-7.822549E-2,-2.1120312E-4,-4.6701904E-2,-3.9760526E-3,-7.433261E-6,3.719735E-2,-2.669175E-3,4.546722E-5,-5.570567E-3,4.949896E-4],"categories":[],"categories_nodes":[],"categories_segments":[],"categories_sizes":[],"default_left":[0,0,0,0,0,0,0,0,0,0,0],"id":23,"left_children":[1,3,5,7,-1,-1,9,-1,-1,-1,-1],"loss_changes":[1.751935E0,2.4712172E0,1.1908567E0,2.4740057E0,0E0,0E0,2.8196206E0,0E0,0E0,0E0,0E0],"parents":[2147483647,0,0,1,1,2,2,3,3,6,6],"right_children":[2,4,6,8,-1,-1,10,-1,-1,-1,-1],"split_conditions":[-8.490952E-1,1.1059868E0,2.4620898E0,-7.716477E-1,-3.9760526E-3,-7.433261E-6,-6.446051E-1,-2.669175E-3,4.546722E-5,-5.570567E-3,4.949896E-4],"split_indices":[2,25,35,21,0,0,3,0,0,0,0],"split_type":[0,0,0,0,0,0,0,0,0,0,0],"sum_hessian":[7.2173E4,2.89E2,7.1884E4,2.59E2,3E1,7.1043E4,8.41E2,5.5E1,2.04E2,1E1,8.31E2],"tree_param":{"num_deleted":"0","num_feature":"41","num_nodes":"11","size_leaf_vector":"1"}},{"base_weights":[-1.5790293E-4,-4.721511E-2,2.1782964E-4,-2.13266E-1,-3.2018104E-3,1.18821956E-1,1.5869573E-7,-1.2721356E-3,-4.0318817E-3,-1.1535397E-3,6.998083E-4,-5.4248846E-3,1.6386545E-3],"categories":[],"categories_nodes":[],"categories_segments":[],"categories_sizes":[],"default_left":[0,0,0,0,0,0,0,0,0,0,0,0,0],"id":24,"left_children":[1,3,5,7,9,11,-1,-1,-1,-1,-1,-1,-1],"loss_changes":[1.2789961E0,4.185649E0,1.7333647E0,1.7161312E0,2.8862326E0,1.8599436E0,0E0,0E0,0E0,0E0,0E0,0E0,0E0],"parents":[2147483647,0,0,1,1,2,2,3,3,4,4,5,5],"right_children":[2,4,6,8,10,12,-1,-1,-1,-1,-1,-1,-1],"split_conditions":[-8.3322996E-1,9.037257E-1,-8.3080965E-1,4.946513E-2,-7.229226E-1,-1.0281922E0,1.5869573E-7,-1.2721356E-3,-4.0318817E-3,-1.1535397E-3,6.998083E-4,-5.4248846E-3,1.6386545E-3],"split_indices":[19,37,13,35,38,22,0,0,0,0,0,0,0],"split_type":[0,0,0,0,0,0,0,0,0,0,0,0,0],"sum_hessian":[7.2311E4,5.73E2,7.1738E4,1.2E2,4.53E2,1.23E2,7.1615E4,7E1,5E1,1.8E2,2.73E2,5E0,1.18E2],"tree_param":{"num_deleted":"0","num_feature":"41","num_nodes":"13","size_leaf_vector":"1"}},{"base_weights":[1.2284331E-4,-7.945744E-2,4.2933656E-4,-5.2781403E-2,-4.408862E-3,2.0837203E-6,6.357938E-2,-2.153768E-3,2.0445028E-4,4.3009394E-3,5.1849405E-4],"categories":[],"categories_nodes":[],"categories_segments":[],"categories_sizes":[],"default_left":[0,0,0,0,0,0,0,0,0,0,0],"id":25,"left_children":[1,3,5,7,-1,-1,9,-1,-1,-1,-1],"loss_changes":[1.7610807E0,2.2754736E0,1.1170045E0,2.4701931E0,0E0,0E0,1.5726434E0,0E0,0E0,0E0,0E0],"parents":[2147483647,0,0,1,1,2,2,3,3,6,6],"right_children":[2,4,6,8,-1,-1,10,-1,-1,-1,-1],"split_conditions":[-8.490952E-1,1.2026962E0,3.1161504E0,-6.82243E-1,-4.408862E-3,2.0837203E-6,-4.5829064E-1,-2.153768E-3,2.0445028E-4,4.3009394E-3,5.1849405E-4],"split_indices":[2,25,21,21,0,0,0,0,0,0,0],"split_type":[0,0,0,0,0,0,0,0,0,0,0],"sum_hessian":[7.2235E4,2.77E2,7.1958E4,2.55E2,2.2E1,7.1679E4,2.79E2,8.7E1,1.68E2,1.5E1,2.64E2],"tree_param":{"num_deleted":"0","num_feature":"41","num_nodes":"11","size_leaf_vector":"1"}},{"base_weights":[-1.4661415E-4,-5.57166E-2,2.8048904E-4,-2.2201268E-1,-1.3641643E-2,2.9957276E-3,1.4770609E-4,1.5547245E-3,-3.2106468E-3,-1.2105064E-3,5.2454165E-4,-6.6452567E-6,2.9955988E-4],"categories":[],"categories_nodes":[],"categories_segments":[],"categories_sizes":[],"default_left":[0,0,0,0,0,0,0,0,0,0,0,0,0],"id":26,"left_children":[1,3,5,7,9,-1,11,-1,-1,-1,-1,-1,-1],"loss_changes":[1.7115005E0,3.8459816E0,2.4991038E0,2.4139657E0,2.439598E0,0E0,1.3734114E0,0E0,0E0,0E0,0E0,0E0,0E0],"parents":[2147483647,0,0,1,1,2,2,3,3,4,4,6,6],"right_children":[2,4,6,8,10,-1,12,-1,-1,-1,-1,-1,-1],"split_conditions":[-8.3322996E-1,9.037257E-1,-8.3354586E-1,-2.965597E-1,-7.229226E-1,2.9957276E-3,1.6059438E0,1.5547245E-3,-3.2106468E-3,-1.2105064E-3,5.2454165E-4,-6.6452567E-6,2.9955988E-4],"split_indices":[19,37,9,22,38,0,21,0,0,0,0,0,0],"split_type":[0,0,0,0,0,0,0,0,0,0,0,0,0],"sum_hessian":[7.2088E4,5.5E2,7.1538E4,1.11E2,4.39E2,3.6E1,7.1502E4,1.6E1,9.5E1,1.72E2,2.67E2,6.9558E4,1.944E3],"tree_param":{"num_deleted":"0","num_feature":"41","num_nodes":"13","size_leaf_vector":"1"}},{"base_weights":[1.2626991E-4,-7.833786E-2,4.3521068E-4,-4.869617E-2,-3.8347875E-3,-5.500761E-3,2.8972658E-3,-1.7217435E-3,5.2579277E-4,-2.1675245E-3,-5.6789075E-5,7.597515E-4,2.8530352E-5],"categories":[],"categories_nodes":[],"categories_segments":[],"categories_sizes":[],"default_left":[0,0,0,0,0,0,0,0,0,0,0,0,0],"id":27,"left_children":[1,3,5,7,-1,9,11,-1,-1,-1,-1,-1,-1],"loss_changes":[1.7492591E0,2.1699853E0,1.0509312E0,2.4817922E0,0E0,1.9618931E0,1.2555287E0,0E0,0E0,0E0,0E0,0E0,0E0],"parents":[2147483647,0,0,1,1,2,2,3,3,5,5,6,6],"right_children":[2,4,6,8,-1,10,12,-1,-1,-1,-1,-1,-1],"split_conditions":[-8.490952E-1,1.1059868E0,-6.4068186E-1,-5.208502E-1,-3.8347875E-3,-8.321026E-1,-8.321026E-1,-1.7217435E-3,5.2579277E-4,-2.1675245E-3,-5.6789075E-5,7.597515E-4,2.8530352E-5],"split_indices":[2,25,36,21,0,16,16,0,0,0,0,0,0],"split_type":[0,0,0,0,0,0,0,0,0,0,0,0,0],"sum_hessian":[7.2194E4,2.83E2,7.1911E4,2.54E2,2.9E1,2.1081E4,5.083E4,1.22E2,1.32E2,5.7E1,2.1024E4,3.05E2,5.0525E4],"tree_param":{"num_deleted":"0","num_feature":"41","num_nodes":"13","size_leaf_vector":"1"}},{"base_weights":[-5.263458E-4,-1.5389371E-2,7.942733E-4,-2.8223706E-2,2.3560072E-3,-5.3609996E-3,3.4001623E-3,-2.443429E-3,-2.3312205E-4,-2.5658403E-3,6.959365E-5,-3.8858587E-5,-4.2283125E-4,3.4643002E-5,6.91575E-4],"categories":[],"categories_nodes":[],"categories_segments":[],"categories_sizes":[],"default_left":[0,0,0,0,0,0,0,0,0,0,0,0,0,0,0],"id":28,"left_children":[1,3,5,7,9,11,13,-1,-1,-1,-1,-1,-1,-1,-1],"loss_changes":[1.4129198E0,1.3380665E0,1.0602541E0,4.905938E0,2.117565E0,1.2151299E0,9.368664E-1,0E0,0E0,0E0,0E0,0E0,0E0,0E0,0E0],"parents":[2147483647,0,0,1,1,2,2,3,3,4,4,5,5,6,6],"right_children":[2,4,6,8,10,12,14,-1,-1,-1,-1,-1,-1,-1,-1],"split_conditions":[-7.875743E-1,9.0996814E-1,-6.4068186E-1,-8.326492E-1,-9.0218484E-1,2.8896797E-1,3.1161504E0,-2.443429E-3,-2.3312205E-4,-2.5658403E-3,6.959365E-5,-3.8858587E-5,-4.2283125E-4,3.4643002E-5,6.91575E-4],"split_indices":[32,37,36,30,22,4,21,0,0,0,0,0,0,0,0],"split_type":[0,0,0,0,0,0,0,0,0,0,0,0,0,0,0],"sum_hessian":[7.1976E4,5.874E3,6.6102E4,3.409E3,2.465E3,1.966E4,4.6442E4,1.35E2,3.274E3,4E1,2.425E3,1.8531E4,1.129E3,4.616E4,2.82E2],"tree_param":{"num_deleted":"0","num_feature":"41","num_nodes":"15","size_leaf_vector":"1"}},{"base_weights":[-4.0918463E-4,-4.9201313E-2,-2.378079E-5,-1.931873E-1,-6.670644E-3,6.1594184E-2,-3.1411307E-4,1.4367056E-3,-2.984279E-3,-4.7802147E-3,4.5536664E-5,-8.0006226E-4,1.2244091E-3,-2.065756E-3,-2.323603E-6],"categories":[],"categories_nodes":[],"categories_segments":[],"categories_sizes":[],"default_left":[0,0,0,0,0,0,0,0,0,0,0,0,0,0,0],"id":29,"left_children":[1,3,5,7,9,11,13,-1,-1,-1,-1,-1,-1,-1,-1],"loss_changes":[1.3581265E0,3.4641364E0,1.2817733E0,2.8657298E0,1.9362564E0,2.0480907E0,1.4175761E0,0E0,0E0,0E0,0E0,0E0,0E0,0E0,0E0],"parents":[2147483647,0,0,1,1,2,2,3,3,4,4,5,5,6,6],"right_children":[2,4,6,8,10,12,14,-1,-1,-1,-1,-1,-1,-1,-1],"split_conditions":[-8.40134E-1,9.037257E-1,-8.185986E-1,-2.965597E-1,5.298169E-1,-2.6992124E-1,-8.213544E-1,1.4367056E-3,-2.984279E-3,-4.7802147E-3,4.5536664E-5,-8.0006226E-4,1.2244091E-3,-2.065756E-3,-2.323603E-6],"split_indices":[32,37,31,22,34,22,30,0,0,0,0,0,0,0,0],"split_type":[0,0,0,0,0,0,0,0,0,0,0,0,0,0,0],"sum_hessian":[7.2249E4,5.66E2,7.1683E4,1.29E2,4.37E2,3.36E2,7.1347E4,2.3E1,1.06E2,1.1E1,4.26E2,8.7E1,2.49E2,4.3E1,7.1304E4],"tree_param":{"num_deleted":"0","num_feature":"41","num_nodes":"15","size_leaf_vector":"1"}},{"base_weights":[2.2437323E-4,-4.7702406E-2,6.099905E-4,-1.9907705E-1,-2.229329E-3,6.717132E-2,3.1015248E-4,1.188672E-3,-2.873833E-3,-1.1051209E-3,6.276268E-4,9.559417E-4,-3.4517127E-3,-1.6928166E-4,1.6601021E-5],"categories":[],"categories_nodes":[],"categories_segments":[],"categories_sizes":[],"default_left":[0,0,0,0,0,0,0,0,0,0,0,0,0,0,0],"id":30,"left_children":[1,3,5,7,9,11,13,-1,-1,-1,-1,-1,-1,-1,-1],"loss_changes":[1.333738E0,3.9629369E0,1.4286096E0,2.1767735E0,2.4197624E0,2.0176136E0,1.2477353E0,0E0,0E0,0E0,0E0,0E0,0E0,0E0,0E0],"parents":[2147483647,0,0,1,1,2,2,3,3,4,4,5,5,6,6],"right_children":[2,4,6,8,10,12,14,-1,-1,-1,-1,-1,-1,-1,-1],"split_conditions":[-8.3322996E-1,9.0996814E-1,-8.2435536E-1,-3.7342432E-1,-7.4818486E-1,1.4245622E0,-7.875743E-1,1.188672E-3,-2.873833E-3,-1.1051209E-3,6.276268E-4,9.559417E-4,-3.4517127E-3,-1.6928166E-4,1.6601021E-5],"split_indices":[19,37,13,22,38,38,32,0,0,0,0,0,0,0,0],"split_type":[0,0,0,0,0,0,0,0,0,0,0,0,0,0,0],"sum_hessian":[7.2192E4,5.76E2,7.1616E4,1.33E2,4.43E2,3.21E2,7.1295E4,2E1,1.13E2,1.67E2,2.76E2,3.07E2,1.4E1,5.015E3,6.628E4],"tree_param":{"num_deleted":"0","num_feature":"41","num_nodes":"15","size_leaf_vector":"1"}},{"base_weights":[-2.6647938E-5,-6.0911115E-2,4.4656475E-4,-2.035769E-1,-2.4575232E-2,1.8507192E-1,3.4326036E-4,1.6570468E-3,-2.922121E-3,-6.77453E-4,9.7383093E-4,-4.2888834E-3,2.6253676E-3,-3.2063178E-6,2.545059E-4],"categories":[],"categories_nodes":[],"categories_segments":[],"categories_sizes":[],"default_left":[0,0,0,0,0,0,0,0,0,0,0,0,0,0,0],"id":31,"left_children":[1,3,5,7,9,11,13,-1,-1,-1,-1,-1,-1,-1,-1],"loss_changes":[2.0808394E0,2.8851438E0,1.3646011E0,2.117824E0,1.7158629E0,1.0344666E0,9.879676E-1,0E0,0E0,0E0,0E0,0E0,0E0,0E0,0E0],"parents":[2147483647,0,0,1,1,2,2,3,3,4,4,5,5,6,6],"right_children":[2,4,6,8,10,12,14,-1,-1,-1,-1,-1,-1,-1,-1],"split_conditions":[-8.3322996E-1,9.037257E-1,-8.3354586E-1,-2.965597E-1,9.6931493E-1,-8.983569E-1,1.6059438E0,1.6570468E-3,-2.922121E-3,-6.77453E-4,9.7383093E-4,-4.2888834E-3,2.6253676E-3,-3.2063178E-6,2.545059E-4],"split_indices":[19,37,9,22,37,36,21,0,0,0,0,0,0,0,0],"split_type":[0,0,0,0,0,0,0,0,0,0,0,0,0,0,0],"sum_hessian":[7.2202E4,5.57E2,7.1645E4,1.13E2,4.44E2,4E1,7.1605E4,1.5E1,9.8E1,3.37E2,1.07E2,3E0,3.7E1,6.963E4,1.975E3],"tree_param":{"num_deleted":"0","num_feature":"41","num_nodes":"15","size_leaf_vector":"1"}}]},"name":"gbtree"},"learner_model_param":{"base_score":"[5.102939E-1]","boost_from_average":"1","num_class":"0","num_feature":"41","num_target":"1"},"objective":{"name":"reg:squarederror","reg_loss_param":{"scale_pos_weight":"1"}}},"version":[3,2,0]}